{"learner":{"attributes":{"best_iteration":"10","best_score":"0.4817439380154592"},"feature_names":[],"feature_types":[],"gradient_booster":{"model":{"gbtree_model_param":{"num_parallel_tree":"1","num_trees":"21"},"iteration_indptr":[0,1,2,3,4,5,6,7,8,9,10,11,12,13,14,15,16,17,18,19,20,21],"tree_info":[0,0,0,0,0,0,0,0,0,0,0,0,0,0,0,0,0,0,0,0,0],"trees":[{"base_weights":[-0E0,-7.473841E-2,1.3557929E0,1.2663044E-1,-4.7751054E-1,-3.899371E-1,1.7776644E0,-1.0215528E0,2.9937872E-1,-1.3216702E0,-1.3052228E-1,1.4093959E0,-1.1927711E0,-9.648648E-1,1.917504E0,-1.0252307E-1,-9.482519E-1,2.2140689E-1,-2.5355464E-1,6.561081E-1,-7.3332685E-1,-6.4175E-1,2.5502833E-2,9.2048776E-1,-2.04E-1,-7.275768E-1,2.6093024E-1,9.8929036E-1,2.622857E-1],"categories":[],"categories_nodes":[],"categories_segments":[],"categories_sizes":[],"default_left":[0,0,0,0,0,0,0,0,0,0,0,0,0,0,0,0,0,0,0,0,0,0,0,0,0,0,0,0,0],"id":0,"left_children":[1,3,5,7,9,11,13,15,17,19,21,23,25,-1,27,-1,-1,-1,-1,-1,-1,-1,-1,-1,-1,-1,-1,-1,-1],"loss_changes":[1.1801884E3,8.9534644E2,4.4883752E2,1.4601377E3,1.0776025E3,1.7394554E2,2.5519885E2,6.6142914E2,6.869807E2,3.2673438E2,5.312078E2,2.7377441E1,3.3811523E1,0E0,1.3783081E1,0E0,0E0,0E0,0E0,0E0,0E0,0E0,0E0,0E0,0E0,0E0,0E0,0E0,0E0],"parents":[2147483647,0,0,1,1,2,2,3,3,4,4,5,5,6,6,7,7,8,8,9,9,10,10,11,11,12,12,14,14],"right_children":[2,4,6,8,10,12,14,16,18,20,22,24,26,-1,28,-1,-1,-1,-1,-1,-1,-1,-1,-1,-1,-1,-1,-1,-1],"split_conditions":[2.1615E0,1E0,1E0,3E0,1E1,-3.785E-1,3E0,8E0,1.2063E0,9E0,3E0,1.5038E0,9E0,-9.648648E-1,9.208E-1,-1.0252307E-1,-9.482519E-1,2.2140689E-1,-2.5355464E-1,6.561081E-1,-7.3332685E-1,-6.4175E-1,2.5502833E-2,9.2048776E-1,-2.04E-1,-7.275768E-1,2.6093024E-1,9.8929036E-1,2.622857E-1],"split_indices":[0,13,21,30,29,2,37,37,7,30,28,26,31,0,5,0,0,0,0,0,0,0,0,0,0,0,0,0,0],"split_type":[0,0,0,0,0,0,0,0,0,0,0,0,0,0,0,0,0,0,0,0,0,0,0,0,0,0,0,0,0],"sum_hessian":[1.1645E4,1.10375E4,6.075E2,7.359E3,3.6785E3,1.1825E2,4.8925E2,9.6175E2,6.39725E3,1.07075E3,2.60775E3,3.625E1,8.2E1,1.75E1,4.7175E2,4.865E2,4.7525E2,5.472E3,9.2525E2,4.525E1,1.0255E3,3.59E2,2.24875E3,2.975E1,6.5E0,7.225E1,9.75E0,4.64E2,7.75E0],"tree_param":{"num_deleted":"0","num_feature":"41","num_nodes":"29","size_leaf_vector":"1"}},{"base_weights":[-3.0956268E-3,-4.0657137E-2,1.3540126E0,3.0050801E-2,-7.327922E-1,8.935898E-1,1.6916133E0,1.5196893E-1,-3.6481112E-1,-1.0962944E0,1.0176511E0,-7.598486E-1,1.1242572E0,1.7304188E0,-7.1228415E-1,1.6662845E-1,-1.3729595E-1,-8.132318E-1,-3.089253E-2,-1.5123944E-1,-8.750939E-1,5.6149966E-1,-9.0464276E-1,8.3273715E-1,3.3814767E-1,1.2782586E-1,9.1056865E-1],"categories":[],"categories_nodes":[],"categories_segments":[],"categories_sizes":[],"default_left":[0,0,0,0,0,0,0,0,0,0,0,0,0,0,0,0,0,0,0,0,0,0,0,0,0,0,0],"id":1,"left_children":[1,3,5,7,9,11,13,15,17,19,21,-1,23,25,-1,-1,-1,-1,-1,-1,-1,-1,-1,-1,-1,-1,-1],"loss_changes":[5.704418E2,5.3293066E2,4.5335815E1,4.7572476E2,6.433578E2,7.293956E1,2.3121399E1,5.558157E2,8.721565E2,4.138675E2,4.2445786E1,0E0,2.677208E1,1.3477966E1,0E0,0E0,0E0,0E0,0E0,0E0,0E0,0E0,0E0,0E0,0E0,0E0,0E0],"parents":[2147483647,0,0,1,1,2,2,3,3,4,4,5,5,6,6,7,7,8,8,9,9,10,10,12,12,13,13],"right_children":[2,4,6,8,10,12,14,16,18,20,22,-1,24,26,-1,-1,-1,-1,-1,-1,-1,-1,-1,-1,-1,-1,-1],"split_conditions":[1E0,4.676E-1,1.1E1,5.69E-1,3E0,3E0,2E0,1E0,1E0,2E0,1E0,-7.598486E-1,-2.683E-1,-7.958E-1,-7.1228415E-1,1.6662845E-1,-1.3729595E-1,-8.132318E-1,-3.089253E-2,-1.5123944E-1,-8.750939E-1,5.6149966E-1,-9.0464276E-1,8.3273715E-1,3.3814767E-1,1.2782586E-1,9.1056865E-1],"split_indices":[22,8,29,7,37,16,13,37,36,21,38,0,2,2,0,0,0,0,0,0,0,0,0,0,0,0,0],"split_type":[0,0,0,0,0,0,0,0,0,0,0,0,0,0,0,0,0,0,0,0,0,0,0,0,0,0,0],"sum_hessian":[1.1188531E4,1.0888144E4,3.0038773E2,9.879789E3,1.0083544E3,1.2862062E2,1.7176709E2,7.549431E3,2.330358E3,8.352728E2,1.7308154E2,1.0867501E1,1.1775312E2,1.7006975E2,1.697339E0,5.335757E3,2.213674E3,4.613381E2,1.8690197E3,3.6526657E2,4.7000626E2,1.6865263E2,4.428902E0,5.4794502E1,6.295862E1,6.2947936E0,1.6377496E2],"tree_param":{"num_deleted":"0","num_feature":"41","num_nodes":"27","size_leaf_vector":"1"}},{"base_weights":[-5.301525E-3,-4.919582E-2,9.3044144E-1,1.3352535E-2,-7.446365E-1,-2.0617874E-1,1.1940053E0,5.357567E-2,-7.023686E-1,-3.1048054E-1,-1.3018092E0,7.65206E-1,-5.600687E-1,3.2063004E-1,1.3500606E0,-3.6194462E-1,4.5402966E-2,-5.2073956E-1,2.50738E-1,-3.9047188E-1,3.175314E-1,-8.245343E-1,4.0847516E-1,6.379032E-1,-6.967298E-1,-6.822999E-1,1.0876942E-2,8.1075394E-1,-3.6569634E-1,6.997251E-1,3.3426866E-1],"categories":[],"categories_nodes":[],"categories_segments":[],"categories_sizes":[],"default_left":[0,0,0,0,0,0,0,0,0,0,0,0,0,0,0,0,0,0,0,0,0,0,0,0,0,0,0,0,0,0,0],"id":2,"left_children":[1,3,5,7,9,11,13,15,17,19,21,23,25,27,29,-1,-1,-1,-1,-1,-1,-1,-1,-1,-1,-1,-1,-1,-1,-1,-1],"loss_changes":[4.454393E2,4.5060486E2,1.4581491E2,2.7367297E2,2.0637552E2,3.216494E1,5.3349304E1,2.4358806E2,1.9297754E2,2.0507834E2,2.4899683E2,2.7660107E1,3.088873E1,8.1643196E1,4.2003784E0,0E0,0E0,0E0,0E0,0E0,0E0,0E0,0E0,0E0,0E0,0E0,0E0,0E0,0E0,0E0,0E0],"parents":[2147483647,0,0,1,1,2,2,3,3,4,4,5,5,6,6,7,7,8,8,9,9,10,10,11,11,12,12,13,13,14,14],"right_children":[2,4,6,8,10,12,14,16,18,20,22,24,26,28,30,-1,-1,-1,-1,-1,-1,-1,-1,-1,-1,-1,-1,-1,-1,-1,-1],"split_conditions":[2.1615E0,3E0,1.9083E0,1.8E1,1E0,-8.39E-2,1E0,-4.256E-1,2E0,1.3E1,1.343E0,1.1E1,3E0,2.2719E0,4.3359E0,-3.6194462E-1,4.5402966E-2,-5.2073956E-1,2.50738E-1,-3.9047188E-1,3.175314E-1,-8.245343E-1,4.0847516E-1,6.379032E-1,-6.967298E-1,-6.822999E-1,1.0876942E-2,8.1075394E-1,-3.6569634E-1,6.997251E-1,3.3426866E-1],"split_indices":[0,13,1,37,21,1,21,1,21,30,1,29,19,0,26,0,0,0,0,0,0,0,0,0,0,0,0,0,0,0,0],"split_type":[0,0,0,0,0,0,0,0,0,0,0,0,0,0,0,0,0,0,0,0,0,0,0,0,0,0,0,0,0,0,0],"sum_hessian":[1.0842744E4,1.0357821E4,4.849224E2,9.504007E3,8.538153E2,9.1320404E1,3.9360196E2,8.999183E3,5.0482397E2,4.8075906E2,3.730562E2,2.4075056E1,6.724535E1,6.0130672E1,3.334713E2,3.98568E2,8.600614E3,3.9858417E2,1.06239784E2,3.2325745E2,1.5750162E2,3.24663E2,4.8393223E1,1.9944286E1,4.1307693E0,2.8208193E1,3.903716E1,2.6810038E1,3.3320633E1,3.2231152E2,1.11597805E1],"tree_param":{"num_deleted":"0","num_feature":"41","num_nodes":"31","size_leaf_vector":"1"}},{"base_weights":[-3.6784487E-3,3.0534235E-1,-6.44922E-2,1.4629912E0,-8.4939414E-1,-1.3626332E0,7.097494E-2,1.5081953E0,-9.5195657E-1,-2.694776E-1,-1.334993E0,1.9294718E-1,-1.7616045E0,7.0585036E-3,6.014144E-1,7.8792953E-1,-6.5226316E-1,-8.5351896E-1,6.5704894E-1,-4.0023988E-1,2.2570643E-1,-9.092284E-1,-2.7846578E-1,4.5186478E-1,-6.838474E-1,-1.094654E0,-6.8037075E-1,-1.1121496E-1,1.0311092E-1,-1.9778311E-1,6.230988E-1],"categories":[],"categories_nodes":[],"categories_segments":[],"categories_sizes":[],"default_left":[0,0,0,0,0,0,0,0,0,0,0,0,0,0,0,0,0,0,0,0,0,0,0,0,0,0,0,0,0,0,0],"id":3,"left_children":[1,3,5,7,9,11,13,15,17,19,21,23,25,27,29,-1,-1,-1,-1,-1,-1,-1,-1,-1,-1,-1,-1,-1,-1,-1,-1],"loss_changes":[1.9750232E2,2.3113774E3,1.544342E3,9.568335E1,2.4345215E2,5.1535986E2,2.6961578E2,8.885571E1,2.8792427E1,1.455839E2,1.6542249E2,1.8221234E2,1.0580151E2,3.1184967E2,5.252739E2,0E0,0E0,0E0,0E0,0E0,0E0,0E0,0E0,0E0,0E0,0E0,0E0,0E0,0E0,0E0,0E0],"parents":[2147483647,0,0,1,1,2,2,3,3,4,4,5,5,6,6,7,7,8,8,9,9,10,10,11,11,12,12,13,13,14,14],"right_children":[2,4,6,8,10,12,14,16,18,20,22,24,26,28,30,-1,-1,-1,-1,-1,-1,-1,-1,-1,-1,-1,-1,-1,-1,-1,-1],"split_conditions":[1E0,1E0,1E0,7E0,2E0,2E0,1.1275E0,4E0,-3.07E-2,1E0,1E0,3E0,5.69E-1,4E0,1E0,7.8792953E-1,-6.5226316E-1,-8.5351896E-1,6.5704894E-1,-4.0023988E-1,2.2570643E-1,-9.092284E-1,-2.7846578E-1,4.5186478E-1,-6.838474E-1,-1.094654E0,-6.8037075E-1,-1.1121496E-1,1.0311092E-1,-1.9778311E-1,6.230988E-1],"split_indices":[20,36,36,18,19,20,1,17,5,37,13,17,7,18,21,0,0,0,0,0,0,0,0,0,0,0,0,0,0,0,0],"split_type":[0,0,0,0,0,0,0,0,0,0,0,0,0,0,0,0,0,0,0,0,0,0,0,0,0,0,0,0,0,0,0],"sum_hessian":[1.0507468E4,1.7271346E3,8.780333E3,8.623464E2,8.6478827E2,8.288314E2,7.9515015E3,8.4686975E2,1.5476611E1,3.9482797E2,4.6996033E2,1.6928996E2,6.5954144E2,7.0973096E3,8.541922E2,8.362842E2,1.0585566E1,1.1897367E1,3.5792446E0,2.2899844E2,1.6582953E2,2.9899695E2,1.7096336E2,1.1689364E2,5.239632E1,3.450171E2,3.1452435E2,3.2952122E3,3.8020974E3,3.2936008E2,5.248321E2],"tree_param":{"num_deleted":"0","num_feature":"41","num_nodes":"31","size_leaf_vector":"1"}},{"base_weights":[1.4987905E-3,4.6853203E-2,-3.1852865E-1,1.5020882E-1,-2.3018886E-1,-6.3435477E-1,6.305613E-1,2.6820606E-1,-1.757278E0,-1.0038053E0,7.7354795E-1,-4.6420567E-2,-1.2070411E0,-1.3471926E0,7.2478926E-1,8.8460125E-2,3.1218898E-1,-7.455782E-1,-1.2319821E0,1.9264185E-1,-6.335242E-1,7.1682945E-2,6.0042673E-1,-1.6581802E-1,3.564542E-1,-6.623039E-1,1.7669211E-1,-1.0034767E0,3.7131986E-1,-5.860451E-1,3.8842165E-1],"categories":[],"categories_nodes":[],"categories_segments":[],"categories_sizes":[],"default_left":[0,0,0,0,0,0,0,0,0,0,0,0,0,0,0,0,0,0,0,0,0,0,0,0,0,0,0,0,0,0,0],"id":4,"left_children":[1,3,5,7,9,11,13,15,17,19,21,23,25,27,29,-1,-1,-1,-1,-1,-1,-1,-1,-1,-1,-1,-1,-1,-1,-1,-1],"loss_changes":[1.4374492E2,2.4840752E2,3.688799E2,1.4224967E3,1.831147E3,3.1067487E2,5.8270027E1,1.9382181E2,6.806592E1,4.3904797E2,2.621996E2,9.5041466E1,6.69646E1,1.9884104E1,2.1168427E1,0E0,0E0,0E0,0E0,0E0,0E0,0E0,0E0,0E0,0E0,0E0,0E0,0E0,0E0,0E0,0E0],"parents":[2147483647,0,0,1,1,2,2,3,3,4,4,5,5,6,6,7,7,8,8,9,9,10,10,11,11,12,12,13,13,14,14],"right_children":[2,4,6,8,10,12,14,16,18,20,22,24,26,28,30,-1,-1,-1,-1,-1,-1,-1,-1,-1,-1,-1,-1,-1,-1,-1,-1],"split_conditions":[2.275E-1,1E0,1E0,2E0,1E0,2E0,-1.3395E0,5.655E-1,7E0,1E0,2E0,5.1E1,1.7463E0,8E0,-5.806E-1,8.8460125E-2,3.1218898E-1,-7.455782E-1,-1.2319821E0,1.9264185E-1,-6.335242E-1,7.1682945E-2,6.0042673E-1,-1.6581802E-1,3.564542E-1,-6.623039E-1,1.7669211E-1,-1.0034767E0,3.7131986E-1,-5.860451E-1,3.8842165E-1],"split_indices":[8,37,37,21,21,21,0,6,18,19,21,27,7,17,1,0,0,0,0,0,0,0,0,0,0,0,0,0,0,0,0],"split_type":[0,0,0,0,0,0,0,0,0,0,0,0,0,0,0,0,0,0,0,0,0,0,0,0,0,0,0,0,0,0,0],"sum_hessian":[9.901403E3,8.673102E3,1.2283016E3,6.3169175E3,2.3561838E3,9.2186633E2,3.0643533E2,5.9497266E3,3.67191E2,1.3306238E3,1.02556E3,4.5541098E2,4.6645532E2,1.3331112E1,2.9310422E2,4.6657773E3,1.2839491E3,2.5569946E2,1.11491554E2,1.9573653E2,1.1348873E3,3.999255E2,6.256346E2,3.31875E2,1.23535995E2,4.406393E2,2.5816015E1,1.0302908E1,3.0282044E0,5.0663366E0,2.880379E2],"tree_param":{"num_deleted":"0","num_feature":"41","num_nodes":"31","size_leaf_vector":"1"}},{"base_weights":[-6.229494E-3,2.9846875E-2,-3.1708917E-1,-7.428755E-3,4.4089925E-1,-5.168675E-1,1.9735314E-1,5.6803282E-2,-3.8445133E-1,1.3985661E0,2.4157414E-1,-6.6619647E-1,1.1265823E-1,3.699624E-1,-1.1330467E0,-1.3564229E-3,2.9742563E-1,-2.6585716E-1,6.041527E-1,8.3549154E-1,-6.8342346E-1,2.2747526E-1,-4.0112367E-1,-3.8378528E-1,3.833832E-1,3.3847916E-1,-3.1326088E-1,5.428911E-2,5.4594266E-1,5.0864404E-1,-7.7182055E-1],"categories":[],"categories_nodes":[],"categories_segments":[],"categories_sizes":[],"default_left":[0,0,0,0,0,0,0,0,0,0,0,0,0,0,0,0,0,0,0,0,0,0,0,0,0,0,0,0,0,0,0],"id":5,"left_children":[1,3,5,7,9,11,13,15,17,19,21,23,25,27,29,-1,-1,-1,-1,-1,-1,-1,-1,-1,-1,-1,-1,-1,-1,-1,-1],"loss_changes":[1.0417221E2,1.2753259E2,9.937298E1,1.8484831E2,1.3176245E2,6.550424E1,6.2629322E1,2.0414264E2,2.3918044E2,8.0306015E1,1.2100934E2,6.94415E1,5.4200035E1,4.4289574E1,2.6916489E1,0E0,0E0,0E0,0E0,0E0,0E0,0E0,0E0,0E0,0E0,0E0,0E0,0E0,0E0,0E0,0E0],"parents":[2147483647,0,0,1,1,2,2,3,3,4,4,5,5,6,6,7,7,8,8,9,9,10,10,11,11,12,12,13,13,14,14],"right_children":[2,4,6,8,10,12,14,16,18,20,22,24,26,28,30,-1,-1,-1,-1,-1,-1,-1,-1,-1,-1,-1,-1,-1,-1,-1,-1],"split_conditions":[1.2194E0,1.1686E0,1.1E1,2E0,1.1809E0,1.1E1,1.8E1,1.8E1,1.8E1,2E0,4.573E-1,2.9107E0,4E0,1E0,4E0,-1.3564229E-3,2.9742563E-1,-2.6585716E-1,6.041527E-1,8.3549154E-1,-6.8342346E-1,2.2747526E-1,-4.0112367E-1,-3.8378528E-1,3.833832E-1,3.3847916E-1,-3.1326088E-1,5.428911E-2,5.4594266E-1,5.0864404E-1,-7.7182055E-1],"split_indices":[4,0,32,13,0,29,28,32,28,21,5,0,18,13,17,0,0,0,0,0,0,0,0,0,0,0,0,0,0,0,0],"split_type":[0,0,0,0,0,0,0,0,0,0,0,0,0,0,0,0,0,0,0,0,0,0,0,0,0,0,0,0,0,0,0],"sum_hessian":[9.287063E3,8.322152E3,9.649113E2,7.631118E3,6.910339E2,6.950076E2,2.6990372E2,6.5210063E3,1.110112E3,1.1801393E2,5.7301996E2,5.6170746E2,1.3330014E2,2.3954631E2,3.0357393E1,5.8600244E3,6.6098206E2,1.0216797E3,8.843235E1,1.0888715E2,9.12678E0,4.784392E2,9.458073E1,5.2991547E2,3.1792044E1,7.587198E1,5.742816E1,1.7490428E2,6.464203E1,4.352831E0,2.600456E1],"tree_param":{"num_deleted":"0","num_feature":"41","num_nodes":"31","size_leaf_vector":"1"}},{"base_weights":[-3.4185003E-3,8.329275E-3,-7.668343E-1,1.4709409E-2,-1.0746247E0,-8.7540364E-1,1.4631346E0,5.9992675E-2,-1.2730277E-1,1.3261771E0,-1.2557863E0,-1.0135642E0,7.6975363E-1,9.678197E-1,1.8520522E-1,1.6472827E-1,7.035889E-3,-1.0542973E-1,1.9309436E-1,8.360635E-1,1.4123802E-1,-7.3545885E-1,6.7917603E-1,3.0424142E-1,-5.660012E-1,-5.6374E-1,6.260799E-1],"categories":[],"categories_nodes":[],"categories_segments":[],"categories_sizes":[],"default_left":[0,0,0,0,0,0,0,0,0,0,0,0,0,0,0,0,0,0,0,0,0,0,0,0,0,0,0],"id":6,"left_children":[1,3,5,7,9,11,13,15,17,19,21,23,25,-1,-1,-1,-1,-1,-1,-1,-1,-1,-1,-1,-1,-1,-1],"loss_changes":[8.137654E1,6.176114E1,3.457366E1,5.7145588E1,2.4435642E1,3.0727486E1,2.5414524E0,8.18567E1,8.640787E1,9.128175E-1,2.563308E1,1.9564026E1,1.060845E1,0E0,0E0,0E0,0E0,0E0,0E0,0E0,0E0,0E0,0E0,0E0,0E0,0E0,0E0],"parents":[2147483647,0,0,1,1,2,2,3,3,4,4,5,5,6,6,7,7,8,8,9,9,10,10,11,11,12,12],"right_children":[2,4,6,8,10,12,14,16,18,20,22,24,26,-1,-1,-1,-1,-1,-1,-1,-1,-1,-1,-1,-1,-1,-1],"split_conditions":[2.5996E0,2.6678E0,6.6706E0,3.7752E0,-1.1193E0,1.1078E0,1.1E1,1E0,1.7E1,5E0,1.8229E0,6E0,3.9E1,9.678197E-1,1.8520522E-1,1.6472827E-1,7.035889E-3,-1.0542973E-1,1.9309436E-1,8.360635E-1,1.4123802E-1,-7.3545885E-1,6.7917603E-1,3.0424142E-1,-5.660012E-1,-5.6374E-1,6.260799E-1],"split_indices":[7,5,26,26,0,6,32,20,31,16,8,35,27,0,0,0,0,0,0,0,0,0,0,0,0,0,0],"split_type":[0,0,0,0,0,0,0,0,0,0,0,0,0,0,0,0,0,0,0,0,0,0,0,0,0,0,0],"sum_hessian":[9.071947E3,8.935435E3,1.3651328E2,8.884081E3,5.135342E1,1.3075471E2,5.7585506E0,6.736574E3,2.1475066E3,3.159711E0,4.819371E1,1.2097881E2,9.775907E0,3.6080127E0,2.1505382E0,1.00559735E3,5.730977E3,1.8566327E3,2.9087387E2,2.000285E0,1.159426E0,4.5369934E1,2.8237765E0,6.5302496E0,1.1444856E2,1.641E0,8.134907E0],"tree_param":{"num_deleted":"0","num_feature":"41","num_nodes":"27","size_leaf_vector":"1"}},{"base_weights":[-2.1449567E-3,-9.844816E-3,7.0792115E-1,-2.1446673E-2,5.2478766E-1,1.0490081E0,-6.215504E-1,-1.3723376E-2,-1.1755061E0,-2.03637E-1,8.472411E-1,-8.4502196E-1,1.2179328E0,-4.221241E-2,5.4125108E-2,-6.78081E-1,9.2057437E-1,4.701843E-1,-2.632186E-1,5.631426E-1,1.10649385E-1,7.1034366E-1,-3.1056106E-1],"categories":[],"categories_nodes":[],"categories_segments":[],"categories_sizes":[],"default_left":[0,0,0,0,0,0,0,0,0,0,0,0,0,0,0,0,0,0,0,0,0,0,0],"id":7,"left_children":[1,3,5,7,9,11,-1,13,15,17,19,-1,21,-1,-1,-1,-1,-1,-1,-1,-1,-1,-1],"loss_changes":[4.917638E1,5.5201252E1,6.468622E1,7.761441E1,4.457098E1,3.9734413E1,0E0,7.161266E1,2.8982117E1,2.1158983E1,2.1011993E1,0E0,2.5847473E1,0E0,0E0,0E0,0E0,0E0,0E0,0E0,0E0,0E0,0E0],"parents":[2147483647,0,0,1,1,2,2,3,3,4,4,5,5,7,7,8,8,9,9,10,10,12,12],"right_children":[2,4,6,8,10,12,-1,14,16,18,20,-1,22,-1,-1,-1,-1,-1,-1,-1,-1,-1,-1],"split_conditions":[3.2095E0,2.1615E0,2E0,2.0061E0,1.9083E0,1E0,-6.215504E-1,2.486E-1,9E0,-2.906E-1,4.7E1,-8.4502196E-1,2.0061E0,-4.221241E-2,5.4125108E-2,-6.78081E-1,9.2057437E-1,4.701843E-1,-2.632186E-1,5.631426E-1,1.10649385E-1,7.1034366E-1,-3.1056106E-1],"split_indices":[2,0,21,0,1,13,0,6,17,2,27,0,0,0,0,0,0,0,0,0,0,0,0],"split_type":[0,0,0,0,0,0,0,0,0,0,0,0,0,0,0,0,0,0,0,0,0,0,0],"sum_hessian":[8.992184E3,8.896695E3,9.54884E1,8.708671E3,1.880237E2,8.151313E1,1.3975275E1,8.651783E3,5.6888325E1,5.7806614E1,1.3021709E2,4.2721014E0,7.724103E1,5.4895615E3,3.1622214E3,5.461899E1,2.2693305E0,1.21372E1,4.566941E1,9.196987E1,3.8247208E1,7.07092E1,6.53183E0],"tree_param":{"num_deleted":"0","num_feature":"41","num_nodes":"23","size_leaf_vector":"1"}},{"base_weights":[-6.470723E-5,4.450281E-2,-1.21281415E-1,4.8260443E-4,1.0202036E0,-2.4560122E-1,5.8104384E-1,4.3146316E-2,-3.6233425E-1,1.2234373E0,-8.022005E-1,-4.7439843E-1,1.0482289E-1,9.292735E-1,-2.3984523E-1,4.363633E-2,-1.9316219E-1,-3.1169885E-1,1.895894E-1,7.6008785E-1,1.5450414E-1,-8.106897E-1,1.382442E-1,-3.297993E-1,1.2420594E-1,-3.002682E-1,1.7931877E-1,-6.1959434E-1,5.7756656E-1,1.0245018E-1,-6.716818E-1],"categories":[],"categories_nodes":[],"categories_segments":[],"categories_sizes":[],"default_left":[0,0,0,0,0,0,0,0,0,0,0,0,0,0,0,0,0,0,0,0,0,0,0,0,0,0,0,0,0,0,0],"id":8,"left_children":[1,3,5,7,9,11,13,15,17,19,21,23,25,27,29,-1,-1,-1,-1,-1,-1,-1,-1,-1,-1,-1,-1,-1,-1,-1,-1],"loss_changes":[4.8198215E1,2.8018015E2,2.095558E2,9.66475E1,1.05280304E2,1.6348245E2,1.0341684E2,1.0000637E2,1.2023119E2,6.1895844E1,2.4817724E1,1.5270212E2,1.3816777E2,1.11906845E2,5.168879E1,0E0,0E0,0E0,0E0,0E0,0E0,0E0,0E0,0E0,0E0,0E0,0E0,0E0,0E0,0E0,0E0],"parents":[2147483647,0,0,1,1,2,2,3,3,4,4,5,5,6,6,7,7,8,8,9,9,10,10,11,11,12,12,13,13,14,14],"right_children":[2,4,6,8,10,12,14,16,18,20,22,24,26,28,30,-1,-1,-1,-1,-1,-1,-1,-1,-1,-1,-1,-1,-1,-1,-1,-1],"split_conditions":[5.087E-1,4.724E-1,1.6E1,2.275E-1,1.2E1,4.236E-1,1E0,2.575E-1,1E0,4.75E-1,1.6E1,7E0,4E0,2E0,5.26E-2,4.363633E-2,-1.9316219E-1,-3.1169885E-1,1.895894E-1,7.6008785E-1,1.5450414E-1,-8.106897E-1,1.382442E-1,-3.297993E-1,1.2420594E-1,-3.002682E-1,1.7931877E-1,-6.1959434E-1,5.7756656E-1,1.0245018E-1,-6.716818E-1],"split_indices":[7,7,32,8,30,5,21,7,37,7,34,31,18,20,1,0,0,0,0,0,0,0,0,0,0,0,0,0,0,0,0],"split_type":[0,0,0,0,0,0,0,0,0,0,0,0,0,0,0,0,0,0,0,0,0,0,0,0,0,0,0,0,0,0,0],"sum_hessian":[8.91975E3,6.5223306E3,2.39742E3,6.241726E3,2.8060434E2,2.0374226E3,3.5999734E2,5.585775E3,6.5595135E2,2.527468E2,2.785753E1,1.2324098E3,8.050128E2,2.5267708E2,1.0732027E2,5.076235E3,5.0954E2,4.9001282E2,1.6593857E2,1.9544954E2,5.729726E1,1.5791356E1,1.2066174E1,9.94002E2,2.3840773E2,2.1089767E2,5.941152E2,2.1443026E1,2.3123405E2,7.6736855E1,3.0583414E1],"tree_param":{"num_deleted":"0","num_feature":"41","num_nodes":"31","size_leaf_vector":"1"}},{"base_weights":[-1.1090346E-4,-5.3479797E-1,1.086363E-2,-1.0646888E0,2.921472E-1,1.5474645E-2,-9.793161E-1,4.5696142E-1,-1.2042041E0,6.1549205E-1,-7.7903664E-1,1.2617832E-2,7.8958994E-1,-1.2274094E0,1.5770291E-1,1.2220166E0,-1.8427685E-1,-6.8157333E-1,-3.0497272E-2,-7.4717814E-1,3.968467E-1,-6.2282586E-1,6.3189113E-1,1.7378889E-1,-4.1463313E-4,2.0657305E-1,-6.591931E-1,5.747437E-1,-5.3822E-1],"categories":[],"categories_nodes":[],"categories_segments":[],"categories_sizes":[],"default_left":[0,0,0,0,0,0,0,0,0,0,0,0,0,0,0,0,0,0,0,0,0,0,0,0,0,0,0,0,0],"id":9,"left_children":[1,3,5,7,9,11,13,15,17,19,21,23,-1,25,27,-1,-1,-1,-1,-1,-1,-1,-1,-1,-1,-1,-1,-1,-1],"loss_changes":[5.085135E1,7.668453E1,3.8785896E1,2.3146965E1,2.4327188E1,3.6995403E1,1.1300968E1,1.6201248E1,1.4714294E1,1.9224976E1,1.6152988E1,3.7191296E1,0E0,3.972084E0,1.0523329E1,0E0,0E0,0E0,0E0,0E0,0E0,0E0,0E0,0E0,0E0,0E0,0E0,0E0,0E0],"parents":[2147483647,0,0,1,1,2,2,3,3,4,4,5,5,6,6,7,7,8,8,9,9,10,10,11,11,13,13,14,14],"right_children":[2,4,6,8,10,12,14,16,18,20,22,24,-1,26,28,-1,-1,-1,-1,-1,-1,-1,-1,-1,-1,-1,-1,-1,-1],"split_conditions":[-8.347E-1,1E1,3.1471E0,-7.082E-1,1.6E1,1E0,1.4357E0,-5.988E-1,2E0,7E0,5E0,-5.988E-1,7.8958994E-1,-9.605E-1,2.2125E0,1.2220166E0,-1.8427685E-1,-6.8157333E-1,-3.0497272E-2,-7.4717814E-1,3.968467E-1,-6.2282586E-1,6.3189113E-1,1.7378889E-1,-4.1463313E-4,2.0657305E-1,-6.591931E-1,5.747437E-1,-5.3822E-1],"split_indices":[1,35,7,4,33,23,5,2,21,32,19,2,0,5,5,0,0,0,0,0,0,0,0,0,0,0,0,0,0],"split_type":[0,0,0,0,0,0,0,0,0,0,0,0,0,0,0,0,0,0,0,0,0,0,0,0,0,0,0,0,0],"sum_hessian":[8.663972E3,1.732928E2,8.490679E3,1.0544081E2,6.785198E1,8.452303E3,3.8375847E1,8.664495E0,9.677631E1,5.2446133E1,1.5405849E1,8.437584E3,1.4718235E1,3.143693E1,6.9389176E0,1.9990423E0,6.6654534E0,8.660319E1,1.0173126E1,3.2219162E0,4.9224216E1,1.2960749E1,2.4451008E0,3.3080972E2,8.106775E3,1.005812E0,3.0431118E1,3.8964934E0,3.0424244E0],"tree_param":{"num_deleted":"0","num_feature":"41","num_nodes":"29","size_leaf_vector":"1"}},{"base_weights":[-1.2746336E-3,-6.3038754E-1,5.8617336E-3,6.94664E-2,-1.213031E0,-3.1171814E-3,4.6889386E-1,8.935291E-1,-8.275372E-1,-1.3643725E0,2.0862573E-1,3.519875E-2,-1.2987264E-1,-1.7883408E-1,9.5795643E-1,5.7359356E-1,-4.9359486E-1,-8.206692E-1,4.9825493E-1,-7.382997E-1,5.8107566E-2,-4.54172E-1,6.4335746E-1,6.1890185E-2,-4.4039E-1,-2.441177E-1,4.2093813E-1,2.1610102E-1,-5.685126E-1,-1.9768493E-1,5.283065E-1],"categories":[],"categories_nodes":[],"categories_segments":[],"categories_sizes":[],"default_left":[0,0,0,0,0,0,0,0,0,0,0,0,0,0,0,0,0,0,0,0,0,0,0,0,0,0,0,0,0,0,0],"id":10,"left_children":[1,3,5,7,9,11,13,15,17,19,21,23,25,27,29,-1,-1,-1,-1,-1,-1,-1,-1,-1,-1,-1,-1,-1,-1,-1,-1],"loss_changes":[3.8672977E1,3.9481155E1,3.5413193E1,3.388393E1,1.1640022E1,4.0589874E1,5.1499813E1,1.1350943E1,3.2585556E1,6.0533066E0,8.003537E0,4.9700363E2,6.4672577E2,4.025863E1,1.0100235E1,0E0,0E0,0E0,0E0,0E0,0E0,0E0,0E0,0E0,0E0,0E0,0E0,0E0,0E0,0E0,0E0],"parents":[2147483647,0,0,1,1,2,2,3,3,4,4,5,5,6,6,7,7,8,8,9,9,10,10,11,11,12,12,13,13,14,14],"right_children":[2,4,6,8,10,12,14,16,18,20,22,24,26,28,30,-1,-1,-1,-1,-1,-1,-1,-1,-1,-1,-1,-1,-1,-1,-1,-1],"split_conditions":[-1.7385E0,1.1E1,1E0,1E0,7E0,1E0,1.1E1,5.952E-1,7E0,1.2391E0,7.067E-1,2E0,2E0,3E0,-7.958E-1,5.7359356E-1,-4.9359486E-1,-8.206692E-1,4.9825493E-1,-7.382997E-1,5.8107566E-2,-4.54172E-1,6.4335746E-1,6.1890185E-2,-4.4039E-1,-2.441177E-1,4.2093813E-1,2.1610102E-1,-5.685126E-1,-1.9768493E-1,5.283065E-1],"split_indices":[0,34,22,21,18,37,29,7,16,4,7,21,21,18,2,0,0,0,0,0,0,0,0,0,0,0,0,0,0,0,0],"split_type":[0,0,0,0,0,0,0,0,0,0,0,0,0,0,0,0,0,0,0,0,0,0,0,0,0,0,0,0,0,0,0],"sum_hessian":[8.612117E3,9.561658E1,8.516501E3,4.3839115E1,5.177746E1,8.355468E3,1.6103229E2,2.2850555E1,2.0988562E1,4.6832256E1,4.9452004E0,6.4165737E3,1.9388945E3,6.9551155E1,9.148113E1,2.067827E1,2.1722841E0,1.4720619E1,6.2679424E0,4.435449E1,2.4777715E0,2.4948332E0,2.450367E0,5.8560493E3,5.605243E2,1.4206633E3,5.182312E2,4.264325E1,2.6907906E1,4.791132E0,8.669E1],"tree_param":{"num_deleted":"0","num_feature":"41","num_nodes":"31","size_leaf_vector":"1"}},{"base_weights":[-2.6489804E-3,-2.5492907E-1,1.252289E-2,-7.583177E-1,4.3348563E-1,2.6788251E-2,-2.878187E-1,-1.110643E0,1.3949454E-1,-1.7725273E0,5.6549215E-1,7.637911E-2,-6.615384E-2,7.440444E-1,-4.9715954E-1,2.2631705E-1,-6.713763E-1,2.1524122E-1,-1.228808E0,4.5545945E-1,-1.1071473E0,3.5840705E-1,-5.9792286E-1,1.6168785E-1,-4.2404614E-2,-2.1776754E-1,2.8711385E-1,-6.170078E-1,5.580029E-1,-4.29562E-1,-1.0119901E-1],"categories":[],"categories_nodes":[],"categories_segments":[],"categories_sizes":[],"default_left":[0,0,0,0,0,0,0,0,0,0,0,0,0,0,0,0,0,0,0,0,0,0,0,0,0,0,0,0,0,0,0],"id":11,"left_children":[1,3,5,7,9,11,13,15,17,19,21,23,25,27,29,-1,-1,-1,-1,-1,-1,-1,-1,-1,-1,-1,-1,-1,-1,-1,-1],"loss_changes":[3.1474573E1,1.6198189E2,3.3241707E1,8.550255E1,5.8563984E1,3.4139988E1,7.636401E1,6.260086E1,5.6420746E1,1.4045975E1,4.5496304E1,1.8544371E2,5.853174E2,4.218353E1,3.004766E1,0E0,0E0,0E0,0E0,0E0,0E0,0E0,0E0,0E0,0E0,0E0,0E0,0E0,0E0,0E0,0E0],"parents":[2147483647,0,0,1,1,2,2,3,3,4,4,5,5,6,6,7,7,8,8,9,9,10,10,11,11,12,12,13,13,14,14],"right_children":[2,4,6,8,10,12,14,16,18,20,22,24,26,28,30,-1,-1,-1,-1,-1,-1,-1,-1,-1,-1,-1,-1,-1,-1,-1,-1],"split_conditions":[-2.617E-1,1E0,1.6441E0,5E0,-9.474E-1,6E0,3E0,2E0,7.606E-1,-1.8073E0,6E0,1E1,8E0,1.4E1,1.2E1,2.2631705E-1,-6.713763E-1,2.1524122E-1,-1.228808E0,4.5545945E-1,-1.1071473E0,3.5840705E-1,-5.9792286E-1,1.6168785E-1,-4.2404614E-2,-2.1776754E-1,2.8711385E-1,-6.170078E-1,5.580029E-1,-4.29562E-1,-1.0119901E-1],"split_indices":[8,37,4,20,0,16,28,28,6,3,20,29,31,34,35,0,0,0,0,0,0,0,0,0,0,0,0,0,0,0,0],"split_type":[0,0,0,0,0,0,0,0,0,0,0,0,0,0,0,0,0,0,0,0,0,0,0,0,0,0,0,0,0,0,0],"sum_hessian":[8.221308E3,4.6547748E2,7.75583E3,2.688125E2,1.9666498E2,7.4050234E3,3.508065E2,1.9288303E2,7.592946E1,1.0402197E1,1.8626279E2,4.8287427E3,2.5762808E3,5.8736046E1,2.9207043E2,2.2414545E1,1.7046849E2,6.910375E1,6.825702E0,1.1909537E0,9.211243E0,1.7317984E2,1.308294E1,1.9245017E3,2.9042407E3,1.6374315E3,9.3884937E2,8.55165E0,5.01844E1,1.3466928E2,1.5740117E2],"tree_param":{"num_deleted":"0","num_feature":"41","num_nodes":"31","size_leaf_vector":"1"}},{"base_weights":[-1.8670622E-3,1.287976E-1,-3.2085802E-2,-6.796739E-1,5.625721E-1,-3.748074E-1,2.1887938E-2,-1.029733E0,-7.261014E-2,2.523784E-1,1.2294091E0,-5.8008146E-1,1.4311524E-1,-3.7173802E-1,5.163462E-2,-5.973416E-1,-2.7399529E-2,-3.6358392E-1,1.6313955E-1,5.6904006E-1,2.0931011E-2,7.031362E-1,-6.452947E-1,-3.6549804E-1,1.3891521E-1,-1.32084E-1,4.814078E-1,-2.5711304E-1,3.5221064E-1,6.384805E-2,-9.02467E-2],"categories":[],"categories_nodes":[],"categories_segments":[],"categories_sizes":[],"default_left":[0,0,0,0,0,0,0,0,0,0,0,0,0,0,0,0,0,0,0,0,0,0,0,0,0,0,0,0,0,0,0],"id":12,"left_children":[1,3,5,7,9,11,13,15,17,19,21,23,25,27,29,-1,-1,-1,-1,-1,-1,-1,-1,-1,-1,-1,-1,-1,-1,-1,-1],"loss_changes":[3.1694519E1,5.291249E2,1.2059983E2,1.1190021E2,2.0276984E2,9.439018E1,6.5978E1,4.609018E1,4.893043E1,1.2245028E2,1.1773569E2,7.4182465E1,8.157962E1,5.6037437E1,8.8100075E1,0E0,0E0,0E0,0E0,0E0,0E0,0E0,0E0,0E0,0E0,0E0,0E0,0E0,0E0,0E0,0E0],"parents":[2147483647,0,0,1,1,2,2,3,3,4,4,5,5,6,6,7,7,8,8,9,9,10,10,11,11,12,12,13,13,14,14],"right_children":[2,4,6,8,10,12,14,16,18,20,22,24,26,28,30,-1,-1,-1,-1,-1,-1,-1,-1,-1,-1,-1,-1,-1,-1,-1,-1],"split_conditions":[3E0,4E0,3.7E1,4E0,6E0,1.5E1,1E0,2E0,2E0,2E0,8E0,1E0,6E0,8.169E-1,1.5E1,-5.973416E-1,-2.7399529E-2,-3.6358392E-1,1.6313955E-1,5.6904006E-1,2.0931011E-2,7.031362E-1,-6.452947E-1,-3.6549804E-1,1.3891521E-1,-1.32084E-1,4.814078E-1,-2.5711304E-1,3.5221064E-1,6.384805E-2,-9.02467E-2],"split_indices":[28,17,27,35,18,34,19,21,20,20,36,37,16,2,34,0,0,0,0,0,0,0,0,0,0,0,0,0,0,0,0],"split_type":[0,0,0,0,0,0,0,0,0,0,0,0,0,0,0,0,0,0,0,0,0,0,0,0,0,0,0,0,0,0,0],"sum_hessian":[8.0248853E3,1.5067019E3,6.518183E3,5.259208E2,9.807811E2,8.860449E2,5.632138E3,3.331284E2,1.9279237E2,6.703375E2,3.104436E2,6.344616E2,2.515833E2,3.949132E2,5.237225E3,2.9076605E2,4.2362324E1,7.295664E1,1.1983573E2,1.3097583E2,5.393617E2,2.9333685E2,1.710675E1,5.469835E2,8.747811E1,1.6793663E2,8.3646675E1,3.5161523E2,4.329798E1,3.962564E3,1.274661E3],"tree_param":{"num_deleted":"0","num_feature":"41","num_nodes":"31","size_leaf_vector":"1"}},{"base_weights":[-3.176306E-4,4.8522536E-2,-9.190953E-2,6.9557466E-2,-3.0885124E-1,-1.415146E-1,2.3271002E-1,-2.4589732E-2,1.5006588E-1,-6.3492274E-1,9.7431675E-2,1.6019918E-1,-2.0904534E-1,-2.2356713E-1,5.7378626E-1,-2.8569987E-1,3.3223882E-2,9.906002E-3,1.2896632E-1,-5.269431E-1,-6.1844606E-2,-6.0629334E-2,4.9253935E-1,-1.01980075E-1,2.667589E-1,-1.7807426E-1,-7.1593194E-4,3.852236E-1,-2.499925E-1,4.6596146E-1,-1.3385087E-1],"categories":[],"categories_nodes":[],"categories_segments":[],"categories_sizes":[],"default_left":[0,0,0,0,0,0,0,0,0,0,0,0,0,0,0,0,0,0,0,0,0,0,0,0,0,0,0,0,0,0,0],"id":13,"left_children":[1,3,5,7,9,11,13,15,17,19,21,23,25,27,29,-1,-1,-1,-1,-1,-1,-1,-1,-1,-1,-1,-1,-1,-1,-1,-1],"loss_changes":[3.506764E1,3.845651E1,4.3934875E1,3.6609253E1,3.773793E1,4.823227E1,5.6428627E1,1.0707258E2,3.4962463E1,3.218058E1,2.4061579E1,5.6718933E1,5.625074E1,4.0946465E1,5.915558E1,0E0,0E0,0E0,0E0,0E0,0E0,0E0,0E0,0E0,0E0,0E0,0E0,0E0,0E0,0E0,0E0],"parents":[2147483647,0,0,1,1,2,2,3,3,4,4,5,5,6,6,7,7,8,8,9,9,10,10,11,11,12,12,13,13,14,14],"right_children":[2,4,6,8,10,12,14,16,18,20,22,24,26,28,30,-1,-1,-1,-1,-1,-1,-1,-1,-1,-1,-1,-1,-1,-1,-1,-1],"split_conditions":[4.611E-1,1.2117E0,6.641E-1,-6.59E-2,9E0,4E0,1.7E1,5E0,1E1,5E0,7.715E-1,6E0,2.316E-1,1E0,7E0,-2.8569987E-1,3.3223882E-2,9.906002E-3,1.2896632E-1,-5.269431E-1,-6.1844606E-2,-6.0629334E-2,4.9253935E-1,-1.01980075E-1,2.667589E-1,-1.7807426E-1,-7.1593194E-4,3.852236E-1,-2.499925E-1,4.6596146E-1,-1.3385087E-1],"split_indices":[4,6,1,4,28,31,35,29,28,18,7,17,6,20,16,0,0,0,0,0,0,0,0,0,0,0,0,0,0,0,0],"split_type":[0,0,0,0,0,0,0,0,0,0,0,0,0,0,0,0,0,0,0,0,0,0,0,0,0,0,0,0,0,0,0],"sum_hessian":[7.8372134E3,5.1118545E3,2.7253586E3,4.828458E3,2.8339648E2,2.3645898E3,3.6076862E2,2.2260232E3,2.602435E3,1.569056E2,1.2649088E2,4.3220636E2,1.9323835E3,1.5446992E2,2.0629869E2,3.1867557E2,1.9073475E3,1.1466046E3,1.4558304E3,8.7807106E1,6.909849E1,1.0195553E2,2.4535355E1,2.1713469E2,2.1507167E2,1.1533815E3,7.790021E2,3.267318E1,1.2179674E2,1.4661781E2,5.968088E1],"tree_param":{"num_deleted":"0","num_feature":"41","num_nodes":"31","size_leaf_vector":"1"}},{"base_weights":[1.2273065E-4,4.9204235E-3,-7.647267E-1,3.094861E-2,-1.0695619E-1,6.813521E-1,-1.1029274E0,-2.8422486E-2,1.6763067E-1,-3.8379308E-2,-1.45539E0,-6.0692704E-1,1.0602424E0,6.037862E-1,-1.2095554E0,-7.399979E-2,7.124744E-2,-1.8114541E-1,1.3060787E-1,1.22000486E-1,-1.09217E-1,-7.8659916E-1,2.909495E-1,7.566053E-1,-5.4775065E-1,6.947725E-2,-7.3432565E-1],"categories":[],"categories_nodes":[],"categories_segments":[],"categories_sizes":[],"default_left":[0,0,0,0,0,0,0,0,0,0,0,0,0,0,0,0,0,0,0,0,0,0,0,0,0,0,0],"id":14,"left_children":[1,3,5,7,9,11,13,15,17,19,21,-1,23,-1,25,-1,-1,-1,-1,-1,-1,-1,-1,-1,-1,-1,-1],"loss_changes":[2.8437979E1,2.2429546E1,2.4377886E1,5.0712433E1,1.3437906E2,8.19272E0,1.1072033E1,8.549078E1,8.761641E1,6.760438E1,1.3270218E1,0E0,9.415163E0,0E0,1.20566025E1,0E0,0E0,0E0,0E0,0E0,0E0,0E0,0E0,0E0,0E0,0E0,0E0],"parents":[2147483647,0,0,1,1,2,2,3,3,4,4,5,5,6,6,7,7,8,8,9,9,10,10,12,12,14,14],"right_children":[2,4,6,8,10,12,14,16,18,20,22,-1,24,-1,26,-1,-1,-1,-1,-1,-1,-1,-1,-1,-1,-1,-1],"split_conditions":[9.4572E0,2E0,-4.845E-1,1E0,1.9E1,-5.314E-1,-1.5201E0,1.3E1,6E0,7E0,9E0,-6.0692704E-1,1.9E1,6.037862E-1,5E0,-7.399979E-2,7.124744E-2,-1.8114541E-1,1.3060787E-1,1.22000486E-1,-1.09217E-1,-7.8659916E-1,2.909495E-1,7.566053E-1,-5.4775065E-1,6.947725E-2,-7.3432565E-1],"split_indices":[26,15,5,14,32,3,6,29,35,33,16,0,36,0,32,0,0,0,0,0,0,0,0,0,0,0,0],"split_type":[0,0,0,0,0,0,0,0,0,0,0,0,0,0,0,0,0,0,0,0,0,0,0,0,0,0,0],"sum_hessian":[7.7477715E3,7.700462E3,4.7309345E1,6.2476616E3,1.4528003E3,8.774916E0,3.8534428E1,4.3562246E3,1.8914373E3,1.38347E3,6.9330246E1,1.1169947E0,7.6579213E0,1.2666157E0,3.726781E1,2.5716643E3,1.7845603E3,2.7328815E2,1.6181492E3,5.362346E2,8.472354E2,6.670557E1,2.6246808E0,6.644903E0,1.0130181E0,5.5052934E0,3.1762518E1],"tree_param":{"num_deleted":"0","num_feature":"41","num_nodes":"27","size_leaf_vector":"1"}},{"base_weights":[-1.0295222E-3,2.8106188E-2,-1.0757743E-1,6.0993824E-2,-9.9902815E-1,-6.599152E-1,7.727063E-2,-1.6356511E-1,1.3366953E-1,-1.0501171E0,1.8954531E0,5.423527E-1,-8.67959E-1,2.4543911E-1,-7.168339E-1,1.6634393E-1,-1.9460881E-1,9.538495E-2,-8.317098E-2,-5.6769794E-1,2.4271777E-1,1.8503156E0,-3.5287744E-1,-2.2180301E-1,6.192832E-1,-4.8024672E-1,3.6535206E-1,3.0117205E-1,-1.0743817E-1,-5.2798927E-1,1.8835445E-1],"categories":[],"categories_nodes":[],"categories_segments":[],"categories_sizes":[],"default_left":[0,0,0,0,0,0,0,0,0,0,0,0,0,0,0,0,0,0,0,0,0,0,0,0,0,0,0,0,0,0,0],"id":15,"left_children":[1,3,5,7,9,11,13,15,17,19,21,23,25,27,29,-1,-1,-1,-1,-1,-1,-1,-1,-1,-1,-1,-1,-1,-1,-1,-1],"loss_changes":[2.3854197E1,2.0389355E2,1.6851674E2,9.545865E1,2.9682983E1,1.0398401E2,1.6539355E2,1.5283777E2,6.9996315E1,1.8287918E1,1.866927E1,4.102009E1,4.1914795E1,1.6094073E2,7.5252945E1,0E0,0E0,0E0,0E0,0E0,0E0,0E0,0E0,0E0,0E0,0E0,0E0,0E0,0E0,0E0,0E0],"parents":[2147483647,0,0,1,1,2,2,3,3,4,4,5,5,6,6,7,7,8,8,9,9,10,10,11,11,12,12,13,13,14,14],"right_children":[2,4,6,8,10,12,14,16,18,20,22,24,26,28,30,-1,-1,-1,-1,-1,-1,-1,-1,-1,-1,-1,-1,-1,-1,-1,-1],"split_conditions":[8E0,3E0,3E0,2E0,2.5996E0,1E0,5E0,-1.433E-1,1.735E-1,1E0,1E1,1.4E1,9E0,3E0,3E0,1.6634393E-1,-1.9460881E-1,9.538495E-2,-8.317098E-2,-5.6769794E-1,2.4271777E-1,1.8503156E0,-3.5287744E-1,-2.2180301E-1,6.192832E-1,-4.8024672E-1,3.6535206E-1,3.0117205E-1,-1.0743817E-1,-5.2798927E-1,1.8835445E-1],"split_indices":[37,21,17,19,7,18,20,7,1,37,36,35,38,19,21,0,0,0,0,0,0,0,0,0,0,0,0,0,0,0,0],"split_type":[0,0,0,0,0,0,0,0,0,0,0,0,0,0,0,0,0,0,0,0,0,0,0,0,0,0,0,0,0,0,0],"sum_hessian":[7.6821484E3,6.0331177E3,1.6490304E3,5.846849E3,1.8626863E2,4.1284705E2,1.2361833E3,1.4292849E3,4.4175645E3,1.8366408E2,2.604558E0,6.066459E1,3.5218246E2,1.020716E3,2.1546736E2,4.401349E2,9.8915E2,3.744602E3,6.729623E2,1.7664046E2,7.023618E0,1.3190445E0,1.2855134E0,2.4860266E1,3.580432E1,3.3691525E2,1.5267216E1,5.809017E2,4.3981433E2,1.6665446E2,4.8812897E1],"tree_param":{"num_deleted":"0","num_feature":"41","num_nodes":"31","size_leaf_vector":"1"}},{"base_weights":[-4.3600868E-3,-3.087898E-4,-7.3263264E-1,-9.832341E-2,2.8752832E-2,7.046175E-1,-1.121606E0,-1.1866468E0,4.6909455E-2,1.5522662E-1,-6.404468E-2,-6.7169815E-1,1.2005762E0,-1.2602214E0,7.1256775E-1,-7.597508E-2,-7.2246045E-1,-8.786248E-2,1.7253631E-1,1.4475587E-1,-4.5257217E-1,-1.3526766E-1,1.4013381E-1,8.8500565E-1,4.9393035E-2,-7.1079403E-1,4.6174502E-1],"categories":[],"categories_nodes":[],"categories_segments":[],"categories_sizes":[],"default_left":[0,0,0,0,0,0,0,0,0,0,0,0,0,0,0,0,0,0,0,0,0,0,0,0,0,0,0],"id":16,"left_children":[1,3,5,7,9,11,13,15,17,19,21,-1,23,25,-1,-1,-1,-1,-1,-1,-1,-1,-1,-1,-1,-1,-1],"loss_changes":[2.200274E1,2.1130579E1,2.3854156E1,2.6820633E2,6.716281E1,1.1007559E1,1.3231564E1,4.7456757E1,9.5719864E1,3.2498865E2,2.2508327E2,0E0,4.5962305E0,1.04162445E1,0E0,0E0,0E0,0E0,0E0,0E0,0E0,0E0,0E0,0E0,0E0,0E0,0E0],"parents":[2147483647,0,0,1,1,2,2,3,3,4,4,5,5,6,6,7,7,8,8,9,9,10,10,12,12,13,13],"right_children":[2,4,6,8,10,12,14,16,18,20,22,-1,24,26,-1,-1,-1,-1,-1,-1,-1,-1,-1,-1,-1,-1,-1],"split_conditions":[2.6678E0,-2.045E-1,2E0,1E0,1E1,1.1E-3,7E0,2E0,4E0,2E0,1E0,-6.7169815E-1,5.1E-3,2E1,7.1256775E-1,-7.597508E-2,-7.2246045E-1,-8.786248E-2,1.7253631E-1,1.4475587E-1,-4.5257217E-1,-1.3526766E-1,1.4013381E-1,8.8500565E-1,4.9393035E-2,-7.1079403E-1,4.6174502E-1],"split_indices":[5,7,17,36,29,3,20,20,20,13,13,0,6,38,0,0,0,0,0,0,0,0,0,0,0,0,0],"split_type":[0,0,0,0,0,0,0,0,0,0,0,0,0,0,0,0,0,0,0,0,0,0,0,0,0,0,0],"sum_hessian":[7.456499E3,7.4162437E3,4.0255295E1,1.6955082E3,5.7207354E3,8.401269E0,3.1854025E1,1.9877657E2,1.4967316E3,2.42078E3,3.2999556E3,1.3288624E0,7.0724063E0,3.0666073E1,1.1879526E0,3.635641E1,1.6242017E2,8.544347E2,6.422969E2,2.1556113E3,2.6516873E2,2.0706445E3,1.2293108E3,4.3787737E0,2.6936326E0,2.9221243E1,1.4448287E0],"tree_param":{"num_deleted":"0","num_feature":"41","num_nodes":"27","size_leaf_vector":"1"}},{"base_weights":[-5.631669E-3,1.3716765E-1,-3.5853095E-2,-1.6950907E-1,3.9718518E-1,1.4149928E-1,-1.0810033E-1,7.7989787E-1,-2.8534123E-1,2.917398E-2,7.779831E-1,-1.0266565E0,3.8617057E-1,-9.9934816E-1,-2.6893051E-2,6.5042543E-1,-3.2604316E-1,-2.7030405E-2,-4.6607348E-1,-3.6614537E-1,3.13498E-1,-4.8335457E-1,4.7170272E-1,-2.0929774E-2,-7.0993733E-1,3.189349E-1,-1.2530148E-1,2.1473725E-1,-6.2010664E-1,1.2210853E-2,-4.3631193E-1],"categories":[],"categories_nodes":[],"categories_segments":[],"categories_sizes":[],"default_left":[0,0,0,0,0,0,0,0,0,0,0,0,0,0,0,0,0,0,0,0,0,0,0,0,0,0,0,0,0,0,0],"id":17,"left_children":[1,3,5,7,9,11,13,15,17,19,21,23,25,27,29,-1,-1,-1,-1,-1,-1,-1,-1,-1,-1,-1,-1,-1,-1,-1,-1],"loss_changes":[3.1514988E1,1.0178094E2,7.723918E1,6.466185E1,9.6754166E1,4.9912277E2,3.099558E2,4.5805008E1,7.63233E1,1.5452339E2,8.692117E1,1.0886484E2,2.183142E2,1.1051373E2,1.6541183E2,0E0,0E0,0E0,0E0,0E0,0E0,0E0,0E0,0E0,0E0,0E0,0E0,0E0,0E0,0E0,0E0],"parents":[2147483647,0,0,1,1,2,2,3,3,4,4,5,5,6,6,7,7,8,8,9,9,10,10,11,11,12,12,13,13,14,14],"right_children":[2,4,6,8,10,12,14,16,18,20,22,24,26,28,30,-1,-1,-1,-1,-1,-1,-1,-1,-1,-1,-1,-1,-1,-1,-1,-1],"split_conditions":[3E0,5E0,3E0,8E0,4E0,6E0,1E0,4E0,6E0,5E0,1.5E1,1.7E1,1.2E1,1E0,8E0,6.5042543E-1,-3.2604316E-1,-2.7030405E-2,-4.6607348E-1,-3.6614537E-1,3.13498E-1,-4.8335457E-1,4.7170272E-1,-2.0929774E-2,-7.0993733E-1,3.189349E-1,-1.2530148E-1,2.1473725E-1,-6.2010664E-1,1.2210853E-2,-4.3631193E-1],"split_indices":[28,17,17,32,18,32,36,18,16,31,34,35,36,20,18,0,0,0,0,0,0,0,0,0,0,0,0,0,0,0,0],"split_type":[0,0,0,0,0,0,0,0,0,0,0,0,0,0,0,0,0,0,0,0,0,0,0,0,0,0,0,0,0,0,0],"sum_hessian":[7.3004355E3,1.2745446E3,6.025891E3,5.8496173E2,6.895828E2,1.7439319E3,4.2819595E3,6.2984287E1,5.219775E2,3.5122662E2,3.383562E2,3.01458E2,1.4424739E3,3.5663153E2,3.925328E3,4.6761185E1,1.6223103E1,3.818923E2,1.4008516E2,1.5422133E2,1.9700528E2,2.6118914E1,3.122373E2,8.183033E1,2.1962769E2,1.0463761E3,3.960978E2,4.7052837E1,3.0957867E2,3.699344E3,2.2598378E2],"tree_param":{"num_deleted":"0","num_feature":"41","num_nodes":"31","size_leaf_vector":"1"}},{"base_weights":[-6.752341E-3,2.6121253E-1,-1.9323394E-2,-6.105252E-1,8.620628E-1,5.9959542E-2,-8.513219E-2,-1.1142925E0,6.813248E-1,1.1317887E0,-8.470834E-1,-1.0930642E0,9.251204E-2,-1.8575236E-1,1.0796968E-1,-6.423884E-1,3.9331558E-1,5.5579305E-1,-4.761875E-1,-1.227706E-1,6.8582624E-1,5.637434E-1,-7.0121676E-1,4.105247E-2,-6.8774205E-1,-2.8279692E-2,1.2974419E-1,5.168908E-4,-3.1599864E-1,-1.3239476E-1,3.1336686E-1],"categories":[],"categories_nodes":[],"categories_segments":[],"categories_sizes":[],"default_left":[0,0,0,0,0,0,0,0,0,0,0,0,0,0,0,0,0,0,0,0,0,0,0,0,0,0,0,0,0,0,0],"id":18,"left_children":[1,3,5,7,9,11,13,15,17,19,21,23,25,27,29,-1,-1,-1,-1,-1,-1,-1,-1,-1,-1,-1,-1,-1,-1,-1,-1],"loss_changes":[2.3376934E1,1.6340932E2,3.458776E1,8.3715576E1,8.601514E1,1.12961975E2,7.040063E1,2.6198624E1,2.5018593E1,4.7028824E1,2.802745E1,2.4882538E1,7.0084305E1,1.9299213E2,2.3128404E2,0E0,0E0,0E0,0E0,0E0,0E0,0E0,0E0,0E0,0E0,0E0,0E0,0E0,0E0,0E0,0E0],"parents":[2147483647,0,0,1,1,2,2,3,3,4,4,5,5,6,6,7,7,8,8,9,9,10,10,11,11,12,12,13,13,14,14],"right_children":[2,4,6,8,10,12,14,16,18,20,22,24,26,28,30,-1,-1,-1,-1,-1,-1,-1,-1,-1,-1,-1,-1,-1,-1,-1,-1],"split_conditions":[2E0,3E0,5E0,3.228E-1,8E0,3E0,8E0,2.695E-1,3E0,3.8E1,3E0,9E0,1.6E1,7E0,7E0,-6.423884E-1,3.9331558E-1,5.5579305E-1,-4.761875E-1,-1.227706E-1,6.8582624E-1,5.637434E-1,-7.0121676E-1,4.105247E-2,-6.8774205E-1,-2.8279692E-2,1.2974419E-1,5.168908E-4,-3.1599864E-1,-1.3239476E-1,3.1336686E-1],"split_indices":[34,20,16,7,18,35,31,0,19,27,17,36,35,16,16,0,0,0,0,0,0,0,0,0,0,0,0,0,0,0,0],"split_type":[0,0,0,0,0,0,0,0,0,0,0,0,0,0,0,0,0,0,0,0,0,0,0,0,0,0,0,0,0,0,0],"sum_hessian":[6.937159E3,3.099737E2,6.6271855E3,1.2646993E2,1.8350375E2,3.0059119E3,3.6212737E3,9.10872E1,3.538274E1,1.5878343E2,2.4720324E1,8.163915E1,2.9242727E3,2.3807612E3,1.2405125E3,8.4878586E1,6.2086043E0,2.8499887E1,6.882854E0,2.1310917E1,1.3747252E2,5.028044E0,1.969228E1,1.4716245E1,6.6922905E1,1.5281941E3,1.3960786E3,1.6650044E3,7.157569E2,7.191134E2,5.21399E2],"tree_param":{"num_deleted":"0","num_feature":"41","num_nodes":"31","size_leaf_vector":"1"}},{"base_weights":[-3.3799256E-3,6.4886344E-4,-7.588337E-1,-2.1996096E-2,1.2185374E-1,6.8433195E-1,-1.5750726E0,2.7051572E-2,-1.661206E-1,1.912694E-1,-7.308806E-1,9.5187193E-1,-3.4044984E-1,5.3618515E-1,-1.8716335E0,8.391996E-4,3.5643658E-1,-3.3619636E-1,-1.0423389E-2,1.9492343E-2,2.4758838E-1,-5.4451674E-1,5.327108E-1,-1.6500318E-1,6.227168E-1,-1.0385796E0,2.9733709E-1],"categories":[],"categories_nodes":[],"categories_segments":[],"categories_sizes":[],"default_left":[0,0,0,0,0,0,0,0,0,0,0,0,0,0,0,0,0,0,0,0,0,0,0,0,0,0,0],"id":19,"left_children":[1,3,5,7,9,11,13,15,17,19,21,23,-1,-1,25,-1,-1,-1,-1,-1,-1,-1,-1,-1,-1,-1,-1],"loss_changes":[2.066244E1,1.853948E1,4.3499695E1,4.0236786E1,6.308157E1,5.59306E0,2.0120235E1,7.249346E1,1.0380304E2,4.4291313E1,4.910159E1,4.4644012E0,0E0,0E0,9.803795E0,0E0,0E0,0E0,0E0,0E0,0E0,0E0,0E0,0E0,0E0,0E0,0E0],"parents":[2147483647,0,0,1,1,2,2,3,3,4,4,5,5,6,6,7,7,8,8,9,9,10,10,11,11,14,14],"right_children":[2,4,6,8,10,12,14,16,18,20,22,24,-1,-1,26,-1,-1,-1,-1,-1,-1,-1,-1,-1,-1,-1,-1],"split_conditions":[1E0,2.52E-2,2E0,5.087E-1,1.9E1,2E0,-2.472E0,4.724E-1,5E0,1.5E1,6E0,-8.59E-2,-3.4044984E-1,5.3618515E-1,1E0,8.391996E-4,3.5643658E-1,-3.3619636E-1,-1.0423389E-2,1.9492343E-2,2.4758838E-1,-5.4451674E-1,5.327108E-1,-1.6500318E-1,6.227168E-1,-1.0385796E0,2.9733709E-1],"split_indices":[39,8,17,7,32,29,26,7,36,34,20,8,0,0,23,0,0,0,0,0,0,0,0,0,0,0,0],"split_type":[0,0,0,0,0,0,0,0,0,0,0,0,0,0,0,0,0,0,0,0,0,0,0,0,0,0,0],"sum_hessian":[6.787735E3,6.752722E3,3.5012714E1,5.6903926E3,1.0623293E3,1.2707174E1,2.230554E1,4.246171E3,1.4442216E3,9.8307886E2,7.9250465E1,1.0854865E1,1.8523096E0,2.0048633E0,2.0300676E1,4.092417E3,1.5375421E2,3.2857556E2,1.115646E3,6.4741003E2,3.3566882E2,6.694878E1,1.2301694E1,1.8562696E0,8.998595E0,1.9183159E1,1.117518E0],"tree_param":{"num_deleted":"0","num_feature":"41","num_nodes":"27","size_leaf_vector":"1"}},{"base_weights":[-2.1154194E-3,7.130601E-2,-4.0483534E-2,4.89705E-1,-1.7393334E-1,-6.366388E-1,4.02591E-2,6.0126615E-1,-4.8359162E-1,-1.2278104E0,2.5466213E-2,-9.092568E-1,-1.8215594E-1,2.9843235E-1,-1.2690086E-2,3.9794475E-1,-1.8935318E-1,-3.8567883E-1,7.6817566E-1,-6.6666603E-1,-5.0620824E-1,-3.2315496E-2,2.3410009E-1,1.1733335E-1,-5.8023304E-1,4.6858862E-1,-1.8121843E-1,-2.6240164E-1,3.853655E-1,-5.0613437E-2,1.3167292E-1],"categories":[],"categories_nodes":[],"categories_segments":[],"categories_sizes":[],"default_left":[0,0,0,0,0,0,0,0,0,0,0,0,0,0,0,0,0,0,0,0,0,0,0,0,0,0,0,0,0,0,0],"id":20,"left_children":[1,3,5,7,9,11,13,15,17,19,21,23,25,27,29,-1,-1,-1,-1,-1,-1,-1,-1,-1,-1,-1,-1,-1,-1,-1,-1],"loss_changes":[1.8886496E1,2.3619287E2,2.1197816E2,9.26499E1,3.0504785E2,6.491882E1,5.3029728E1,1.3322928E2,4.8893112E1,3.0151978E0,4.7072945E1,8.5659E1,3.811568E1,2.4576202E2,7.551199E1,0E0,0E0,0E0,0E0,0E0,0E0,0E0,0E0,0E0,0E0,0E0,0E0,0E0,0E0,0E0,0E0],"parents":[2147483647,0,0,1,1,2,2,3,3,4,4,5,5,6,6,7,7,8,8,9,9,10,10,11,11,12,12,13,13,14,14],"right_children":[2,4,6,8,10,12,14,16,18,20,22,24,26,28,30,-1,-1,-1,-1,-1,-1,-1,-1,-1,-1,-1,-1,-1,-1,-1,-1],"split_conditions":[6E0,2E0,1E0,1E1,1E0,1E0,3E0,1E0,9E0,8.795E-1,1.8E1,1E0,2E0,7E0,6.473E-1,3.9794475E-1,-1.8935318E-1,-3.8567883E-1,7.6817566E-1,-6.6666603E-1,-5.0620824E-1,-3.2315496E-2,2.3410009E-1,1.1733335E-1,-5.8023304E-1,4.6858862E-1,-1.8121843E-1,-2.6240164E-1,3.853655E-1,-5.0613437E-2,1.3167292E-1],"split_indices":[31,20,20,36,36,13,17,13,37,7,36,18,33,31,6,0,0,0,0,0,0,0,0,0,0,0,0,0,0,0,0],"split_type":[0,0,0,0,0,0,0,0,0,0,0,0,0,0,0,0,0,0,0,0,0,0,0,0,0,0,0,0,0,0,0],"sum_hessian":[6.7023477E3,2.3000676E3,4.4022803E3,8.4959314E2,1.4504744E3,5.2429736E2,3.8779827E3,7.6256836E2,8.70248E1,2.2995366E2,1.2205208E3,3.270927E2,1.9720465E2,6.591956E2,3.218787E3,6.4418945E2,1.1837892E2,7.708298E1,9.941825E0,1.6853035E2,6.14233E1,1.01368304E3,2.0683766E2,5.463197E1,2.7246075E2,2.621798E1,1.7098668E2,2.3723357E2,4.2196204E2,2.439823E3,7.789641E2],"tree_param":{"num_deleted":"0","num_feature":"41","num_nodes":"31","size_leaf_vector":"1"}}]},"name":"gbtree"},"learner_model_param":{"base_score":"5E-1","boost_from_average":"1","num_class":"0","num_feature":"41","num_target":"1"},"objective":{"name":"binary:logistic","reg_loss_param":{"scale_pos_weight":"5"}}},"version":[2,1,4]}