{"learner":{"attributes":{"best_iteration":"0","best_score":"0.1928531489883939"},"feature_names":[],"feature_types":[],"gradient_booster":{"model":{"gbtree_model_param":{"num_parallel_tree":"1","num_trees":"11"},"iteration_indptr":[0,1,2,3,4,5,6,7,8,9,10,11],"tree_info":[0,0,0,0,0,0,0,0,0,0,0],"trees":[{"base_weights":[-0E0,-1.0277733E-1,1.1782987E0,9.2543155E-2,-7.7324104E-1,-4.4921875E-1,1.7767375E0,2.2593755E-1,-1.0767449E0,-8.7505406E-1,8.7609076E-1,5.8878505E-1,-1.1866666E0,-1.882353E-1,1.9019532E0,4.7213206E-1,-4.15337E-1,-1.5928143E0,6.853503E-1,-1.5398309E-1,-1.1057212E0,1.4788274E0,1.7777778E-1,1.0514286E0,-1.4146341E0,-1.5720165E0,4.4067797E-1,1.4814814E0,-9.3333334E-1,1.9286269E0,-1.6216215E-1,1.7610407E-1,-3.8723183E-1,-5.11301E-1,-2.5040084E-2,-5.8347744E-1,-1.5961471E-1,-0E0,4.2222783E-1,2.655328E-1,-2.8738824E-1,-3.75479E-1,-6.367567E-2,7.75E-2,5.209886E-1,1.8770643E-1,-4.65E-1,-2.003077E-1,4.3979236E-1,-5.072727E-1,3.4444445E-1,-5.586966E-1,2.617778E-1,4.84375E-1,-2.5655174E-1,-3.1E-1,5.456E-1,1.5942858E-1,-4.52809E-1,6.0497266E-1,-2.5833333E-1,-5.072727E-1,4.894737E-1],"categories":[],"categories_nodes":[],"categories_segments":[],"categories_sizes":[],"default_left":[0,0,0,0,0,0,0,0,0,0,0,0,0,0,0,0,0,0,0,0,0,0,0,0,0,0,0,0,0,0,0,0,0,0,0,0,0,0,0,0,0,0,0,0,0,0,0,0,0,0,0,0,0,0,0,0,0,0,0,0,0,0,0],"id":0,"left_children":[1,3,5,7,9,11,13,15,17,19,21,23,25,27,29,31,33,35,37,39,41,43,45,47,49,51,53,55,57,59,61,-1,-1,-1,-1,-1,-1,-1,-1,-1,-1,-1,-1,-1,-1,-1,-1,-1,-1,-1,-1,-1,-1,-1,-1,-1,-1,-1,-1,-1,-1,-1,-1],"loss_changes":[1.4328834E3,1.4252253E3,9.2533887E2,1.3148909E3,4.1306067E2,1.9665997E2,1.7117505E2,1.1947424E3,7.8609973E2,3.8454517E2,6.0030853E1,1.0066237E2,9.475731E1,5.425708E1,3.6251465E1,9.0369727E2,8.666604E2,2.0739417E2,9.101278E1,4.3964682E2,1.6618799E2,1.8610321E1,4.9348316E1,5.5468414E1,1.3298843E1,6.9117615E1,4.326472E1,1.1090372E1,2.365286E1,4.238623E1,2.6326134E1,0E0,0E0,0E0,0E0,0E0,0E0,0E0,0E0,0E0,0E0,0E0,0E0,0E0,0E0,0E0,0E0,0E0,0E0,0E0,0E0,0E0,0E0,0E0,0E0,0E0,0E0,0E0,0E0,0E0,0E0,0E0,0E0],"parents":[2147483647,0,0,1,1,2,2,3,3,4,4,5,5,6,6,7,7,8,8,9,9,10,10,11,11,12,12,13,13,14,14,15,15,16,16,17,17,18,18,19,19,20,20,21,21,22,22,23,23,24,24,25,25,26,26,27,27,28,28,29,29,30,30],"right_children":[2,4,6,8,10,12,14,16,18,20,22,24,26,28,30,32,34,36,38,40,42,44,46,48,50,52,54,56,58,60,62,-1,-1,-1,-1,-1,-1,-1,-1,-1,-1,-1,-1,-1,-1,-1,-1,-1,-1,-1,-1,-1,-1,-1,-1,-1,-1,-1,-1,-1,-1,-1,-1],"split_conditions":[1.903E0,5E-4,1E0,8E0,1.6E1,2E0,5E-4,3.074E-1,2E0,4E0,1.1E1,1E1,3E0,6E0,6E0,2E0,1E0,1.3E1,6E0,2E0,1.9E1,4E0,3E0,4.24E-1,4.6374E0,1.8E1,3E0,-2.884E-1,2.53E-2,2E0,7E0,1.7610407E-1,-3.8723183E-1,-5.11301E-1,-2.5040084E-2,-5.8347744E-1,-1.5961471E-1,-0E0,4.2222783E-1,2.655328E-1,-2.8738824E-1,-3.75479E-1,-6.367567E-2,7.75E-2,5.209886E-1,1.8770643E-1,-4.65E-1,-2.003077E-1,4.3979236E-1,-5.072727E-1,3.4444445E-1,-5.586966E-1,2.617778E-1,4.84375E-1,-2.5655174E-1,-3.1E-1,5.456E-1,1.5942858E-1,-4.52809E-1,6.0497266E-1,-2.5833333E-1,-5.072727E-1,4.894737E-1],"split_indices":[1,0,21,37,30,20,0,7,21,16,33,37,13,31,18,21,36,32,30,35,28,17,13,3,0,33,19,7,3,30,31,0,0,0,0,0,0,0,0,0,0,0,0,0,0,0,0,0,0,0,0,0,0,0,0,0,0,0,0,0,0,0,0],"split_type":[0,0,0,0,0,0,0,0,0,0,0,0,0,0,0,0,0,0,0,0,0,0,0,0,0,0,0,0,0,0,0,0,0,0,0,0,0,0,0,0,0,0,0,0,0,0,0,0,0,0,0,0,0,0,0,0,0,0,0,0,0,0,0],"sum_hessian":[1.183E4,1.088175E4,9.4825E2,8.4275E3,2.45425E3,2.55E2,6.9325E2,7.56525E3,8.6225E2,2.312E3,1.4225E2,1.06E2,1.49E2,4.15E1,6.5175E2,5.46675E3,2.0985E3,6.67E2,1.9525E2,5.6075E2,1.75125E3,7.575E1,6.65E1,8.65E1,1.95E1,1.205E2,2.85E1,1.25E1,2.9E1,6.435E2,8.25E0,5.17875E3,2.88E2,4.4675E2,1.65175E3,5.2525E2,1.4175E2,9.75E1,9.775E1,2.43E2,3.1775E2,1.56725E3,1.84E2,1.1E1,6.475E1,5.35E1,1.3E1,1.525E1,7.125E1,1.825E1,1.25E0,1.1025E2,1.025E1,1.5E1,1.35E1,1E0,1.15E1,7.75E0,2.125E1,6.385E2,5E0,4.5E0,3.75E0],"tree_param":{"num_deleted":"0","num_feature":"41","num_nodes":"63","size_leaf_vector":"1"}},{"base_weights":[-7.6514744E-4,1.3823166E-1,-4.9546018E-1,6.2140685E-2,9.652887E-1,-1.3369622E0,-2.5516862E-1,1.7236158E-1,-8.897032E-1,-3.232475E-1,1.3296146E0,1.0660838E0,-4.99927E-1,-3.0021673E-1,1.2654592E0,3.1076568E-1,-1.1539625E0,-1.3742008E0,7.9371375E-1,-9.0410376E-1,5.765071E-1,1.3900992E0,-1.010522E0,1.7617764E0,-1.4299183E0,-5.827525E-1,-2.0750403E-2,-2.6128185E-1,1.4225947E0,-1.5808268E-1,1.1087745E-1,1.6906719E-1,-3.9858866E-1,-1.2265423E-1,-5.17439E-1,1.187481E-1,5.785533E-1,-4.2108405E-1,2.7106598E-1,-4.116633E-1,4.297299E-1,4.424372E-1,-4.9223402E-1,-4.5880008E-1,3.5102496E-1,-3.860802E-1,6.318695E-1,3.5560724E-1,-5.55397E-1,-4.1777843E-1,-5.3235598E-2,-2.5224805E-1,5.3852778E-2,-4.1095722E-1,3.333644E-1,4.7721732E-1,-1.19421385E-1],"categories":[],"categories_nodes":[],"categories_segments":[],"categories_sizes":[],"default_left":[0,0,0,0,0,0,0,0,0,0,0,0,0,0,0,0,0,0,0,0,0,0,0,0,0,0,0,0,0,0,0,0,0,0,0,0,0,0,0,0,0,0,0,0,0,0,0,0,0,0,0,0,0,0,0,0,0],"id":1,"left_children":[1,3,5,7,9,11,13,15,17,19,21,23,-1,25,27,29,31,33,35,37,39,41,43,45,47,49,51,53,55,-1,-1,-1,-1,-1,-1,-1,-1,-1,-1,-1,-1,-1,-1,-1,-1,-1,-1,-1,-1,-1,-1,-1,-1,-1,-1,-1,-1],"loss_changes":[7.9515485E2,5.6805676E2,5.1255524E2,8.6757697E2,3.5744812E2,3.748454E2,1.3562398E2,1.3607505E3,7.010618E2,8.85509E1,8.534949E1,1.0421684E2,0E0,1.5145763E2,1.4045723E1,2.5852972E2,1.5759619E2,1.9179199E2,8.404478E1,8.41924E1,1.0468112E2,6.621582E1,1.7291138E1,4.099556E1,1.4468269E1,2.9967203E2,1.4901674E2,1.0194792E1,1.15394745E1,0E0,0E0,0E0,0E0,0E0,0E0,0E0,0E0,0E0,0E0,0E0,0E0,0E0,0E0,0E0,0E0,0E0,0E0,0E0,0E0,0E0,0E0,0E0,0E0,0E0,0E0,0E0,0E0],"parents":[2147483647,0,0,1,1,2,2,3,3,4,4,5,5,6,6,7,7,8,8,9,9,10,10,11,11,13,13,14,14,15,15,16,16,17,17,18,18,19,19,20,20,21,21,22,22,23,23,24,24,25,25,26,26,27,27,28,28],"right_children":[2,4,6,8,10,12,14,16,18,20,22,24,-1,26,28,30,32,34,36,38,40,42,44,46,48,50,52,54,56,-1,-1,-1,-1,-1,-1,-1,-1,-1,-1,-1,-1,-1,-1,-1,-1,-1,-1,-1,-1,-1,-1,-1,-1,-1,-1,-1,-1],"split_conditions":[4.998E-1,1.903E0,1E0,2E0,1.1825E0,2E0,1E0,5E0,1E0,1E1,6E0,5E-4,-4.99927E-1,4E0,6E0,1E0,1E0,1E0,8.38E-2,2E0,-7E-4,9E0,7E0,2E0,-1.4229E0,1E1,2E0,5E-4,5.6E1,-1.5808268E-1,1.1087745E-1,1.6906719E-1,-3.9858866E-1,-1.2265423E-1,-5.17439E-1,1.187481E-1,5.785533E-1,-4.2108405E-1,2.7106598E-1,-4.116633E-1,4.297299E-1,4.424372E-1,-4.9223402E-1,-4.5880008E-1,3.5102496E-1,-3.860802E-1,6.318695E-1,3.5560724E-1,-5.55397E-1,-4.1777843E-1,-5.3235598E-2,-2.5224805E-1,5.3852778E-2,-4.1095722E-1,3.333644E-1,4.7721732E-1,-1.19421385E-1],"split_indices":[7,1,36,21,0,20,22,37,37,33,18,0,0,18,28,18,18,13,0,21,7,16,31,19,3,29,19,0,27,0,0,0,0,0,0,0,0,0,0,0,0,0,0,0,0,0,0,0,0,0,0,0,0,0,0,0,0],"split_type":[0,0,0,0,0,0,0,0,0,0,0,0,0,0,0,0,0,0,0,0,0,0,0,0,0,0,0,0,0,0,0,0,0,0,0,0,0,0,0,0,0,0,0,0,0,0,0,0,0,0,0,0,0,0,0,0,0],"sum_hessian":[1.1562037E4,9.02653E3,2.5355066E3,8.267022E3,7.595082E2,5.621813E2,1.9733253E3,7.409806E3,8.572162E2,1.6743658E2,5.920716E2,5.75664E1,5.0461487E2,1.9173276E3,5.5997635E1,6.710337E3,6.994691E2,6.657833E2,1.9143282E2,1.0174685E2,6.5689735E1,5.7754987E2,1.4521739E1,4.5248714E1,1.2317686E1,9.5288824E2,9.644394E2,5.1637206E0,5.0833916E1,3.6222955E2,6.3481074E3,5.0122433E1,6.493467E2,1.5474548E2,5.1103787E2,1.394135E2,5.201932E1,8.123553E1,2.0511322E1,1.9406275E1,4.628346E1,5.7095416E2,6.5957093E0,1.2165697E1,2.3560421E0,3.515207E0,4.1733505E1,1.2487339E0,1.1068952E1,3.3226398E2,6.2062427E2,1.8931558E2,7.751238E2,2.8792028E0,2.2845178E0,4.7888012E1,2.945903E0],"tree_param":{"num_deleted":"0","num_feature":"41","num_nodes":"57","size_leaf_vector":"1"}},{"base_weights":[-3.783612E-3,-5.975126E-2,7.4962115E-1,1.2330736E-1,-3.7908417E-1,-3.5282695E-1,1.1844319E0,2.7082586E-1,-5.3125286E-1,-1.1209524E0,-1.350158E-1,2.9590806E-1,-8.274066E-1,-1.3330367E-1,1.280724E0,5.233202E-1,-3.7299186E-1,-1.1140488E0,-1.5022223E-1,6.92095E-1,-1.3568463E0,2.5671673E-1,-8.160168E-1,6.031411E-1,-1.0268095E0,-1.2895398E0,-2.6202825E-1,7.03065E-1,-9.392928E-1,1.2934897E0,-4.193175E-1,1.9387735E-1,-3.6466345E-1,-2.5689107E-1,2.914249E-1,-4.1973537E-1,-3.660333E-2,-2.2773385E-1,2.627523E-1,-1.1857639E-1,3.3768448E-1,-4.5314962E-1,1.4292058E-1,1.3762382E-1,-3.30801E-1,-3.596777E-1,2.6377642E-1,2.4857932E-1,-4.0906894E-1,3.5809112E-1,-3.90392E-1,-4.3060657E-1,1.48293E-1,1.9674616E-1,-3.0175003E-1,3.1144628E-1,-3.675605E-1,-4.226416E-1,3.7099624E-1,4.067599E-1,-1.7211197E-2],"categories":[],"categories_nodes":[],"categories_segments":[],"categories_sizes":[],"default_left":[0,0,0,0,0,0,0,0,0,0,0,0,0,0,0,0,0,0,0,0,0,0,0,0,0,0,0,0,0,0,0,0,0,0,0,0,0,0,0,0,0,0,0,0,0,0,0,0,0,0,0,0,0,0,0,0,0,0,0,0,0],"id":2,"left_children":[1,3,5,7,9,11,13,15,17,19,21,23,25,27,29,31,33,35,37,39,41,43,45,47,49,51,53,55,57,59,-1,-1,-1,-1,-1,-1,-1,-1,-1,-1,-1,-1,-1,-1,-1,-1,-1,-1,-1,-1,-1,-1,-1,-1,-1,-1,-1,-1,-1,-1,-1],"loss_changes":[4.6991876E2,6.0645984E2,3.6982446E2,6.369129E2,6.843103E2,6.759031E1,7.03255E1,8.751516E2,2.6924197E2,4.0110083E2,7.5931036E2,3.8474243E1,3.27378E1,2.665129E1,1.9073303E1,6.7165234E2,9.0836664E2,1.14417725E2,4.2907062E2,4.6678757E1,1.5865942E2,4.484001E2,5.9737024E2,3.0182615E1,1.0550505E1,1.28741455E1,3.773579E1,1.22955675E1,1.9805113E1,1.2980713E1,0E0,0E0,0E0,0E0,0E0,0E0,0E0,0E0,0E0,0E0,0E0,0E0,0E0,0E0,0E0,0E0,0E0,0E0,0E0,0E0,0E0,0E0,0E0,0E0,0E0,0E0,0E0,0E0,0E0,0E0,0E0],"parents":[2147483647,0,0,1,1,2,2,3,3,4,4,5,5,6,6,7,7,8,8,9,9,10,10,11,11,12,12,13,13,14,14,15,15,16,16,17,17,18,18,19,19,20,20,21,21,22,22,23,23,24,24,25,25,26,26,27,27,28,28,29,29],"right_children":[2,4,6,8,10,12,14,16,18,20,22,24,26,28,30,32,34,36,38,40,42,44,46,48,50,52,54,56,58,60,-1,-1,-1,-1,-1,-1,-1,-1,-1,-1,-1,-1,-1,-1,-1,-1,-1,-1,-1,-1,-1,-1,-1,-1,-1,-1,-1,-1,-1,-1,-1],"split_conditions":[1.903E0,1E0,1E0,1.3E1,1E1,2E0,5E-4,4E0,2E0,1.4E1,1E0,1E1,2E0,1.5E1,2.7825E0,1.6E1,1.1E1,1E1,4E0,-3.2E-3,1.6E1,1E0,1E0,4.359E-1,2E0,3.0083E0,3E0,4E0,2.2387E0,6E0,-4.193175E-1,1.9387735E-1,-3.6466345E-1,-2.5689107E-1,2.914249E-1,-4.1973537E-1,-3.660333E-2,-2.2773385E-1,2.627523E-1,-1.1857639E-1,3.3768448E-1,-4.5314962E-1,1.4292058E-1,1.3762382E-1,-3.30801E-1,-3.596777E-1,2.6377642E-1,2.4857932E-1,-4.0906894E-1,3.5809112E-1,-3.90392E-1,-4.3060657E-1,1.48293E-1,1.9674616E-1,-3.0175003E-1,3.1144628E-1,-3.675605E-1,-4.226416E-1,3.7099624E-1,4.067599E-1,-1.7211197E-2],"split_indices":[1,13,21,36,29,20,0,20,30,33,21,37,13,35,2,30,29,31,20,4,28,37,37,5,34,3,18,19,1,18,0,0,0,0,0,0,0,0,0,0,0,0,0,0,0,0,0,0,0,0,0,0,0,0,0,0,0,0,0,0,0],"split_type":[0,0,0,0,0,0,0,0,0,0,0,0,0,0,0,0,0,0,0,0,0,0,0,0,0,0,0,0,0,0,0,0,0,0,0,0,0,0,0,0,0,0,0,0,0,0,0,0,0,0,0,0,0,0,0,0,0,0,0,0,0],"sum_hessian":[1.11423545E4,1.0372725E4,7.696306E2,6.593559E3,3.779165E3,2.177419E2,5.5188873E2,5.3813486E3,1.2122106E3,9.34642E2,2.844523E3,9.215098E1,1.2559092E2,3.755623E1,5.1433246E2,3.8655378E3,1.5158108E3,4.7846402E2,7.337466E2,1.0738238E2,8.272597E2,1.8061776E3,1.0383453E3,7.52227E1,1.6928274E1,6.840042E1,5.7190495E1,1.8493435E1,1.9062794E1,5.1235754E2,1.9749316E0,3.6471045E3,2.184332E2,1.1255637E3,3.902471E2,3.8528662E2,9.317737E1,4.6289777E2,2.708488E2,2.8990202E1,7.839218E1,7.8230176E2,4.495792E1,1.5829598E3,2.2321774E2,8.6087067E2,1.7747475E2,6.870451E1,6.518187E0,1.2481228E0,1.5680152E1,6.4958275E1,3.4421453E0,2.5347227E1,3.1843267E1,1.63506E1,2.1428359E0,1.620699E1,2.8558054E0,5.054019E2,6.955667E0],"tree_param":{"num_deleted":"0","num_feature":"41","num_nodes":"61","size_leaf_vector":"1"}},{"base_weights":[-5.1531764E-3,-4.7207806E-2,6.391019E-1,5.6263417E-2,-3.8491026E-1,-2.860264E-1,1.0397303E0,-1.9396947E-1,2.1799009E-1,-9.101146E-2,-9.212506E-1,-3.7262075E-2,-1.2820474E0,-1.004626E0,1.093502E0,-3.7520257E-1,4.781197E-1,-2.2695778E-1,3.6430544E-1,1.360607E-1,-8.7628925E-1,-4.123878E-1,-1.1724812E0,2.2213651E-1,-1.1756729E0,-4.1749156E-1,-5.8696982E-3,2.868903E-1,-4.5726538E-1,1.1629092E0,2.5385448E-1,-2.363053E-1,4.582089E-2,3.0931112E-1,-1.8482645E-1,-2.0122865E-1,9.255453E-2,-1.7369086E-1,1.3959004E-1,9.889923E-2,-2.2219121E-1,1.7376402E-1,-3.3627704E-1,-1.922294E-1,4.3796924E-1,-3.8254565E-1,3.1498486E-1,-2.0522979E-1,1.866149E-1,-4.0251186E-1,2.8863144E-1,3.6851004E-1,-2.8231397E-1,-3.4758756E-1,2.3701887E-1],"categories":[],"categories_nodes":[],"categories_segments":[],"categories_sizes":[],"default_left":[0,0,0,0,0,0,0,0,0,0,0,0,0,0,0,0,0,0,0,0,0,0,0,0,0,0,0,0,0,0,0,0,0,0,0,0,0,0,0,0,0,0,0,0,0,0,0,0,0,0,0,0,0,0,0],"id":3,"left_children":[1,3,5,7,9,11,13,15,17,19,21,23,25,27,29,31,33,35,37,39,41,43,45,47,49,-1,-1,-1,-1,51,53,-1,-1,-1,-1,-1,-1,-1,-1,-1,-1,-1,-1,-1,-1,-1,-1,-1,-1,-1,-1,-1,-1,-1,-1],"loss_changes":[2.8688467E2,3.4733557E2,2.4077432E2,3.0798422E2,3.674018E2,4.8727295E1,5.0893494E1,3.6410388E2,3.010199E2,2.6886798E2,1.05006775E2,4.707911E1,3.1870346E0,1.2378779E1,2.5454468E1,4.7661816E2,3.551054E2,2.5411201E2,2.7683765E2,1.8278697E2,1.0191086E2,1.04857025E2,7.5579895E1,4.4046112E1,8.858658E0,0E0,0E0,0E0,0E0,2.2928894E1,2.5447857E1,0E0,0E0,0E0,0E0,0E0,0E0,0E0,0E0,0E0,0E0,0E0,0E0,0E0,0E0,0E0,0E0,0E0,0E0,0E0,0E0,0E0,0E0,0E0,0E0],"parents":[2147483647,0,0,1,1,2,2,3,3,4,4,5,5,6,6,7,7,8,8,9,9,10,10,11,11,12,12,13,13,14,14,15,15,16,16,17,17,18,18,19,19,20,20,21,21,22,22,23,23,24,24,29,29,30,30],"right_children":[2,4,6,8,10,12,14,16,18,20,22,24,26,28,30,32,34,36,38,40,42,44,46,48,50,-1,-1,-1,-1,52,54,-1,-1,-1,-1,-1,-1,-1,-1,-1,-1,-1,-1,-1,-1,-1,-1,-1,-1,-1,-1,-1,-1,-1,-1],"split_conditions":[1.903E0,2E0,1E0,9E0,1.7E1,5E0,-7.327E-1,2E0,3E0,4.69E-1,7E0,2.959E-1,1.7361E0,4E0,4E0,9E0,3E0,1E1,3E0,2E0,7E0,1.8E1,1.9E1,1E1,3.1077E0,-4.1749156E-1,-5.8696982E-3,2.868903E-1,-4.5726538E-1,7E0,-1.664E-1,-2.363053E-1,4.582089E-2,3.0931112E-1,-1.8482645E-1,-2.0122865E-1,9.255453E-2,-1.7369086E-1,1.3959004E-1,9.889923E-2,-2.2219121E-1,1.7376402E-1,-3.3627704E-1,-1.922294E-1,4.3796924E-1,-3.8254565E-1,3.1498486E-1,-2.0522979E-1,1.866149E-1,-4.0251186E-1,2.8863144E-1,3.6851004E-1,-2.8231397E-1,-3.4758756E-1,2.3701887E-1],"split_indices":[1,13,21,30,35,18,0,15,18,2,30,7,3,31,18,32,35,29,33,21,33,34,28,28,4,0,0,0,0,33,8,0,0,0,0,0,0,0,0,0,0,0,0,0,0,0,0,0,0,0,0,0,0,0,0],"split_type":[0,0,0,0,0,0,0,0,0,0,0,0,0,0,0,0,0,0,0,0,0,0,0,0,0,0,0,0,0,0,0,0,0,0,0,0,0,0,0,0,0,0,0,0,0,0,0,0,0,0,0,0,0,0,0],"sum_hessian":[1.0586416E4,9.938588E3,6.478282E2,7.6082666E3,2.3303213E3,1.9585265E2,4.5197552E2,2.9867673E3,4.621499E3,1.5061595E3,8.2416174E2,1.5754253E2,3.8310112E1,1.1130224E1,4.4084528E2,2.3527698E3,6.3399756E2,1.1435104E3,3.4779888E3,1.1689662E3,3.3719336E2,2.7327997E2,5.508818E2,1.2896207E2,2.858046E1,3.6380413E1,1.9297006E0,1.9916213E0,9.138603E0,4.0683078E2,3.4014503E1,1.3518387E3,1.00093115E3,4.2735574E2,2.0664182E2,6.339798E2,5.0953058E2,2.954538E2,3.1825352E3,9.6298444E2,2.0598178E2,4.2511818E1,2.9468155E2,2.4595096E2,2.7328993E1,5.362402E2,1.4641619E1,3.8530926E1,9.0431145E1,2.7369423E1,1.2110384E0,4.0224634E2,4.5844607E0,8.888113E0,2.512639E1],"tree_param":{"num_deleted":"0","num_feature":"41","num_nodes":"55","size_leaf_vector":"1"}},{"base_weights":[-4.212764E-3,5.1148165E-2,-4.4265193E-1,2.6518062E-1,-4.4027425E-2,-1.2217065E0,-1.881008E-1,5.3197837E-1,-7.092036E-1,-5.60009E-1,3.1452134E-2,4.9398088E-1,-1.3028771E0,-4.0623283E-1,6.476859E-1,-7.4668384E-1,6.802567E-1,6.330529E-1,-9.358122E-1,1.1579959E0,-8.0357546E-1,-2.3203198E-2,6.6439533E-1,-4.09343E-1,-7.026767E-1,-1.6371296E-1,-9.368225E-1,9.6252257E-1,-3.4235138E-1,-4.386365E-1,6.295756E-3,-3.6964858E-1,2.4146928E-1,-1.7631607E-1,2.8956494E-1,1.4616199E-1,-3.318694E-1,-3.734657E-2,4.5529953E-1,5.263526E-2,-3.8931057E-1,1.7083205E-2,-1.6111197E-1,-1.7471321E-1,2.8187582E-1,4.8565605E-1,-3.6157313E-1,-1.1187765E-1,1.9393714E-1,-3.966524E-1,-1.3640682E-1,-2.9769337E-1,3.3275747E-1,-3.092279E-1,3.6852202E-1],"categories":[],"categories_nodes":[],"categories_segments":[],"categories_sizes":[],"default_left":[0,0,0,0,0,0,0,0,0,0,0,0,0,0,0,0,0,0,0,0,0,0,0,0,0,0,0,0,0,0,0,0,0,0,0,0,0,0,0,0,0,0,0,0,0,0,0,0,0,0,0,0,0,0,0],"id":4,"left_children":[1,3,5,7,9,11,13,15,17,19,21,-1,23,25,27,29,31,33,35,37,39,41,43,-1,45,47,49,51,53,-1,-1,-1,-1,-1,-1,-1,-1,-1,-1,-1,-1,-1,-1,-1,-1,-1,-1,-1,-1,-1,-1,-1,-1,-1,-1],"loss_changes":[2.4826166E2,1.850082E2,2.2717084E2,7.270982E2,2.448732E2,6.656656E1,1.5804971E2,4.1670282E2,1.8349652E2,3.3668384E2,1.8978502E2,0E0,1.9730835E0,8.8243805E1,5.6284393E1,1.1719069E2,3.6451178E2,3.2169956E1,9.8131134E1,3.9916443E1,3.098359E2,1.9640614E2,1.316449E2,0E0,1.2308636E1,7.379308E1,3.608998E1,3.012767E1,4.5374428E1,0E0,0E0,0E0,0E0,0E0,0E0,0E0,0E0,0E0,0E0,0E0,0E0,0E0,0E0,0E0,0E0,0E0,0E0,0E0,0E0,0E0,0E0,0E0,0E0,0E0,0E0],"parents":[2147483647,0,0,1,1,2,2,3,3,4,4,5,5,6,6,7,7,8,8,9,9,10,10,12,12,13,13,14,14,15,15,16,16,17,17,18,18,19,19,20,20,21,21,22,22,24,24,25,25,26,26,27,27,28,28],"right_children":[2,4,6,8,10,12,14,16,18,20,22,-1,24,26,28,30,32,34,36,38,40,42,44,-1,46,48,50,52,54,-1,-1,-1,-1,-1,-1,-1,-1,-1,-1,-1,-1,-1,-1,-1,-1,-1,-1,-1,-1,-1,-1,-1,-1,-1,-1],"split_conditions":[1.0378E0,1E1,1E0,1E0,1E0,2E0,1.1E1,-2.109E-1,1.4E1,1E0,1.903E0,4.9398088E-1,6E0,1E0,2.193E-1,4E0,1E0,4E0,-1.786E-1,7E0,2E0,2E0,1.0078E0,-4.09343E-1,-1.026E-1,1E0,6E0,2E0,7E0,-4.386365E-1,6.295756E-3,-3.6964858E-1,2.4146928E-1,-1.7631607E-1,2.8956494E-1,1.4616199E-1,-3.318694E-1,-3.734657E-2,4.5529953E-1,5.263526E-2,-3.8931057E-1,1.7083205E-2,-1.6111197E-1,-1.7471321E-1,2.8187582E-1,4.8565605E-1,-3.6157313E-1,-1.1187765E-1,1.9393714E-1,-3.966524E-1,-1.3640682E-1,-2.9769337E-1,3.3275747E-1,-3.092279E-1,3.6852202E-1],"split_indices":[7,29,36,13,20,20,30,7,33,36,1,0,19,13,2,29,18,16,3,32,18,21,0,0,1,14,32,33,16,0,0,0,0,0,0,0,0,0,0,0,0,0,0,0,0,0,0,0,0,0,0,0,0,0,0],"split_type":[0,0,0,0,0,0,0,0,0,0,0,0,0,0,0,0,0,0,0,0,0,0,0,0,0,0,0,0,0,0,0,0,0,0,0,0,0,0,0,0,0,0,0,0,0,0,0,0,0,0,0,0,0,0,0],"sum_hessian":[1.0226213E4,9.080516E3,1.145697E3,2.7944727E3,6.286043E3,2.812207E2,8.644764E2,2.1941443E3,6.0032825E2,8.0137683E2,5.484666E3,7.359064E0,2.7386166E2,6.8596124E2,1.7851512E2,2.2758185E2,1.9665625E3,8.645302E1,5.1387524E2,9.904004E1,7.023368E2,5.049592E3,4.3507437E2,2.6490076E2,8.960895E0,4.7167734E2,2.1428392E2,1.3546454E2,4.3050587E1,1.2116621E2,1.06415634E2,9.788207E1,1.8686805E3,1.7138865E1,6.931415E1,4.4681046E1,4.6919418E2,1.9483738E1,7.95563E1,2.2300632E2,4.7933047E2,4.362435E3,6.8715686E2,7.211982E1,3.6295456E2,1.1167656E0,7.844129E0,3.7783218E2,9.3845146E1,1.2587658E2,8.840733E1,6.968571E0,1.2849597E2,3.0393843E1,1.2656743E1],"tree_param":{"num_deleted":"0","num_feature":"41","num_nodes":"55","size_leaf_vector":"1"}},{"base_weights":[-3.7052992E-3,8.332711E-2,-2.3447265E-1,4.878591E-2,1.1071384E0,-1.0473152E0,-9.511676E-2,3.7996873E-1,-1.7848078E-2,1.4210963E0,3.1345215E-2,5.138325E-1,-1.288509E0,-2.3066463E-1,1.7672287E-1,8.6952955E-1,-1.5347762E0,-6.117307E-1,1.073759E-1,1.45321E0,-4.4084686E-1,4.098E-1,-1.1347811E0,-7.047564E-1,7.3081887E-1,-5.399133E-1,-1.2486415E0,-1.532921E-1,-7.149545E-1,3.7685657E-1,-2.6951256E-1,-3.1883356E-1,3.2648495E-1,9.15616E-2,-5.975157E-1,2.9341668E-1,-2.40328E-1,8.5356496E-2,-1.7443908E-2,4.6077263E-1,-2.632042E-1,-4.9897048E-1,1.7425859E-1,-6.0476875E-1,-5.326788E-2,3.4870067E-1,-3.24484E-1,-3.9156285E-1,-2.2594097E-1,-1.1546868E-1,2.8370826E-2,-3.6936852E-1,1.7475387E-1,1.3701634E-1,-3.4341395E-1,-3.5484962E-2,-3.8948795E-1],"categories":[],"categories_nodes":[],"categories_segments":[],"categories_sizes":[],"default_left":[0,0,0,0,0,0,0,0,0,0,0,0,0,0,0,0,0,0,0,0,0,0,0,0,0,0,0,0,0,0,0,0,0,0,0,0,0,0,0,0,0,0,0,0,0,0,0,0,0,0,0,0,0,0,0,0,0],"id":5,"left_children":[1,3,5,7,9,11,13,15,17,19,21,23,25,27,29,31,33,35,37,39,-1,41,43,-1,45,-1,47,49,51,53,55,-1,-1,-1,-1,-1,-1,-1,-1,-1,-1,-1,-1,-1,-1,-1,-1,-1,-1,-1,-1,-1,-1,-1,-1,-1,-1],"loss_changes":[1.9777245E2,2.52812E2,3.0537067E2,1.5267618E2,7.876059E1,1.4923352E2,8.490585E1,1.0875989E3,4.2844962E2,1.8555298E1,2.4178389E1,3.4028374E1,4.0047607E0,5.749317E1,6.858943E1,3.2298755E2,1.7040826E2,2.5636307E2,1.3080191E2,1.49296875E1,0E0,1.3609107E1,1.021936E1,0E0,3.6483166E1,0E0,1.4697266E0,7.12283E1,1.2954947E2,5.1724854E1,3.6278275E1,0E0,0E0,0E0,0E0,0E0,0E0,0E0,0E0,0E0,0E0,0E0,0E0,0E0,0E0,0E0,0E0,0E0,0E0,0E0,0E0,0E0,0E0,0E0,0E0,0E0,0E0],"parents":[2147483647,0,0,1,1,2,2,3,3,4,4,5,5,6,6,7,7,8,8,9,9,10,10,11,11,12,12,13,13,14,14,15,15,16,16,17,17,18,18,19,19,21,21,22,22,24,24,26,26,27,27,28,28,29,29,30,30],"right_children":[2,4,6,8,10,12,14,16,18,20,22,24,26,28,30,32,34,36,38,40,-1,42,44,-1,46,-1,48,50,52,54,56,-1,-1,-1,-1,-1,-1,-1,-1,-1,-1,-1,-1,-1,-1,-1,-1,-1,-1,-1,-1,-1,-1,-1,-1,-1,-1],"split_conditions":[2.959E-1,2.714E-1,1E0,2E0,1E1,2E0,3.353E-1,2E0,1E0,7E0,9.1E-3,1E0,4.998E-1,6E0,4E0,1E0,1.5E1,1E0,5E0,9E0,-4.4084686E-1,4E0,4E0,-7.047564E-1,1.0581E0,-5.399133E-1,6E0,3E0,9E0,2.4019E0,7E0,-3.1883356E-1,3.2648495E-1,9.15616E-2,-5.975157E-1,2.9341668E-1,-2.40328E-1,8.5356496E-2,-1.7443908E-2,4.6077263E-1,-2.632042E-1,-4.9897048E-1,1.7425859E-1,-6.0476875E-1,-5.326788E-2,3.4870067E-1,-3.24484E-1,-3.9156285E-1,-2.2594097E-1,-1.1546868E-1,2.8370826E-2,-3.6936852E-1,1.7475387E-1,1.3701634E-1,-3.4341395E-1,-3.5484962E-2,-3.8948795E-1],"split_indices":[7,7,36,29,29,20,6,20,20,28,2,16,7,20,19,18,28,36,16,16,0,31,20,0,1,0,19,19,32,7,18,0,0,0,0,0,0,0,0,0,0,0,0,0,0,0,0,0,0,0,0,0,0,0,0,0,0],"split_type":[0,0,0,0,0,0,0,0,0,0,0,0,0,0,0,0,0,0,0,0,0,0,0,0,0,0,0,0,0,0,0,0,0,0,0,0,0,0,0,0,0,0,0,0,0,0,0,0,0,0,0,0,0,0,0,0,0],"sum_hessian":[9.845175E3,7.1494463E3,2.6957283E3,6.917125E3,2.323213E2,3.9357095E2,2.3021572E3,1.1578251E3,5.7593E3,1.7958925E2,5.2732048E1,5.251736E1,3.410536E2,1.5362738E3,7.658835E2,9.225054E2,2.3531975E2,1.002238E3,4.757062E3,1.7806688E2,1.5223799E0,4.0301254E1,1.2430795E1,3.108663E0,4.9408695E1,2.412743E1,3.1692615E2,1.3257776E3,2.1049622E2,5.288522E2,2.370313E2,8.09787E1,8.415267E2,4.1616302E1,1.9370345E2,9.4731094E1,9.075069E2,2.347201E3,2.409861E3,1.7588841E2,2.178462E0,2.1557288E0,3.8145527E1,6.173181E0,6.2576137E0,4.074424E1,8.664455E0,3.0695456E2,9.971607E0,6.9922034E2,6.2655725E2,1.5339484E2,5.710138E1,5.0729916E2,2.1553024E1,2.0581339E2,3.1217903E1],"tree_param":{"num_deleted":"0","num_feature":"41","num_nodes":"57","size_leaf_vector":"1"}},{"base_weights":[-3.2444592E-3,-1.9417994E-2,1.1671655E0,4.769991E-2,-2.0061934E-1,8.267202E-1,1.6604196E0,2.1605581E-2,9.263473E-1,-9.467271E-1,-9.3905784E-2,-4.17201E-1,9.8444057E-1,1.7658057E0,-4.9289668E-1,7.193047E-2,-2.695786E-1,1.2498974E0,-1.907577E-2,3.8336653E-1,-1.1870086E0,-5.917805E-2,-8.196271E-1,1.085218E0,-3.488187E-1,7.950801E-1,1.4659902E0,-4.4855922E-1,2.2973673E-1,-1.6089097E-2,8.997298E-2,-4.5945577E-2,-3.6543494E-1,3.9765778E-1,-3.614332E-1,-2.7081314E-1,8.200766E-2,-2.0740601E-1,2.4438718E-1,-3.7327188E-1,-1.8788914E-1,-3.1476164E-1,-1.0233316E-2,3.3900023E-1,-3.5335404E-1,3.9866835E-1,9.572437E-2,4.9552202E-1,3.2612848E-1],"categories":[],"categories_nodes":[],"categories_segments":[],"categories_sizes":[],"default_left":[0,0,0,0,0,0,0,0,0,0,0,0,0,0,0,0,0,0,0,0,0,0,0,0,0,0,0,0,0,0,0,0,0,0,0,0,0,0,0,0,0,0,0,0,0,0,0,0,0],"id":6,"left_children":[1,3,5,7,9,11,13,15,17,19,21,-1,23,25,27,29,31,33,35,37,39,41,43,45,-1,-1,47,-1,-1,-1,-1,-1,-1,-1,-1,-1,-1,-1,-1,-1,-1,-1,-1,-1,-1,-1,-1,-1,-1],"loss_changes":[1.8032486E2,1.14282394E2,2.0431366E1,1.5719939E2,2.0213162E2,2.8330235E1,1.2677643E1,9.7620056E1,6.0513657E1,1.0199051E2,5.5980217E1,0E0,1.6965858E1,8.174393E0,4.85078E0,1.5355464E2,1.0815738E2,1.31957245E1,1.2689354E1,2.156786E1,1.9447327E0,5.307757E1,6.3397377E1,1.0702202E1,0E0,0E0,4.3293762E-1,0E0,0E0,0E0,0E0,0E0,0E0,0E0,0E0,0E0,0E0,0E0,0E0,0E0,0E0,0E0,0E0,0E0,0E0,0E0,0E0,0E0,0E0],"parents":[2147483647,0,0,1,1,2,2,3,3,4,4,5,5,6,6,7,7,8,8,9,9,10,10,12,12,13,13,14,14,15,15,16,16,17,17,18,18,19,19,20,20,21,21,22,22,23,23,26,26],"right_children":[2,4,6,8,10,12,14,16,18,20,22,-1,24,26,28,30,32,34,36,38,40,42,44,46,-1,-1,48,-1,-1,-1,-1,-1,-1,-1,-1,-1,-1,-1,-1,-1,-1,-1,-1,-1,-1,-1,-1,-1,-1],"split_conditions":[1E0,2.959E-1,1.1E1,2.714E-1,1E0,3E0,2E0,5.042E-1,1E1,2E0,7E0,-4.17201E-1,5.5798E0,5E0,-1.3364E0,1.5E1,1.9E1,7E0,2.758E-1,1E0,6E0,-4.827E-1,6E0,5.7E-2,-3.488187E-1,7.950801E-1,6.32E-1,-4.4855922E-1,2.2973673E-1,-1.6089097E-2,8.997298E-2,-4.5945577E-2,-3.6543494E-1,3.9765778E-1,-3.614332E-1,-2.7081314E-1,8.200766E-2,-2.0740601E-1,2.4438718E-1,-3.7327188E-1,-1.8788914E-1,-3.1476164E-1,-1.0233316E-2,3.3900023E-1,-3.5335404E-1,3.9866835E-1,9.572437E-2,4.9552202E-1,3.2612848E-1],"split_indices":[22,7,29,7,36,16,15,2,29,20,20,0,26,30,0,28,32,28,7,17,19,8,31,2,0,0,7,0,0,0,0,0,0,0,0,0,0,0,0,0,0,0,0,0,0,0,0,0,0],"split_type":[0,0,0,0,0,0,0,0,0,0,0,0,0,0,0,0,0,0,0,0,0,0,0,0,0,0,0,0,0,0,0,0,0,0,0,0,0,0,0,0,0,0,0,0,0,0,0,0,0],"sum_hessian":[9.523848E3,9.395004E3,1.2884325E2,6.8561777E3,2.5388264E3,7.781272E1,5.1030525E1,6.6594287E3,1.9674908E2,3.1669846E2,2.222128E3,4.756813E0,7.305591E1,4.8821114E1,2.2094116E0,5.678735E3,9.8069354E2,1.4634404E2,5.040505E1,4.8366604E1,2.6833185E2,2.1216814E3,1.0044665E2,7.018864E1,2.867276E0,1.12600565E1,3.7561058E1,1.1486906E0,1.0607212E0,3.6238906E3,2.0548445E3,8.662309E2,1.1446264E2,1.4484232E2,1.501725E0,1.2042311E1,3.8362736E1,1.3258839E1,3.5107765E1,2.5961942E2,8.71244E0,5.550937E1,2.0661719E3,1.4055768E1,8.6390884E1,5.524438E1,1.4944256E1,2.6287657E1,1.1273401E1],"tree_param":{"num_deleted":"0","num_feature":"41","num_nodes":"49","size_leaf_vector":"1"}},{"base_weights":[-3.0363663E-3,-2.9089415E-2,4.9868587E-1,7.815338E-2,-1.3142167E-1,-2.0744927E-1,8.629009E-1,3.8012087E-1,-1.8598638E-1,-9.7787523E-1,1.0494757E-2,-6.301291E-1,3.06628E-1,-7.064151E-2,9.66495E-1,5.7330275E-1,-8.376124E-1,1.2287384E-1,-4.371965E-1,-5.047576E-1,-1.7403196E0,-5.377563E-1,9.54081E-2,-4.515633E-2,-1.1829551E0,-7.982566E-1,5.833452E-1,-4.0283778E-1,2.327443E-1,1.0358719E0,1.829719E-1,2.0681295E-1,-3.476539E-1,-4.2305133E-1,-6.412353E-2,-1.1665561E-1,1.3518433E-1,-1.9534658E-1,8.353596E-2,-2.4473113E-1,2.3778693E-1,-5.451259E-1,3.2390657E-1,3.115597E-1,-1.8986526E-1,-1.8643089E-2,1.1373453E-1,-3.0008182E-1,1.8648645E-1,1.0148822E-1,-4.039726E-1,1.7627865E-1,-3.2684693E-1,2.4195874E-1,-4.2012504E-1,2.1625046E-1,-1.2814687E-1,3.302709E-1,-4.5936805E-1,-5.071633E-1,2.3624808E-1],"categories":[],"categories_nodes":[],"categories_segments":[],"categories_sizes":[],"default_left":[0,0,0,0,0,0,0,0,0,0,0,0,0,0,0,0,0,0,0,0,0,0,0,0,0,0,0,0,0,0,0,0,0,0,0,0,0,0,0,0,0,0,0,0,0,0,0,0,0,0,0,0,0,0,0,0,0,0,0,0,0],"id":7,"left_children":[1,3,5,7,9,11,13,15,17,19,21,23,25,27,29,31,33,35,37,39,41,43,45,47,49,51,53,-1,55,57,59,-1,-1,-1,-1,-1,-1,-1,-1,-1,-1,-1,-1,-1,-1,-1,-1,-1,-1,-1,-1,-1,-1,-1,-1,-1,-1,-1,-1,-1,-1],"loss_changes":[1.2231474E2,9.7632E1,1.1897792E2,3.4656448E2,5.468571E2,3.4522156E1,2.9558182E1,4.7737817E2,1.7989435E2,2.3491272E2,1.8159415E2,2.8090374E1,2.2466383E1,1.2005009E1,1.4734192E1,2.790935E2,9.213243E1,1.6283005E2,1.7449133E2,1.4716524E2,1.4470215E1,6.0914047E1,1.4264574E2,2.6439531E1,8.541046E0,5.792362E0,2.3274296E1,0E0,8.104094E0,2.030658E1,2.6050835E1,0E0,0E0,0E0,0E0,0E0,0E0,0E0,0E0,0E0,0E0,0E0,0E0,0E0,0E0,0E0,0E0,0E0,0E0,0E0,0E0,0E0,0E0,0E0,0E0,0E0,0E0,0E0,0E0,0E0,0E0],"parents":[2147483647,0,0,1,1,2,2,3,3,4,4,5,5,6,6,7,7,8,8,9,9,10,10,11,11,12,12,13,13,14,14,15,15,16,16,17,17,18,18,19,19,20,20,21,21,22,22,23,23,24,24,25,25,26,26,28,28,29,29,30,30],"right_children":[2,4,6,8,10,12,14,16,18,20,22,24,26,28,30,32,34,36,38,40,42,44,46,48,50,52,54,-1,56,58,60,-1,-1,-1,-1,-1,-1,-1,-1,-1,-1,-1,-1,-1,-1,-1,-1,-1,-1,-1,-1,-1,-1,-1,-1,-1,-1,-1,-1,-1,-1],"split_conditions":[1.903E0,5E0,1E0,6E0,2E0,9.162E-1,5E-4,5E0,3E0,4E0,2E0,3E0,5E0,-3.376E-1,4E0,7E0,5E0,1.4E1,5E0,1E1,6.3E1,1E1,9E0,2E0,1E1,1E0,1E1,-4.0283778E-1,3.9E-3,2E0,-2.384E-1,2.0681295E-1,-3.476539E-1,-4.2305133E-1,-6.412353E-2,-1.1665561E-1,1.3518433E-1,-1.9534658E-1,8.353596E-2,-2.4473113E-1,2.3778693E-1,-5.451259E-1,3.2390657E-1,3.115597E-1,-1.8986526E-1,-1.8643089E-2,1.1373453E-1,-3.0008182E-1,1.8648645E-1,1.0148822E-1,-4.039726E-1,1.7627865E-1,-3.2684693E-1,2.4195874E-1,-4.2012504E-1,2.1625046E-1,-1.2814687E-1,3.302709E-1,-4.5936805E-1,-5.071633E-1,2.3624808E-1],"split_indices":[1,16,21,32,35,3,0,20,17,20,30,18,16,6,18,31,35,33,20,36,27,29,31,13,29,20,16,0,5,30,8,0,0,0,0,0,0,0,0,0,0,0,0,0,0,0,0,0,0,0,0,0,0,0,0,0,0,0,0,0,0],"split_type":[0,0,0,0,0,0,0,0,0,0,0,0,0,0,0,0,0,0,0,0,0,0,0,0,0,0,0,0,0,0,0,0,0,0,0,0,0,0,0,0,0,0,0,0,0,0,0,0,0,0,0,0,0,0,0,0,0,0,0,0,0],"sum_hessian":[9.355327E3,8.894407E3,4.6091995E2,4.3431167E3,4.55129E3,1.5698671E2,3.0393326E2,2.0262482E3,2.3168684E3,6.526573E2,3.8986328E3,8.60279E1,7.095881E1,3.0390053E1,2.735432E2,1.749272E3,2.769763E2,1.0394215E3,1.277447E3,4.0376932E2,2.4888794E2,5.2212836E2,3.3765044E3,4.232422E1,4.3703686E1,1.3834653E1,5.7124157E1,5.3672543E0,2.5022799E1,2.5099669E2,2.2546505E1,1.6580741E3,9.1197815E1,1.5025697E2,1.2671931E2,4.0065704E2,6.387644E2,1.00354095E3,2.7390607E2,3.3022668E2,7.354263E1,2.4764268E2,1.2452554E0,2.3541935E1,4.9858643E2,2.1470808E3,1.2294237E3,1.7234518E1,2.5089699E1,3.0942378E0,4.0609447E1,1.9903696E0,1.1844284E1,5.2392845E1,4.731311E0,1.4506656E1,1.0516143E1,2.486582E2,2.338483E0,5.0040464E0,1.7542458E1],"tree_param":{"num_deleted":"0","num_feature":"41","num_nodes":"61","size_leaf_vector":"1"}},{"base_weights":[-2.679442E-3,-1.4611265E-2,9.7526777E-1,1.6810666E-1,-6.751817E-2,1.0901698E0,-6.1718963E-2,3.54524E-1,-2.7918807E-1,-5.2881043E-2,-8.512094E-1,-3.20653E-1,1.1406562E0,6.874453E-1,-1.0173213E0,7.8572667E-1,2.0129345E-2,-1.1572074E0,5.5599894E-2,-1.7299667E-1,5.6387004E-2,-1.275619E0,-3.8980317E-1,2.3587175E-1,-3.330441E-1,1.2704332E0,4.5101494E-1,-2.0535749E-1,1.0606378E0,-8.8408455E-2,-3.5058182E-1,3.3904874E-1,-1.9663163E-1,-3.597313E-2,1.947998E-1,4.7228888E-2,-4.287187E-1,1.06503576E-1,-1.0089196E-1,-1.4004561E-1,2.883359E-2,5.4467045E-2,-1.9908023E-1,9.4489396E-2,-4.1205102E-1,-2.1971044E-1,2.7034837E-1,2.2854854E-1,4.4614565E-1,-2.6520818E-1,2.5431725E-1,4.039636E-1,4.2331267E-2],"categories":[],"categories_nodes":[],"categories_segments":[],"categories_sizes":[],"default_left":[0,0,0,0,0,0,0,0,0,0,0,0,0,0,0,0,0,0,0,0,0,0,0,0,0,0,0,0,0,0,0,0,0,0,0,0,0,0,0,0,0,0,0,0,0,0,0,0,0,0,0,0,0],"id":8,"left_children":[1,3,5,7,9,11,13,15,17,19,21,23,25,27,29,31,33,35,37,39,41,43,45,-1,-1,47,49,-1,51,-1,-1,-1,-1,-1,-1,-1,-1,-1,-1,-1,-1,-1,-1,-1,-1,-1,-1,-1,-1,-1,-1,-1,-1],"loss_changes":[1.0595156E2,8.672774E1,1.3108276E1,1.680725E2,7.975684E1,7.3876953E0,9.192837E0,2.0507106E2,1.7442107E2,8.965687E1,2.4467644E1,4.2300224E0,7.965088E0,4.353468E0,1.44588E-1,2.723713E2,6.650965E1,4.8631165E1,4.7335968E1,2.413312E2,2.9829205E2,5.9907684E0,2.5780664E1,0E0,0E0,6.1132355E0,8.741298E0,0E0,1.1803164E0,0E0,0E0,0E0,0E0,0E0,0E0,0E0,0E0,0E0,0E0,0E0,0E0,0E0,0E0,0E0,0E0,0E0,0E0,0E0,0E0,0E0,0E0,0E0,0E0],"parents":[2147483647,0,0,1,1,2,2,3,3,4,4,5,5,6,6,7,7,8,8,9,9,10,10,11,11,12,12,13,13,14,14,15,15,16,16,17,17,18,18,19,19,20,20,21,21,22,22,25,25,26,26,28,28],"right_children":[2,4,6,8,10,12,14,16,18,20,22,24,26,28,30,32,34,36,38,40,42,44,46,-1,-1,48,50,-1,52,-1,-1,-1,-1,-1,-1,-1,-1,-1,-1,-1,-1,-1,-1,-1,-1,-1,-1,-1,-1,-1,-1,-1,-1],"split_conditions":[1E0,-5.34E-2,3.6143E0,6E0,2.1462E0,-2.9213E0,4E0,5E0,4E0,9E0,1.5E1,-2.371E-1,7.26E-2,-4.5E-1,-1.642E-1,4E0,1.1825E0,-1.738E-1,1.4E1,1E0,2E0,-1.1133E0,6E0,2.3587175E-1,-3.330441E-1,6E0,-5.25E-2,-2.0535749E-1,3.9E-3,-8.8408455E-2,-3.5058182E-1,3.3904874E-1,-1.9663163E-1,-3.597313E-2,1.947998E-1,4.7228888E-2,-4.287187E-1,1.06503576E-1,-1.0089196E-1,-1.4004561E-1,2.883359E-2,5.4467045E-2,-1.9908023E-1,9.4489396E-2,-4.1205102E-1,-2.1971044E-1,2.7034837E-1,2.2854854E-1,4.4614565E-1,-2.6520818E-1,2.5431725E-1,4.039636E-1,4.2331267E-2],"split_indices":[22,2,26,16,7,26,16,32,35,32,33,5,2,8,2,20,0,2,33,15,15,5,18,0,0,28,6,0,5,0,0,0,0,0,0,0,0,0,0,0,0,0,0,0,0,0,0,0,0,0,0,0,0],"split_type":[0,0,0,0,0,0,0,0,0,0,0,0,0,0,0,0,0,0,0,0,0,0,0,0,0,0,0,0,0,0,0,0,0,0,0,0,0,0,0,0,0,0,0,0,0,0,0,0,0,0,0,0,0],"sum_hessian":[9.077764E3,8.969315E3,1.0844853E2,2.0134697E3,6.955845E3,9.7584526E1,1.0864012E1,1.4213192E3,5.9215045E2,6.82936E3,1.2648552E2,3.1865525E0,9.439797E1,6.2470913E0,4.6169205E0,6.202088E2,8.011104E2,1.6278136E2,4.2936908E2,3.2529214E3,3.5764385E3,6.4964966E1,6.1520554E1,1.3047296E0,1.8818228E0,7.873873E1,1.5659238E1,1.1851544E0,5.0619373E0,1.0916157E0,3.5253048E0,5.0985883E2,1.1035001E2,6.552317E2,1.4587877E2,2.3983555E1,1.387978E2,2.446152E2,1.8475386E2,1.5880383E3,1.6648832E3,3.0553525E3,5.210858E2,1.9764073E0,6.298856E1,4.945843E1,1.2062122E1,2.0219902E1,5.851883E1,3.161189E0,1.2498049E1,3.684898E0,1.3770393E0],"tree_param":{"num_deleted":"0","num_feature":"41","num_nodes":"53","size_leaf_vector":"1"}},{"base_weights":[-1.7755484E-3,5.9230026E-2,-1.3794363E-1,3.670253E-2,5.170847E-1,-1.8888244E-1,4.9945727E-1,1.005208E-1,-2.1043651E-1,-8.7870464E-2,7.861376E-1,-2.837938E-1,7.738326E-2,1.1291664E0,-1.4637601E-1,-3.0642483E-2,2.605814E-1,-7.0589324E-3,-5.138346E-1,7.9795074E-1,-4.358923E-1,-9.351557E-1,8.5089946E-1,-1.8285091E-1,-7.8148216E-1,-1.523005E-1,8.38416E-1,1.2376059E0,-4.9423197E-1,-3.600363E-1,1.0393015E0,9.3800694E-2,-1.2948887E-1,-1.5108056E-1,1.3569047E-1,-3.5644925E-1,3.7008412E-2,2.3843022E-2,-2.539344E-1,-2.6901135E-1,3.8029447E-1,1.0987901E-1,-2.7861437E-1,-3.5677022E-1,6.593725E-2,2.9235947E-1,6.5688655E-2,-2.61675E-1,-3.301966E-2,-4.045232E-1,-2.7200894E-2,-1.1798384E-1,2.788866E-1,3.396979E-1,-2.8252486E-2,4.2058057E-1,-2.9226756E-1,-3.4046775E-1,3.8458697E-2,4.7227037E-1,-3.867865E-1],"categories":[],"categories_nodes":[],"categories_segments":[],"categories_sizes":[],"default_left":[0,0,0,0,0,0,0,0,0,0,0,0,0,0,0,0,0,0,0,0,0,0,0,0,0,0,0,0,0,0,0,0,0,0,0,0,0,0,0,0,0,0,0,0,0,0,0,0,0,0,0,0,0,0,0,0,0,0,0,0,0],"id":9,"left_children":[1,3,5,7,9,11,13,15,17,19,21,23,25,27,29,31,33,35,37,39,41,43,45,47,49,51,53,55,-1,57,59,-1,-1,-1,-1,-1,-1,-1,-1,-1,-1,-1,-1,-1,-1,-1,-1,-1,-1,-1,-1,-1,-1,-1,-1,-1,-1,-1,-1,-1,-1],"loss_changes":[7.388055E1,6.333206E1,8.9438614E1,9.2367584E1,4.6937973E1,6.443477E1,8.309238E1,9.7716934E1,7.4163376E1,2.7952536E1,2.3025002E1,9.42668E1,1.17341736E2,3.249797E1,2.610029E1,3.3016687E2,2.779298E2,1.0426171E2,8.706127E1,1.9357124E1,2.4072275E1,2.1531358E0,1.1152969E1,7.884088E1,1.1484259E2,1.2424867E2,3.733142E1,2.723938E1,0E0,3.1152828E1,1.9354185E1,0E0,0E0,0E0,0E0,0E0,0E0,0E0,0E0,0E0,0E0,0E0,0E0,0E0,0E0,0E0,0E0,0E0,0E0,0E0,0E0,0E0,0E0,0E0,0E0,0E0,0E0,0E0,0E0,0E0,0E0],"parents":[2147483647,0,0,1,1,2,2,3,3,4,4,5,5,6,6,7,7,8,8,9,9,10,10,11,11,12,12,13,13,14,14,15,15,16,16,17,17,18,18,19,19,20,20,21,21,22,22,23,23,24,24,25,25,26,26,27,27,29,29,30,30],"right_children":[2,4,6,8,10,12,14,16,18,20,22,24,26,28,30,32,34,36,38,40,42,44,46,48,50,52,54,56,-1,58,60,-1,-1,-1,-1,-1,-1,-1,-1,-1,-1,-1,-1,-1,-1,-1,-1,-1,-1,-1,-1,-1,-1,-1,-1,-1,-1,-1,-1,-1,-1],"split_conditions":[3.4725E0,1.903E0,2E0,5E-4,1E0,1E1,5E0,1E1,1.7E1,-3.163E-1,-4.526E-1,7E0,7E0,1.1E1,7E0,3E0,3E0,2.67E-2,2E0,1.8202E0,3E0,1.5367E0,4E0,-3.006E-1,6E0,7E0,1.8E1,2E0,-4.9423197E-1,6E0,1.3E1,9.3800694E-2,-1.2948887E-1,-1.5108056E-1,1.3569047E-1,-3.5644925E-1,3.7008412E-2,2.3843022E-2,-2.539344E-1,-2.6901135E-1,3.8029447E-1,1.0987901E-1,-2.7861437E-1,-3.5677022E-1,6.593725E-2,2.9235947E-1,6.5688655E-2,-2.61675E-1,-3.301966E-2,-4.045232E-1,-2.7200894E-2,-1.1798384E-1,2.788866E-1,3.396979E-1,-2.8252486E-2,4.2058057E-1,-2.9226756E-1,-3.4046775E-1,3.8458697E-2,4.7227037E-1,-3.867865E-1],"split_indices":[26,1,14,0,21,31,32,30,35,2,0,16,16,33,18,20,17,0,13,0,17,7,18,6,32,18,28,21,0,16,29,0,0,0,0,0,0,0,0,0,0,0,0,0,0,0,0,0,0,0,0,0,0,0,0,0,0,0,0,0,0],"split_type":[0,0,0,0,0,0,0,0,0,0,0,0,0,0,0,0,0,0,0,0,0,0,0,0,0,0,0,0,0,0,0,0,0,0,0,0,0,0,0,0,0,0,0,0,0,0,0,0,0,0,0,0,0,0,0,0,0,0,0,0,0],"sum_hessian":[8.891773E3,6.141047E3,2.7507266E3,5.8540923E3,2.8695456E2,2.5478179E3,2.0290884E2,4.653119E3,1.2009733E3,8.85428E1,1.9841176E2,1.8782449E3,6.6957294E2,1.02357994E2,1.0055086E2,2.557862E3,2.095257E3,7.196152E2,4.813581E2,2.4610016E1,6.393278E1,6.7070317E0,1.9170473E2,1.5626667E3,3.1557812E2,5.1495624E2,1.5461668E2,9.896317E1,3.3948224E0,8.57881E1,1.4762757E1,1.3746423E3,1.1832197E3,4.008594E2,1.6943977E3,7.088252E1,6.487326E2,1.6426556E2,3.1709253E2,4.828728E0,1.9781288E1,2.3699709E1,4.023307E1,5.6437745E0,1.0632575E0,1.6711703E2,2.4587698E1,1.6068346E2,1.4019833E3,1.7936475E2,1.3621336E2,4.2365268E2,9.130357E1,1.20948456E2,3.366823E1,9.419547E1,4.767699E0,3.3473034E1,5.2315063E1,1.2459072E1,2.3036852E0],"tree_param":{"num_deleted":"0","num_feature":"41","num_nodes":"61","size_leaf_vector":"1"}},{"base_weights":[-1.4331248E-3,-1.0097978E-2,8.053988E-1,7.5613447E-3,-4.092759E-1,5.121345E-1,1.1870432E0,-3.266338E-2,2.283147E-1,-7.040842E-1,3.8871903E-2,7.513759E-1,-7.2621244E-1,1.2829827E0,-1.6664053E-1,-9.516656E-2,2.6337108E-1,-6.0181755E-1,4.0560934E-1,-9.0485704E-1,4.453856E-1,7.490892E-1,-3.2327098E-1,9.468268E-1,-3.7537E-1,-3.8637406E-1,2.679833E-1,7.599385E-1,4.2899626E-1,-5.2602768E-2,2.5431838E-2,1.5031557E-1,-1.0445688E-1,1.851214E-1,-2.9518822E-1,2.4467245E-1,2.7578522E-2,-2.2626507E-1,-6.633808E-1,3.3215892E-1,-1.298543E-1,-2.5881642E-1,2.8967896E-1,-3.079417E-1,4.828271E-2,3.8496548E-1,3.6266465E-2,3.1061435E-1,-2.8834453E-1,-2.8286604E-2,2.875495E-1],"categories":[],"categories_nodes":[],"categories_segments":[],"categories_sizes":[],"default_left":[0,0,0,0,0,0,0,0,0,0,0,0,0,0,0,0,0,0,0,0,0,0,0,0,0,0,0,0,0,0,0,0,0,0,0,0,0,0,0,0,0,0,0,0,0,0,0,0,0,0,0],"id":10,"left_children":[1,3,5,7,9,11,13,15,17,19,21,23,25,27,-1,29,31,33,35,37,39,41,43,45,47,-1,-1,49,-1,-1,-1,-1,-1,-1,-1,-1,-1,-1,-1,-1,-1,-1,-1,-1,-1,-1,-1,-1,-1,-1,-1],"loss_changes":[6.0519207E1,6.0375988E1,9.686596E0,7.284475E1,4.7966675E1,1.6475946E1,7.1769333E0,1.2842236E2,1.863364E2,5.0926735E1,3.7518013E1,1.0387896E1,8.701664E0,9.23645E-1,0E0,7.568356E1,1.6106927E2,9.422407E1,1.26573975E2,3.878447E1,1.8426163E1,1.5238762E1,3.1189163E1,9.4277725E0,6.624905E0,0E0,0E0,1.264842E0,0E0,0E0,0E0,0E0,0E0,0E0,0E0,0E0,0E0,0E0,0E0,0E0,0E0,0E0,0E0,0E0,0E0,0E0,0E0,0E0,0E0,0E0,0E0],"parents":[2147483647,0,0,1,1,2,2,3,3,4,4,5,5,6,6,7,7,8,8,9,9,10,10,11,11,12,12,13,13,15,15,16,16,17,17,18,18,19,19,20,20,21,21,22,22,23,23,24,24,27,27],"right_children":[2,4,6,8,10,12,14,16,18,20,22,24,26,28,-1,30,32,34,36,38,40,42,44,46,48,-1,-1,50,-1,-1,-1,-1,-1,-1,-1,-1,-1,-1,-1,-1,-1,-1,-1,-1,-1,-1,-1,-1,-1,-1,-1],"split_conditions":[1E0,1.236E0,1.1E1,4.751E-1,1E0,3E0,2E0,5.6E1,2E0,5E0,7E0,3.6143E0,1.7E1,-2.338E-1,-1.6664053E-1,8E0,1E1,1E0,6E0,1.8E1,-9.26E-2,1.3522E0,1.3E1,1.458E-1,4.3E1,-3.8637406E-1,2.679833E-1,3E0,4.2899626E-1,-5.2602768E-2,2.5431838E-2,1.5031557E-1,-1.0445688E-1,1.851214E-1,-2.9518822E-1,2.4467245E-1,2.7578522E-2,-2.2626507E-1,-6.633808E-1,3.3215892E-1,-1.298543E-1,-2.5881642E-1,2.8967896E-1,-3.079417E-1,4.828271E-2,3.8496548E-1,3.6266465E-2,3.1061435E-1,-2.8834453E-1,-2.8286604E-2,2.875495E-1],"split_indices":[22,6,29,6,13,22,15,27,20,20,30,26,28,9,0,31,30,36,32,28,7,6,28,5,27,0,0,28,0,0,0,0,0,0,0,0,0,0,0,0,0,0,0,0,0,0,0,0,0,0,0],"split_type":[0,0,0,0,0,0,0,0,0,0,0,0,0,0,0,0,0,0,0,0,0,0,0,0,0,0,0,0,0,0,0,0,0,0,0,0,0,0,0,0,0,0,0,0,0,0,0,0,0,0,0],"sum_hessian":[8.654468E3,8.563489E3,9.097885E1,8.201637E3,3.61853E2,5.277061E1,3.8208244E1,6.9382334E3,1.263403E3,2.1792363E2,1.4392937E2,4.4555912E1,8.2147E0,3.6437294E1,1.7709494E0,5.7292646E3,1.2089686E3,2.2192186E2,1.0414811E3,1.8570087E2,3.2222755E1,4.824503E1,9.568433E1,3.8105602E1,6.4503074E0,6.353529E0,1.8611704E0,7.2709107E0,2.9166384E1,4.03322E3,1.6960449E3,8.832477E2,3.25721E2,5.0029633E1,1.7189223E2,4.702373E2,5.712438E2,1.6405125E2,2.164962E1,1.854711E1,1.3675645E1,4.6871276E0,4.3557903E1,3.9439644E1,5.6244694E1,2.7745834E1,1.0359769E1,1.6206259E0,4.8296814E0,1.2713583E0,5.9995527E0],"tree_param":{"num_deleted":"0","num_feature":"41","num_nodes":"51","size_leaf_vector":"1"}}]},"name":"gbtree"},"learner_model_param":{"base_score":"5E-1","boost_from_average":"1","num_class":"0","num_feature":"41","num_target":"1"},"objective":{"name":"binary:logistic","reg_loss_param":{"scale_pos_weight":"5"}}},"version":[2,1,4]}