{"learner":{"attributes":{"best_iteration":"7","best_score":"0.3897559731141114"},"feature_names":[],"feature_types":[],"gradient_booster":{"model":{"gbtree_model_param":{"num_parallel_tree":"1","num_trees":"18"},"iteration_indptr":[0,1,2,3,4,5,6,7,8,9,10,11,12,13,14,15,16,17,18],"tree_info":[0,0,0,0,0,0,0,0,0,0,0,0,0,0,0,0,0,0],"trees":[{"base_weights":[-0E0,-8.6313196E-2,9.9369085E-1,2.340029E-2,-9.0669763E-1,-9.990449E-1,1.7479174E0,1.5766473E-1,-4.2810404E-1,-1.062806E0,7.365399E-1,3.764807E-1,-1.2069438E0,-2.646154E-1,1.6254432E0],"categories":[],"categories_nodes":[],"categories_segments":[],"categories_sizes":[],"default_left":[0,0,0,0,0,0,0,0,0,0,0,0,0,0,0],"id":0,"left_children":[1,3,5,7,9,11,13,-1,-1,-1,-1,-1,-1,-1,-1],"loss_changes":[1.0206038E3,9.854654E2,1.4310747E3,8.051362E2,7.505032E2,1.5269525E2,2.0225171E2,0E0,0E0,0E0,0E0,0E0,0E0,0E0,0E0],"parents":[2147483647,0,0,1,1,2,2,3,3,4,4,5,5,6,6],"right_children":[2,4,6,8,10,12,14,-1,-1,-1,-1,-1,-1,-1,-1],"split_conditions":[1.8862E0,4.028E-1,1E0,1E0,1E0,-5.856E-1,1.0677E0,1.5766473E-1,-4.2810404E-1,-1.062806E0,7.365399E-1,3.764807E-1,-1.2069438E0,-2.646154E-1,1.6254432E0],"split_indices":[1,8,21,37,37,2,0,0,0,0,0,0,0,0,0],"split_type":[0,0,0,0,0,0,0,0,0,0,0,0,0,0,0],"sum_hessian":[1.18975E4,1.09475E4,9.5E2,9.657E3,1.2905E3,2.6075E2,6.8925E2,7.39E3,2.267E3,1.08775E3,2.0275E2,5.725E1,2.035E2,4.45E1,6.4475E2],"tree_param":{"num_deleted":"0","num_feature":"41","num_nodes":"15","size_leaf_vector":"1"}},{"base_weights":[4.784409E-3,-3.8569603E-2,1.4814278E0,-5.666709E-1,3.1083131E-2,1.5879978E0,-3.2894698E-1,-9.88471E-1,-2.0857591E-2,3.454342E-1,-3.51936E-2,7.5376594E-1,1.5725368E0,-1.6289854E0,1.1873431E0],"categories":[],"categories_nodes":[],"categories_segments":[],"categories_sizes":[],"default_left":[0,0,0,0,0,0,0,0,0,0,0,0,0,0,0],"id":1,"left_children":[1,3,5,7,9,11,13,-1,-1,-1,-1,-1,-1,-1,-1],"loss_changes":[7.1175244E2,3.9731577E2,6.1703003E1,3.9778998E2,2.5467279E2,4.968158E1,5.2005592E1,0E0,0E0,0E0,0E0,0E0,0E0,0E0,0E0],"parents":[2147483647,0,0,1,1,2,2,3,3,4,4,5,5,6,6],"right_children":[2,4,6,8,10,12,14,-1,-1,-1,-1,-1,-1,-1,-1],"split_conditions":[1E0,-1.761E-1,1.7951E0,7E0,4E0,4E0,-3.716E-1,-9.88471E-1,-2.0857591E-2,3.454342E-1,-3.51936E-2,7.5376594E-1,1.5725368E0,-1.6289854E0,1.1873431E0],"split_indices":[22,0,6,28,28,30,9,0,0,0,0,0,0,0,0],"split_type":[0,0,0,0,0,0,0,0,0,0,0,0,0,0,0],"sum_hessian":[1.111604E4,1.079993E4,3.1611032E2,1.2576202E3,9.54231E3,2.9865262E2,1.7457712E1,6.057501E2,6.518701E2,1.5517125E3,7.9905967E3,7.662646E1,2.2202615E2,9.057266E0,8.400447E0],"tree_param":{"num_deleted":"0","num_feature":"41","num_nodes":"15","size_leaf_vector":"1"}},{"base_weights":[-1.090552E-3,-7.741945E-1,2.7511507E-2,-2.9655123E-1,-1.4231925E0,5.686705E-2,-5.954176E-1,-1.071912E0,1.18508175E-1,-7.915961E-2,-1.3351195E0,-3.1892878E-3,3.2552558E-1,3.805085E-1,-6.478649E-1],"categories":[],"categories_nodes":[],"categories_segments":[],"categories_sizes":[],"default_left":[0,0,0,0,0,0,0,0,0,0,0,0,0,0,0],"id":2,"left_children":[1,3,5,7,9,11,13,-1,-1,-1,-1,-1,-1,-1,-1],"loss_changes":[2.4126413E2,1.20244446E2,1.9243628E2,9.320477E1,2.8209839E1,1.9579791E2,7.795395E1,0E0,0E0,0E0,0E0,0E0,0E0,0E0,0E0],"parents":[2147483647,0,0,1,1,2,2,3,3,4,4,5,5,6,6],"right_children":[2,4,6,8,10,12,14,-1,-1,-1,-1,-1,-1,-1,-1],"split_conditions":[-5.446E-1,2E0,8.566E-1,6E0,2E0,7.118E-1,2E0,-1.071912E0,1.18508175E-1,-7.915961E-2,-1.3351195E0,-3.1892878E-3,3.2552558E-1,3.805085E-1,-6.478649E-1],"split_indices":[1,13,8,35,17,6,21,0,0,0,0,0,0,0,0],"split_type":[0,0,0,0,0,0,0,0,0,0,0,0,0,0,0],"sum_hessian":[1.0908861E4,3.8825995E2,1.0520602E4,2.2449515E2,1.637648E2,1.0047998E4,4.7260327E2,6.9857735E1,1.5463742E2,1.4647528E1,1.4911726E2,8.456417E3,1.5915815E3,6.217347E1,4.104298E2],"tree_param":{"num_deleted":"0","num_feature":"41","num_nodes":"15","size_leaf_vector":"1"}},{"base_weights":[-6.4816624E-3,1.5955143E-2,-7.878442E-1,1.02878995E-1,-1.6588709E-1,-1.0646857E0,4.7059897E-3,4.7451578E-2,1.3985128E0,-5.580887E-1,-5.9478242E-2,3.2465348E-1,-1.0694648E0,2.481718E-1,-1.5408471E0],"categories":[],"categories_nodes":[],"categories_segments":[],"categories_sizes":[],"default_left":[0,0,0,0,0,0,0,0,0,0,0,0,0,0,0],"id":3,"left_children":[1,3,5,7,9,11,13,-1,-1,-1,-1,-1,-1,-1,-1],"loss_changes":[1.8773293E2,1.6455927E2,6.558902E1,5.1174567E2,1.5727997E2,5.7619644E1,4.048388E1,0E0,0E0,0E0,0E0,0E0,0E0,0E0,0E0],"parents":[2147483647,0,0,1,1,2,2,3,3,4,4,5,5,6,6],"right_children":[2,4,6,8,10,12,14,-1,-1,-1,-1,-1,-1,-1,-1],"split_conditions":[2.0192E0,2.509E-1,1.1E1,2.441E-1,3E0,5E0,1.2048E0,4.7451578E-2,1.3985128E0,-5.580887E-1,-5.9478242E-2,3.2465348E-1,-1.0694648E0,2.481718E-1,-1.5408471E0],"split_indices":[4,7,32,7,17,32,5,0,0,0,0,0,0,0,0],"split_type":[0,0,0,0,0,0,0,0,0,0,0,0,0,0,0],"sum_hessian":[1.0706739E4,1.0408829E4,2.9790967E2,7.042718E3,3.3661113E3,2.2053308E2,7.73766E1,6.8298735E3,2.1284418E2,5.6062573E2,2.8054856E3,2.4212372E1,1.9632071E2,6.754282E1,9.833777E0],"tree_param":{"num_deleted":"0","num_feature":"41","num_nodes":"15","size_leaf_vector":"1"}},{"base_weights":[1.3252527E-3,-1.8064369E-2,8.012483E-1,1.7867709E-2,-6.9386125E-1,-7.8542316E-1,1.1202407E0,1.22852564E-1,-9.653317E-2,-8.53586E-1,2.9889074E-1,3.2424542E-1,-1.2550789E0,1.029836E0,-1.4902064E0],"categories":[],"categories_nodes":[],"categories_segments":[],"categories_sizes":[],"default_left":[0,0,0,0,0,0,0,0,0,0,0,0,0,0,0],"id":4,"left_children":[1,3,5,7,9,11,13,-1,-1,-1,-1,-1,-1,-1,-1],"loss_changes":[1.633432E2,2.496922E2,1.27024994E2,1.5880266E2,1.6181863E2,3.3696175E1,4.789688E1,0E0,0E0,0E0,0E0,0E0,0E0,0E0,0E0],"parents":[2147483647,0,0,1,1,2,2,3,3,4,4,5,5,6,6],"right_children":[2,4,6,8,10,12,14,-1,-1,-1,-1,-1,-1,-1,-1],"split_conditions":[2.9485E0,1.8E1,1E0,5E0,2E0,4.7E1,1.2E1,1.22852564E-1,-9.653317E-2,-8.53586E-1,2.9889074E-1,3.2424542E-1,-1.2550789E0,1.029836E0,-1.4902064E0],"split_indices":[0,37,21,16,21,27,32,0,0,0,0,0,0,0,0],"split_type":[0,0,0,0,0,0,0,0,0,0,0,0,0,0,0],"sum_hessian":[1.0529404E4,1.0281173E4,2.4823161E2,9.763046E3,5.1812695E2,4.1307163E1,2.0692445E2,4.9796675E3,4.7833784E3,4.026827E2,1.1544425E2,1.5321503E1,2.5985659E1,2.0203485E2,4.8896084E0],"tree_param":{"num_deleted":"0","num_feature":"41","num_nodes":"15","size_leaf_vector":"1"}},{"base_weights":[9.157585E-5,-5.9142992E-2,1.8152152E-1,4.3168116E-2,-6.520826E-1,4.7953862E-1,-1.1658406E0,-1.735642E-1,1.699715E-1,-8.04048E-1,9.691391E-1,1.4674453E-1,1.0791098E0,-1.2372783E0,7.934107E-1],"categories":[],"categories_nodes":[],"categories_segments":[],"categories_sizes":[],"default_left":[0,0,0,0,0,0,0,0,0,0,0,0,0,0,0],"id":5,"left_children":[1,3,5,7,9,11,13,-1,-1,-1,-1,-1,-1,-1,-1],"loss_changes":[1.1033614E2,4.6955862E2,1.015223E3,2.4987717E2,5.7421313E2,4.9549344E2,2.6230096E2,0E0,0E0,0E0,0E0,0E0,0E0,0E0,0E0],"parents":[2147483647,0,0,1,1,2,2,3,3,4,4,5,5,6,6],"right_children":[2,4,6,8,10,12,14,-1,-1,-1,-1,-1,-1,-1,-1],"split_conditions":[1.2E1,7E0,2E0,1E0,7E0,7E0,1E0,-1.735642E-1,1.699715E-1,-8.04048E-1,9.691391E-1,1.4674453E-1,1.0791098E0,-1.2372783E0,7.934107E-1],"split_indices":[31,16,21,15,31,16,37,0,0,0,0,0,0,0,0],"split_type":[0,0,0,0,0,0,0,0,0,0,0,0,0,0,0],"sum_hessian":[1.0264766E4,7.7388145E3,2.5259504E3,6.6007837E3,1.1380311E3,2.0689685E3,4.5698196E2,2.5524365E3,4.048347E3,9.823182E2,1.5571286E2,1.4803302E3,5.886384E2,4.0445074E2,5.2531216E1],"tree_param":{"num_deleted":"0","num_feature":"41","num_nodes":"15","size_leaf_vector":"1"}},{"base_weights":[-1.04813175E-2,-3.8143825E-2,4.8435304E-1,9.6062466E-4,-5.443283E-1,3.3570852E-2,1.0511671E0,-9.513572E-2,2.1317838E-1,-8.892011E-1,1.5163471E-1,5.5660313E-1,-5.774404E-1,-9.216167E-1,1.014859E0],"categories":[],"categories_nodes":[],"categories_segments":[],"categories_sizes":[],"default_left":[0,0,0,0,0,0,0,0,0,0,0,0,0,0,0],"id":6,"left_children":[1,3,5,7,9,11,13,-1,-1,-1,-1,-1,-1,-1,-1],"loss_changes":[1.3247649E2,1.814192E2,1.308841E2,2.3447115E2,2.3210085E2,1.2435506E2,6.3365036E1,0E0,0E0,0E0,0E0,0E0,0E0,0E0,0E0],"parents":[2147483647,0,0,1,1,2,2,3,3,4,4,5,5,6,6],"right_children":[2,4,6,8,10,12,14,-1,-1,-1,-1,-1,-1,-1,-1],"split_conditions":[1.3978E0,5.05E-1,2E0,1.5E1,4E0,3E0,1.1E1,-9.513572E-2,2.1317838E-1,-8.892011E-1,1.5163471E-1,5.5660313E-1,-5.774404E-1,-9.216167E-1,1.014859E0],"split_indices":[1,1,21,32,18,19,36,0,0,0,0,0,0,0,0],"split_type":[0,0,0,0,0,0,0,0,0,0,0,0,0,0,0],"sum_hessian":[9.675691E3,9.164306E3,5.1138525E2,8.50803E3,6.5627576E2,2.854381E2,2.2594716E2,5.860311E3,2.6477192E3,3.905151E2,2.6576068E2,1.5265204E2,1.3278607E2,1.2515859E1,2.1343129E2],"tree_param":{"num_deleted":"0","num_feature":"41","num_nodes":"15","size_leaf_vector":"1"}},{"base_weights":[7.066826E-4,-1.1371291E-1,7.62637E-2,-9.726627E-1,7.022885E-2,2.0235062E-1,-4.05431E-1,-3.135201E-1,-1.3513714E0,-9.9756163E-1,8.012009E-2,2.5543877E-1,-8.199384E-1,-9.7317094E-1,4.482783E-1],"categories":[],"categories_nodes":[],"categories_segments":[],"categories_sizes":[],"default_left":[0,0,0,0,0,0,0,0,0,0,0,0,0,0,0],"id":7,"left_children":[1,3,5,7,9,11,13,-1,-1,-1,-1,-1,-1,-1,-1],"loss_changes":[8.163326E1,5.9342395E2,3.4549103E2,2.4060608E2,8.740063E1,4.9353503E2,7.947405E2,0E0,0E0,0E0,0E0,0E0,0E0,0E0,0E0],"parents":[2147483647,0,0,1,1,2,2,3,3,4,4,5,5,6,6],"right_children":[2,4,6,8,10,12,14,-1,-1,-1,-1,-1,-1,-1,-1],"split_conditions":[4.4E1,3E0,3E0,3E0,1E0,2E0,1E0,-3.135201E-1,-1.3513714E0,-9.9756163E-1,8.012009E-2,2.5543877E-1,-8.199384E-1,-9.7317094E-1,4.482783E-1],"split_indices":[27,35,37,20,36,21,21,0,0,0,0,0,0,0,0],"split_type":[0,0,0,0,0,0,0,0,0,0,0,0,0,0,0],"sum_hessian":[9.4406045E3,3.7544927E3,5.6861113E3,6.614487E2,3.093044E3,4.506963E3,1.1791487E3,3.2894516E2,3.325036E2,5.5700226E1,3.0373438E3,4.166426E3,3.4053726E2,6.609769E2,5.1817175E2],"tree_param":{"num_deleted":"0","num_feature":"41","num_nodes":"15","size_leaf_vector":"1"}},{"base_weights":[-2.1080116E-2,-3.6568227E-1,6.693593E-3,-6.892454E-1,4.158645E-2,4.3995497E-1,-2.5949454E-2,-8.738164E-2,-9.05783E-1,1.7986397E-1,-8.4651583E-1,8.517086E-1,-3.0580048E-2,1.7295313E-1,-7.535669E-2],"categories":[],"categories_nodes":[],"categories_segments":[],"categories_sizes":[],"default_left":[0,0,0,0,0,0,0,0,0,0,0,0,0,0,0],"id":8,"left_children":[1,3,5,7,9,11,13,-1,-1,-1,-1,-1,-1,-1,-1],"loss_changes":[8.4434845E1,8.6737144E1,1.1548608E2,7.833583E1,5.044466E1,1.4977121E2,1.06357414E2,0E0,0E0,0E0,0E0,0E0,0E0,0E0,0E0],"parents":[2147483647,0,0,1,1,2,2,3,3,4,4,5,5,6,6],"right_children":[2,4,6,8,10,12,14,-1,-1,-1,-1,-1,-1,-1,-1],"split_conditions":[-2.241E-1,4E0,-9E-4,9E0,1.0817E0,2E0,6E0,-8.738164E-2,-9.05783E-1,1.7986397E-1,-8.4651583E-1,8.517086E-1,-3.0580048E-2,1.7295313E-1,-7.535669E-2],"split_indices":[1,18,1,33,4,32,31,0,0,0,0,0,0,0,0],"split_type":[0,0,0,0,0,0,0,0,0,0,0,0,0,0,0],"sum_hessian":[8.820802E3,6.569934E2,8.1638086E3,3.6573514E2,2.9125827E2,5.7111346E2,7.5926953E3,1.4038002E2,2.253551E2,2.5105113E2,4.020713E1,2.642096E2,3.0690387E2,1.6213529E3,5.9713423E3],"tree_param":{"num_deleted":"0","num_feature":"41","num_nodes":"15","size_leaf_vector":"1"}},{"base_weights":[-2.4362586E-3,-9.461524E-3,1.1337179E0,-7.642012E-1,6.164037E-4,3.5481858E-1,2.8497229E0,-2.0009585E-1,-1.3622248E0,-2.2560346E-1,2.6522368E-2,1.2862858E0,-3.1962323E-1,-6.31796E-1,4.1545835E0],"categories":[],"categories_nodes":[],"categories_segments":[],"categories_sizes":[],"default_left":[0,0,0,0,0,0,0,0,0,0,0,0,0,0,0],"id":9,"left_children":[1,3,5,7,9,11,13,-1,-1,-1,-1,-1,-1,-1,-1],"loss_changes":[6.9617195E1,6.593161E1,7.0630394E1,4.9401215E1,6.799486E1,3.2057587E1,1.2137039E2,0E0,0E0,0E0,0E0,0E0,0E0,0E0,0E0],"parents":[2147483647,0,0,1,1,2,2,3,3,4,4,5,5,6,6],"right_children":[2,4,6,8,10,12,14,-1,-1,-1,-1,-1,-1,-1,-1],"split_conditions":[1.9E1,-7.31E-1,1E0,7E0,1E0,4E0,1.1E1,-2.0009585E-1,-1.3622248E0,-2.2560346E-1,2.6522368E-2,1.2862858E0,-3.1962323E-1,-6.31796E-1,4.1545835E0],"split_indices":[37,8,13,18,20,18,31,0,0,0,0,0,0,0,0],"split_type":[0,0,0,0,0,0,0,0,0,0,0,0,0,0,0],"sum_hessian":[8.719665E3,8.667064E3,5.260003E1,1.1321906E2,8.553846E3,3.7008526E1,1.5591501E1,6.946379E1,4.3755276E1,8.810449E2,7.672801E3,1.3985971E1,2.3022556E1,5.7741284E0,9.817373E0],"tree_param":{"num_deleted":"0","num_feature":"41","num_nodes":"15","size_leaf_vector":"1"}},{"base_weights":[-1.6249092E-3,3.1476676E-2,-2.0629214E-1,6.0470566E-2,-6.3407904E-1,-5.454506E-1,9.154706E-1,-1.7244437E-1,1.029518E-1,-1.2477965E0,4.753629E-1,-6.8593264E-1,1.3844957E0,8.976911E-1,-5.6863093E-1],"categories":[],"categories_nodes":[],"categories_segments":[],"categories_sizes":[],"default_left":[0,0,0,0,0,0,0,0,0,0,0,0,0,0,0],"id":10,"left_children":[1,3,5,7,9,11,13,-1,-1,-1,-1,-1,-1,-1,-1],"loss_changes":[5.8913532E1,1.4448409E2,4.6109006E2,1.1093912E2,3.038184E2,5.0680963E2,5.7643814E1,0E0,0E0,0E0,0E0,0E0,0E0,0E0,0E0],"parents":[2147483647,0,0,1,1,2,2,3,3,4,4,5,5,6,6],"right_children":[2,4,6,8,10,12,14,-1,-1,-1,-1,-1,-1,-1,-1],"split_conditions":[5E0,2E1,1.3E1,5E0,6E0,2E1,3E0,-1.7244437E-1,1.029518E-1,-1.2477965E0,4.753629E-1,-6.8593264E-1,1.3844957E0,8.976911E-1,-5.6863093E-1],"split_indices":[20,35,28,30,16,36,21,0,0,0,0,0,0,0,0],"split_type":[0,0,0,0,0,0,0,0,0,0,0,0,0,0,0],"sum_hessian":[8.69401E3,7.48438E3,1.2096302E3,7.1728164E3,3.115633E2,9.2920435E2,2.8042584E2,1.3264993E3,5.8463174E3,1.8441501E2,1.2714829E2,8.3244867E2,9.67557E1,2.596276E2,2.079825E1],"tree_param":{"num_deleted":"0","num_feature":"41","num_nodes":"15","size_leaf_vector":"1"}},{"base_weights":[1.6807022E-3,-2.53765E-2,3.5305288E-1,-6.281509E-3,-6.11139E-1,1.1530867E-1,1.0444456E0,7.3896083E-3,-6.18893E-1,2.1325602E-1,-8.152726E-1,-3.6522722E-1,3.0767936E-1,9.980772E-1,-1.1828616E0],"categories":[],"categories_nodes":[],"categories_segments":[],"categories_sizes":[],"default_left":[0,0,0,0,0,0,0,0,0,0,0,0,0,0,0],"id":11,"left_children":[1,3,5,7,9,11,13,-1,-1,-1,-1,-1,-1,-1,-1],"loss_changes":[8.027065E1,8.768276E1,9.910866E1,8.057338E1,7.1854294E1,5.911205E1,4.49617E1,0E0,0E0,0E0,0E0,0E0,0E0,0E0,0E0],"parents":[2147483647,0,0,1,1,2,2,3,3,4,4,5,5,6,6],"right_children":[2,4,6,8,10,12,14,-1,-1,-1,-1,-1,-1,-1,-1],"split_conditions":[6.685E-1,5.05E-1,1.7601E0,1.7601E0,1E0,4E0,2E0,7.3896083E-3,-6.18893E-1,2.1325602E-1,-8.152726E-1,-3.6522722E-1,3.0767936E-1,9.980772E-1,-1.1828616E0],"split_indices":[1,1,0,0,13,17,30,0,0,0,0,0,0,0,0],"split_type":[0,0,0,0,0,0,0,0,0,0,0,0,0,0,0],"sum_hessian":[8.441246E3,7.8385693E3,6.026765E2,7.5920894E3,2.4648018E2,4.4933405E2,1.5334248E2,7.43799E3,1.5409923E2,6.9497375E1,1.7698279E2,1.3900247E2,3.1033157E2,1.468183E2,6.524189E0],"tree_param":{"num_deleted":"0","num_feature":"41","num_nodes":"15","size_leaf_vector":"1"}},{"base_weights":[2.2922312E-4,-2.4196941E-2,3.7624708E-1,-1.4242214E-2,-7.7947813E-1,-1.2551072E-1,7.642698E-1,-3.2207623E-2,2.545149E-1,1.9404764E-1,-1.019997E0,3.2993588E-1,-4.8276663E-1,3.2328925E-1,1.2284024E0],"categories":[],"categories_nodes":[],"categories_segments":[],"categories_sizes":[],"default_left":[0,0,0,0,0,0,0,0,0,0,0,0,0,0,0],"id":12,"left_children":[1,3,5,7,9,11,13,-1,-1,-1,-1,-1,-1,-1,-1],"loss_changes":[7.619618E1,5.855882E1,9.861814E1,5.536931E1,4.1671055E1,4.937729E1,7.309581E1,0E0,0E0,0E0,0E0,0E0,0E0,0E0,0E0],"parents":[2147483647,0,0,1,1,2,2,3,3,4,4,5,5,6,6],"right_children":[2,4,6,8,10,12,14,-1,-1,-1,-1,-1,-1,-1,-1],"split_conditions":[5.262E-1,2.0677E0,4.3E1,1.1984E0,3E0,5E0,1.6E1,-3.2207623E-2,2.545149E-1,1.9404764E-1,-1.019997E0,3.2993588E-1,-4.8276663E-1,3.2328925E-1,1.2284024E0],"split_indices":[8,5,27,0,17,18,33,0,0,0,0,0,0,0,0],"split_type":[0,0,0,0,0,0,0,0,0,0,0,0,0,0,0],"sum_hessian":[8.294022E3,7.7889844E3,5.050377E2,7.6886655E3,1.0031899E2,2.2053598E2,2.845017E2,7.1542603E3,5.34405E2,2.9020115E1,7.1298874E1,1.01768875E2,1.18767105E2,1.8051E2,1.03991714E2],"tree_param":{"num_deleted":"0","num_feature":"41","num_nodes":"15","size_leaf_vector":"1"}},{"base_weights":[-3.844245E-3,-7.620968E-3,1.565467E0,3.919343E-2,-1.2266413E-1,1.0961276E0,1.7648215E0,1.5042089E-1,-2.9700035E-1,-1.1044728E0,4.9653936E-2],"categories":[],"categories_nodes":[],"categories_segments":[],"categories_sizes":[],"default_left":[0,0,0,0,0,0,0,0,0,0,0],"id":13,"left_children":[1,3,5,7,9,-1,-1,-1,-1,-1,-1],"loss_changes":[4.9346252E1,4.4732166E1,2.1421814E-1,3.0815753E2,5.0348416E2,0E0,0E0,0E0,0E0,0E0,0E0],"parents":[2147483647,0,0,1,1,2,2,3,3,4,4],"right_children":[2,4,6,8,10,-1,-1,-1,-1,-1,-1],"split_conditions":[1E0,6E0,5E1,1.1E1,2E0,1.0961276E0,1.7648215E0,1.5042089E-1,-2.9700035E-1,-1.1044728E0,4.9653936E-2],"split_indices":[23,16,27,36,32,0,0,0,0,0,0],"split_type":[0,0,0,0,0,0,0,0,0,0,0],"sum_hessian":[8.322863E3,8.303874E3,1.8989056E1,5.9025957E3,2.401278E3,1.4149892E1,4.8391643E0,4.3632446E3,1.5393514E3,3.219726E2,2.0793054E3],"tree_param":{"num_deleted":"0","num_feature":"41","num_nodes":"11","size_leaf_vector":"1"}},{"base_weights":[-6.7226277E-3,-4.295184E-2,1.295162E-1,2.5072109E-2,-3.688456E-1,4.5222643E-1,-4.5072785E-1,1.80022E-1,-6.592058E-2,-7.5226885E-1,1.5083555E-2,5.8568895E-1,-6.1706167E-2,-6.926253E-1,3.1762266E-1],"categories":[],"categories_nodes":[],"categories_segments":[],"categories_sizes":[],"default_left":[0,0,0,0,0,0,0,0,0,0,0,0,0,0,0],"id":14,"left_children":[1,3,5,7,9,11,13,-1,-1,-1,-1,-1,-1,-1,-1],"loss_changes":[4.006591E1,1.4215565E2,3.194988E2,9.946256E1,2.164623E2,1.3147865E2,1.7768231E2,0E0,0E0,0E0,0E0,0E0,0E0,0E0,0E0],"parents":[2147483647,0,0,1,1,2,2,3,3,4,4,5,5,6,6],"right_children":[2,4,6,8,10,12,14,-1,-1,-1,-1,-1,-1,-1,-1],"split_conditions":[1.8E1,7.244E-1,4E0,4E0,4E0,2E0,1E0,1.80022E-1,-6.592058E-2,-7.5226885E-1,1.5083555E-2,5.8568895E-1,-6.1706167E-2,-6.926253E-1,3.1762266E-1],"split_indices":[36,7,18,16,18,15,13,0,0,0,0,0,0,0,0],"split_type":[0,0,0,0,0,0,0,0,0,0,0,0,0,0,0],"sum_hessian":[8.1152407E3,6.411067E3,1.7041737E3,5.304731E3,1.1063358E3,1.0952544E3,6.089193E2,1.8865342E3,3.418197E3,4.785353E2,6.278005E2,7.621458E2,3.3310864E2,4.2509576E2,1.8382355E2],"tree_param":{"num_deleted":"0","num_feature":"41","num_nodes":"15","size_leaf_vector":"1"}},{"base_weights":[-2.079931E-3,4.5742467E-2,-1.16181806E-1,1.0739743E-1,-1.2944324E-1,-4.8742718E-1,-2.4969522E-2,-3.913071E-1,1.4523406E-1,6.20401E-1,-3.320655E-1,-9.565623E-1,5.896138E-2,2.2994478E-1,-1.0742038E-1],"categories":[],"categories_nodes":[],"categories_segments":[],"categories_sizes":[],"default_left":[0,0,0,0,0,0,0,0,0,0,0,0,0,0,0],"id":15,"left_children":[1,3,5,7,9,11,13,-1,-1,-1,-1,-1,-1,-1,-1],"loss_changes":[4.3074852E1,6.009663E1,7.893426E1,1.4236281E2,3.1662973E2,1.5980826E2,5.4745163E1,0E0,0E0,0E0,0E0,0E0,0E0,0E0,0E0],"parents":[2147483647,0,0,1,1,2,2,3,3,4,4,5,5,6,6],"right_children":[2,4,6,8,10,12,14,-1,-1,-1,-1,-1,-1,-1,-1],"split_conditions":[3.637E0,1.1E1,1E1,2E0,3E0,4E0,0E0,-3.913071E-1,1.4523406E-1,6.20401E-1,-3.320655E-1,-9.565623E-1,5.896138E-2,2.2994478E-1,-1.0742038E-1],"split_indices":[26,28,29,17,17,17,2,0,0,0,0,0,0,0,0],"split_type":[0,0,0,0,0,0,0,0,0,0,0,0,0,0,0],"sum_hessian":[7.892072E3,5.5616646E3,2.330407E3,4.1141245E3,1.4475404E3,4.5877826E2,1.8716287E3,4.0478653E2,3.709338E3,3.350634E2,1.112477E3,2.1553989E2,2.4323837E2,4.763862E2,1.3952424E3],"tree_param":{"num_deleted":"0","num_feature":"41","num_nodes":"15","size_leaf_vector":"1"}},{"base_weights":[-6.938685E-4,4.2778354E-2,-1.627766E-1,2.4482103E-1,-2.3608694E-2,-7.713041E-1,5.740385E-2,-2.3688652E-1,4.8440892E-1,4.447878E-2,-2.58358E-1,2.4190156E-1,-1.168391E0,-1.7999247E-1,3.9368856E-1],"categories":[],"categories_nodes":[],"categories_segments":[],"categories_sizes":[],"default_left":[0,0,0,0,0,0,0,0,0,0,0,0,0,0,0],"id":16,"left_children":[1,3,5,7,9,11,13,-1,-1,-1,-1,-1,-1,-1,-1],"loss_changes":[5.4709496E1,8.212602E1,2.2006151E2,2.5103488E2,9.612315E1,2.7012735E2,1.2894916E2,0E0,0E0,0E0,0E0,0E0,0E0,0E0,0E0],"parents":[2147483647,0,0,1,1,2,2,3,3,4,4,5,5,6,6],"right_children":[2,4,6,8,10,12,14,-1,-1,-1,-1,-1,-1,-1,-1],"split_conditions":[7.08E-2,1E1,7E0,4E0,2.391E-1,9E0,1.4E1,-2.3688652E-1,4.8440892E-1,4.447878E-2,-2.58358E-1,2.4190156E-1,-1.168391E0,-1.7999247E-1,3.9368856E-1],"split_indices":[0,29,28,18,2,33,35,0,0,0,0,0,0,0,0],"split_type":[0,0,0,0,0,0,0,0,0,0,0,0,0,0,0],"sum_hessian":[7.7625225E3,6.1214297E3,1.6410929E3,1.5132646E3,4.608165E3,4.35359E2,1.2057339E3,5.746105E2,9.386541E2,3.6230344E3,9.8513055E2,1.5610216E2,2.7925687E2,7.239635E2,4.817704E2],"tree_param":{"num_deleted":"0","num_feature":"41","num_nodes":"15","size_leaf_vector":"1"}},{"base_weights":[-2.6424401E-3,-2.0908128E-2,2.8509617E-1,-9.15985E-2,9.418421E-2,9.7504187E-1,-2.3110685E-1,-1.5927188E-1,1.6583951E-1,-2.1796921E-1,2.167319E-1,1.013363E0,-2.0280323E0,-4.2508617E-1,5.076884E-1],"categories":[],"categories_nodes":[],"categories_segments":[],"categories_sizes":[],"default_left":[0,0,0,0,0,0,0,0,0,0,0,0,0,0,0],"id":17,"left_children":[1,3,5,7,9,11,13,-1,-1,-1,-1,-1,-1,-1,-1],"loss_changes":[3.9678425E1,5.7763603E1,1.6072157E2,1.1713093E2,1.4829216E2,1.3359268E2,5.619442E1,0E0,0E0,0E0,0E0,0E0,0E0,0E0,0E0],"parents":[2147483647,0,0,1,1,2,2,3,3,4,4,5,5,6,6],"right_children":[2,4,6,8,10,12,14,-1,-1,-1,-1,-1,-1,-1,-1],"split_conditions":[2E0,1.1E1,2E0,2E0,4E0,8E0,4E0,-1.5927188E-1,1.6583951E-1,-2.1796921E-1,2.167319E-1,1.013363E0,-2.0280323E0,-4.2508617E-1,5.076884E-1],"split_indices":[14,29,35,15,16,17,20,0,0,0,0,0,0,0,0],"split_type":[0,0,0,0,0,0,0,0,0,0,0,0,0,0,0],"sum_hessian":[7.5474023E3,7.0977627E3,4.4963968E2,4.3971885E3,2.7005742E3,1.9205469E2,2.57585E2,3.308713E3,1.0884758E3,8.430531E2,1.8575212E3,1.8162424E2,1.0430453E1,1.9538458E2,6.22004E1],"tree_param":{"num_deleted":"0","num_feature":"41","num_nodes":"15","size_leaf_vector":"1"}}]},"name":"gbtree"},"learner_model_param":{"base_score":"5E-1","boost_from_average":"1","num_class":"0","num_feature":"41","num_target":"1"},"objective":{"name":"binary:logistic","reg_loss_param":{"scale_pos_weight":"5"}}},"version":[2,1,4]}