{"learner":{"attributes":{"best_iteration":"1","best_score":"0.4080706804903704"},"feature_names":[],"feature_types":[],"gradient_booster":{"model":{"gbtree_model_param":{"num_parallel_tree":"1","num_trees":"12"},"iteration_indptr":[0,1,2,3,4,5,6,7,8,9,10,11,12],"tree_info":[0,0,0,0,0,0,0,0,0,0,0,0],"trees":[{"base_weights":[-0E0,-1.04264505E-1,1.0680273E0,4.303589E-3,-1.0077382E0,-1.0028545E0,1.7758228E0,1.5925251E-1,-1.4553003E0,-1.6686968E0,7.417538E-1,-1.7125382E0,1.6458853E-1,1.8416108E0,-4.0860215E-1,3.183342E-1,-5.9102315E-2,-1.7937546E0,-3.6848205E-1,-9.6465224E-1,-1.922024E0,-1.0329671E0,8.788927E-1,-1.9461539E0,-7.826087E-1,1.6285714E0,-6.1132073E-1,1.8675675E0,-7.6666665E-1,-1.0422535E0,1.3846154E0,1.8112928E-1,-6.234353E-1,-3.3686244E-1,2.1628875E-1,-3.736519E-1,-8.774523E-1,-2.6484847E-1,8.464E-1,-2.4033278E-1,-8.74E-1,-0E0,-8.915266E-1,6.44E-1,-7.482667E-1,1.5792125E-1,6.992E-1,-2.4210528E-1,-9.127129E-1,-6.249057E-1,4.6E-1,8.775385E-1,-6.571429E-1,-6.207229E-1,2.7689323E-1,8.6209136E-1,-5.1111114E-1,-8.4333336E-1,2.3851852E-1,2.509091E-1,7.2631586E-1],"categories":[],"categories_nodes":[],"categories_segments":[],"categories_sizes":[],"default_left":[0,0,0,0,0,0,0,0,0,0,0,0,0,0,0,0,0,0,0,0,0,0,0,0,0,0,0,0,0,0,0,0,0,0,0,0,0,0,0,0,0,0,0,0,0,0,0,0,0,0,0,0,0,0,0,0,0,0,0,0,0],"id":0,"left_children":[1,3,5,7,9,11,13,15,17,19,21,23,25,27,29,31,33,35,37,39,41,43,45,47,49,51,53,55,-1,57,59,-1,-1,-1,-1,-1,-1,-1,-1,-1,-1,-1,-1,-1,-1,-1,-1,-1,-1,-1,-1,-1,-1,-1,-1,-1,-1,-1,-1,-1,-1],"loss_changes":[1.2883486E3,1.0339054E3,1.5100488E3,2.1286052E3,1.3087711E3,2.1797427E2,1.1101318E2,2.955722E2,3.31589E2,1.4457422E2,7.6539215E1,3.3996674E1,1.1487135E2,7.095508E1,2.7861507E1,6.219185E2,1.2784836E3,7.531641E1,9.982204E1,8.968938E1,1.8625488E1,3.513861E1,9.871147E1,5.9705505E0,3.6775223E1,3.259121E1,6.013787E1,1.650708E1,0E0,2.2866457E1,1.9874859E-1,0E0,0E0,0E0,0E0,0E0,0E0,0E0,0E0,0E0,0E0,0E0,0E0,0E0,0E0,0E0,0E0,0E0,0E0,0E0,0E0,0E0,0E0,0E0,0E0,0E0,0E0,0E0,0E0,0E0,0E0],"parents":[2147483647,0,0,1,1,2,2,3,3,4,4,5,5,6,6,7,7,8,8,9,9,10,10,11,11,12,12,13,13,14,14,15,15,16,16,17,17,18,18,19,19,20,20,21,21,22,22,23,23,24,24,25,25,26,26,27,27,29,29,30,30],"right_children":[2,4,6,8,10,12,14,16,18,20,22,24,26,28,30,32,34,36,38,40,42,44,46,48,50,52,54,56,-1,58,60,-1,-1,-1,-1,-1,-1,-1,-1,-1,-1,-1,-1,-1,-1,-1,-1,-1,-1,-1,-1,-1,-1,-1,-1,-1,-1,-1,-1,-1,-1],"split_conditions":[1.903E0,2E0,1E0,8E0,1E0,1.7E1,2E0,1E0,1.3E1,1E0,-8.666E-1,5E0,-3.617E-1,6E0,2.5474E0,1.9E1,6E0,-2.261E-1,1E0,3E0,-1.3854E0,8E0,2E0,1E0,2.9661E0,1.9496E0,7.143E-1,9E0,-7.6666665E-1,7E0,0E0,1.8112928E-1,-6.234353E-1,-3.3686244E-1,2.1628875E-1,-3.736519E-1,-8.774523E-1,-2.6484847E-1,8.464E-1,-2.4033278E-1,-8.74E-1,-0E0,-8.915266E-1,6.44E-1,-7.482667E-1,1.5792125E-1,6.992E-1,-2.4210528E-1,-9.127129E-1,-6.249057E-1,4.6E-1,8.775385E-1,-6.571429E-1,-6.207229E-1,2.7689323E-1,8.6209136E-1,-5.1111114E-1,-8.4333336E-1,2.3851852E-1,2.509091E-1,7.2631586E-1],"split_indices":[1,21,21,35,35,33,28,13,30,13,1,17,2,18,1,26,30,2,22,21,4,26,28,19,0,1,3,16,0,16,2,0,0,0,0,0,0,0,0,0,0,0,0,0,0,0,0,0,0,0,0,0,0,0,0,0,0,0,0,0,0],"split_type":[0,0,0,0,0,0,0,0,0,0,0,0,0,0,0,0,0,0,0,0,0,0,0,0,0,0,0,0,0,0,0,0,0,0,0,0,0,0,0,0,0,0,0,0,0,0,0,0,0,0,0,0,0,0,0,0,0,0,0,0,0],"sum_hessian":[1.15675E4,1.05395E4,1.028E3,9.40975E3,1.12975E3,2.6175E2,7.6625E2,8.5075E3,9.0225E2,8.2E2,3.0975E2,1.625E2,9.925E1,7.44E2,2.225E1,4.9215E3,3.586E3,6.875E2,2.1475E2,2.1825E2,6.0175E2,2.175E1,2.88E2,1.29E2,3.35E1,3.4E1,6.525E1,7.39E2,5E0,1.675E1,5.5E0,4.71E3,2.115E2,1.57825E3,2.00775E3,7.225E1,6.1525E2,1.97E2,1.775E1,1.4925E2,6.9E1,5E0,5.9675E2,4E0,1.775E1,1.5775E2,1.3025E2,3.75E0,1.2525E2,2.55E1,8E0,3.15E1,2.5E0,4.05E1,2.475E1,7.3775E2,1.25E0,1.1E1,5.75E0,1.75E0,3.75E0],"tree_param":{"num_deleted":"0","num_feature":"39","num_nodes":"61","size_leaf_vector":"1"}},{"base_weights":[-4.0878784E-3,-6.554064E-2,7.1492934E-1,-1.7850577E-3,-6.537127E-1,-6.625859E-1,1.2012873E0,8.73831E-2,-9.389448E-1,-1.1073816E0,4.3880868E-1,-1.1627356E0,1.0655158E-1,1.2480397E0,-2.4583915E-1,2.6464656E-1,-7.614662E-2,-1.186187E0,-9.297265E-2,-1.3263899E0,-4.5516953E-1,7.0529723E-1,-1.738453E-1,-1.3548962E0,-4.7804433E-1,7.1436685E-1,-8.537887E-1,1.2783842E0,-3.7201682E-1,-6.971829E-1,9.8913884E-1,3.1670883E-1,2.3395563E-2,-1.7667471E-1,1.6635075E-1,-2.0083918E-1,-5.999297E-1,5.611951E-1,-1.9444852E-1,-4.1495436E-1,-6.4912856E-1,-3.330693E-1,4.1832852E-1,-2.837221E-1,4.2961207E-1,3.785145E-1,-8.0685735E-1,-1.5640163E-1,-6.38425E-1,1.5795743E-1,-6.9682074E-1,-1.9726983E-1,6.262685E-1,-1.4038245E-1,-7.6908547E-1,6.017806E-1,2.4519859E-1,-7.9785115E-1,4.3337354E-1,4.5045838E-1,-5.259172E-1,5.659934E-1,8.970077E-2],"categories":[],"categories_nodes":[],"categories_segments":[],"categories_sizes":[],"default_left":[0,0,0,0,0,0,0,0,0,0,0,0,0,0,0,0,0,0,0,0,0,0,0,0,0,0,0,0,0,0,0,0,0,0,0,0,0,0,0,0,0,0,0,0,0,0,0,0,0,0,0,0,0,0,0,0,0,0,0,0,0,0,0],"id":1,"left_children":[1,3,5,7,9,11,13,15,17,19,21,23,25,27,29,31,33,35,37,39,41,43,45,47,49,51,53,55,57,59,61,-1,-1,-1,-1,-1,-1,-1,-1,-1,-1,-1,-1,-1,-1,-1,-1,-1,-1,-1,-1,-1,-1,-1,-1,-1,-1,-1,-1,-1,-1,-1,-1],"loss_changes":[4.8756052E2,3.811971E2,5.828799E2,7.66568E2,4.9322263E2,8.758395E1,4.3774353E1,2.4283296E2,1.6658746E2,9.977399E1,4.786244E1,1.7489655E1,5.343751E1,3.1079102E1,1.236281E1,3.64198E2,5.875828E2,5.39776E1,7.902127E1,1.7628357E1,6.6035934E1,6.2232635E1,1.4230576E2,3.1132202E0,2.7564417E1,4.1987206E1,1.5438972E1,1.2896118E1,2.3513992E1,1.3028628E1,9.1329765E-1,0E0,0E0,0E0,0E0,0E0,0E0,0E0,0E0,0E0,0E0,0E0,0E0,0E0,0E0,0E0,0E0,0E0,0E0,0E0,0E0,0E0,0E0,0E0,0E0,0E0,0E0,0E0,0E0,0E0,0E0,0E0,0E0],"parents":[2147483647,0,0,1,1,2,2,3,3,4,4,5,5,6,6,7,7,8,8,9,9,10,10,11,11,12,12,13,13,14,14,15,15,16,16,17,17,18,18,19,19,20,20,21,21,22,22,23,23,24,24,25,25,26,26,27,27,28,28,29,29,30,30],"right_children":[2,4,6,8,10,12,14,16,18,20,22,24,26,28,30,32,34,36,38,40,42,44,46,48,50,52,54,56,58,60,62,-1,-1,-1,-1,-1,-1,-1,-1,-1,-1,-1,-1,-1,-1,-1,-1,-1,-1,-1,-1,-1,-1,-1,-1,-1,-1,-1,-1,-1,-1,-1,-1],"split_conditions":[1.903E0,2E0,1E0,5E0,1E0,1.7E1,2E0,5E0,1.4E1,3E0,1.7E1,5E0,1.9496E0,5E0,2.5474E0,5E0,7E0,-2.261E-1,-5.45E-2,1E0,9.7E-1,-4.934E-1,3E0,1E0,3E0,1.4339E0,2E0,2.5474E0,1.246E0,1E0,9.59E-2,3.1670883E-1,2.3395563E-2,-1.7667471E-1,1.6635075E-1,-2.0083918E-1,-5.999297E-1,5.611951E-1,-1.9444852E-1,-4.1495436E-1,-6.4912856E-1,-3.330693E-1,4.1832852E-1,-2.837221E-1,4.2961207E-1,3.785145E-1,-8.0685735E-1,-1.5640163E-1,-6.38425E-1,1.5795743E-1,-6.9682074E-1,-1.9726983E-1,6.262685E-1,-1.4038245E-1,-7.6908547E-1,6.017806E-1,2.4519859E-1,-7.9785115E-1,4.3337354E-1,4.5045838E-1,-5.259172E-1,5.659934E-1,8.970077E-2],"split_indices":[1,21,21,35,35,33,28,16,30,18,32,17,1,18,1,30,29,2,8,14,7,1,18,19,18,0,15,1,0,13,5,0,0,0,0,0,0,0,0,0,0,0,0,0,0,0,0,0,0,0,0,0,0,0,0,0,0,0,0,0,0,0,0],"split_type":[0,0,0,0,0,0,0,0,0,0,0,0,0,0,0,0,0,0,0,0,0,0,0,0,0,0,0,0,0,0,0,0,0,0,0,0,0,0,0,0,0,0,0,0,0,0,0,0,0,0,0,0,0,0,0,0,0,0,0,0,0,0,0],"sum_hessian":[1.1032316E4,1.0164489E4,8.6782684E2,9.171354E3,9.931363E2,2.2635565E2,6.4147125E2,8.375367E3,7.9598627E2,7.017298E2,2.914065E2,1.3685242E2,8.9503235E1,6.21529E2,1.9942244E1,4.018626E3,4.356741E3,6.156542E2,1.803321E2,5.245544E2,1.7717545E2,2.0296904E2,8.843747E1,1.0609711E2,3.0755306E1,5.4968735E1,3.4534496E1,6.103085E2,1.1220486E1,1.4923621E1,5.0186224E0,1.3466174E3,2.6720085E3,2.5577615E3,1.7989795E3,8.437955E1,5.312746E2,3.5656303E1,1.4467581E2,8.927495E1,4.3527942E2,1.4840184E2,2.877361E1,2.967584E1,1.732932E2,5.452513E1,3.391234E1,3.6955812E0,1.0240153E2,1.7532963E1,1.3222344E1,1.9989805E1,3.497893E1,2.1494297E1,1.3040197E1,5.860933E2,2.4215168E1,5.351946E0,5.8685393E0,2.8854427E0,1.2038178E1,3.4277837E0,1.5908388E0],"tree_param":{"num_deleted":"0","num_feature":"39","num_nodes":"63","size_leaf_vector":"1"}},{"base_weights":[-6.429103E-3,-4.5615375E-2,5.578852E-1,-1.3116711E-2,-8.049505E-1,-4.4641924E-1,9.606893E-1,-2.0283593E-1,9.7578324E-2,-9.5556915E-1,1.4242427E0,1.4184488E-1,-9.9207705E-1,1.0065806E0,-1.05871625E-1,1.0969786E-1,-9.802051E-1,-2.9390892E-1,4.709317E-1,-4.3900275E-1,-1.3652976E0,1.5683483E0,-4.5311293E-1,-4.638677E-1,6.429647E-1,-1.130022E0,3.7997928E-2,2.9356548E-1,1.0679123E0,5.898584E-1,-5.1685816E-1,1.3014616E-1,-1.5414585E-1,-2.334781E-1,-6.6298366E-1,-2.1896823E-1,1.5252772E-1,3.1139827E-1,5.321694E-2,-3.4961838E-1,2.992811E-1,6.225513E-1,-6.779389E-1,3.636784E-1,7.864698E-1,-5.1797473E-1,6.330717E-2,-4.065178E-1,3.8358185E-1,4.3481234E-1,-5.4021704E-1,-4.914618E-1,4.436203E-1,-8.940525E-1,3.7503666E-1,-4.0903035E-1,5.010435E-1,-4.6596038E-1,4.7806E-1,-3.79022E-1,4.1289073E-1],"categories":[],"categories_nodes":[],"categories_segments":[],"categories_sizes":[],"default_left":[0,0,0,0,0,0,0,0,0,0,0,0,0,0,0,0,0,0,0,0,0,0,0,0,0,0,0,0,0,0,0,0,0,0,0,0,0,0,0,0,0,0,0,0,0,0,0,0,0,0,0,0,0,0,0,0,0,0,0,0,0],"id":2,"left_children":[1,3,5,7,9,11,13,15,17,19,21,23,25,27,29,31,33,35,37,39,41,43,-1,45,47,49,51,53,55,57,59,-1,-1,-1,-1,-1,-1,-1,-1,-1,-1,-1,-1,-1,-1,-1,-1,-1,-1,-1,-1,-1,-1,-1,-1,-1,-1,-1,-1,-1,-1],"loss_changes":[2.301716E2,2.4016696E2,2.738378E2,1.9604842E2,1.3547467E2,6.246286E1,2.3732758E1,8.358125E2,8.6184283E2,7.871799E1,1.0461334E1,2.8923079E1,1.4373146E1,1.9928497E1,6.257294E0,1.8920251E2,2.1423816E2,3.280379E2,2.2080316E2,5.8995758E1,6.3491516E1,1.3550301E0,0E0,1.7391861E1,1.5900843E1,9.301285E0,1.4229796E1,4.5986397E1,1.8730835E1,6.95759E0,6.655693E0,0E0,0E0,0E0,0E0,0E0,0E0,0E0,0E0,0E0,0E0,0E0,0E0,0E0,0E0,0E0,0E0,0E0,0E0,0E0,0E0,0E0,0E0,0E0,0E0,0E0,0E0,0E0,0E0,0E0,0E0],"parents":[2147483647,0,0,1,1,2,2,3,3,4,4,5,5,6,6,7,7,8,8,9,9,10,10,11,11,12,12,13,13,14,14,15,15,16,16,17,17,18,18,19,19,20,20,21,21,23,23,24,24,25,25,26,26,27,27,28,28,29,29,30,30],"right_children":[2,4,6,8,10,12,14,16,18,20,22,24,26,28,30,32,34,36,38,40,42,44,-1,46,48,50,52,54,56,58,60,-1,-1,-1,-1,-1,-1,-1,-1,-1,-1,-1,-1,-1,-1,-1,-1,-1,-1,-1,-1,-1,-1,-1,-1,-1,-1,-1,-1,-1,-1],"split_conditions":[1.5944E0,1.3899E0,1E0,3E0,1.9E1,3E0,2E0,1.5E1,1.2E1,1.3E1,2E0,1.7E1,1.194E0,4E0,1.51E-2,1E0,1.7E1,2E0,2.357E-1,1.3E-2,2E0,3E0,-4.5311293E-1,2E0,-1.609E-1,1E1,1.4E1,1.3E1,1E0,-1.36E-1,2.5474E0,1.3014616E-1,-1.5414585E-1,-2.334781E-1,-6.6298366E-1,-2.1896823E-1,1.5252772E-1,3.1139827E-1,5.321694E-2,-3.4961838E-1,2.992811E-1,6.225513E-1,-6.779389E-1,3.636784E-1,7.864698E-1,-5.1797473E-1,6.330717E-2,-4.065178E-1,3.8358185E-1,4.3481234E-1,-5.4021704E-1,-4.914618E-1,4.436203E-1,-8.940525E-1,3.7503666E-1,-4.0903035E-1,5.010435E-1,-4.6596038E-1,4.7806E-1,-3.79022E-1,4.1289073E-1],"split_indices":[1,0,21,18,26,19,28,31,31,31,15,33,3,17,2,21,33,15,7,8,13,13,0,15,3,27,33,33,15,2,1,0,0,0,0,0,0,0,0,0,0,0,0,0,0,0,0,0,0,0,0,0,0,0,0,0,0,0,0,0,0],"split_type":[0,0,0,0,0,0,0,0,0,0,0,0,0,0,0,0,0,0,0,0,0,0,0,0,0,0,0,0,0,0,0,0,0,0,0,0,0,0,0,0,0,0,0,0,0,0,0,0,0,0,0,0,0,0,0,0,0,0,0,0,0],"sum_hessian":[1.0406554E4,9.731699E3,6.748549E2,9.333264E3,3.984356E2,1.9315544E2,4.8169946E2,3.4387642E3,5.8944995E3,3.7375375E2,2.468187E1,9.3305E1,9.985043E1,4.618821E2,1.9817343E1,2.453298E3,9.85466E2,2.8774763E3,3.017023E3,1.6623894E2,2.075148E2,2.361823E1,1.0636393E0,4.227762E1,5.102738E1,8.7972374E1,1.1878059E1,3.7041424E1,4.248407E2,7.1976776E0,1.2619665E1,1.765917E3,6.873811E2,4.876593E2,4.978067E2,2.2288076E3,6.4866876E2,1.9090022E3,1.1080208E3,1.2863977E2,3.7599167E1,7.522357E0,1.9999245E2,4.646715E0,1.8971516E1,1.9708767E1,2.256885E1,5.2682304E0,4.575915E1,1.4162016E0,8.6556175E1,5.343285E0,6.534774E0,6.489502E0,3.055192E1,4.1379433E0,4.2070276E2,1.3015668E0,5.896111E0,1.07114725E1,1.9081923E0],"tree_param":{"num_deleted":"0","num_feature":"39","num_nodes":"61","size_leaf_vector":"1"}},{"base_weights":[-3.3988182E-3,-3.9549744E-1,2.9048687E-2,-8.115647E-2,-7.916012E-1,5.2539206E-1,-4.5639025E-3,5.5666333E-1,-2.744093E-1,-2.376954E-1,-9.617523E-1,7.7350885E-1,-1.2087727E-1,-9.03898E-2,1.642319E-1,1.6539584E0,-1.0344605E-1,-1.2808714E-2,-8.536329E-1,-9.0325963E-1,3.490841E-1,-1.215491E0,-3.9989662E-1,-4.768119E-1,1.0166348E0,-5.631831E-1,1.0287727E0,-2.7518833E-1,7.8314446E-2,5.126524E-1,-9.596967E-3,8.424244E-2,7.9539216E-1,5.6577E-1,-2.6910812E-1,-5.435193E-1,5.1897462E-2,5.525061E-2,-5.1194966E-1,-7.0305735E-1,3.9524418E-1,-2.7569625E-1,5.358571E-1,-2.2939973E-1,-7.007715E-1,2.7389646E-2,-5.9910595E-1,6.662934E-2,-6.7032254E-1,5.23504E-1,-1.8916075E-1,9.2783906E-2,-6.88766E-1,-8.104752E-1,5.6910133E-1,-4.3385345E-1,-3.7011378E-2,2.0886104E-1,-4.17338E-2,4.0861398E-1,-3.1805587E-1,-4.2730704E-2,2.6247248E-1],"categories":[],"categories_nodes":[],"categories_segments":[],"categories_sizes":[],"default_left":[0,0,0,0,0,0,0,0,0,0,0,0,0,0,0,0,0,0,0,0,0,0,0,0,0,0,0,0,0,0,0,0,0,0,0,0,0,0,0,0,0,0,0,0,0,0,0,0,0,0,0,0,0,0,0,0,0,0,0,0,0,0,0],"id":3,"left_children":[1,3,5,7,9,11,13,15,17,19,21,23,25,27,29,31,33,35,37,39,41,43,45,47,49,51,53,55,57,59,61,-1,-1,-1,-1,-1,-1,-1,-1,-1,-1,-1,-1,-1,-1,-1,-1,-1,-1,-1,-1,-1,-1,-1,-1,-1,-1,-1,-1,-1,-1,-1,-1],"loss_changes":[1.270212E2,9.494495E1,1.5383868E2,5.2729553E1,3.1580399E1,9.3874115E1,1.2514066E2,7.2255264E1,4.9694283E1,3.1808708E1,3.6276123E1,1.2899066E2,8.352081E1,1.7854965E2,1.7635204E2,3.821869E0,4.122333E1,3.3462067E1,2.5898918E1,4.324964E1,3.44166E1,3.8340668E1,3.396006E1,4.2570175E1,6.1880768E1,8.492739E1,2.874218E1,3.5542325E2,1.9022246E2,4.3896335E2,9.3978E1,0E0,0E0,0E0,0E0,0E0,0E0,0E0,0E0,0E0,0E0,0E0,0E0,0E0,0E0,0E0,0E0,0E0,0E0,0E0,0E0,0E0,0E0,0E0,0E0,0E0,0E0,0E0,0E0,0E0,0E0,0E0,0E0],"parents":[2147483647,0,0,1,1,2,2,3,3,4,4,5,5,6,6,7,7,8,8,9,9,10,10,11,11,12,12,13,13,14,14,15,15,16,16,17,17,18,18,19,19,20,20,21,21,22,22,23,23,24,24,25,25,26,26,27,27,28,28,29,29,30,30],"right_children":[2,4,6,8,10,12,14,16,18,20,22,24,26,28,30,32,34,36,38,40,42,44,46,48,50,52,54,56,58,60,62,-1,-1,-1,-1,-1,-1,-1,-1,-1,-1,-1,-1,-1,-1,-1,-1,-1,-1,-1,-1,-1,-1,-1,-1,-1,-1,-1,-1,-1,-1,-1,-1],"split_conditions":[-1.12E-1,2E0,-6.6E-3,6E0,2E0,1.2E1,2.742E-1,2E0,2E0,8E0,6E0,2E0,7E0,3E0,1E1,5E0,1E0,6E0,-2.375E-1,4E0,-4.331E-1,6E0,3.175E-1,1.492E-1,7E0,1.51E-2,3E0,5E0,4E0,1E0,2E1,8.424244E-2,7.9539216E-1,5.6577E-1,-2.6910812E-1,-5.435193E-1,5.1897462E-2,5.525061E-2,-5.1194966E-1,-7.0305735E-1,3.9524418E-1,-2.7569625E-1,5.358571E-1,-2.2939973E-1,-7.007715E-1,2.7389646E-2,-5.9910595E-1,6.662934E-2,-6.7032254E-1,5.23504E-1,-1.8916075E-1,9.2783906E-2,-6.88766E-1,-8.104752E-1,5.6910133E-1,-4.3385345E-1,-3.7011378E-2,2.0886104E-1,-4.17338E-2,4.0861398E-1,-3.1805587E-1,-4.2730704E-2,2.6247248E-1],"split_indices":[1,15,1,34,19,31,6,17,13,30,17,19,16,19,27,29,15,26,2,18,1,34,3,3,16,2,28,30,16,13,26,0,0,0,0,0,0,0,0,0,0,0,0,0,0,0,0,0,0,0,0,0,0,0,0,0,0,0,0,0,0,0,0],"split_type":[0,0,0,0,0,0,0,0,0,0,0,0,0,0,0,0,0,0,0,0,0,0,0,0,0,0,0,0,0,0,0,0,0,0,0,0,0,0,0,0,0,0,0,0,0,0,0,0,0,0,0,0,0,0,0,0,0,0,0,0,0,0,0],"sum_hessian":[9.981982E3,7.620547E2,9.219928E3,4.255503E2,3.3650436E2,5.8384827E2,8.636079E3,9.851774E1,3.2703256E2,7.9640755E1,2.5686362E2,4.2173727E2,1.6211096E2,5.725405E3,2.9106743E3,3.6439323E1,6.207841E1,2.25989E2,1.0104357E2,3.7062572E1,4.257818E1,1.7614961E2,8.0714005E1,6.850032E1,3.5323697E2,1.17438774E2,4.467219E1,2.732068E3,2.993337E3,9.68159E2,1.9425153E3,1.9385061E0,3.4500816E1,1.6059284E1,4.6019127E1,2.1118073E1,2.0487093E2,2.1361681E1,7.968189E1,2.7456879E1,9.605695E0,1.9811703E1,2.2766476E1,5.3719513E1,1.2243009E2,5.4104874E1,2.6609129E1,4.2441383E1,2.6058939E1,3.257406E2,2.7496363E1,6.499977E1,5.2439003E1,2.5862496E0,4.2085945E1,6.158153E2,2.1162527E3,9.282957E2,2.0650413E3,7.3814166E2,2.3001738E2,1.6993807E3,2.431346E2],"tree_param":{"num_deleted":"0","num_feature":"39","num_nodes":"63","size_leaf_vector":"1"}},{"base_weights":[-1.8703961E-3,-2.79869E-2,4.7677115E-1,3.7424783E-3,-3.5060158E-1,-3.781278E-1,8.2660866E-1,4.675988E-2,-6.8776864E-1,-8.3632636E-1,2.6257744E-1,4.3204486E-1,-6.2507373E-1,8.9450145E-1,8.5296424E-4,1.6794534E-2,6.254119E-1,-9.967409E-2,-1.0085982E0,-1.0381359E0,8.188014E-2,-1.2459381E-1,6.993772E-1,7.8172565E-1,-8.410136E-1,-1.1554079E0,-2.6463294E-1,9.178016E-1,-5.364677E-1,2.0172153E-1,-8.992803E-1,5.269985E-2,-6.3563906E-2,-6.529351E-2,5.027017E-1,-1.8334052E-1,3.9671883E-1,-4.92941E-1,6.5052146E-1,-6.5582104E-2,-5.037231E-1,7.8796303E-1,-1.8635242E-1,-3.9169717E-1,2.575332E-1,3.9859146E-1,-1.7140228E-1,-4.6867654E-1,4.919797E-1,-5.879292E-1,4.151125E-1,-2.3045062E-1,-5.655431E-1,4.349078E-2,-4.1899022E-1,-3.7621547E-2,4.431447E-1,-1.0631907E-1,4.671058E-1],"categories":[],"categories_nodes":[],"categories_segments":[],"categories_sizes":[],"default_left":[0,0,0,0,0,0,0,0,0,0,0,0,0,0,0,0,0,0,0,0,0,0,0,0,0,0,0,0,0,0,0,0,0,0,0,0,0,0,0,0,0,0,0,0,0,0,0,0,0,0,0,0,0,0,0,0,0,0,0],"id":4,"left_children":[1,3,5,7,9,11,13,15,17,19,21,23,25,27,29,31,33,35,37,39,41,43,45,47,49,51,53,55,-1,57,-1,-1,-1,-1,-1,-1,-1,-1,-1,-1,-1,-1,-1,-1,-1,-1,-1,-1,-1,-1,-1,-1,-1,-1,-1,-1,-1,-1,-1],"loss_changes":[1.22125885E2,9.4832664E1,1.5149295E2,2.5096616E2,2.4729288E2,2.9774904E1,2.0126846E1,1.3770876E2,9.312378E1,8.5903656E1,6.2226196E1,1.6256666E1,2.137722E1,1.6999115E1,1.1503094E1,1.1445228E2,1.4040526E2,5.0815285E1,5.0304077E1,1.9200012E1,6.771547E1,9.7811165E1,3.1281792E1,1.5603865E1,7.27469E0,1.5934601E0,1.6062056E1,1.5042114E1,0E0,9.585951E0,0E0,0E0,0E0,0E0,0E0,0E0,0E0,0E0,0E0,0E0,0E0,0E0,0E0,0E0,0E0,0E0,0E0,0E0,0E0,0E0,0E0,0E0,0E0,0E0,0E0,0E0,0E0,0E0,0E0],"parents":[2147483647,0,0,1,1,2,2,3,3,4,4,5,5,6,6,7,7,8,8,9,9,10,10,11,11,12,12,13,13,14,14,15,15,16,16,17,17,18,18,19,19,20,20,21,21,22,22,23,23,24,24,25,25,26,26,27,27,29,29],"right_children":[2,4,6,8,10,12,14,16,18,20,22,24,26,28,30,32,34,36,38,40,42,44,46,48,50,52,54,56,-1,58,-1,-1,-1,-1,-1,-1,-1,-1,-1,-1,-1,-1,-1,-1,-1,-1,-1,-1,-1,-1,-1,-1,-1,-1,-1,-1,-1,-1,-1],"split_conditions":[1.903E0,8E0,1E0,2E0,1E0,2E0,1.9496E0,1.8167E0,1E0,1.1E1,1E0,7E0,3.133E-1,2.0377E0,6.02E-1,1.329E-1,6E0,6.588E-1,1E0,-7.136E-1,1E0,2E0,4.559E-1,-1.065E-1,8.761E-1,-6.607E-1,2.1555E0,-1.391E-1,-5.364677E-1,3.262E-1,-8.992803E-1,5.269985E-2,-6.3563906E-2,-6.529351E-2,5.027017E-1,-1.8334052E-1,3.9671883E-1,-4.92941E-1,6.5052146E-1,-6.5582104E-2,-5.037231E-1,7.8796303E-1,-1.8635242E-1,-3.9169717E-1,2.575332E-1,3.9859146E-1,-1.7140228E-1,-4.6867654E-1,4.919797E-1,-5.879292E-1,4.151125E-1,-2.3045062E-1,-5.655431E-1,4.349078E-2,-4.1899022E-1,-3.7621547E-2,4.431447E-1,-1.0631907E-1,4.671058E-1],"split_indices":[1,35,21,21,21,18,1,2,14,31,13,16,3,3,9,3,16,4,22,4,20,28,5,4,5,5,0,4,0,8,0,0,0,0,0,0,0,0,0,0,0,0,0,0,0,0,0,0,0,0,0,0,0,0,0,0,0,0,0],"split_type":[0,0,0,0,0,0,0,0,0,0,0,0,0,0,0,0,0,0,0,0,0,0,0,0,0,0,0,0,0,0,0,0,0,0,0,0,0,0,0,0,0,0,0,0,0,0,0,0,0,0,0,0,0,0,0,0,0,0,0],"sum_hessian":[9.767656E3,9.263164E3,5.0449197E2,8.434604E3,8.285607E2,1.4647346E2,3.5801852E2,7.9415117E3,4.9309177E2,4.621268E2,3.664339E2,3.4041523E1,1.12431946E2,3.30742E2,2.7276524E1,7.551489E3,3.900229E2,1.7451285E2,3.1857895E2,3.7875165E2,8.337515E1,1.9463116E2,1.7180273E2,2.7008766E1,7.0327587E0,4.4601715E1,6.783023E1,3.2759262E2,3.149373E0,2.5549374E1,1.72715E0,4.6305024E3,2.920986E3,1.479051E2,2.4211778E2,1.3359528E2,4.0917572E1,3.1104678E2,7.5321417E0,2.2841291E1,3.5591037E2,1.859103E1,6.478412E1,9.426863E1,1.0036253E2,1.4879665E2,2.3006077E1,3.371955E0,2.363681E1,5.83642E0,1.1963385E0,5.322223E0,3.9279495E1,4.4146503E1,2.3683725E1,1.4244672E1,3.1334793E2,1.7145193E1,8.40418E0],"tree_param":{"num_deleted":"0","num_feature":"39","num_nodes":"59","size_leaf_vector":"1"}},{"base_weights":[-4.040778E-3,5.4996066E-2,-1.5020394E-1,1.729855E-2,1.3169378E0,-1.5025862E0,-1.0027023E-1,-2.5886264E-1,7.065217E-2,1.5487334E0,-5.853029E-1,1.1306092E-1,-2.0296786E0,-1.7131072E-2,-7.326216E-1,1.4902283E0,-5.073158E-1,-1.6353787E0,9.142835E-2,1.4830728E0,9.999967E-1,4.73593E-1,-1.5790601E0,1.2453761E0,-1.3263375E0,-1.0576655E0,-9.5319843E-1,-1.189828E-1,4.0294313E-1,-1.3470193E0,-3.3757314E-1,7.232795E-1,-3.3846235E-1,-5.004669E-1,-4.143705E-2,2.7809113E-1,-9.6283954E-1,1.698844E-1,1.4529949E-2,1.0140877E0,6.684831E-1,-3.099115E-1,6.046735E-1,-8.862541E-1,3.8136035E-1,5.4405488E-2,8.191593E-1,-7.8268504E-1,1.5780729E-3,-7.029986E-1,1.5007336E-1,-1.803812E-1,6.0245804E-2,-1.9258083E-1,2.4541196E-1,1.8765597E-1,-6.597282E-1,-2.4795403E-1,2.877899E-1],"categories":[],"categories_nodes":[],"categories_segments":[],"categories_sizes":[],"default_left":[0,0,0,0,0,0,0,0,0,0,0,0,0,0,0,0,0,0,0,0,0,0,0,0,0,0,0,0,0,0,0,0,0,0,0,0,0,0,0,0,0,0,0,0,0,0,0,0,0,0,0,0,0,0,0,0,0,0,0],"id":5,"left_children":[1,3,5,7,9,11,13,15,17,19,21,23,25,27,29,31,33,35,37,39,-1,41,43,45,47,49,-1,51,53,55,57,-1,-1,-1,-1,-1,-1,-1,-1,-1,-1,-1,-1,-1,-1,-1,-1,-1,-1,-1,-1,-1,-1,-1,-1,-1,-1,-1,-1],"loss_changes":[8.10005E1,3.180617E2,1.8222403E2,9.569392E1,8.64173E1,8.206264E1,1.3697072E2,4.577486E2,1.930696E2,3.8832703E0,2.3677513E1,4.172234E1,8.031311E-1,9.86181E1,7.302556E1,2.5112762E1,2.2316646E2,6.846399E1,8.94245E1,2.3828125E-1,0E0,1.1805823E1,1.1199123E1,8.404499E0,5.6475506E0,3.8066673E0,0E0,1.26701904E2,4.8474037E1,1.8659286E1,3.635129E1,0E0,0E0,0E0,0E0,0E0,0E0,0E0,0E0,0E0,0E0,0E0,0E0,0E0,0E0,0E0,0E0,0E0,0E0,0E0,0E0,0E0,0E0,0E0,0E0,0E0,0E0,0E0,0E0],"parents":[2147483647,0,0,1,1,2,2,3,3,4,4,5,5,6,6,7,7,8,8,9,9,10,10,11,11,12,12,13,13,14,14,15,15,16,16,17,17,18,18,19,19,21,21,22,22,23,23,24,24,25,25,27,27,28,28,29,29,30,30],"right_children":[2,4,6,8,10,12,14,16,18,20,22,24,26,28,30,32,34,36,38,40,-1,42,44,46,48,50,-1,52,54,56,58,-1,-1,-1,-1,-1,-1,-1,-1,-1,-1,-1,-1,-1,-1,-1,-1,-1,-1,-1,-1,-1,-1,-1,-1,-1,-1,-1,-1],"split_conditions":[2.357E-1,2.317E-1,1E0,1E0,1E1,2E0,3E0,1E0,1E0,1E0,1.5E-3,3E0,2E0,1.7E1,1E1,4E0,9E0,3E0,-1.275E-1,3E0,9.999967E-1,-2.658E-1,9E0,1.1E1,1.2756E0,9.19E-2,-9.5319843E-1,4E0,3E0,4E0,8E0,7.232795E-1,-3.3846235E-1,-5.004669E-1,-4.143705E-2,2.7809113E-1,-9.6283954E-1,1.698844E-1,1.4529949E-2,1.0140877E0,6.684831E-1,-3.099115E-1,6.046735E-1,-8.862541E-1,3.8136035E-1,5.4405488E-2,8.191593E-1,-7.8268504E-1,1.5780729E-3,-7.029986E-1,1.5007336E-1,-1.803812E-1,6.0245804E-2,-1.9258083E-1,2.4541196E-1,1.8765597E-1,-6.597282E-1,-2.4795403E-1,2.877899E-1],"split_indices":[7,7,34,20,27,20,13,34,34,13,5,17,17,30,27,17,32,17,2,18,0,5,17,29,5,0,0,18,17,28,16,0,0,0,0,0,0,0,0,0,0,0,0,0,0,0,0,0,0,0,0,0,0,0,0,0,0,0,0],"split_type":[0,0,0,0,0,0,0,0,0,0,0,0,0,0,0,0,0,0,0,0,0,0,0,0,0,0,0,0,0,0,0,0,0,0,0,0,0,0,0,0,0,0,0,0,0,0,0,0,0,0,0,0,0,0,0,0,0,0,0],"sum_hessian":[9.385038E3,6.6853706E3,2.699668E3,6.492438E3,1.929325E2,9.509397E1,2.604574E3,1.050604E3,5.441834E3,1.7214214E2,2.0790365E1,2.3585382E1,7.150859E1,2.3028333E3,3.017407E2,1.3005174E2,9.2055225E2,6.45387E1,5.3772954E3,1.5883253E2,1.3309603E1,1.0318713E1,1.0471651E1,1.32762785E1,1.0309105E1,4.079519E0,6.742907E1,1.8540216E3,4.488117E2,1.1714367E2,1.8459702E2,1.2570799E2,4.3437557E0,3.842265E2,5.3632574E2,1.08967285E1,5.3641964E1,9.518809E2,4.4254146E3,3.4156723E0,1.5541685E2,4.4483576E0,5.870355E0,9.325561E0,1.1460906E0,4.6687675E0,8.6075115E0,7.822654E0,2.4864511E0,2.9664798E0,1.1130391E0,8.8562836E2,9.6839325E2,6.123904E1,3.8757266E2,5.3692684E0,1.117744E2,1.5303052E2,3.1566486E1],"tree_param":{"num_deleted":"0","num_feature":"39","num_nodes":"59","size_leaf_vector":"1"}},{"base_weights":[-2.5250288E-3,-1.31204855E-2,7.724983E-1,-2.9734357E-3,-1.0218387E0,2.9931712E-1,1.4491335E0,1.0741135E-2,-6.720371E-1,1.0733495E0,-1.4409784E0,-1.1616013E0,5.64943E-1,1.9613394E0,1.1130857E0,6.446654E-1,-1.2457008E-3,-8.8848317E-1,1.119331E-1,7.1497935E-1,-5.325686E-1,-2.3430952E-1,-1.6296161E0,-6.375879E-1,2.5231704E-1,7.332817E-1,-6.250086E-1,1.5208441E0,1.3493543E0,1.2104238E0,-1.05866864E-1,3.9786997E-1,-2.6360548E-1,-6.313048E-3,2.2578317E-1,-5.774985E-1,-1.847766E-1,-3.4034878E-1,2.2061785E-1,6.186684E-1,-6.602712E-1,-7.7546984E-1,3.753969E-1,3.8638672E-1,-4.8548192E-1,3.0586603E-1,-5.2966666E-1,7.3623234E-1,1.6039252E-1,5.711673E-1,2.0256728E-1],"categories":[],"categories_nodes":[],"categories_segments":[],"categories_sizes":[],"default_left":[0,0,0,0,0,0,0,0,0,0,0,0,0,0,0,0,0,0,0,0,0,0,0,0,0,0,0,0,0,0,0,0,0,0,0,0,0,0,0,0,0,0,0,0,0,0,0,0,0,0,0],"id":6,"left_children":[1,3,5,7,9,11,13,15,17,19,21,23,25,27,29,31,33,35,37,-1,-1,39,41,-1,-1,43,45,47,-1,49,-1,-1,-1,-1,-1,-1,-1,-1,-1,-1,-1,-1,-1,-1,-1,-1,-1,-1,-1,-1,-1],"loss_changes":[7.524418E1,9.251784E1,3.9132843E1,8.213339E1,8.060014E1,2.9366087E1,6.525734E0,6.665237E1,3.0608002E1,1.8517218E1,1.6790207E1,5.254959E0,1.3133032E1,3.559494E0,4.575447E0,4.4158005E1,5.287243E1,2.468332E1,1.2815863E1,0E0,0E0,2.3491158E1,1.0318039E1,0E0,0E0,1.1552603E1,6.4574056E0,8.395157E-1,0E0,1.9433212E-1,0E0,0E0,0E0,0E0,0E0,0E0,0E0,0E0,0E0,0E0,0E0,0E0,0E0,0E0,0E0,0E0,0E0,0E0,0E0,0E0,0E0],"parents":[2147483647,0,0,1,1,2,2,3,3,4,4,5,5,6,6,7,7,8,8,9,9,10,10,11,11,12,12,13,13,14,14,15,15,16,16,17,17,18,18,21,21,22,22,25,25,26,26,27,27,29,29],"right_children":[2,4,6,8,10,12,14,16,18,20,22,24,26,28,30,32,34,36,38,-1,-1,40,42,-1,-1,44,46,48,-1,50,-1,-1,-1,-1,-1,-1,-1,-1,-1,-1,-1,-1,-1,-1,-1,-1,-1,-1,-1,-1,-1],"split_conditions":[1E0,1E0,1E0,1.9498E0,1E0,3E0,2E0,-1.2745E0,1.2E1,2E0,3E0,1.6E1,8.772E-1,4.311E-1,3.653E-1,8E0,2.1901E0,5E0,3E0,7.1497935E-1,-5.325686E-1,2E0,1.214E-1,-6.375879E-1,2.5231704E-1,3E0,5E0,1.194E0,1.3493543E0,1.4E1,-1.05866864E-1,3.9786997E-1,-2.6360548E-1,-6.313048E-3,2.2578317E-1,-5.774985E-1,-1.847766E-1,-3.4034878E-1,2.2061785E-1,6.186684E-1,-6.602712E-1,-7.7546984E-1,3.753969E-1,3.8638672E-1,-4.8548192E-1,3.0586603E-1,-5.2966666E-1,7.3623234E-1,1.6039252E-1,5.711673E-1,2.0256728E-1],"split_indices":[22,36,36,7,17,16,21,7,28,27,16,26,6,5,2,17,3,18,19,0,0,19,10,0,0,22,27,3,0,19,0,0,0,0,0,0,0,0,0,0,0,0,0,0,0,0,0,0,0,0,0],"split_type":[0,0,0,0,0,0,0,0,0,0,0,0,0,0,0,0,0,0,0,0,0,0,0,0,0,0,0,0,0,0,0,0,0,0,0,0,0,0,0,0,0,0,0,0,0,0,0,0,0,0,0],"sum_hessian":[9.160782E3,9.038202E3,1.2257951E2,8.949183E3,8.902002E1,7.2983444E1,4.959606E1,8.77039E3,1.7879285E2,1.4579491E1,7.444053E1,1.0709436E1,6.227401E1,1.773214E1,3.1863924E1,1.6178162E2,8.608608E3,1.4000548E2,3.878737E1,1.2243535E1,2.3359554E0,1.0367068E1,6.4073456E1,9.634381E0,1.0750551E0,5.4892338E1,7.3816733E0,1.3967247E1,3.7648926E0,2.9803097E1,2.0608277E0,1.3724547E2,2.453615E1,8.396654E3,2.1195343E2,7.8929245E1,6.1076237E1,1.1388973E1,2.7398396E1,4.4267216E0,5.9403467E0,6.293821E1,1.1352493E0,5.230301E1,2.5893276E0,2.0631897E0,5.318484E0,1.2736256E1,1.2309916E0,2.8052477E1,1.7506204E0],"tree_param":{"num_deleted":"0","num_feature":"39","num_nodes":"51","size_leaf_vector":"1"}},{"base_weights":[-1.4157728E-3,-2.446126E-2,2.7037188E-1,1.0365522E-3,-7.736127E-1,8.75035E-1,-9.196938E-1,6.47276E-2,-1.3733812E-1,-1.3547864E0,-3.01857E-1,-5.77745E-1,1.4401066E0,-1.0710491E0,6.033776E-1,2.1494164E-1,-1.3593799E-1,-1.4028207E0,8.838942E-2,-8.7696916E-1,-1.8667588E0,2.6338077E-1,-1.1021912E0,7.628861E-1,-1.2231935E0,5.9020406E-1,1.5511137E0,-1.6944613E-1,-1.307965E0,-6.956594E-1,1.1516871E0,-2.0033926E-1,1.6081151E-1,1.9080263E-4,-2.3650019E-1,-7.7379715E-1,-4.151872E-1,3.9251015E-1,6.4230864E-3,-3.577714E-2,-5.597548E-1,-9.0171313E-1,3.7874916E-1,3.0824792E-1,-3.3940512E-1,8.5120566E-2,-5.9041154E-1,8.1893504E-1,-1.3501719E-1,3.1254005E-1,-5.825386E-1,6.058861E-1,-1.3009E-1,7.209806E-1,-3.8915703E-1,4.382564E-1,-3.761098E-1,-7.199826E-2,-6.51343E-1,1.6500744E-1,6.960202E-1],"categories":[],"categories_nodes":[],"categories_segments":[],"categories_sizes":[],"default_left":[0,0,0,0,0,0,0,0,0,0,0,0,0,0,0,0,0,0,0,0,0,0,0,0,0,0,0,0,0,0,0,0,0,0,0,0,0,0,0,0,0,0,0,0,0,0,0,0,0,0,0,0,0,0,0,0,0,0,0,0,0],"id":7,"left_children":[1,3,5,7,9,11,13,15,17,19,21,23,25,27,29,31,33,35,37,39,41,43,45,47,49,51,53,55,57,-1,59,-1,-1,-1,-1,-1,-1,-1,-1,-1,-1,-1,-1,-1,-1,-1,-1,-1,-1,-1,-1,-1,-1,-1,-1,-1,-1,-1,-1,-1,-1],"loss_changes":[5.69804E1,1.601899E2,5.124915E2,7.149364E1,7.5271454E1,3.8832776E2,5.598575E1,1.6747679E2,7.3052155E2,2.8547043E1,6.979622E1,1.1593035E2,3.1173828E1,4.649774E1,2.7656128E1,2.7843536E2,1.22669846E2,5.257611E1,1.2356884E2,1.7754227E1,1.6371216E1,3.7492508E1,1.5125496E1,4.7604507E1,8.264496E0,2.633281E1,1.3009949E1,3.4720203E1,2.1298737E1,0E0,4.7042274E0,0E0,0E0,0E0,0E0,0E0,0E0,0E0,0E0,0E0,0E0,0E0,0E0,0E0,0E0,0E0,0E0,0E0,0E0,0E0,0E0,0E0,0E0,0E0,0E0,0E0,0E0,0E0,0E0,0E0,0E0],"parents":[2147483647,0,0,1,1,2,2,3,3,4,4,5,5,6,6,7,7,8,8,9,9,10,10,11,11,12,12,13,13,14,14,15,15,16,16,17,17,18,18,19,19,20,20,21,21,22,22,23,23,24,24,25,25,26,26,27,27,28,28,30,30],"right_children":[2,4,6,8,10,12,14,16,18,20,22,24,26,28,30,32,34,36,38,40,42,44,46,48,50,52,54,56,58,-1,60,-1,-1,-1,-1,-1,-1,-1,-1,-1,-1,-1,-1,-1,-1,-1,-1,-1,-1,-1,-1,-1,-1,-1,-1,-1,-1,-1,-1,-1,-1],"split_conditions":[2E1,4E0,1E0,4E0,1E0,1E0,4E0,8E0,2E0,1.1E1,1.1E1,6E0,4E0,9E0,2E0,1E0,2E0,4E0,6E0,-3.676E-1,1.2048E0,1.5E1,9E0,4E0,-1.6293E0,9E0,1E0,1E0,1E0,-6.956594E-1,5E0,-2.0033926E-1,1.6081151E-1,1.9080263E-4,-2.3650019E-1,-7.7379715E-1,-4.151872E-1,3.9251015E-1,6.4230864E-3,-3.577714E-2,-5.597548E-1,-9.0171313E-1,3.7874916E-1,3.0824792E-1,-3.3940512E-1,8.5120566E-2,-5.9041154E-1,8.1893504E-1,-1.3501719E-1,3.1254005E-1,-5.825386E-1,6.058861E-1,-1.3009E-1,7.209806E-1,-3.8915703E-1,4.382564E-1,-3.761098E-1,-7.199826E-2,-6.51343E-1,1.6500744E-1,6.960202E-1],"split_indices":[26,13,14,20,14,13,13,30,33,27,31,32,17,34,18,20,15,19,33,0,2,32,34,16,5,34,35,20,15,0,16,0,0,0,0,0,0,0,0,0,0,0,0,0,0,0,0,0,0,0,0,0,0,0,0,0,0,0,0,0,0],"split_type":[0,0,0,0,0,0,0,0,0,0,0,0,0,0,0,0,0,0,0,0,0,0,0,0,0,0,0,0,0,0,0,0,0,0,0,0,0,0,0,0,0,0,0,0,0,0,0,0,0,0,0,0,0,0,0,0,0,0,0,0,0],"sum_hessian":[9.095189E3,8.385106E3,7.100821E2,8.110074E3,2.7503256E2,4.7102347E2,2.3905864E2,5.554146E3,2.5559282E3,1.2238725E2,1.5264531E2,1.3189737E2,3.391261E2,2.1771953E2,2.1339102E1,3.1763364E3,2.3778098E3,3.8610675E2,2.1698215E3,6.4708534E1,5.7678722E1,8.9855545E1,6.278977E1,4.2805695E1,8.9091675E1,3.9906574E1,2.992195E2,4.566247E1,1.7205707E2,4.03021E0,1.7308891E1,5.443673E2,2.631969E3,1.7484327E3,6.2937695E2,2.462382E2,1.3986856E2,1.914797E2,1.9783418E3,1.967496E1,4.5033573E1,5.6003803E1,1.6749203E0,6.413342E1,2.5722118E1,7.7497034E0,5.5040062E1,2.1456226E1,2.1349466E1,1.6507463E0,8.7440926E1,2.1497347E1,1.8409227E1,2.9755038E2,1.6691337E0,1.6546413E1,2.9116056E1,1.496401E1,1.5709305E2,6.0427036E0,1.1266188E1],"tree_param":{"num_deleted":"0","num_feature":"39","num_nodes":"61","size_leaf_vector":"1"}},{"base_weights":[-3.073027E-3,-2.6440596E-2,3.336827E-1,-5.3810038E-2,4.1239598E-1,1.3468297E-3,8.8421965E-1,-9.38233E-2,1.8198718E-1,1.0879139E0,-1.6824889E-1,-6.703543E-1,3.2641634E-1,9.2653716E-1,-3.4077084E-1,-6.0829394E-2,-8.266273E-1,4.1679215E-1,-7.598262E-1,1.38781E0,-1.0000113E0,8.049723E-1,-4.8557436E-1,9.4454694E-1,-9.115647E-1,5.417778E-1,-9.5391256E-1,9.5248175E-1,-4.2683396E-1,-8.238797E-1,4.0540338E-1,4.9613337E-3,-1.3493916E-1,-5.568791E-1,9.4718183E-4,1.17811926E-1,5.670354E-1,3.1480846E-1,-4.4274643E-1,7.135806E-1,-1.929328E-2,-5.773373E-1,5.84953E-1,-8.832676E-2,5.0373834E-1,-4.640081E-1,5.2939694E-2,-3.8203287E-1,6.2305635E-1,-5.5535156E-1,2.0168263E-1,5.828036E-1,9.714697E-2,-6.9981635E-1,3.6894175E-1,4.6548408E-1,1.207159E-1,-3.0142128E-1,3.7693346E-1],"categories":[],"categories_nodes":[],"categories_segments":[],"categories_sizes":[],"default_left":[0,0,0,0,0,0,0,0,0,0,0,0,0,0,0,0,0,0,0,0,0,0,0,0,0,0,0,0,0,0,0,0,0,0,0,0,0,0,0,0,0,0,0,0,0,0,0,0,0,0,0,0,0,0,0,0,0,0,0],"id":8,"left_children":[1,3,5,7,9,11,13,15,17,19,21,23,25,27,29,31,33,35,37,39,41,43,45,47,49,51,53,55,-1,-1,57,-1,-1,-1,-1,-1,-1,-1,-1,-1,-1,-1,-1,-1,-1,-1,-1,-1,-1,-1,-1,-1,-1,-1,-1,-1,-1,-1,-1],"loss_changes":[6.914839E1,9.871366E1,1.0432181E2,7.3001144E1,1.8943927E2,7.80724E1,1.1441864E1,1.5986066E2,2.4856277E2,1.4112564E2,8.0791115E1,4.6283478E1,6.6953896E1,1.0878403E1,9.272944E0,1.054083E2,9.064946E1,1.1756558E2,6.632977E1,4.576587E1,1.8173195E1,1.8834179E1,6.200352E1,1.250867E1,4.123562E1,4.93322E1,3.6148933E1,8.157715E0,0E0,0E0,3.1850562E0,0E0,0E0,0E0,0E0,0E0,0E0,0E0,0E0,0E0,0E0,0E0,0E0,0E0,0E0,0E0,0E0,0E0,0E0,0E0,0E0,0E0,0E0,0E0,0E0,0E0,0E0,0E0,0E0],"parents":[2147483647,0,0,1,1,2,2,3,3,4,4,5,5,6,6,7,7,8,8,9,9,10,10,11,11,12,12,13,13,14,14,15,15,16,16,17,17,18,18,19,19,20,20,21,21,22,22,23,23,24,24,25,25,26,26,27,27,30,30],"right_children":[2,4,6,8,10,12,14,16,18,20,22,24,26,28,30,32,34,36,38,40,42,44,46,48,50,52,54,56,-1,-1,58,-1,-1,-1,-1,-1,-1,-1,-1,-1,-1,-1,-1,-1,-1,-1,-1,-1,-1,-1,-1,-1,-1,-1,-1,-1,-1,-1,-1],"split_conditions":[9.332E-1,2E0,2E0,1.7E1,2E0,4E0,9.74E-1,8E0,2E0,4E0,5E0,1E0,1.1E1,7E0,2.141E-1,2E0,1.2E1,7E0,5E0,8E0,2.594E-1,1.2E1,4E0,7E0,3.107E-1,1E1,8E0,1.9496E0,-4.2683396E-1,-8.238797E-1,1.1597E0,4.9613337E-3,-1.3493916E-1,-5.568791E-1,9.4718183E-4,1.17811926E-1,5.670354E-1,3.1480846E-1,-4.4274643E-1,7.135806E-1,-1.929328E-2,-5.773373E-1,5.84953E-1,-8.832676E-2,5.0373834E-1,-4.640081E-1,5.2939694E-2,-3.8203287E-1,6.2305635E-1,-5.5535156E-1,2.0168263E-1,5.828036E-1,9.714697E-2,-6.9981635E-1,3.6894175E-1,4.6548408E-1,1.207159E-1,-3.0142128E-1,3.7693346E-1],"split_indices":[1,14,21,26,33,17,7,18,15,20,31,18,26,31,6,13,28,18,27,16,7,33,18,26,7,27,16,1,0,0,0,0,0,0,0,0,0,0,0,0,0,0,0,0,0,0,0,0,0,0,0,0,0,0,0,0,0,0,0],"split_type":[0,0,0,0,0,0,0,0,0,0,0,0,0,0,0,0,0,0,0,0,0,0,0,0,0,0,0,0,0,0,0,0,0,0,0,0,0,0,0,0,0,0,0,0,0,0,0,0,0,0,0,0,0,0,0,0,0,0,0],"sum_hessian":[8.78514E3,8.215954E3,5.691858E2,7.734448E3,4.8150607E2,3.5555484E2,2.1363095E2,6.612886E3,1.1215619E3,2.2216609E2,2.5933997E2,1.1560809E2,2.3994675E2,2.0673297E2,6.897985E0,6.3290107E3,2.8387552E2,8.981901E2,2.2337173E2,1.9455656E2,2.7609533E1,6.3389828E1,1.9595015E2,1.4644882E1,1.0096321E2,2.0589108E2,3.4055664E1,2.0436023E2,2.3727384E0,1.8676668E0,5.0303183E0,4.8394253E3,1.4895852E3,1.9367403E2,9.020149E1,7.515052E2,1.4668495E2,2.7196121E1,1.9617561E2,1.7452008E2,2.0036478E1,2.5224705E1,2.384829E0,1.4364239E1,4.902559E1,1.04370476E2,9.1579666E1,2.5550368E0,1.2089845E1,8.290781E1,1.8055403E1,6.3582565E1,1.4230852E2,2.583943E1,8.216235E0,1.8772362E2,1.663661E1,1.2486683E0,3.7816498E0],"tree_param":{"num_deleted":"0","num_feature":"39","num_nodes":"59","size_leaf_vector":"1"}},{"base_weights":[5.7579513E-4,1.1634612E-2,-4.5113948E-1,-8.537453E-3,4.435163E-1,-1.4604199E0,-1.9054452E-1,5.227751E-2,-1.3791451E-1,1.9201909E-1,8.472314E-1,-1.5689178E0,4.8057255E-1,6.360068E-1,-4.5459569E-1,1.591488E-1,-2.214147E-1,-4.4751954E-1,3.0595875E-1,1.192467E0,-1.9049092E-1,-2.1998908E-1,1.1373512E0,-1.8051258E0,-4.727399E-1,-1.3095666E0,9.9901015E-1,-6.671289E-2,-9.794132E-1,-6.77697E-2,1.5826602E-1,1.460761E-1,-2.3771465E-1,3.8736418E-2,-3.578167E-1,2.1608347E-1,-1.338699E-1,6.6906744E-1,-7.799764E-1,-2.2900355E-1,1.5999536E-1,-5.3835076E-1,2.3130462E-1,5.763023E-1,5.4475017E-2,-4.7097287E-1,-8.7851363E-1,-7.9909444E-1,2.549157E-1,6.370123E-1,-2.119291E-1,-2.0844264E-1,3.711248E-1,-5.826751E-1,8.710739E-2],"categories":[],"categories_nodes":[],"categories_segments":[],"categories_sizes":[],"default_left":[0,0,0,0,0,0,0,0,0,0,0,0,0,0,0,0,0,0,0,0,0,0,0,0,0,0,0,0,0,0,0,0,0,0,0,0,0,0,0,0,0,0,0,0,0,0,0,0,0,0,0,0,0,0,0],"id":9,"left_children":[1,3,5,7,9,11,13,15,17,19,21,23,-1,25,27,29,31,33,35,37,39,41,43,45,-1,47,49,51,53,-1,-1,-1,-1,-1,-1,-1,-1,-1,-1,-1,-1,-1,-1,-1,-1,-1,-1,-1,-1,-1,-1,-1,-1,-1,-1],"loss_changes":[4.259469E1,7.251251E1,5.331367E1,6.2577923E1,3.754811E1,1.2963593E1,3.5885323E1,1.5828757E2,3.496275E2,8.8298485E1,4.4300232E1,3.3012924E0,0E0,2.9491184E1,2.5216112E1,2.2058487E2,2.4209537E2,2.6329208E2,1.023705E2,5.0741447E1,2.7860378E1,2.2052954E1,1.3032959E1,2.3311615E-1,0E0,6.307995E0,1.9896748E1,2.4832539E1,1.7936401E1,0E0,0E0,0E0,0E0,0E0,0E0,0E0,0E0,0E0,0E0,0E0,0E0,0E0,0E0,0E0,0E0,0E0,0E0,0E0,0E0,0E0,0E0,0E0,0E0,0E0,0E0],"parents":[2147483647,0,0,1,1,2,2,3,3,4,4,5,5,6,6,7,7,8,8,9,9,10,10,11,11,13,13,14,14,15,15,16,16,17,17,18,18,19,19,20,20,21,21,22,22,23,23,25,25,26,26,27,27,28,28],"right_children":[2,4,6,8,10,12,14,16,18,20,22,24,-1,26,28,30,32,34,36,38,40,42,44,46,-1,48,50,52,54,-1,-1,-1,-1,-1,-1,-1,-1,-1,-1,-1,-1,-1,-1,-1,-1,-1,-1,-1,-1,-1,-1,-1,-1,-1,-1],"split_conditions":[2.115E0,1.8167E0,7E0,6E0,7E0,4E0,-3.885E-1,7E0,7E0,1.8714E0,1.4E1,2E0,4.8057255E-1,3E0,4E0,1E0,3E0,6E0,2E0,5E0,6E0,3E0,5E0,-1.131E-1,-4.727399E-1,1.5944E0,1.1E1,1.8E1,3.978E-1,-6.77697E-2,1.5826602E-1,1.460761E-1,-2.3771465E-1,3.8736418E-2,-3.578167E-1,2.1608347E-1,-1.338699E-1,6.6906744E-1,-7.799764E-1,-2.2900355E-1,1.5999536E-1,-5.3835076E-1,2.3130462E-1,5.763023E-1,5.4475017E-2,-4.7097287E-1,-8.7851363E-1,-7.9909444E-1,2.549157E-1,6.370123E-1,-2.119291E-1,-2.0844264E-1,3.711248E-1,-5.826751E-1,8.710739E-2],"split_indices":[4,2,30,16,16,15,7,29,29,2,34,21,0,18,18,15,17,29,15,19,16,20,17,5,0,1,29,34,0,0,0,0,0,0,0,0,0,0,0,0,0,0,0,0,0,0,0,0,0,0,0,0,0,0,0],"split_type":[0,0,0,0,0,0,0,0,0,0,0,0,0,0,0,0,0,0,0,0,0,0,0,0,0,0,0,0,0,0,0,0,0,0,0,0,0,0,0,0,0,0,0,0,0,0,0,0,0,0,0,0,0,0,0],"sum_hessian":[8.52467E3,8.321908E3,2.027613E2,7.951495E3,3.704133E2,4.0664425E1,1.620969E2,5.409365E3,2.5421296E3,2.2914276E2,1.4127052E2,3.9334564E1,1.329862E0,3.890503E1,1.2319186E2,3.8905876E3,1.5187776E3,1.497561E3,1.0445687E3,6.2792545E1,1.6635022E2,3.024702E1,1.11023506E2,2.575773E1,1.3576832E1,5.7074537E0,3.3197575E1,7.148543E1,5.170643E1,1.4641104E3,2.4264773E3,5.3762836E2,9.8114923E2,5.7414545E2,9.234156E2,8.198478E2,2.247209E2,5.8024498E1,4.7680445E0,1.0593977E2,6.0410446E1,1.2799587E1,1.7447433E1,9.951539E1,1.1508113E1,4.317388E0,2.1440342E1,4.6975975E0,1.0098562E0,2.6298353E1,6.899221E0,4.9894325E1,2.1591106E1,4.1437744E1,1.0268684E1],"tree_param":{"num_deleted":"0","num_feature":"39","num_nodes":"55","size_leaf_vector":"1"}},{"base_weights":[5.869983E-4,-1.3920615E-2,3.7312955E-1,6.4046746E-1,-2.2305954E-2,4.793106E-1,-1.0143657E0,7.846706E-1,-8.528572E-1,-1.3196766E-1,2.8157273E-2,5.6944644E-1,-5.9978855E-1,4.1448036E-1,-1.189738E0,-6.098309E-1,8.630017E-1,-5.982693E-1,5.271259E-1,-1.7727086E-1,2.2487232E-1,6.1517365E-2,-3.5924616E-1,-2.6977217E-1,6.485539E-1,-1.0563614E0,3.1944072E-1,2.6304868E-1,3.6081318E-2,-1.2525693E0,-6.988803E-4,4.387593E-1,-5.3422815E-1,-9.318309E-2,2.7866277E-1,2.583545E-1,-1.323577E-1,4.973693E-2,-8.3812304E-2,-3.2293278E-1,1.8475704E-1,-6.8593144E-1,5.1500347E-2,3.1761E-1,-3.5352513E-1,-5.8910114E-1,9.561668E-2,-3.1210878E-1,3.6325872E-1,-6.3119924E-1,-3.534121E-1],"categories":[],"categories_nodes":[],"categories_segments":[],"categories_sizes":[],"default_left":[0,0,0,0,0,0,0,0,0,0,0,0,0,0,0,0,0,0,0,0,0,0,0,0,0,0,0,0,0,0,0,0,0,0,0,0,0,0,0,0,0,0,0,0,0,0,0,0,0,0,0],"id":10,"left_children":[1,3,5,7,9,11,13,15,17,19,21,23,25,27,29,-1,31,-1,-1,33,35,37,39,41,43,45,47,-1,-1,49,-1,-1,-1,-1,-1,-1,-1,-1,-1,-1,-1,-1,-1,-1,-1,-1,-1,-1,-1,-1,-1],"loss_changes":[4.486065E1,4.3853268E1,4.6321594E1,2.2442974E1,4.3661133E1,2.8517303E1,6.115446E0,1.6473083E1,9.887594E0,4.023533E1,6.985836E1,1.7957817E1,9.914153E0,1.2407261E-1,1.5093651E0,0E0,1.7658012E1,0E0,0E0,4.384588E1,4.8592278E1,5.654244E1,1.1206298E2,1.12543545E1,1.5083374E1,4.6550865E0,4.4497447E0,0E0,0E0,5.931282E-2,0E0,0E0,0E0,0E0,0E0,0E0,0E0,0E0,0E0,0E0,0E0,0E0,0E0,0E0,0E0,0E0,0E0,0E0,0E0,0E0,0E0],"parents":[2147483647,0,0,1,1,2,2,3,3,4,4,5,5,6,6,7,7,8,8,9,9,10,10,11,11,12,12,13,13,14,14,16,16,19,19,20,20,21,21,22,22,23,23,24,24,25,25,26,26,29,29],"right_children":[2,4,6,8,10,12,14,16,18,20,22,24,26,28,30,-1,32,-1,-1,34,36,38,40,42,44,46,48,-1,-1,50,-1,-1,-1,-1,-1,-1,-1,-1,-1,-1,-1,-1,-1,-1,-1,-1,-1,-1,-1,-1,-1],"split_conditions":[1.903E0,-1.4129E0,5E0,8E0,-6.81E-2,8E0,-7.95E-2,4E0,6.4E-3,9.614E-1,7E0,-9.31E-2,2.152E-1,-4.24E-2,9.211E-1,-6.098309E-1,8.724E-1,-5.982693E-1,5.271259E-1,9E0,5E0,1.8E1,1E1,-1.943E-1,6E0,2E0,1E1,2.6304868E-1,3.6081318E-2,1.4649E0,-6.988803E-4,4.387593E-1,-5.3422815E-1,-9.318309E-2,2.7866277E-1,2.583545E-1,-1.323577E-1,4.973693E-2,-8.3812304E-2,-3.2293278E-1,1.8475704E-1,-6.8593144E-1,5.1500347E-2,3.1761E-1,-3.5352513E-1,-5.8910114E-1,9.561668E-2,-3.1210878E-1,3.6325872E-1,-6.3119924E-1,-3.534121E-1],"split_indices":[1,5,18,17,5,16,8,32,1,3,18,4,7,7,7,0,2,0,0,18,17,33,30,7,20,21,26,0,0,0,0,0,0,0,0,0,0,0,0,0,0,0,0,0,0,0,0,0,0,0,0],"split_type":[0,0,0,0,0,0,0,0,0,0,0,0,0,0,0,0,0,0,0,0,0,0,0,0,0,0,0,0,0,0,0,0,0,0,0,0,0,0,0,0,0,0,0,0,0,0,0,0,0,0,0],"sum_hessian":[8.298338E3,7.988221E3,3.1011603E2,1.0011245E2,7.888109E3,2.886788E2,2.143722E1,9.172916E1,8.383294E0,2.4854211E3,5.4026875E3,2.6686057E2,2.1818245E1,2.1944573E0,1.9242762E1,2.7129354E0,8.901622E1,7.134479E0,1.248815E0,2.2058743E3,2.7954706E2,4.975112E3,4.2757578E2,2.2780582E1,2.4407997E2,1.4477981E1,7.3402634E0,1.0166636E0,1.1777939E0,1.82249E1,1.0178635E0,8.570013E1,3.3160913E0,2.13755E3,6.832413E1,1.6865189E2,1.1089517E2,4.176914E3,7.981981E2,2.9483157E2,1.3274417E2,4.7324147E0,1.8048168E1,2.3756798E2,6.5120025E0,1.2285366E1,2.1926153E0,2.2092025E0,5.131061E0,1.3145059E1,5.0798397E0],"tree_param":{"num_deleted":"0","num_feature":"39","num_nodes":"51","size_leaf_vector":"1"}},{"base_weights":[7.20575E-4,-5.7885493E-3,5.739279E-1,3.144545E-4,-7.546391E-1,1.8724672E-1,1.1027384E0,5.629388E-3,-7.298653E-1,8.701415E-1,-1.0843654E0,-2.7755922E-1,7.153497E-1,1.1636597E0,-6.8015955E-2,-9.960038E-2,3.9960485E-2,-1.5844882E0,5.218655E-1,-5.615862E-1,5.867544E-1,-1.2589439E0,7.4199677E-1,4.4265932E-1,-6.398542E-1,9.030212E-1,-3.3466402E-1,1.2296125E0,5.672193E-1,2.545676E-2,-3.3783707E-1,-4.4556266E-1,2.7158573E-2,-8.749613E-3,-8.290662E-1,-2.6061735E-1,6.8476546E-1,-6.2245595E-1,3.8818684E-1,8.8079566E-1,-3.789702E-1,-3.426423E-1,3.961711E-1,-5.097347E-1,2.4280176E-1,4.8544E-1,-1.20903745E-1,3.5870528E-1,-9.145116E-1,3.151502E-1,5.940166E-1,4.2569664E-1,-2.3502646E-1],"categories":[],"categories_nodes":[],"categories_segments":[],"categories_sizes":[],"default_left":[0,0,0,0,0,0,0,0,0,0,0,0,0,0,0,0,0,0,0,0,0,0,0,0,0,0,0,0,0,0,0,0,0,0,0,0,0,0,0,0,0,0,0,0,0,0,0,0,0,0,0,0,0],"id":11,"left_children":[1,3,5,7,9,11,13,15,17,19,21,23,25,27,-1,29,31,33,35,-1,-1,37,39,41,43,45,47,49,51,-1,-1,-1,-1,-1,-1,-1,-1,-1,-1,-1,-1,-1,-1,-1,-1,-1,-1,-1,-1,-1,-1,-1,-1],"loss_changes":[3.0588242E1,3.7047913E1,1.861614E1,3.1213026E1,3.605079E1,1.3545802E1,3.1186714E0,2.8849718E1,6.3001354E1,1.1399095E1,1.8445427E1,8.017584E0,5.373289E0,7.57679E-1,0E0,1.9326665E2,1.159258E2,1.1828087E1,2.6448244E1,0E0,0E0,1.1147598E1,1.153246E1,5.8665333E0,1.1591617E1,4.201416E0,1.0084846E1,2.0604324E-1,2.6121774E0,0E0,0E0,0E0,0E0,0E0,0E0,0E0,0E0,0E0,0E0,0E0,0E0,0E0,0E0,0E0,0E0,0E0,0E0,0E0,0E0,0E0,0E0,0E0,0E0],"parents":[2147483647,0,0,1,1,2,2,3,3,4,4,5,5,6,6,7,7,8,8,9,9,10,10,11,11,12,12,13,13,15,15,16,16,17,17,18,18,21,21,22,22,23,23,24,24,25,25,26,26,27,27,28,28],"right_children":[2,4,6,8,10,12,14,16,18,20,22,24,26,28,-1,30,32,34,36,-1,-1,38,40,42,44,46,48,50,52,-1,-1,-1,-1,-1,-1,-1,-1,-1,-1,-1,-1,-1,-1,-1,-1,-1,-1,-1,-1,-1,-1,-1,-1],"split_conditions":[1E0,1E0,1E0,8E0,2E0,4.448E-1,4.566E-1,3E0,1.444E-1,1E1,1.4339E0,-1.857E-1,4.666E-1,1E1,-6.8015955E-2,1.7E1,1E0,-6.169E-1,1.5E-3,-5.615862E-1,5.867544E-1,1E0,1.6569E0,9E-4,1.1E1,5E0,4E0,-1.6956E0,-4.758E-1,2.545676E-2,-3.3783707E-1,-4.4556266E-1,2.7158573E-2,-8.749613E-3,-8.290662E-1,-2.6061735E-1,6.8476546E-1,-6.2245595E-1,3.8818684E-1,8.8079566E-1,-3.789702E-1,-3.426423E-1,3.961711E-1,-5.097347E-1,2.4280176E-1,4.8544E-1,-1.20903745E-1,3.5870528E-1,-9.145116E-1,3.151502E-1,5.940166E-1,4.2569664E-1,-2.3502646E-1],"split_indices":[22,36,36,20,16,3,2,17,3,31,0,2,7,38,0,31,34,7,5,0,0,23,0,4,28,19,21,0,4,0,0,0,0,0,0,0,0,0,0,0,0,0,0,0,0,0,0,0,0,0,0,0,0],"split_type":[0,0,0,0,0,0,0,0,0,0,0,0,0,0,0,0,0,0,0,0,0,0,0,0,0,0,0,0,0,0,0,0,0,0,0,0,0,0,0,0,0,0,0,0,0,0,0,0,0,0,0,0,0],"sum_hessian":[8.196342E3,8.1052915E3,9.1050705E1,8.0407603E3,6.453124E1,5.337528E1,3.7675426E1,7.98364E3,5.7120136E1,1.0609954E1,5.3921288E1,2.8641285E1,2.4733994E1,3.5991653E1,1.6837707E0,1.9634575E3,6.0201826E3,3.378648E1,2.3333654E1,1.3964026E0,9.213551E0,4.9500324E1,4.4209614E0,9.51141E0,1.9129875E1,2.1102316E1,3.6316774E0,3.1452177E1,4.5394793E0,1.5789896E3,3.8446793E2,1.10849365E2,5.909333E3,4.2598343E0,2.9526646E1,1.1170857E1,1.2162797E1,4.77187E1,1.7816262E0,2.4003363E0,2.020625E0,2.2756848E0,7.2357244E0,1.3690659E1,5.4392166E0,1.8748259E1,2.3540576E0,2.4850376E0,1.1466398E0,4.4344745E0,2.7017702E1,3.513716E0,1.025763E0],"tree_param":{"num_deleted":"0","num_feature":"39","num_nodes":"53","size_leaf_vector":"1"}}]},"name":"gbtree"},"learner_model_param":{"base_score":"5E-1","boost_from_average":"1","num_class":"0","num_feature":"39","num_target":"1"},"objective":{"name":"binary:logistic","reg_loss_param":{"scale_pos_weight":"5"}}},"version":[2,1,4]}