{"learner":{"attributes":{"best_iteration":"5","best_score":"0.40908176062664525"},"feature_names":[],"feature_types":[],"gradient_booster":{"model":{"gbtree_model_param":{"num_parallel_tree":"1","num_trees":"16"},"iteration_indptr":[0,1,2,3,4,5,6,7,8,9,10,11,12,13,14,15,16],"tree_info":[0,0,0,0,0,0,0,0,0,0,0,0,0,0,0,0],"trees":[{"base_weights":[-0E0,-8.6313196E-2,9.9369085E-1,2.340029E-2,-9.0669763E-1,-9.990449E-1,1.7479174E0,5.6832634E-2,-1.5431657E-1,-3.8310447E-1,2.6549694E-1,1.3570815E-1,-4.3506113E-1,-9.538462E-2,5.8591557E-1],"categories":[],"categories_nodes":[],"categories_segments":[],"categories_sizes":[],"default_left":[0,0,0,0,0,0,0,0,0,0,0,0,0,0,0],"id":0,"left_children":[1,3,5,7,9,11,13,-1,-1,-1,-1,-1,-1,-1,-1],"loss_changes":[1.0206038E3,9.854654E2,1.4310747E3,8.051362E2,7.505032E2,1.5269525E2,2.0225171E2,0E0,0E0,0E0,0E0,0E0,0E0,0E0,0E0],"parents":[2147483647,0,0,1,1,2,2,3,3,4,4,5,5,6,6],"right_children":[2,4,6,8,10,12,14,-1,-1,-1,-1,-1,-1,-1,-1],"split_conditions":[1.8862E0,4.028E-1,1E0,1E0,1E0,-5.856E-1,1.0677E0,5.6832634E-2,-1.5431657E-1,-3.8310447E-1,2.6549694E-1,1.3570815E-1,-4.3506113E-1,-9.538462E-2,5.8591557E-1],"split_indices":[1,8,21,35,35,2,0,0,0,0,0,0,0,0,0],"split_type":[0,0,0,0,0,0,0,0,0,0,0,0,0,0,0],"sum_hessian":[1.18975E4,1.09475E4,9.5E2,9.657E3,1.2905E3,2.6075E2,6.8925E2,7.39E3,2.267E3,1.08775E3,2.0275E2,5.725E1,2.035E2,4.45E1,6.4475E2],"tree_param":{"num_deleted":"0","num_feature":"39","num_nodes":"15","size_leaf_vector":"1"}},{"base_weights":[3.20565E-4,-4.1610803E-2,1.3496559E0,8.093852E-3,-9.367304E-1,1.4450451E0,-3.5843486E-1,-1.768429E-1,2.5408112E-2,-3.9255115E-1,2.2339134E-1,3.3560008E-1,5.11711E-1,-5.6317973E-1,3.8574365E-1],"categories":[],"categories_nodes":[],"categories_segments":[],"categories_sizes":[],"default_left":[0,0,0,0,0,0,0,0,0,0,0,0,0,0,0],"id":1,"left_children":[1,3,5,7,9,11,13,-1,-1,-1,-1,-1,-1,-1,-1],"loss_changes":[6.662564E2,5.0813242E2,5.834375E1,4.624935E2,3.2908118E2,2.3281677E1,4.8007557E1,0E0,0E0,0E0,0E0,0E0,0E0,0E0,0E0],"parents":[2147483647,0,0,1,1,2,2,3,3,4,4,5,5,6,6],"right_children":[2,4,6,8,10,12,14,-1,-1,-1,-1,-1,-1,-1,-1],"split_conditions":[1E0,8.566E-1,1.7951E0,-1.761E-1,8E0,7E0,-3.716E-1,-1.768429E-1,2.5408112E-2,-3.9255115E-1,2.2339134E-1,3.3560008E-1,5.11711E-1,-5.6317973E-1,3.8574365E-1],"split_indices":[22,8,6,0,35,31,9,0,0,0,0,0,0,0,0],"split_type":[0,0,0,0,0,0,0,0,0,0,0,0,0,0,0],"sum_hessian":[1.1773592E4,1.1419688E4,3.5390417E2,1.0819868E4,5.998201E2,3.3533142E2,1.8572763E1,1.2242726E3,9.595596E3,5.0052643E2,9.929372E1,1.2364778E2,2.1168362E2,9.65485E0,8.917913E0],"tree_param":{"num_deleted":"0","num_feature":"39","num_nodes":"15","size_leaf_vector":"1"}},{"base_weights":[-3.5886245E-4,-5.78835E-2,7.088752E-1,-6.995517E-1,2.3589369E-2,-7.290076E-1,1.2863445E0,2.7867218E-2,-4.0005237E-1,7.554102E-2,-1.0011667E-1,-3.4394779E-3,-4.275507E-1,-1.6502458E-1,4.3235546E-1],"categories":[],"categories_nodes":[],"categories_segments":[],"categories_sizes":[],"default_left":[0,0,0,0,0,0,0,0,0,0,0,0,0,0,0],"id":2,"left_children":[1,3,5,7,9,11,13,-1,-1,-1,-1,-1,-1,-1,-1],"loss_changes":[4.7678842E2,5.651308E2,7.28935E2,5.6828827E2,7.317372E2,1.1754698E2,1.2407825E2,0E0,0E0,0E0,0E0,0E0,0E0,0E0,0E0],"parents":[2147483647,0,0,1,1,2,2,3,3,4,4,5,5,6,6],"right_children":[2,4,6,8,10,12,14,-1,-1,-1,-1,-1,-1,-1,-1],"split_conditions":[1.8862E0,2E0,1E0,8E0,1E0,3E0,4.726E-1,2.7867218E-2,-4.0005237E-1,7.554102E-2,-1.0011667E-1,-3.4394779E-3,-4.275507E-1,-1.6502458E-1,4.3235546E-1],"split_indices":[1,28,21,35,13,19,0,0,0,0,0,0,0,0,0],"split_type":[0,0,0,0,0,0,0,0,0,0,0,0,0,0,0],"sum_hessian":[1.1684433E4,1.080868E4,8.7575323E2,1.216908E3,9.591771E3,2.5085893E2,6.2489435E2,5.213183E2,6.9558966E2,5.8663525E3,3.7254192E3,1.19703766E2,1.3115517E2,3.491569E1,5.8997864E2],"tree_param":{"num_deleted":"0","num_feature":"39","num_nodes":"15","size_leaf_vector":"1"}},{"base_weights":[5.3103926E-4,-2.8139321E-2,9.7396123E-1,9.969402E-3,-7.309592E-1,-8.368956E-1,1.2706838E0,2.8852755E-2,-1.23881266E-1,-3.300466E-1,1.2013739E-1,-3.5996857E-1,4.3077472E-1,4.1198763E-1,-5.007917E-1],"categories":[],"categories_nodes":[],"categories_segments":[],"categories_sizes":[],"default_left":[0,0,0,0,0,0,0,0,0,0,0,0,0,0,0],"id":3,"left_children":[1,3,5,7,9,11,13,-1,-1,-1,-1,-1,-1,-1,-1],"loss_changes":[3.2116144E2,2.9940472E2,1.7796915E2,3.6099396E2,2.1501718E2,3.551715E1,4.9819244E1,0E0,0E0,0E0,0E0,0E0,0E0,0E0,0E0],"parents":[2147483647,0,0,1,1,2,2,3,3,4,4,5,5,6,6],"right_children":[2,4,6,8,10,12,14,-1,-1,-1,-1,-1,-1,-1,-1],"split_conditions":[2.9485E0,1.8E1,1E0,1.13E-1,2E0,4E0,1.2E1,2.8852755E-2,-1.23881266E-1,-3.300466E-1,1.2013739E-1,-3.5996857E-1,4.3077472E-1,4.1198763E-1,-5.007917E-1],"split_indices":[0,35,21,8,21,13,30,0,0,0,0,0,0,0,0],"split_type":[0,0,0,0,0,0,0,0,0,0,0,0,0,0,0],"sum_hessian":[1.1505636E4,1.1177399E4,3.2823593E2,1.0603439E4,5.7396027E2,4.5955486E1,2.8228046E2,8.815559E3,1.7878809E3,4.4210516E2,1.3185513E2,4.0530586E1,5.4249024E0,2.7721933E2,5.0611196E0],"tree_param":{"num_deleted":"0","num_feature":"39","num_nodes":"15","size_leaf_vector":"1"}},{"base_weights":[5.240047E-4,-2.7132116E-2,9.5836353E-1,-8.530543E-1,3.7465023E-3,1.0307881E0,-2.792754E-1,-1.2277195E-1,-4.4579545E-1,1.1177096E-2,-1.9850916E-1,3.2566968E-1,-4.8998624E-1,-3.7644297E-1,4.4571787E-1],"categories":[],"categories_nodes":[],"categories_segments":[],"categories_sizes":[],"default_left":[0,0,0,0,0,0,0,0,0,0,0,0,0,0,0],"id":4,"left_children":[1,3,5,7,9,11,13,-1,-1,-1,-1,-1,-1,-1,-1],"loss_changes":[3.0140042E2,2.8203336E2,2.8908234E1,1.0598328E2,2.2187823E2,1.7236298E1,3.1350344E1,0E0,0E0,0E0,0E0,0E0,0E0,0E0,0E0],"parents":[2147483647,0,0,1,1,2,2,3,3,4,4,5,5,6,6],"right_children":[2,4,6,8,10,12,14,-1,-1,-1,-1,-1,-1,-1,-1],"split_conditions":[1E0,-5.446E-1,1.7951E0,2E0,8.566E-1,1.9E1,-7.56E-2,-1.2277195E-1,-4.4579545E-1,1.1177096E-2,-1.9850916E-1,3.2566968E-1,-4.8998624E-1,-3.7644297E-1,4.4571787E-1],"split_indices":[22,1,6,13,8,32,9,0,0,0,0,0,0,0,0],"split_type":[0,0,0,0,0,0,0,0,0,0,0,0,0,0,0],"sum_hessian":[1.1375856E4,1.1057559E4,3.1829807E2,3.975486E2,1.066001E4,3.0085944E2,1.7438635E1,2.2412924E2,1.7341939E2,1.0151733E4,5.0827725E2,2.9919327E2,1.6661773E0,1.1479893E1,5.9587426E0],"tree_param":{"num_deleted":"0","num_feature":"39","num_nodes":"15","size_leaf_vector":"1"}},{"base_weights":[1.2231684E-4,-3.6911134E-2,4.9323773E-1,4.0514443E-2,-4.2739272E-1,-4.75427E-1,1.0344557E0,7.129694E-2,-2.569535E-1,-4.31174E-1,3.3819768E-1,1.7888874E-2,-3.2345164E-1,-1.7802343E-1,3.463619E-1],"categories":[],"categories_nodes":[],"categories_segments":[],"categories_sizes":[],"default_left":[0,0,0,0,0,0,0,0,0,0,0,0,0,0,0],"id":5,"left_children":[1,3,5,7,9,11,13,-1,-1,-1,-1,-1,-1,-1,-1],"loss_changes":[2.0628734E2,3.1767963E2,4.141787E2,1.4447594E3,2.5451099E3,8.591476E1,6.814929E1,0E0,0E0,0E0,0E0,0E0,0E0,0E0,0E0],"parents":[2147483647,0,0,1,1,2,2,3,3,4,4,5,5,6,6],"right_children":[2,4,6,8,10,12,14,-1,-1,-1,-1,-1,-1,-1,-1],"split_conditions":[1.3978E0,2E0,1E0,8E0,1E0,3E0,1.1E1,7.129694E-2,-2.569535E-1,-4.31174E-1,3.3819768E-1,1.7888874E-2,-3.2345164E-1,-1.7802343E-1,3.463619E-1],"split_indices":[1,21,21,35,35,19,34,0,0,0,0,0,0,0,0],"split_type":[0,0,0,0,0,0,0,0,0,0,0,0,0,0,0],"sum_hessian":[1.1294137E4,1.0506047E4,7.880893E2,8.768337E3,1.7377096E3,2.8253442E2,5.0555487E2,7.1999263E3,1.5684111E3,1.0631545E3,6.74555E2,1.4619951E2,1.3633492E2,2.446797E1,4.810869E2],"tree_param":{"num_deleted":"0","num_feature":"39","num_nodes":"15","size_leaf_vector":"1"}},{"base_weights":[-1.5972437E-3,7.6064594E-2,-1.6453622E-1,3.0185957E-2,1.3454511E0,-4.0678495E-1,6.624057E-2,7.491027E-2,-1.981083E-2,5.484924E-1,-1.04507E-1,-6.444422E-2,-2.3270802E-1,-6.8329826E-2,1.532431E-1],"categories":[],"categories_nodes":[],"categories_segments":[],"categories_sizes":[],"default_left":[0,0,0,0,0,0,0,0,0,0,0,0,0,0,0],"id":6,"left_children":[1,3,5,7,9,11,13,-1,-1,-1,-1,-1,-1,-1,-1],"loss_changes":[1.3839392E2,4.3129715E2,1.9738193E2,1.4226016E2,1.848377E2,1.17655396E2,2.2207225E2,0E0,0E0,0E0,0E0,0E0,0E0,0E0,0E0],"parents":[2147483647,0,0,1,1,2,2,3,3,4,4,5,5,6,6],"right_children":[2,4,6,8,10,12,14,-1,-1,-1,-1,-1,-1,-1,-1],"split_conditions":[2.578E-1,2.441E-1,1.1E1,4E0,6E0,1E0,6E0,7.491027E-2,-1.981083E-2,5.484924E-1,-1.04507E-1,-6.444422E-2,-2.3270802E-1,-6.8329826E-2,1.532431E-1],"split_indices":[7,7,30,16,30,13,17,0,0,0,0,0,0,0,0],"split_type":[0,0,0,0,0,0,0,0,0,0,0,0,0,0,0],"sum_hessian":[1.0934661E4,7.4055E3,3.529161E3,7.148172E3,2.5732812E2,1.7214133E3,1.8077476E3,2.2007297E3,4.947442E3,2.05505E2,5.182311E1,1.0916298E3,6.2978357E2,1.0830199E3,7.2472766E2],"tree_param":{"num_deleted":"0","num_feature":"39","num_nodes":"15","size_leaf_vector":"1"}},{"base_weights":[-6.51714E-4,-3.0098842E-2,4.288297E-1,1.25876125E-2,-5.4348063E-1,-3.5182014E-1,9.0442294E-1,-1.2089663E-2,1.7970909E-1,-2.4291575E-3,-3.7152836E-1,-2.3414348E-1,1.3547525E-1,3.1022608E-1,-8.868084E-2],"categories":[],"categories_nodes":[],"categories_segments":[],"categories_sizes":[],"default_left":[0,0,0,0,0,0,0,0,0,0,0,0,0,0,0],"id":7,"left_children":[1,3,5,7,9,11,13,-1,-1,-1,-1,-1,-1,-1,-1],"loss_changes":[1.37774E2,2.2342012E2,2.5983762E2,2.7541153E2,2.745711E2,8.478611E1,5.0119812E1,0E0,0E0,0E0,0E0,0E0,0E0,0E0,0E0],"parents":[2147483647,0,0,1,1,2,2,3,3,4,4,5,5,6,6],"right_children":[2,4,6,8,10,12,14,-1,-1,-1,-1,-1,-1,-1,-1],"split_conditions":[1.3978E0,5.05E-1,1E0,1.9E1,2E0,1.4736E0,2E0,-1.2089663E-2,1.7970909E-1,-2.4291575E-3,-3.7152836E-1,-2.3414348E-1,1.3547525E-1,3.1022608E-1,-8.868084E-2],"split_indices":[1,1,21,32,13,0,28,0,0,0,0,0,0,0,0],"split_type":[0,0,0,0,0,0,0,0,0,0,0,0,0,0,0],"sum_hessian":[1.0891795E4,1.0193793E4,6.980013E2,9.41217E3,7.816237E2,2.6435046E2,4.336508E2,8.628254E3,7.839156E2,4.3054465E2,3.5107907E2,1.7492221E2,8.942825E1,4.01343E2,3.2307804E1],"tree_param":{"num_deleted":"0","num_feature":"39","num_nodes":"15","size_leaf_vector":"1"}},{"base_weights":[-1.9093633E-4,1.9172367E-2,-6.3065684E-1,-3.0452255E-2,2.7312875E-1,-8.807369E-1,4.4467308E-2,-3.7993465E-2,6.271708E-2,-6.648536E-2,1.8778038E-1,2.782695E-1,-2.9786092E-1,1.0056886E-1,-5.55158E-1],"categories":[],"categories_nodes":[],"categories_segments":[],"categories_sizes":[],"default_left":[0,0,0,0,0,0,0,0,0,0,0,0,0,0,0],"id":8,"left_children":[1,3,5,7,9,11,13,-1,-1,-1,-1,-1,-1,-1,-1],"loss_changes":[1.3138644E2,1.3160004E2,5.4183403E1,1.8731459E2,2.7696625E2,3.420578E1,4.560657E1,0E0,0E0,0E0,0E0,0E0,0E0,0E0,0E0],"parents":[2147483647,0,0,1,1,2,2,3,3,4,4,5,5,6,6],"right_children":[2,4,6,8,10,12,14,-1,-1,-1,-1,-1,-1,-1,-1],"split_conditions":[1.9534E0,7.118E-1,1.1E1,1E1,4E0,2E0,1.2048E0,-3.7993465E-2,6.271708E-2,-6.648536E-2,1.8778038E-1,2.782695E-1,-2.9786092E-1,1.0056886E-1,-5.55158E-1],"split_indices":[4,6,30,29,18,32,5,0,0,0,0,0,0,0,0],"split_type":[0,0,0,0,0,0,0,0,0,0,0,0,0,0,0],"sum_hessian":[1.0760419E4,1.0440726E4,3.1969315E2,8.734777E3,1.7059486E3,2.3305878E2,8.663438E1,6.258649E3,2.4761282E3,6.919445E2,1.0140041E3,9.6054535E0,2.2345332E2,7.588279E1,1.0751584E1],"tree_param":{"num_deleted":"0","num_feature":"39","num_nodes":"15","size_leaf_vector":"1"}},{"base_weights":[-2.0959324E-4,-5.224945E-1,2.1131406E-2,-9.038133E-1,-1.113948E-1,9.1835774E-2,-1.3654019E-1,2.039444E-1,-3.2401007E-1,1.1672345E-1,-2.2304897E-1,1.0811642E-1,-1.4522939E-2,-4.463858E-1,2.3382075E-2],"categories":[],"categories_nodes":[],"categories_segments":[],"categories_sizes":[],"default_left":[0,0,0,0,0,0,0,0,0,0,0,0,0,0,0],"id":9,"left_children":[1,3,5,7,9,11,13,-1,-1,-1,-1,-1,-1,-1,-1],"loss_changes":[1.1961687E2,6.594131E1,1.14954254E2,4.8913986E1,6.0762264E1,2.5367708E2,8.8212695E2,0E0,0E0,0E0,0E0,0E0,0E0,0E0,0E0],"parents":[2147483647,0,0,1,1,2,2,3,3,4,4,5,5,6,6],"right_children":[2,4,6,8,10,12,14,-1,-1,-1,-1,-1,-1,-1,-1],"split_conditions":[-5.425E-1,9E0,4E0,1.4E1,2E0,4E0,2E0,2.039444E-1,-3.2401007E-1,1.1672345E-1,-2.2304897E-1,1.0811642E-1,-1.4522939E-2,-4.463858E-1,2.3382075E-2],"split_indices":[1,28,20,27,15,33,33,0,0,0,0,0,0,0,0],"split_type":[0,0,0,0,0,0,0,0,0,0,0,0,0,0,0],"sum_hessian":[1.0729751E4,4.2029355E2,1.0309458E4,2.1742278E2,2.0287077E2,7.117975E3,3.1914824E3,1.774599E1,1.9967677E2,1.1277048E2,9.010029E1,2.494722E3,4.6232534E3,4.4560336E2,2.745879E3],"tree_param":{"num_deleted":"0","num_feature":"39","num_nodes":"15","size_leaf_vector":"1"}},{"base_weights":[-7.379234E-4,-2.5264852E-2,3.9472154E-1,-4.0782633E-1,1.7938243E-2,-6.352921E-2,9.7102857E-1,2.4071455E-2,-2.6768726E-1,1.1890308E-2,-3.1800213E-1,-1.3464142E-1,2.1444684E-1,-2.6164275E-1,3.3311638E-1],"categories":[],"categories_nodes":[],"categories_segments":[],"categories_sizes":[],"default_left":[0,0,0,0,0,0,0,0,0,0,0,0,0,0,0],"id":10,"left_children":[1,3,5,7,9,11,13,-1,-1,-1,-1,-1,-1,-1,-1],"loss_changes":[1.03611496E2,1.6625072E2,1.6481264E2,2.2586517E2,1.9266214E2,9.788797E1,5.2848022E1,0E0,0E0,0E0,0E0,0E0,0E0,0E0,0E0],"parents":[2147483647,0,0,1,1,2,2,3,3,4,4,5,5,6,6],"right_children":[2,4,6,8,10,12,14,-1,-1,-1,-1,-1,-1,-1,-1],"split_conditions":[1.3978E0,2E0,2E0,8E0,1.7601E0,2.093E0,1.1E1,2.4071455E-2,-2.6768726E-1,1.1890308E-2,-3.1800213E-1,-1.3464142E-1,2.1444684E-1,-2.6164275E-1,3.3311638E-1],"split_indices":[1,28,21,35,0,0,34,0,0,0,0,0,0,0,0],"split_type":[0,0,0,0,0,0,0,0,0,0,0,0,0,0,0],"sum_hessian":[1.0680223E4,1.0057387E4,6.228365E2,1.0196846E3,9.037702E3,3.474507E2,2.753858E2,4.941033E2,5.255813E2,8.865245E3,1.7245631E2,2.3332758E2,1.1412313E2,1.4475868E1,2.6090994E2],"tree_param":{"num_deleted":"0","num_feature":"39","num_nodes":"15","size_leaf_vector":"1"}},{"base_weights":[-5.259716E-4,8.086285E-2,-1.0045353E-1,-2.3371163E-1,1.511391E-1,-6.330692E-1,-2.5610363E-2,-2.163996E-1,-2.2313802E-2,6.6340804E-2,-6.611512E-2,1.2803344E-1,-4.614212E-1,2.389417E-2,-9.237079E-2],"categories":[],"categories_nodes":[],"categories_segments":[],"categories_sizes":[],"default_left":[0,0,0,0,0,0,0,0,0,0,0,0,0,0,0],"id":11,"left_children":[1,3,5,7,9,11,13,-1,-1,-1,-1,-1,-1,-1,-1],"loss_changes":[8.5797165E1,1.28565E2,1.8874661E2,7.971065E1,1.0892642E2,5.2262805E2,1.1617337E2,0E0,0E0,0E0,0E0,0E0,0E0,0E0,0E0],"parents":[2147483647,0,0,1,1,2,2,3,3,4,4,5,5,6,6],"right_children":[2,4,6,8,10,12,14,-1,-1,-1,-1,-1,-1,-1,-1],"split_conditions":[1.201E-1,-2.182E-1,2E0,6E0,2E0,5E0,4.758E-1,-2.163996E-1,-2.2313802E-2,6.6340804E-2,-6.611512E-2,1.2803344E-1,-4.614212E-1,2.389417E-2,-9.237079E-2],"split_indices":[3,6,30,30,21,16,7,0,0,0,0,0,0,0,0],"split_type":[0,0,0,0,0,0,0,0,0,0,0,0,0,0,0],"sum_hessian":[1.0547281E4,5.8129507E3,4.734331E3,1.0610579E3,4.7518926E3,5.8238367E2,4.1519473E3,2.7323892E2,7.8781903E2,4.0531187E3,6.9877405E2,2.6222144E2,3.201622E2,3.0156633E3,1.1362838E3],"tree_param":{"num_deleted":"0","num_feature":"39","num_nodes":"15","size_leaf_vector":"1"}},{"base_weights":[-7.073855E-4,-1.4923628E-2,5.891559E-1,-3.936789E-3,-9.6488804E-1,3.850455E-1,1.1182128E0,3.0943432E-3,-2.0587595E-1,5.341925E-1,-4.3894708E-1,1.6865362E-1,-5.8122534E-1,4.21168E-1,6.012284E-2],"categories":[],"categories_nodes":[],"categories_segments":[],"categories_sizes":[],"default_left":[0,0,0,0,0,0,0,0,0,0,0,0,0,0,0],"id":12,"left_children":[1,3,5,7,9,11,13,-1,-1,-1,-1,-1,-1,-1,-1],"loss_changes":[8.8068344E1,1.070295E2,2.6259033E1,9.316959E1,1.4460179E2,6.565486E1,1.4908043E1,0E0,0E0,0E0,0E0,0E0,0E0,0E0,0E0],"parents":[2147483647,0,0,1,1,2,2,3,3,4,4,5,5,6,6],"right_children":[2,4,6,8,10,12,14,-1,-1,-1,-1,-1,-1,-1,-1],"split_conditions":[1E0,1E0,1E0,1.9502E0,1E0,3E0,7E0,3.0943432E-3,-2.0587595E-1,5.341925E-1,-4.3894708E-1,1.6865362E-1,-5.8122534E-1,4.21168E-1,6.012284E-2],"split_indices":[22,36,36,7,17,22,18,0,0,0,0,0,0,0,0],"split_type":[0,0,0,0,0,0,0,0,0,0,0,0,0,0,0],"sum_hessian":[1.0500232E4,1.0254074E4,2.4615784E2,1.0137829E4,1.1624519E2,1.7887541E2,6.7282425E1,9.929472E3,2.0835793E2,1.6298185E1,9.994701E1,1.678273E2,1.1048112E1,5.3021976E1,1.4260451E1],"tree_param":{"num_deleted":"0","num_feature":"39","num_nodes":"15","size_leaf_vector":"1"}},{"base_weights":[-4.1981883E-4,-2.1811273E-2,3.317203E-1,-4.812746E-2,3.9101464E-1,1.235301E0,-2.8596476E-1,-4.6837404E-3,-1.7121728E-1,-1.5834755E-1,2.1128577E-1,4.3706676E-1,-5.036183E-1,-1.7233506E-1,1.1743229E-1],"categories":[],"categories_nodes":[],"categories_segments":[],"categories_sizes":[],"default_left":[0,0,0,0,0,0,0,0,0,0,0,0,0,0,0],"id":13,"left_children":[1,3,5,7,9,11,13,-1,-1,-1,-1,-1,-1,-1,-1],"loss_changes":[7.435205E1,1.0682922E2,3.537622E2,1.5386993E2,1.5475388E2,1.3075818E2,6.785159E1,0E0,0E0,0E0,0E0,0E0,0E0,0E0,0E0],"parents":[2147483647,0,0,1,1,2,2,3,3,4,4,5,5,6,6],"right_children":[2,4,6,8,10,12,14,-1,-1,-1,-1,-1,-1,-1,-1],"split_conditions":[2E0,1.1213E0,2E0,5.05E-1,4E0,8E0,6E0,-4.6837404E-3,-1.7121728E-1,-1.5834755E-1,2.1128577E-1,4.3706676E-1,-5.036183E-1,-1.7233506E-1,1.1743229E-1],"split_indices":[14,1,33,1,17,17,17,0,0,0,0,0,0,0,0],"split_type":[0,0,0,0,0,0,0,0,0,0,0,0,0,0,0],"sum_hessian":[1.0462791E4,9.830587E3,6.322038E2,9.242307E3,5.882809E2,2.5629E2,3.7591376E2,8.675206E3,5.6710004E2,1.4316599E2,4.451149E2,2.4202188E2,1.426812E1,2.674648E2,1.0844895E2],"tree_param":{"num_deleted":"0","num_feature":"39","num_nodes":"15","size_leaf_vector":"1"}},{"base_weights":[1.07299405E-4,2.6315796E-1,-2.5621707E-2,3.6748882E-2,7.741518E-1,2.249261E-2,-3.6251178E-1,2.985582E-1,-2.158631E-2,1.9438423E-2,3.6815733E-1,-2.9838938E-2,3.858607E-2,-1.6833265E-1,2.487163E-1],"categories":[],"categories_nodes":[],"categories_segments":[],"categories_sizes":[],"default_left":[0,0,0,0,0,0,0,0,0,0,0,0,0,0,0],"id":14,"left_children":[1,3,5,7,9,11,13,-1,-1,-1,-1,-1,-1,-1,-1],"loss_changes":[7.025606E1,1.0697243E2,1.5327806E2,6.3328575E1,8.343944E1,1.0021915E2,2.4889403E2,0E0,0E0,0E0,0E0,0E0,0E0,0E0,0E0],"parents":[2147483647,0,0,1,1,2,2,3,3,4,4,5,5,6,6],"right_children":[2,4,6,8,10,12,14,-1,-1,-1,-1,-1,-1,-1,-1],"split_conditions":[-5.116E-1,5E0,5E0,2E0,1.4E1,6.9E-3,1.7E1,2.985582E-1,-2.158631E-2,1.9438423E-2,3.6815733E-1,-2.9838938E-2,3.858607E-2,-1.6833265E-1,2.487163E-1],"split_indices":[7,20,20,17,33,7,30,0,0,0,0,0,0,0,0],"split_type":[0,0,0,0,0,0,0,0,0,0,0,0,0,0,0],"sum_hessian":[1.0378578E4,9.2386383E2,9.454714E3,6.409474E2,2.829164E2,8.273968E3,1.1807468E3,6.519518E1,5.757522E2,1.0440812E2,1.785083E2,3.8227205E3,4.451247E3,1.02279236E3,1.5795447E2],"tree_param":{"num_deleted":"0","num_feature":"39","num_nodes":"15","size_leaf_vector":"1"}},{"base_weights":[1.6177147E-4,-8.206845E-3,7.367185E-1,4.8686523E-2,-1.3471395E-1,-3.099456E-1,1.5325072E0,5.28772E-2,-8.405367E-2,-1.7563583E-1,1.7105268E-1,1.0649687E-1,-3.8268718E-1,-3.6156565E-1,4.9841788E-1],"categories":[],"categories_nodes":[],"categories_segments":[],"categories_sizes":[],"default_left":[0,0,0,0,0,0,0,0,0,0,0,0,0,0,0],"id":15,"left_children":[1,3,5,7,9,11,13,-1,-1,-1,-1,-1,-1,-1,-1],"loss_changes":[6.375305E1,7.361234E1,9.7255325E1,2.7506436E2,9.4091815E2,3.1247303E1,1.5322342E1,0E0,0E0,0E0,0E0,0E0,0E0,0E0,0E0],"parents":[2147483647,0,0,1,1,2,2,3,3,4,4,5,5,6,6],"right_children":[2,4,6,8,10,12,14,-1,-1,-1,-1,-1,-1,-1,-1],"split_conditions":[3.2634E0,6E0,7E0,7E0,7E0,1E0,1.1E1,5.28772E-2,-8.405367E-2,-1.7563583E-1,1.7105268E-1,1.0649687E-1,-3.8268718E-1,-3.6156565E-1,4.9841788E-1],"split_indices":[2,16,16,29,29,21,31,0,0,0,0,0,0,0,0],"split_type":[0,0,0,0,0,0,0,0,0,0,0,0,0,0,0],"sum_hessian":[1.034089E4,1.0225696E4,1.1519356E2,7.053968E3,3.1717283E3,5.0017876E1,6.517568E1,5.1078506E3,1.9461172E3,1.9470659E3,1.2246624E3,2.9672743E1,2.0345133E1,1.3756282E0,6.380005E1],"tree_param":{"num_deleted":"0","num_feature":"39","num_nodes":"15","size_leaf_vector":"1"}}]},"name":"gbtree"},"learner_model_param":{"base_score":"5E-1","boost_from_average":"1","num_class":"0","num_feature":"39","num_target":"1"},"objective":{"name":"binary:logistic","reg_loss_param":{"scale_pos_weight":"5"}}},"version":[2,1,4]}