{"learner":{"attributes":{"best_iteration":"5","best_score":"0.21569600108315548"},"feature_names":[],"feature_types":[],"gradient_booster":{"model":{"gbtree_model_param":{"num_parallel_tree":"1","num_trees":"16"},"iteration_indptr":[0,1,2,3,4,5,6,7,8,9,10,11,12,13,14,15,16],"tree_info":[0,0,0,0,0,0,0,0,0,0,0,0,0,0,0,0],"trees":[{"base_weights":[-3.042585E-5,-1.4406635E-1,1.3542575E0,1.9369689E-1,-5.614114E-1,1.3549703E-1,1.7740296E0,3.2818267E-1,-1.5422217E0,-1.2626219E0,-9.824874E-2,1.1334466E0,-1.1934818E0,1.8158157E0,-3.4056228E-1,6.838446E-2,1.0498121E0,3.655437E-1,-1.7793158E0,-1.00644074E-1,-1.6043817E0,1.3741942E-1,-1.3518151E0,-4.4490668E-1,1.7869017E0,-1.3770498E0,3.4376997E-1,-6.397102E-1,1.8615206E0,1.1391426E0,-6.668531E-2,1.5364243E0,-2.3669678E-1,-6.002719E-1,1.719409E0,8.790211E-1,-1.8251938E0,-7.0271415E-1,6.178559E-1,-1.6375958E0,1.0427494E0,6.95193E-1,-1.3441306E-1,-1.5454786E0,1.5766282E0,1.5084046E0,-1.5559174E0,-2.8063026E-1,1.9170986E0,-1.7012897E0,-2.1906795E-1,-3.4537262E-1,3.110001E-1,1.9058319E0,-2.1750115E-2,6.9495183E-3,3.4539807E-1,-2.5458919E-2,3.9651373E-1,3.842577E-1,5.806778E-2,-1.2684336E-1,2.2821157E-1,3.321588E-1,-3.694265E-1,1.2419386E-1,3.9083517E-1,2.4183995E-1,8.007032E-2,2.4183995E-1,-3.882534E-1,-2.7394167E-1,1.8388376E-2,2.1484724E-1,-1.0916504E-1,-3.9288825E-1,-2.820731E-1,3.2023227E-1,-2.431842E-1,1.733957E-2,2.291422E-1,-2.287435E-1,9.544445E-2,-3.809856E-1,-1.1325443E-1,4.059945E-1,-2.431842E-1,3.7541583E-1,1.5181991E-1,-3.819778E-1,2.4183995E-1,-2.2515777E-1,4.1862422E-1,-3.746711E-1,-1.5211414E-1,-2.560595E-1,2.5313684E-1,4.0430322E-1,-2.8063026E-1,-2.1749692E-1,3.4376997E-1],"categories":[],"categories_nodes":[],"categories_segments":[],"categories_sizes":[],"default_left":[0,0,0,0,0,0,0,0,0,0,0,0,0,0,0,0,0,0,0,0,0,0,0,0,0,0,0,0,0,0,0,0,0,0,0,0,0,0,0,0,0,0,0,0,0,0,0,0,0,0,0,0,0,0,0,0,0,0,0,0,0,0,0,0,0,0,0,0,0,0,0,0,0,0,0,0,0,0,0,0,0,0,0,0,0,0,0,0,0,0,0,0,0,0,0,0,0,0,0,0,0],"id":0,"left_children":[1,3,5,7,9,11,13,15,17,19,21,23,25,27,-1,29,31,33,35,37,39,41,43,45,47,49,-1,51,53,55,57,59,61,63,65,67,69,71,73,75,77,79,81,83,85,87,89,-1,91,93,95,-1,-1,97,99,-1,-1,-1,-1,-1,-1,-1,-1,-1,-1,-1,-1,-1,-1,-1,-1,-1,-1,-1,-1,-1,-1,-1,-1,-1,-1,-1,-1,-1,-1,-1,-1,-1,-1,-1,-1,-1,-1,-1,-1,-1,-1,-1,-1,-1,-1],"loss_changes":[1.282823E3,8.380196E2,3.231908E2,7.67656E2,8.634851E2,2.1758908E2,6.965698E1,5.7184937E2,1.07601135E2,4.198495E2,4.7359177E2,9.7365105E1,3.8838943E1,5.3367065E1,0E0,3.246385E2,5.0586456E2,3.6293507E1,2.7274597E1,1.0487927E2,7.3558105E1,2.0474788E2,1.4630515E2,6.3578217E1,2.9569183E1,2.4658012E1,0E0,2.2125858E1,3.8150513E1,1.405528E2,2.1282198E2,2.1609558E2,1.0880143E2,4.445606E1,7.3548126E-1,1.3698435E-1,1.6707764E1,6.2809364E1,5.1525402E1,5.294507E1,1.31599E1,1.072337E2,5.112697E2,6.349695E1,1.8069946E1,1.0630703E0,1.5253574E1,0E0,1.6782791E1,2.9116516E0,2.3884466E1,0E0,0E0,3.0667847E1,2.1014627E1,0E0,0E0,0E0,0E0,0E0,0E0,0E0,0E0,0E0,0E0,0E0,0E0,0E0,0E0,0E0,0E0,0E0,0E0,0E0,0E0,0E0,0E0,0E0,0E0,0E0,0E0,0E0,0E0,0E0,0E0,0E0,0E0,0E0,0E0,0E0,0E0,0E0,0E0,0E0,0E0,0E0,0E0,0E0,0E0,0E0,0E0],"parents":[2147483647,0,0,1,1,2,2,3,3,4,4,5,5,6,6,7,7,8,8,9,9,10,10,11,11,12,12,13,13,15,15,16,16,17,17,18,18,19,19,20,20,21,21,22,22,23,23,24,24,25,25,27,27,28,28,29,29,30,30,31,31,32,32,33,33,34,34,35,35,36,36,37,37,38,38,39,39,40,40,41,41,42,42,43,43,44,44,45,45,46,46,48,48,49,49,50,50,53,53,54,54],"right_children":[2,4,6,8,10,12,14,16,18,20,22,24,26,28,-1,30,32,34,36,38,40,42,44,46,48,50,-1,52,54,56,58,60,62,64,66,68,70,72,74,76,78,80,82,84,86,88,90,-1,92,94,96,-1,-1,98,100,-1,-1,-1,-1,-1,-1,-1,-1,-1,-1,-1,-1,-1,-1,-1,-1,-1,-1,-1,-1,-1,-1,-1,-1,-1,-1,-1,-1,-1,-1,-1,-1,-1,-1,-1,-1,-1,-1,-1,-1,-1,-1,-1,-1,-1,-1],"split_conditions":[2.0431E0,1E0,1E0,1.8E1,7E0,1E1,9E0,9.336E-1,8E0,9E0,2E0,3E0,4.8067E0,3E0,-3.4056228E-1,5E0,4E0,2E0,-4.978E-1,9E0,1.8E1,4E0,2E0,8.12E-1,-6.699E-1,1.0538E0,3.4376997E-1,8.205E-1,7E0,1.7E1,1E0,6E0,1.7E1,1E0,-3.272E-1,-2.483E-1,-2.0336E0,1E0,4E0,8E0,-7.157E-1,3E0,2E0,-8.3E-3,8E0,-8.867E-1,2E0,-2.8063026E-1,1E1,7E0,6E0,-3.4537262E-1,3.110001E-1,2E0,5E0,6.9495183E-3,3.4539807E-1,-2.5458919E-2,3.9651373E-1,3.842577E-1,5.806778E-2,-1.2684336E-1,2.2821157E-1,3.321588E-1,-3.694265E-1,1.2419386E-1,3.9083517E-1,2.4183995E-1,8.007032E-2,2.4183995E-1,-3.882534E-1,-2.7394167E-1,1.8388376E-2,2.1484724E-1,-1.0916504E-1,-3.9288825E-1,-2.820731E-1,3.2023227E-1,-2.431842E-1,1.733957E-2,2.291422E-1,-2.287435E-1,9.544445E-2,-3.809856E-1,-1.1325443E-1,4.059945E-1,-2.431842E-1,3.7541583E-1,1.5181991E-1,-3.819778E-1,2.4183995E-1,-2.2515777E-1,4.1862422E-1,-3.746711E-1,-1.5211414E-1,-2.560595E-1,2.5313684E-1,4.0430322E-1,-2.8063026E-1,-2.1749692E-1,3.4376997E-1],"split_indices":[1,13,21,35,26,35,17,6,30,31,21,18,0,17,0,28,19,21,8,30,30,16,22,2,5,2,0,6,29,27,22,30,34,20,1,2,5,21,18,33,7,19,30,1,26,4,14,0,34,17,17,0,0,22,21,0,0,0,0,0,0,0,0,0,0,0,0,0,0,0,0,0,0,0,0,0,0,0,0,0,0,0,0,0,0,0,0,0,0,0,0,0,0,0,0,0,0,0,0,0,0],"split_type":[0,0,0,0,0,0,0,0,0,0,0,0,0,0,0,0,0,0,0,0,0,0,0,0,0,0,0,0,0,0,0,0,0,0,0,0,0,0,0,0,0,0,0,0,0,0,0,0,0,0,0,0,0,0,0,0,0,0,0,0,0,0,0,0,0,0,0,0,0,0,0,0,0,0,0,0,0,0,0,0,0,0,0,0,0,0,0,0,0,0,0,0,0,0,0,0,0,0,0,0,0],"sum_hessian":[6.5743496E3,5.9431562E3,6.311935E2,3.2850525E3,2.6581038E3,1.6204295E2,4.6915054E2,3.0496035E3,2.3544916E2,1.0566499E3,1.6014537E3,9.2631645E1,6.9411316E1,4.6390726E2,5.2433004E0,2.2431338E3,8.0646954E2,2.5966822E1,2.0948235E2,2.4044278E2,8.1620715E2,1.3487766E3,2.5267715E2,2.7215227E1,6.541641E1,6.56661E1,3.7452145E0,8.239472E0,4.556678E2,2.5043002E2,1.9927039E3,5.850025E2,2.2146703E2,1.5480221E1,1.0486601E1,3.2458527E0,2.062365E2,1.3083284E2,1.0960995E2,8.0646954E2,9.737558E0,4.4143597E2,9.073407E2,2.3744661E2,1.5230539E1,9.737558E0,1.7477669E1,2.2471287E0,6.3169285E1,5.093492E1,1.4731177E1,5.7426624E0,2.4968097E0,4.4518118E2,1.0486601E1,7.8899185E1,1.7153082E2,1.9395219E3,5.318205E1,4.7414417E2,1.1085835E2,1.7377795E2,4.7689068E1,5.2433004E0,1.023692E1,1.7477669E0,8.738834E0,1.2484049E0,1.9974478E0,1.2484049E0,2.0498808E2,7.390557E1,5.692726E1,8.089664E1,2.8713312E1,4.4692896E2,3.5954062E2,8.239472E0,1.4980859E0,1.7377795E2,2.67658E2,3.4580817E2,5.6153253E2,1.8676137E2,5.0685238E1,1.3732453E1,1.4980859E0,6.2420244E0,3.4955337E0,1.6229263E1,1.2484049E0,1.2484049E0,6.192088E1,4.6190983E1,4.7439384E0,8.738834E0,5.9923434E0,4.4293405E2,2.2471287E0,6.7413864E0,3.7452145E0],"tree_param":{"num_deleted":"0","num_feature":"39","num_nodes":"101","size_leaf_vector":"1"}},{"base_weights":[-8.6046767E-4,-1.1648762E-1,1.1016904E0,-3.0456322E-1,3.7597892E-1,1.0970924E-1,1.4409596E0,8.228938E-2,-4.5818383E-1,5.5600274E-1,-1.032889E0,9.268056E-1,-9.8584664E-1,1.4754488E0,-2.9122385E-1,7.86115E-1,-2.9710436E-1,-6.4197993E-1,1.2208931E-1,2.0647874E-1,1.0737642E0,-1.4241529E0,4.0685537E-1,-3.5307017E-1,1.4532669E0,-1.1434306E0,2.909173E-1,-5.2756757E-1,1.5125237E0,-6.222888E-1,1.2654493E0,-5.413479E-1,7.460373E-1,-2.5604653E-1,-8.834303E-1,4.7131568E-1,-1.0336249E0,1.4684283E0,1.0751408E-1,1.4218389E0,-2.0370895E-1,-3.5515018E-2,-1.6202904E0,8.134583E-1,-3.6300156E-1,1.2576439E0,-1.2988157E0,-2.4525678E-1,1.5636405E0,-1.4210047E0,-1.775287E-1,-2.9487306E-1,2.6695096E-1,1.5447847E0,-5.517843E-1,-2.9930913E-1,8.895372E-2,3.056173E-1,-3.582229E-1,-1.7880161E-1,2.4188684E-2,-1.744597E-1,1.9481254E-1,3.086671E-2,-1.4364317E-1,-2.1455665E-1,-6.2037766E-2,1.8920372E-1,-5.8881436E-3,-3.0867895E-1,4.9419053E-2,4.055104E-1,-1.15633994E-1,3.8593523E-2,-2.1543483E-1,3.3395463E-1,-2.625603E-1,1.488119E-1,-1.2569322E-1,-3.2420412E-1,3.5951966E-1,-3.5532984E-1,2.9385737E-1,-1.716062E-1,2.3150596E-1,3.136139E-1,1.2704329E-1,-3.2255304E-1,2.1436532E-1,-2.0140345E-1,3.422483E-1,-1.3058072E-1,-3.1545174E-1,1.4926325E-1,-3.1039578E-1,-4.9747E-2,3.308513E-1,2.140204E-1,-3.394965E-1],"categories":[],"categories_nodes":[],"categories_segments":[],"categories_sizes":[],"default_left":[0,0,0,0,0,0,0,0,0,0,0,0,0,0,0,0,0,0,0,0,0,0,0,0,0,0,0,0,0,0,0,0,0,0,0,0,0,0,0,0,0,0,0,0,0,0,0,0,0,0,0,0,0,0,0,0,0,0,0,0,0,0,0,0,0,0,0,0,0,0,0,0,0,0,0,0,0,0,0,0,0,0,0,0,0,0,0,0,0,0,0,0,0,0,0,0,0,0,0],"id":1,"left_children":[1,3,5,7,9,11,13,15,17,19,21,23,25,27,-1,29,31,33,35,37,39,41,43,45,47,49,-1,51,53,55,57,59,61,63,65,67,69,71,73,75,77,79,81,83,-1,85,87,-1,89,91,93,-1,-1,95,97,-1,-1,-1,-1,-1,-1,-1,-1,-1,-1,-1,-1,-1,-1,-1,-1,-1,-1,-1,-1,-1,-1,-1,-1,-1,-1,-1,-1,-1,-1,-1,-1,-1,-1,-1,-1,-1,-1,-1,-1,-1,-1,-1,-1],"loss_changes":[8.255315E2,5.429543E2,2.0669983E2,2.5211621E2,4.11497E2,1.4210481E2,4.6705444E1,3.2239725E2,3.2389764E2,2.598775E2,1.041837E2,6.173449E1,2.694249E1,3.442993E1,0E0,2.8624573E2,2.0031566E2,2.1465778E2,2.9560425E2,1.07154144E2,2.577397E2,3.9391296E1,3.6205368E1,4.319841E1,2.0507706E1,1.6956108E1,0E0,1.5931423E1,3.0482239E1,9.133761E1,1.8064569E2,1.2964998E2,4.3527214E1,1.534199E2,1.1499719E2,1.2064743E2,9.445499E1,5.934842E1,6.915362E1,2.0681897E2,4.5398037E1,5.258661E1,2.9861969E1,1.7084692E1,0E0,7.2792435E-1,1.12955E1,0E0,1.1969025E1,2.2899551E0,1.8923082E1,0E0,0E0,2.4347046E1,1.4332604E1,0E0,0E0,0E0,0E0,0E0,0E0,0E0,0E0,0E0,0E0,0E0,0E0,0E0,0E0,0E0,0E0,0E0,0E0,0E0,0E0,0E0,0E0,0E0,0E0,0E0,0E0,0E0,0E0,0E0,0E0,0E0,0E0,0E0,0E0,0E0,0E0,0E0,0E0,0E0,0E0,0E0,0E0,0E0,0E0],"parents":[2147483647,0,0,1,1,2,2,3,3,4,4,5,5,6,6,7,7,8,8,9,9,10,10,11,11,12,12,13,13,15,15,16,16,17,17,18,18,19,19,20,20,21,21,22,22,23,23,24,24,25,25,27,27,28,28,29,29,30,30,31,31,32,32,33,33,34,34,35,35,36,36,37,37,38,38,39,39,40,40,41,41,42,42,43,43,45,45,46,46,48,48,49,49,50,50,53,53,54,54],"right_children":[2,4,6,8,10,12,14,16,18,20,22,24,26,28,-1,30,32,34,36,38,40,42,44,46,48,50,-1,52,54,56,58,60,62,64,66,68,70,72,74,76,78,80,82,84,-1,86,88,-1,90,92,94,-1,-1,96,98,-1,-1,-1,-1,-1,-1,-1,-1,-1,-1,-1,-1,-1,-1,-1,-1,-1,-1,-1,-1,-1,-1,-1,-1,-1,-1,-1,-1,-1,-1,-1,-1,-1,-1,-1,-1,-1,-1,-1,-1,-1,-1,-1,-1],"split_conditions":[2.0431E0,8.153E-1,1E0,4E0,7.39E-1,1E1,9E0,4E0,1E1,1.2907E0,7E0,3E0,4.8067E0,3E0,-2.9122385E-1,1E0,1.7E1,2.341E-1,2E0,8.25E-1,4E0,-1.136E-1,1.1322E0,8.12E-1,-6.699E-1,1.0538E0,2.909173E-1,8.205E-1,9E0,3E0,7E0,4E0,7E0,1E0,1.1E1,5E0,3E0,6E0,1.1E1,1.5345E0,7.282E-1,4E0,2.9567E0,3E0,-3.6300156E-1,-8.867E-1,2E0,-2.4525678E-1,1E1,-4.915E-1,3E0,-2.9487306E-1,2.6695096E-1,3E0,-1.1753E0,-2.9930913E-1,8.895372E-2,3.056173E-1,-3.582229E-1,-1.7880161E-1,2.4188684E-2,-1.744597E-1,1.9481254E-1,3.086671E-2,-1.4364317E-1,-2.1455665E-1,-6.2037766E-2,1.8920372E-1,-5.8881436E-3,-3.0867895E-1,4.9419053E-2,4.055104E-1,-1.15633994E-1,3.8593523E-2,-2.1543483E-1,3.3395463E-1,-2.625603E-1,1.488119E-1,-1.2569322E-1,-3.2420412E-1,3.5951966E-1,-3.5532984E-1,2.9385737E-1,-1.716062E-1,2.3150596E-1,3.136139E-1,1.2704329E-1,-3.2255304E-1,2.1436532E-1,-2.0140345E-1,3.422483E-1,-1.3058072E-1,-3.1545174E-1,1.4926325E-1,-3.1039578E-1,-4.9747E-2,3.308513E-1,2.140204E-1,-3.394965E-1],"split_indices":[1,5,21,16,0,35,17,30,26,6,26,18,0,17,0,15,30,3,21,5,19,2,2,2,5,2,0,6,30,19,17,18,32,13,28,17,35,32,35,3,7,17,0,34,0,4,14,0,34,2,18,0,0,16,0,0,0,0,0,0,0,0,0,0,0,0,0,0,0,0,0,0,0,0,0,0,0,0,0,0,0,0,0,0,0,0,0,0,0,0,0,0,0,0,0,0,0,0,0],"split_type":[0,0,0,0,0,0,0,0,0,0,0,0,0,0,0,0,0,0,0,0,0,0,0,0,0,0,0,0,0,0,0,0,0,0,0,0,0,0,0,0,0,0,0,0,0,0,0,0,0,0,0,0,0,0,0,0,0,0,0,0,0,0,0,0,0,0,0,0,0,0,0,0,0,0,0,0,0,0,0,0,0,0,0,0,0,0,0,0,0,0,0,0,0,0,0,0,0,0,0],"sum_hessian":[6.473521E3,5.859876E3,6.136449E2,4.2407085E3,1.6191676E3,1.5672467E2,4.5692023E2,1.2054835E3,3.0352249E3,1.4362502E3,1.8291733E2,8.985919E1,6.686548E1,4.518869E2,5.033328E0,4.2184085E2,7.836427E2,2.3050237E3,7.302012E2,8.582633E2,5.7798694E2,1.4383868E2,3.9078648E1,2.6285667E1,6.357352E1,6.318414E1,3.6813393E0,7.9717593E0,4.4391513E2,1.07038055E2,3.148028E2,6.3535925E2,1.4828343E2,8.878875E2,1.4171361E3,5.612104E2,1.6899078E2,6.1405983E1,7.968573E2,4.5413516E2,1.2385178E2,1.7948172E1,1.2589051E2,3.3348003E1,5.7306466E0,9.602207E0,1.668346E1,2.1816785E0,6.139184E1,4.871391E1,1.447023E1,5.507277E0,2.4644823E0,4.3733218E2,6.5829687E0,6.034458E1,4.6693474E1,2.96374E2,1.84288E1,4.3133667E2,2.0402255E2,1.4948087E1,1.3333536E2,4.5760434E2,4.3028317E2,1.146747E3,2.703892E2,3.0122562E2,2.5998477E2,1.2563742E2,4.3353367E1,4.999549E1,1.141049E1,7.474034E2,4.9453934E1,4.2758948E2,2.6545666E1,3.7169407E1,8.668238E1,9.695953E0,8.252217E0,1.2339779E2,2.4927182E0,4.7446365E0,2.8603365E1,6.1078496E0,3.4943576E0,1.5442486E1,1.2409736E0,1.2229012E0,6.016894E1,5.288784E0,4.3425125E1,8.867191E0,5.6030383E0,7.2936916E0,4.3003848E2,2.676877E0,3.9060915E0],"tree_param":{"num_deleted":"0","num_feature":"39","num_nodes":"99","size_leaf_vector":"1"}},{"base_weights":[-6.75662E-4,-9.484792E-2,9.4774485E-1,1.394848E-1,-3.9111328E-1,9.3135126E-2,1.2400075E0,2.3897456E-1,-1.2181147E0,-1.4222834E0,-2.0380582E-1,-8.281875E-1,8.2187194E-1,1.2990329E0,-2.1939194E-1,-7.4190155E-2,5.363096E-1,3.1045428E-1,-1.4164797E0,-1.4751318E0,-5.219242E-1,-7.779862E-1,-6.5412493E-3,-9.6320534E-1,2.5580144E-1,1.0571629E0,-2.7467114E-1,-4.524181E-1,1.3326479E0,-1.1696908E0,8.758092E-1,9.4417924E-1,-2.2224818E-1,7.504608E-1,1.6244088E-4,-4.9716017E-1,1.4204732E0,8.383936E-1,-1.4591748E0,-1.4882191E0,2.8933972E-1,-1.2789457E0,1.1039604E0,8.6856306E-1,-9.578433E-1,1.9847214E-1,-5.872322E-1,-1.0556172E0,2.1759754E-1,1.3829165E0,-3.1132033E-1,-2.6156944E-1,2.3597534E-1,1.3717623E0,-1.8103403E-1,1.6820568E-1,-3.1925058E-1,-2.1089729E-2,2.4085523E-1,-6.483602E-2,2.9330656E-1,-2.2275291E-1,-2.5655882E-2,-6.571549E-2,2.0551787E-1,-3.7582196E-2,2.1259288E-1,2.7280524E-1,-3.1171006E-1,3.2409507E-1,1.0090915E-1,5.8885366E-2,2.541606E-1,-4.295951E-3,-3.1588235E-1,-6.923573E-2,-3.1535807E-1,-3.258998E-1,2.3263776E-1,3.8602448E-1,-2.1635811E-1,-2.9341868E-1,2.3132096E-1,-2.4465929E-1,1.6216243E-2,-1.7372874E-4,1.5574431E-1,3.3910114E-2,-2.1919386E-1,-1.2696703E-1,-3.0555904E-1,1.7408732E-2,2.9960826E-1,1.8510805E-1,-2.7669433E-1,2.9120478E-1,-3.5448682E-1,-2.2211176E-1,2.4854204E-1],"categories":[],"categories_nodes":[],"categories_segments":[],"categories_sizes":[],"default_left":[0,0,0,0,0,0,0,0,0,0,0,0,0,0,0,0,0,0,0,0,0,0,0,0,0,0,0,0,0,0,0,0,0,0,0,0,0,0,0,0,0,0,0,0,0,0,0,0,0,0,0,0,0,0,0,0,0,0,0,0,0,0,0,0,0,0,0,0,0,0,0,0,0,0,0,0,0,0,0,0,0,0,0,0,0,0,0,0,0,0,0,0,0,0,0,0,0,0,0],"id":2,"left_children":[1,3,5,7,9,11,13,15,17,19,21,23,25,27,29,31,33,35,37,39,41,43,45,47,-1,49,-1,51,53,55,57,59,61,63,65,67,69,71,73,75,-1,77,79,81,83,85,87,89,-1,91,93,-1,-1,95,97,-1,-1,-1,-1,-1,-1,-1,-1,-1,-1,-1,-1,-1,-1,-1,-1,-1,-1,-1,-1,-1,-1,-1,-1,-1,-1,-1,-1,-1,-1,-1,-1,-1,-1,-1,-1,-1,-1,-1,-1,-1,-1,-1,-1],"loss_changes":[5.629011E2,3.9807712E2,1.420708E2,4.3276434E2,4.8880344E2,9.88062E1,3.6819153E1,2.7790567E2,6.678003E1,1.7744202E1,2.4285321E2,1.9144081E1,4.2528473E1,2.4610718E1,1.9073595E1,2.1947853E2,1.7576904E2,2.3970982E1,1.9884491E1,1.5752502E1,2.986877E1,1.6319803E2,1.9022464E2,1.2471134E1,0E0,3.3637657E1,0E0,1.1932251E1,2.3951721E1,7.927946E0,2.3989964E0,1.0519768E2,1.0647897E2,2.6576E2,7.95837E1,2.987874E1,5.502796E-1,5.398848E-1,1.2316589E1,5.2199097E0,0E0,1.2298195E1,1.4245006E1,3.031527E1,1.0619763E2,1.2784272E2,1.426831E2,9.812225E0,0E0,3.3174057E0,1.9331926E1,0E0,0E0,2.0171204E1,1.4372197E1,0E0,0E0,0E0,0E0,0E0,0E0,0E0,0E0,0E0,0E0,0E0,0E0,0E0,0E0,0E0,0E0,0E0,0E0,0E0,0E0,0E0,0E0,0E0,0E0,0E0,0E0,0E0,0E0,0E0,0E0,0E0,0E0,0E0,0E0,0E0,0E0,0E0,0E0,0E0,0E0,0E0,0E0,0E0,0E0],"parents":[2147483647,0,0,1,1,2,2,3,3,4,4,5,5,6,6,7,7,8,8,9,9,10,10,11,11,12,12,13,13,14,14,15,15,16,16,17,17,18,18,19,19,20,20,21,21,22,22,23,23,25,25,27,27,28,28,29,29,30,30,31,31,32,32,33,33,34,34,35,35,36,36,37,37,38,38,39,39,41,41,42,42,43,43,44,44,45,45,46,46,47,47,49,49,50,50,53,53,54,54],"right_children":[2,4,6,8,10,12,14,16,18,20,22,24,26,28,30,32,34,36,38,40,42,44,46,48,-1,50,-1,52,54,56,58,60,62,64,66,68,70,72,74,76,-1,78,80,82,84,86,88,90,-1,92,94,-1,-1,96,98,-1,-1,-1,-1,-1,-1,-1,-1,-1,-1,-1,-1,-1,-1,-1,-1,-1,-1,-1,-1,-1,-1,-1,-1,-1,-1,-1,-1,-1,-1,-1,-1,-1,-1,-1,-1,-1,-1,-1,-1,-1,-1,-1,-1],"split_conditions":[2.0431E0,1E0,1E0,1.8E1,2E0,1.6E1,8E0,1.515E-1,8E0,6E0,6E0,4.8067E0,1.0772E0,3E0,5E0,5E0,7E0,2E0,-4.978E-1,1E1,7E0,9E0,1E0,2E1,2.5580144E-1,4E0,-2.7467114E-1,8.205E-1,7E0,2E0,-5.825E-1,1.7E1,-4.072E-1,4E0,1.9E1,1E0,2.267E0,2.312E-1,-5.248E-1,-1.3633E0,2.8933972E-1,4E0,4E0,-6.307E-1,1E1,1E1,1E1,3E0,2.1759754E-1,-8.48E-1,1.5467E0,-2.6156944E-1,2.3597534E-1,6E0,4E0,1.6820568E-1,-3.1925058E-1,-2.1089729E-2,2.4085523E-1,-6.483602E-2,2.9330656E-1,-2.2275291E-1,-2.5655882E-2,-6.571549E-2,2.0551787E-1,-3.7582196E-2,2.1259288E-1,2.7280524E-1,-3.1171006E-1,3.2409507E-1,1.0090915E-1,5.8885366E-2,2.541606E-1,-4.295951E-3,-3.1588235E-1,-6.923573E-2,-3.1535807E-1,-3.258998E-1,2.3263776E-1,3.8602448E-1,-2.1635811E-1,-2.9341868E-1,2.3132096E-1,-2.4465929E-1,1.6216243E-2,-1.7372874E-4,1.5574431E-1,3.3910114E-2,-2.1919386E-1,-1.2696703E-1,-3.0555904E-1,1.7408732E-2,2.9960826E-1,1.8510805E-1,-2.7669433E-1,2.9120478E-1,-3.5448682E-1,-2.2211176E-1,2.4854204E-1],"split_indices":[1,13,21,35,26,33,17,5,30,28,32,0,0,17,16,28,26,21,8,18,16,34,21,34,0,19,0,6,29,26,3,27,8,17,34,20,3,4,2,1,0,15,20,8,29,26,31,18,0,6,7,0,0,21,18,0,0,0,0,0,0,0,0,0,0,0,0,0,0,0,0,0,0,0,0,0,0,0,0,0,0,0,0,0,0,0,0,0,0,0,0,0,0,0,0,0,0,0,0],"split_type":[0,0,0,0,0,0,0,0,0,0,0,0,0,0,0,0,0,0,0,0,0,0,0,0,0,0,0,0,0,0,0,0,0,0,0,0,0,0,0,0,0,0,0,0,0,0,0,0,0,0,0,0,0,0,0,0,0,0,0,0,0,0,0,0,0,0,0,0,0,0,0,0,0,0,0,0,0,0,0,0,0,0,0,0,0,0,0,0,0,0,0,0,0,0,0,0,0,0,0],"sum_hessian":[6.300426E3,5.732158E3,5.682677E2,3.2009102E3,2.5312483E3,1.4515027E2,4.2311743E2,2.9831204E3,2.1778983E2,3.8809634E2,2.1431519E3,6.40443E1,8.110598E1,4.0677527E2,1.6342155E1,1.4532509E3,1.5298694E3,2.495162E1,1.928382E2,3.659763E2,2.212007E1,5.4726807E2,1.5958838E3,6.0576633E1,3.4676607E0,7.349079E1,7.615186E0,7.4254665E0,3.993498E2,8.713496E0,7.628659E0,1.8378282E2,1.269468E3,1.0929263E3,4.3694315E2,1.4762795E1,1.0188825E1,3.237129E0,1.8960107E2,3.6478128E2,1.1950188E0,1.5238377E1,6.881693E0,5.351566E1,4.937524E2,1.1799572E3,4.1592657E2,5.835164E1,2.2249942E0,5.935208E1,1.4138713E1,5.079177E0,2.3462894E0,3.893817E2,9.968073E0,1.1218616E0,7.5916348E0,1.7949785E0,5.83368E0,4.884892E1,1.3493391E2,1.3433841E2,1.1351296E3,1.9303099E2,8.9989526E2,3.7194382E2,6.499933E1,5.1237726E0,9.639023E0,8.443496E0,1.7453291E0,1.9961386E0,1.2409904E0,5.7979403E0,1.8380313E2,4.490268E0,3.60291E2,1.3988388E1,1.2499888E0,5.223375E0,1.6583183E0,4.523454E0,4.8992203E1,4.1129333E2,8.245906E1,8.6395325E2,3.160039E2,1.577967E2,2.5812988E2,2.8586657E1,2.9764982E1,2.028336E0,5.7323742E1,6.526515E0,7.612198E0,3.880355E2,1.3462338E0,6.206027E0,3.7620459E0],"tree_param":{"num_deleted":"0","num_feature":"39","num_nodes":"99","size_leaf_vector":"1"}},{"base_weights":[-1.1723281E-3,-7.8657635E-2,8.4065014E-1,5.896744E-2,-4.3495175E-1,8.18778E-2,1.1035763E0,1.2846473E-1,-9.502363E-1,-1.9249628E-1,-1.068052E0,7.200882E-1,-7.3913574E-1,1.1573571E0,-1.8335569E-1,-8.702931E-2,3.6482155E-1,-1.2034427E0,-7.338732E-2,1.2896645E-1,-6.854599E-1,-1.1611817E0,2.6173946E-1,-2.7585757E-1,1.1372741E0,-2.6930943E-1,-2.8451228E-1,3.1083137E-2,1.2011052E0,-1.0202234E0,7.6764166E-1,-2.710729E-1,4.6520337E-1,5.044359E-1,-3.587993E-1,-1.3290663E0,-1.2219703E-1,-6.2787074E-1,1.3232577E0,-6.2769824E-1,4.461808E-1,8.9046687E-1,-8.0672264E-1,-1.3666759E0,-7.1183866E-1,6.368098E-1,-2.6554608E-1,9.269991E-1,-1.0398839E0,-2.0588073E-1,1.2367265E0,2.584184E-1,-2.6493168E-1,-2.919116E-1,7.4042845E-1,1.2287583E0,-2.938058E-1,1.5483496E-1,-2.825601E-1,-4.0818375E-2,1.0523922E0,2.5004795E-1,-6.97023E-2,1.799661E-1,-4.827815E-2,2.7099E-2,1.5434998E-1,-1.0737484E-1,3.1947902E-1,2.979761E-2,-2.9884478E-1,-2.9976565E-1,1.8631268E-1,2.4096258E-1,-1.8369733E-1,-1.4309955E-2,3.260264E-1,-4.9684895E-4,-2.5090277E-1,1.1886584E-1,-1.8215546E-1,3.0139446E-1,-3.700309E-1,-1.15870014E-1,-2.9513386E-1,-6.5537974E-2,-2.9746222E-1,-2.4603832E-1,1.3908128E-1,2.551915E-1,2.772223E-2,2.500072E-1,6.980705E-2,-2.6252887E-1,1.6650826E-1,-1.5701473E-1,2.716587E-1,-2.6507217E-1,1.7356E-1,-1.856835E-1,2.4723256E-1,-2.6628852E-1,2.6160836E-1,2.4385002E-1,6.860389E-2],"categories":[],"categories_nodes":[],"categories_segments":[],"categories_sizes":[],"default_left":[0,0,0,0,0,0,0,0,0,0,0,0,0,0,0,0,0,0,0,0,0,0,0,0,0,0,0,0,0,0,0,0,0,0,0,0,0,0,0,0,0,0,0,0,0,0,0,0,0,0,0,0,0,0,0,0,0,0,0,0,0,0,0,0,0,0,0,0,0,0,0,0,0,0,0,0,0,0,0,0,0,0,0,0,0,0,0,0,0,0,0,0,0,0,0,0,0,0,0,0,0,0,0,0,0],"id":3,"left_children":[1,3,5,7,9,11,13,15,17,19,21,23,25,27,29,31,33,35,37,39,41,43,45,47,49,51,-1,53,55,57,59,61,63,65,67,69,71,73,75,77,79,81,83,85,87,89,-1,91,93,-1,95,97,-1,-1,99,101,-1,-1,-1,-1,103,-1,-1,-1,-1,-1,-1,-1,-1,-1,-1,-1,-1,-1,-1,-1,-1,-1,-1,-1,-1,-1,-1,-1,-1,-1,-1,-1,-1,-1,-1,-1,-1,-1,-1,-1,-1,-1,-1,-1,-1,-1,-1,-1,-1],"loss_changes":[3.9772968E2,2.7381265E2,1.0243988E2,2.826758E2,2.386229E2,7.0397995E1,2.6623322E1,1.9204755E2,5.7564392E1,1.7856712E2,5.3634888E1,3.1694695E1,1.664682E1,1.8017303E1,1.3652556E1,2.0063202E2,1.8184181E2,2.7196625E1,4.6713333E1,1.6411107E2,8.5702484E1,3.620526E1,1.7406782E1,2.2194916E1,1.2464088E1,1.8446472E1,0E0,1.5875727E1,2.7079254E1,6.1551695E0,2.4343076E0,1.320515E2,1.3458961E2,1.3040192E2,8.433379E1,2.5140594E1,3.0340712E1,1.9888872E1,5.579193E0,7.164189E1,7.6296684E1,4.9127407E1,6.233438E1,1.4014038E1,8.192088E1,6.8307905E0,0E0,1.0931091E0,6.617076E0,0E0,6.7775345E0,2.1274025E1,0E0,0E0,8.476674E0,1.6411499E1,0E0,0E0,0E0,0E0,1.288619E-1,0E0,0E0,0E0,0E0,0E0,0E0,0E0,0E0,0E0,0E0,0E0,0E0,0E0,0E0,0E0,0E0,0E0,0E0,0E0,0E0,0E0,0E0,0E0,0E0,0E0,0E0,0E0,0E0,0E0,0E0,0E0,0E0,0E0,0E0,0E0,0E0,0E0,0E0,0E0,0E0,0E0,0E0,0E0,0E0],"parents":[2147483647,0,0,1,1,2,2,3,3,4,4,5,5,6,6,7,7,8,8,9,9,10,10,11,11,12,12,13,13,14,14,15,15,16,16,17,17,18,18,19,19,20,20,21,21,22,22,23,23,24,24,25,25,27,27,28,28,29,29,30,30,31,31,32,32,33,33,34,34,35,35,36,36,37,37,38,38,39,39,40,40,41,41,42,42,43,43,44,44,45,45,47,47,48,48,50,50,51,51,54,54,55,55,60,60],"right_children":[2,4,6,8,10,12,14,16,18,20,22,24,26,28,30,32,34,36,38,40,42,44,46,48,50,52,-1,54,56,58,60,62,64,66,68,70,72,74,76,78,80,82,84,86,88,90,-1,92,94,-1,96,98,-1,-1,100,102,-1,-1,-1,-1,104,-1,-1,-1,-1,-1,-1,-1,-1,-1,-1,-1,-1,-1,-1,-1,-1,-1,-1,-1,-1,-1,-1,-1,-1,-1,-1,-1,-1,-1,-1,-1,-1,-1,-1,-1,-1,-1,-1,-1,-1,-1,-1,-1,-1],"split_conditions":[2.0431E0,2E0,1E0,1.8E1,1.5E1,1E1,8E0,1.515E-1,2E0,5.667E-1,1.6E1,3E0,3E0,4E0,5E0,1.2E1,1.9092E0,8.806E-1,6E0,8E0,1E0,-4.97E-2,2E0,8.12E-1,-6.699E-1,3E0,-2.8451228E-1,-1.4E-2,1.8E1,2E0,-5.375E-1,-3.0706E0,4E0,4E0,1.2754E0,-1.0227E0,1E0,3E0,-3.272E-1,6E0,2E0,2E0,7E0,-1.1121E0,9E0,-9.873E-1,-2.6554608E-1,-8.867E-1,2E0,-2.0588073E-1,1E1,4E0,-2.6493168E-1,-2.919116E-1,1.158E-1,-9.111E-1,-2.938058E-1,1.5483496E-1,-2.825601E-1,-4.0818375E-2,3.519E0,2.5004795E-1,-6.97023E-2,1.799661E-1,-4.827815E-2,2.7099E-2,1.5434998E-1,-1.0737484E-1,3.1947902E-1,2.979761E-2,-2.9884478E-1,-2.9976565E-1,1.8631268E-1,2.4096258E-1,-1.8369733E-1,-1.4309955E-2,3.260264E-1,-4.9684895E-4,-2.5090277E-1,1.1886584E-1,-1.8215546E-1,3.0139446E-1,-3.700309E-1,-1.15870014E-1,-2.9513386E-1,-6.5537974E-2,-2.9746222E-1,-2.4603832E-1,1.3908128E-1,2.551915E-1,2.772223E-2,2.500072E-1,6.980705E-2,-2.6252887E-1,1.6650826E-1,-1.5701473E-1,2.716587E-1,-2.6507217E-1,1.7356E-1,-1.856835E-1,2.4723256E-1,-2.6628852E-1,2.6160836E-1,2.4385002E-1,6.860389E-2],"split_indices":[1,13,21,35,27,35,17,5,21,3,30,18,19,17,16,34,7,0,26,26,34,1,21,2,5,18,0,8,34,26,7,7,18,18,1,5,21,26,1,26,21,20,16,2,33,7,0,4,14,0,34,17,0,0,6,7,0,0,0,0,0,0,0,0,0,0,0,0,0,0,0,0,0,0,0,0,0,0,0,0,0,0,0,0,0,0,0,0,0,0,0,0,0,0,0,0,0,0,0,0,0,0,0,0,0],"split_type":[0,0,0,0,0,0,0,0,0,0,0,0,0,0,0,0,0,0,0,0,0,0,0,0,0,0,0,0,0,0,0,0,0,0,0,0,0,0,0,0,0,0,0,0,0,0,0,0,0,0,0,0,0,0,0,0,0,0,0,0,0,0,0,0,0,0,0,0,0,0,0,0,0,0,0,0,0,0,0,0,0,0,0,0,0,0,0,0,0,0,0,0,0,0,0,0,0,0,0,0,0,0,0,0,0],"sum_hessian":[6.0954346E3,5.5825015E3,5.1293317E2,4.0276016E3,1.5548998E3,1.3233684E2,3.805963E2,3.7689324E3,2.5866913E2,1.1252659E3,4.2963382E2,7.452678E1,5.7810055E1,3.6542587E2,1.517044E1,1.9718059E3,1.7971265E3,2.004213E2,5.824783E1,6.815585E2,4.437075E2,4.0163293E2,2.8000885E1,2.2101871E1,5.2424908E1,3.3604233E1,2.4205824E1,1.3727524E1,3.5169836E2,8.030708E0,7.139732E0,1.4793046E3,4.9250137E2,1.5067242E3,2.9040225E2,1.7935402E2,2.1067282E1,4.2088623E1,1.6159204E1,2.010372E2,4.8052124E2,3.1249294E1,4.124582E2,2.7419583E2,1.2743711E2,2.294498E1,5.0559044E0,8.502508E0,1.3599363E1,1.9542781E0,5.047063E1,2.2419981E1,1.118425E1,4.2510743E0,9.47645E0,3.4851926E2,3.1791031E0,1.0564404E0,6.974268E0,1.7031429E0,5.436589E0,5.836988E1,1.4209347E3,3.1482437E2,1.7767702E2,5.738956E2,9.328286E2,2.6928668E2,2.1115562E1,1.0742833E1,1.6861119E2,9.006625E0,1.2060656E1,4.6930375E0,3.7395588E1,2.38521E0,1.37739935E1,9.6085304E1,1.04951904E2,4.408672E2,3.965404E1,2.6305822E1,4.943473E0,2.9061465E2,1.2184352E2,1.2694538E1,2.6150128E2,9.559816E1,3.1838953E1,1.0037241E1,1.290774E1,5.19701E0,3.3054976E0,1.2485004E1,1.114359E0,1.0680857E0,4.9402546E1,5.7650747E0,1.6654907E1,1.791232E0,7.6852174E0,1.8586606E0,3.4666058E2,4.205949E0,1.2306398E0],"tree_param":{"num_deleted":"0","num_feature":"39","num_nodes":"105","size_leaf_vector":"1"}},{"base_weights":[-2.0299782E-3,-6.56826E-2,7.5834364E-1,3.0580051E-2,-4.3172574E-1,6.7865826E-2,1.0005155E0,1.7201947E-1,-1.1090825E0,-9.358902E-1,7.9103106E-1,-6.499377E-1,6.689415E-1,-5.4445446E-1,1.0397295E0,3.6007074E-1,-1.4571421E-1,-1.3057452E0,8.193426E-1,-1.1603583E0,-2.8378382E-1,2.0582962E-1,1.6211703E0,-1.0503659E0,-1.270476E-1,8.6358064E-1,-2.3040947E-1,2.0485708E-1,-1.152404E0,1.0721779E0,-4.6311036E-1,-3.5305956E-1,4.5162758E-1,1.0857459E-1,-9.9546427E-1,-1.332484E0,6.9746E-1,1.2314234E0,-5.559212E-1,-3.5663933E-1,-1.2837878E0,1.881651E-1,-1.3082722E0,-5.25262E-1,5.7432824E-1,-2.7486318E-1,1.7770387E0,-9.885372E-2,-1.1911147E0,-8.3012164E-1,7.280522E-1,1.1439118E0,-2.858528E-1,1.5452819E-1,-3.4010205E-1,1.0922956E0,-2.3390035E-1,1.7947522E-1,-3.2371366E-1,3.382059E-1,-1.6621907E-1,-1.9399507E-1,1.0133657E-1,-3.71024E-2,1.0319886E-1,-2.6859167E-1,1.096002E-1,-2.3504488E-1,-3.2422766E-1,-2.2312813E-1,3.4677625E-1,3.1136337E-1,-1.3609748E-1,2.8391263E-1,-2.7197805E-1,2.1170701E-1,-2.0609002E-1,-2.7592742E-1,2.6967785E-1,1.5113299E-1,-1.7080522E-1,1.08262494E-1,-2.974273E-1,3.7549064E-1,-1.6729496E-1,-2.8583142E-1,1.6225834E-1,3.9261767E-1,-2.4140163E-1,3.3528545E-1,-2.0368803E-1,8.997936E-2,-2.681223E-1,-2.2944349E-1,1.21909E-1,-1.9408901E-1,2.4119355E-1,5.4192577E-2,2.5604784E-1,1.3584854E-1,-2.3446377E-1,-2.8185004E-2,2.3748457E-1],"categories":[],"categories_nodes":[],"categories_segments":[],"categories_sizes":[],"default_left":[0,0,0,0,0,0,0,0,0,0,0,0,0,0,0,0,0,0,0,0,0,0,0,0,0,0,0,0,0,0,0,0,0,0,0,0,0,0,0,0,0,0,0,0,0,0,0,0,0,0,0,0,0,0,0,0,0,0,0,0,0,0,0,0,0,0,0,0,0,0,0,0,0,0,0,0,0,0,0,0,0,0,0,0,0,0,0,0,0,0,0,0,0,0,0,0,0,0,0,0,0,0,0],"id":4,"left_children":[1,3,5,7,9,11,13,15,17,19,21,23,25,27,29,31,33,35,37,39,41,43,45,47,49,51,-1,-1,53,55,57,59,61,63,65,67,69,71,73,75,77,79,81,83,85,-1,87,89,91,93,95,97,99,-1,-1,101,-1,-1,-1,-1,-1,-1,-1,-1,-1,-1,-1,-1,-1,-1,-1,-1,-1,-1,-1,-1,-1,-1,-1,-1,-1,-1,-1,-1,-1,-1,-1,-1,-1,-1,-1,-1,-1,-1,-1,-1,-1,-1,-1,-1,-1,-1,-1],"loss_changes":[2.8564737E2,1.9190689E2,7.616385E1,6.95398E2,6.9983606E2,5.1971897E1,2.1009857E1,2.2934909E2,1.8170483E2,1.17272095E2,1.6076451E2,1.1371174E1,2.346492E1,9.449216E0,1.656128E1,1.5758206E2,3.085714E2,2.4101013E1,2.6012682E1,5.8801575E1,1.0035971E2,5.3010353E1,6.487918E1,4.031128E0,1.5614405E1,1.951883E1,0E0,0E0,7.272356E0,1.5411255E1,1.2203982E1,2.3793954E2,9.135681E1,1.2017629E2,1.4217175E2,1.7535522E1,1.242265E1,1.73475E1,1.7254808E1,6.997522E1,4.1753357E1,7.651069E1,1.3623344E1,4.2913994E1,5.1167423E1,0E0,3.749582E1,9.054893E0,4.2784767E0,5.880149E0,9.25853E0,2.8954124E0,1.0390027E1,0E0,0E0,1.5310852E1,0E0,0E0,0E0,0E0,0E0,0E0,0E0,0E0,0E0,0E0,0E0,0E0,0E0,0E0,0E0,0E0,0E0,0E0,0E0,0E0,0E0,0E0,0E0,0E0,0E0,0E0,0E0,0E0,0E0,0E0,0E0,0E0,0E0,0E0,0E0,0E0,0E0,0E0,0E0,0E0,0E0,0E0,0E0,0E0,0E0,0E0,0E0],"parents":[2147483647,0,0,1,1,2,2,3,3,4,4,5,5,6,6,7,7,8,8,9,9,10,10,11,11,12,12,13,13,14,14,15,15,16,16,17,17,18,18,19,19,20,20,21,21,22,22,23,23,24,24,25,25,28,28,29,29,30,30,31,31,32,32,33,33,34,34,35,35,36,36,37,37,38,38,39,39,40,40,41,41,42,42,43,43,44,44,46,46,47,47,48,48,49,49,50,50,51,51,52,52,55,55],"right_children":[2,4,6,8,10,12,14,16,18,20,22,24,26,28,30,32,34,36,38,40,42,44,46,48,50,52,-1,-1,54,56,58,60,62,64,66,68,70,72,74,76,78,80,82,84,86,-1,88,90,92,94,96,98,100,-1,-1,102,-1,-1,-1,-1,-1,-1,-1,-1,-1,-1,-1,-1,-1,-1,-1,-1,-1,-1,-1,-1,-1,-1,-1,-1,-1,-1,-1,-1,-1,-1,-1,-1,-1,-1,-1,-1,-1,-1,-1,-1,-1,-1,-1,-1,-1,-1,-1],"split_conditions":[2.0431E0,9E0,1E0,2E0,2E0,1.6E1,3E0,5.222E-1,1E0,1E0,6E0,2E0,1.0772E0,-7.014E-1,9E0,1E0,7E0,3.0357E0,2E0,1E0,5E0,6E0,2E0,1E0,2.0261E0,4E0,-2.3040947E-1,2.0485708E-1,-2.255E-1,7E0,-1.1753E0,1E0,1E0,1E0,1.1E1,3E0,2.2809E0,8.834E-1,2E0,2E0,8.73E-2,7E0,-1.1406E0,3E0,-2.1883E0,-2.7486318E-1,8E0,-2.087E-1,5E0,2.5612E0,3E0,-5.227E-1,1.5467E0,1.5452819E-1,-3.4010205E-1,4E0,-2.3390035E-1,1.7947522E-1,-3.2371366E-1,3.382059E-1,-1.6621907E-1,-1.9399507E-1,1.0133657E-1,-3.71024E-2,1.0319886E-1,-2.6859167E-1,1.096002E-1,-2.3504488E-1,-3.2422766E-1,-2.2312813E-1,3.4677625E-1,3.1136337E-1,-1.3609748E-1,2.8391263E-1,-2.7197805E-1,2.1170701E-1,-2.0609002E-1,-2.7592742E-1,2.6967785E-1,1.5113299E-1,-1.7080522E-1,1.08262494E-1,-2.974273E-1,3.7549064E-1,-1.6729496E-1,-2.8583142E-1,1.6225834E-1,3.9261767E-1,-2.4140163E-1,3.3528545E-1,-2.0368803E-1,8.997936E-2,-2.681223E-1,-2.2944349E-1,1.21909E-1,-1.9408901E-1,2.4119355E-1,5.4192577E-2,2.5604784E-1,1.3584854E-1,-2.3446377E-1,-2.8185004E-2,2.3748457E-1],"split_indices":[1,35,21,21,21,33,16,3,35,21,18,15,0,3,30,20,16,4,13,19,20,34,28,19,0,19,0,0,5,20,0,34,34,14,27,21,7,3,17,20,9,34,0,17,0,0,19,7,32,4,17,5,7,0,0,17,0,0,0,0,0,0,0,0,0,0,0,0,0,0,0,0,0,0,0,0,0,0,0,0,0,0,0,0,0,0,0,0,0,0,0,0,0,0,0,0,0,0,0,0,0,0,0],"split_type":[0,0,0,0,0,0,0,0,0,0,0,0,0,0,0,0,0,0,0,0,0,0,0,0,0,0,0,0,0,0,0,0,0,0,0,0,0,0,0,0,0,0,0,0,0,0,0,0,0,0,0,0,0,0,0,0,0,0,0,0,0,0,0,0,0,0,0,0,0,0,0,0,0,0,0,0,0,0,0,0,0,0,0,0,0,0,0,0,0,0,0,0,0,0,0,0,0,0,0,0,0,0,0],"sum_hessian":[5.8998037E3,5.4449116E3,4.5489243E2,4.311882E3,1.1330295E3,1.18449814E2,3.364426E2,3.836586E3,4.7529587E2,8.0241437E2,3.3061517E2,5.394614E1,6.450368E1,8.009176E0,3.2843344E2,2.4100564E3,1.4265295E3,4.316034E2,4.369248E1,5.96357E2,2.060574E2,1.9464755E2,1.3596762E2,2.997929E1,2.396685E1,5.856091E1,5.942767E0,2.1155062E0,5.8936706E0,3.2177246E2,6.6609535E0,2.7388992E2,2.1361665E3,1.098634E3,3.2789545E2,4.2624866E2,5.354746E0,3.3699448E1,9.99303E0,7.990973E1,5.1644727E2,1.4162955E2,6.442786E1,6.5088425E1,1.2955913E2,6.49405E0,1.2947357E2,4.082496E0,2.5896793E1,1.3168638E1,1.0798212E1,4.7082844E1,1.1478064E1,1.0547714E0,4.838899E0,3.1933395E2,2.4385338E0,3.0911417E0,3.5698118E0,4.9507294E1,2.2438261E2,4.634255E1,2.089824E3,6.2986957E2,4.6876453E2,2.764025E2,5.1492935E1,2.1537175E2,2.1087689E2,1.8420436E0,3.5127025E0,2.9911854E1,3.7875953E0,2.5591109E0,7.4339185E0,2.4900383E1,5.5009342E1,5.1093634E2,5.5109205E0,9.27094E1,4.8920147E1,3.3925083E0,6.1035347E1,6.2471905E0,5.8841232E1,1.1497427E1,1.1806171E2,1.258539E2,3.6196764E0,1.1029284E0,2.9795678E0,1.0998164E0,2.4796978E1,1.1292922E1,1.8757157E0,1.9475248E0,8.850687E0,4.038384E0,4.304446E1,5.510912E0,5.967151E0,9.663572E0,3.0967038E2],"tree_param":{"num_deleted":"0","num_feature":"39","num_nodes":"103","size_leaf_vector":"1"}},{"base_weights":[-3.5429038E-3,-5.622116E-2,6.8888277E-1,5.0855324E-2,-3.4698337E-1,5.898932E-2,9.118853E-1,9.879058E-2,-7.6127434E-1,-8.330668E-1,-1.2162369E-1,6.0947025E-1,-6.1388785E-1,9.6312124E-1,-2.1898144E-1,-6.26089E-1,1.5387286E-1,-9.5785606E-1,4.1594066E-2,1.6209142E-2,-1.1038675E0,9.4741985E-2,-7.11323E-1,-2.043167E-1,9.661801E-1,-2.1068537E-1,-2.518402E-1,-2.6588953E-1,9.82058E-1,-8.724615E-1,5.4021657E-1,-8.8181114E-1,9.699396E-1,1.9720194E-1,-7.675847E-1,-1.0029334E0,2.627647E-1,-6.8867713E-1,7.381992E-1,-2.708968E-1,9.8340267E-1,-1.1851037E0,4.659118E-1,3.8933843E-1,-5.0848645E-1,-1.0101842E0,4.364977E-1,9.116031E-1,-8.1216E-1,1.148427E0,-3.1190073E-1,-2.4098305E-1,1.9405918E-1,-1.9142458E-1,1.0022417E0,-8.595049E-3,-2.3677796E-1,-2.0525011E-1,2.1058269E-1,-4.7286343E-2,-2.8037775E-1,2.6305485E-1,-1.6073802E-1,1.9936873E-2,9.918909E-2,-2.0799056E-1,2.8165478E-1,-2.2817844E-1,-5.068609E-2,1.8837266E-1,-2.7796057E-1,2.176235E-1,-2.686722E-2,-3.1710038E-1,5.041029E-3,2.5306433E-1,-8.752453E-2,-2.575488E-1,1.8100238E-1,-1.5047249E-1,2.9770407E-1,-7.504213E-2,1.18578576E-1,-1.7765403E-1,9.077997E-2,1.20465346E-1,-2.3477146E-1,1.8242142E-1,-2.7541256E-1,2.2935028E-1,7.4317455E-2,1.0552041E-1,-2.0552677E-1,5.7776454E-3,2.507166E-1,5.736681E-2,-2.6747984E-1,1.289313E-1,-2.1300896E-1,-1.8716637E-2,2.1766001E-1,-9.450727E-2,3.8463786E-2],"categories":[],"categories_nodes":[],"categories_segments":[],"categories_sizes":[],"default_left":[0,0,0,0,0,0,0,0,0,0,0,0,0,0,0,0,0,0,0,0,0,0,0,0,0,0,0,0,0,0,0,0,0,0,0,0,0,0,0,0,0,0,0,0,0,0,0,0,0,0,0,0,0,0,0,0,0,0,0,0,0,0,0,0,0,0,0,0,0,0,0,0,0,0,0,0,0,0,0,0,0,0,0,0,0,0,0,0,0,0,0,0,0,0,0,0,0,0,0,0,0,0,0],"id":5,"left_children":[1,3,5,7,9,11,13,15,17,19,21,23,25,27,29,31,33,35,37,39,41,43,45,47,49,51,-1,-1,53,55,57,59,61,63,65,67,-1,69,71,73,75,77,79,81,83,85,87,89,91,93,95,-1,97,-1,99,-1,-1,101,-1,-1,-1,-1,-1,-1,-1,-1,-1,-1,-1,-1,-1,-1,-1,-1,-1,-1,-1,-1,-1,-1,-1,-1,-1,-1,-1,-1,-1,-1,-1,-1,-1,-1,-1,-1,-1,-1,-1,-1,-1,-1,-1,-1,-1],"loss_changes":[2.0775562E2,1.648079E2,5.651021E1,1.5070424E2,1.559662E2,3.9769314E1,1.7438248E1,1.4601318E2,3.4094063E1,1.0376965E2,1.24414955E2,1.7324448E1,1.1160103E1,1.3258881E1,7.269049E0,1.0627144E2,1.3578818E2,1.851915E1,2.2585102E1,3.0826946E1,4.417404E1,1.2705817E2,9.022005E1,1.3496511E1,9.953526E0,1.1539942E1,0E0,0E0,1.1721832E1,1.5966549E0,2.6043277E0,6.612088E1,1.8691006E1,9.126791E1,7.312322E1,1.0594269E1,0E0,2.3039532E1,5.991968E0,3.1332834E1,8.387911E0,2.8590149E1,2.0764833E1,6.3063957E1,7.487221E1,3.6138184E1,4.251059E1,3.2865906E-1,3.2730198E0,1.8152847E0,3.6835287E0,0E0,1.1631977E1,0E0,1.0564484E1,0E0,0E0,4.145801E-1,0E0,0E0,0E0,0E0,0E0,0E0,0E0,0E0,0E0,0E0,0E0,0E0,0E0,0E0,0E0,0E0,0E0,0E0,0E0,0E0,0E0,0E0,0E0,0E0,0E0,0E0,0E0,0E0,0E0,0E0,0E0,0E0,0E0,0E0,0E0,0E0,0E0,0E0,0E0,0E0,0E0,0E0,0E0,0E0,0E0],"parents":[2147483647,0,0,1,1,2,2,3,3,4,4,5,5,6,6,7,7,8,8,9,9,10,10,11,11,12,12,13,13,14,14,15,15,16,16,17,17,18,18,19,19,20,20,21,21,22,22,23,23,24,24,25,25,28,28,29,29,30,30,31,31,32,32,33,33,34,34,35,35,37,37,38,38,39,39,40,40,41,41,42,42,43,43,44,44,45,45,46,46,47,47,48,48,49,49,50,50,52,52,54,54,57,57],"right_children":[2,4,6,8,10,12,14,16,18,20,22,24,26,28,30,32,34,36,38,40,42,44,46,48,50,52,-1,-1,54,56,58,60,62,64,66,68,-1,70,72,74,76,78,80,82,84,86,88,90,92,94,96,-1,98,-1,100,-1,-1,102,-1,-1,-1,-1,-1,-1,-1,-1,-1,-1,-1,-1,-1,-1,-1,-1,-1,-1,-1,-1,-1,-1,-1,-1,-1,-1,-1,-1,-1,-1,-1,-1,-1,-1,-1,-1,-1,-1,-1,-1,-1,-1,-1,-1,-1],"split_conditions":[2.0431E0,2E0,1E0,1.8E1,7E0,1E1,8E0,-4.978E-1,6E0,9E0,1E0,3E0,3E0,-1.1577E0,5E0,1E0,2.1544E0,2.4575E0,1E0,5E0,1.1E1,6.911E-1,-7.82E-2,1.3E-3,1.3E1,4E0,-2.518402E-1,-2.6588953E-1,2E0,1E0,-2.7E-3,2.623E-1,1.6E1,1.002E0,2E0,8E0,2.627647E-1,-1.0227E0,5E0,1E0,2E0,1.8E1,3E0,2E0,6E0,2E0,5E0,6E0,1.673E-1,1.1E1,4E0,-2.4098305E-1,3E0,-1.9142458E-1,-4.325E-1,-8.595049E-3,-2.3677796E-1,3.519E0,2.1058269E-1,-4.7286343E-2,-2.8037775E-1,2.6305485E-1,-1.6073802E-1,1.9936873E-2,9.918909E-2,-2.0799056E-1,2.8165478E-1,-2.2817844E-1,-5.068609E-2,1.8837266E-1,-2.7796057E-1,2.176235E-1,-2.686722E-2,-3.1710038E-1,5.041029E-3,2.5306433E-1,-8.752453E-2,-2.575488E-1,1.8100238E-1,-1.5047249E-1,2.9770407E-1,-7.504213E-2,1.18578576E-1,-1.7765403E-1,9.077997E-2,1.20465346E-1,-2.3477146E-1,1.8242142E-1,-2.7541256E-1,2.2935028E-1,7.4317455E-2,1.0552041E-1,-2.0552677E-1,5.7776454E-3,2.507166E-1,5.736681E-2,-2.6747984E-1,1.289313E-1,-2.1300896E-1,-1.8716637E-2,2.1766001E-1,-9.450727E-2,3.8463786E-2],"split_indices":[1,13,21,35,26,35,17,8,26,31,21,18,19,4,16,35,2,2,21,26,29,3,1,6,30,17,0,0,17,15,8,3,34,4,21,17,0,5,17,15,14,30,18,17,30,29,13,16,3,31,18,0,18,0,0,0,0,0,0,0,0,0,0,0,0,0,0,0,0,0,0,0,0,0,0,0,0,0,0,0,0,0,0,0,0,0,0,0,0,0,0,0,0,0,0,0,0,0,0,0,0,0,0],"split_type":[0,0,0,0,0,0,0,0,0,0,0,0,0,0,0,0,0,0,0,0,0,0,0,0,0,0,0,0,0,0,0,0,0,0,0,0,0,0,0,0,0,0,0,0,0,0,0,0,0,0,0,0,0,0,0,0,0,0,0,0,0,0,0,0,0,0,0,0,0,0,0,0,0,0,0,0,0,0,0,0,0,0,0,0,0,0,0,0,0,0,0,0,0,0,0,0,0,0,0,0,0,0,0],"sum_hessian":[5.6936533E3,5.29197E3,4.0168292E2,3.8682634E3,1.4237068E3,1.05356705E2,2.963262E2,3.6534973E3,2.1476617E2,4.501251E2,9.735818E2,5.8000618E1,4.7356083E1,2.8362445E2,1.2701768E1,2.5728433E2,3.396213E3,1.7236876E2,4.2397408E1,1.0905393E2,3.4107117E2,7.128649E2,2.6071683E2,1.7805927E1,4.019469E1,2.884616E1,1.8509924E1,1.8342327E0,2.817902E2,6.745977E0,5.955791E0,2.2213971E2,3.5144627E1,3.244438E3,1.5177501E2,1.6945697E2,2.9117866E0,2.0704092E1,2.1693316E1,8.46469E1,2.4407038E1,3.2452216E2,1.6548985E1,4.7919623E2,2.336687E2,2.0695207E2,5.3764755E1,6.1026106E0,1.1703318E1,3.526723E1,4.9274607E0,8.148891E0,2.069727E1,2.5061452E0,2.7928406E2,1.8558695E0,4.890107E0,2.4934983E0,3.4622927E0,9.1335884E1,1.3080383E2,3.0460548E1,4.6840787E0,2.3662502E3,8.781876E2,1.377488E2,1.4026228E1,1.5230508E2,1.715189E1,5.8018937E0,1.4902199E1,1.5992598E1,5.700717E0,1.5480644E1,6.916625E1,2.1191528E1,3.21551E0,3.184942E2,6.0279546E0,7.490158E0,9.058827E0,9.092304E1,3.882732E2,1.7204973E2,6.1618988E1,1.2909898E1,1.9404218E2,4.351024E1,1.025452E1,3.886284E0,2.2163262E0,1.0890787E0,1.0614239E1,1.4371692E0,3.383006E1,3.508935E0,1.4185256E0,1.5724963E1,4.9723067E0,8.445478E0,2.708386E2,1.4322252E0,1.0612731E0],"tree_param":{"num_deleted":"0","num_feature":"39","num_nodes":"103","size_leaf_vector":"1"}},{"base_weights":[-4.5715263E-3,-4.7951877E-2,6.259883E-1,-1.9652246E-1,1.2570813E-1,-5.337148E-1,7.290297E-1,-3.427276E-2,-8.899284E-1,-1.8147813E-1,4.3519303E-1,-9.8709255E-1,6.1048234E-1,3.9075857E-1,9.770454E-1,-3.6500496E-1,1.9255361E-1,-1.0948179E0,2.3027171E-1,-5.3380936E-1,2.909639E-1,6.298226E-1,-5.863126E-2,-1.1385598E0,1.4737773E-1,-1.6655181E-1,1.0117567E0,-2.0481305E0,4.9973416E-1,1.0393114E0,-7.1190536E-1,-1.6858113E-1,-9.3535984E-1,6.964865E-1,-1.0457695E-1,-5.199235E-1,-1.3823383E0,-6.0648566E-1,5.739615E-1,-9.09373E-1,-1.0831589E-2,-1.2524949E-1,9.565085E-1,-7.7924687E-1,7.5484854E-1,-2.5926486E-1,9.045738E-1,-2.6526773E-1,9.310924E-2,2.324601E-1,4.6058718E-2,-7.55056E-1,1.6624635E-1,6.126932E-1,-6.058325E-1,1.0784318E0,-1.9569165E-1,-2.8905192E-1,1.3272208E-1,1.6702019E-2,-9.112833E-2,3.203462E-2,-2.3411159E-1,1.4034816E-2,1.9292022E-1,-1.4461204E-1,5.0668612E-2,1.2025113E-1,-2.8115407E-1,-1.3203935E-1,-3.0560747E-1,-2.499565E-1,8.637812E-2,1.8255278E-1,-9.7203E-2,-2.379316E-1,-2.100109E-2,1.10917635E-1,-1.47996E-1,-5.4618903E-2,2.360934E-1,-1.5793504E-1,2.349031E-1,2.8233358E-1,-2.0363025E-1,1.8708451E-1,-5.2771296E-2,5.457848E-2,-1.4100696E-1,2.4654786E-1,-2.4683757E-1,-1.628337E-2,1.604392E-1,-3.7731555E-1,3.1018972E-2,2.3081131E-1,-2.0359884E-1],"categories":[],"categories_nodes":[],"categories_segments":[],"categories_sizes":[],"default_left":[0,0,0,0,0,0,0,0,0,0,0,0,0,0,0,0,0,0,0,0,0,0,0,0,0,0,0,0,0,0,0,0,0,0,0,0,0,0,0,0,0,0,0,0,0,0,0,0,0,0,0,0,0,0,0,0,0,0,0,0,0,0,0,0,0,0,0,0,0,0,0,0,0,0,0,0,0,0,0,0,0,0,0,0,0,0,0,0,0,0,0,0,0,0,0,0,0],"id":6,"left_children":[1,3,5,7,9,11,13,15,17,19,21,23,25,27,29,31,33,35,37,39,41,43,45,47,-1,-1,49,51,53,55,57,59,61,63,65,67,69,71,73,75,77,79,81,83,85,87,89,-1,-1,-1,-1,-1,-1,91,93,95,-1,-1,-1,-1,-1,-1,-1,-1,-1,-1,-1,-1,-1,-1,-1,-1,-1,-1,-1,-1,-1,-1,-1,-1,-1,-1,-1,-1,-1,-1,-1,-1,-1,-1,-1,-1,-1,-1,-1,-1,-1],"loss_changes":[1.5089351E2,1.3318678E2,4.2819977E1,3.1294717E2,2.2636958E2,1.59328575E1,2.7012589E1,1.6927042E2,1.2131442E2,1.99116E2,1.1402582E2,6.3111706E0,5.873969E0,3.817842E1,2.048233E1,1.02676254E2,2.0049658E2,7.3015686E1,2.4040648E1,1.3453654E2,1.4174075E2,1.5047202E2,6.520574E1,4.533537E0,0E0,0E0,3.1860828E-1,2.9982355E1,1.7183105E1,1.4998016E1,7.361117E0,4.506852E1,4.6033585E1,6.941432E1,1.7043295E2,1.3525848E2,1.539563E1,1.5030767E1,1.8442108E1,7.2050934E1,1.07841545E2,5.343694E1,5.5346024E1,2.9542557E1,1.0724716E2,5.988408E1,3.3988956E1,0E0,0E0,0E0,0E0,0E0,0E0,1.286689E1,1.1915728E1,8.617096E0,0E0,0E0,0E0,0E0,0E0,0E0,0E0,0E0,0E0,0E0,0E0,0E0,0E0,0E0,0E0,0E0,0E0,0E0,0E0,0E0,0E0,0E0,0E0,0E0,0E0,0E0,0E0,0E0,0E0,0E0,0E0,0E0,0E0,0E0,0E0,0E0,0E0,0E0,0E0,0E0,0E0],"parents":[2147483647,0,0,1,1,2,2,3,3,4,4,5,5,6,6,7,7,8,8,9,9,10,10,11,11,12,12,13,13,14,14,15,15,16,16,17,17,18,18,19,19,20,20,21,21,22,22,23,23,26,26,27,27,28,28,29,29,30,30,31,31,32,32,33,33,34,34,35,35,36,36,37,37,38,38,39,39,40,40,41,41,42,42,43,43,44,44,45,45,46,46,53,53,54,54,55,55],"right_children":[2,4,6,8,10,12,14,16,18,20,22,24,26,28,30,32,34,36,38,40,42,44,46,48,-1,-1,50,52,54,56,58,60,62,64,66,68,70,72,74,76,78,80,82,84,86,88,90,-1,-1,-1,-1,-1,-1,92,94,96,-1,-1,-1,-1,-1,-1,-1,-1,-1,-1,-1,-1,-1,-1,-1,-1,-1,-1,-1,-1,-1,-1,-1,-1,-1,-1,-1,-1,-1,-1,-1,-1,-1,-1,-1,-1,-1,-1,-1,-1,-1],"split_conditions":[2.0431E0,4E0,4E0,1.8E1,1.1E1,2.7E-3,2E0,9E0,9E0,1.3E1,6E0,2.9455E0,1.158E-1,-1.598E-1,5E0,1.3502E0,4E0,1E0,-1.651E-1,1E0,7E0,-8.545E-1,1.5329E0,1.9E1,1.4737773E-1,-1.6655181E-1,6.826E-1,3E0,5E0,9E0,4E0,1E0,-2.053E-1,1E0,2E0,3E0,1E0,1.6E1,4.714E-1,8.56E-2,7.037E-1,1.9E1,2E0,-3.385E0,1.3E1,1.2301E0,7E0,-2.6526773E-1,9.310924E-2,2.324601E-1,4.6058718E-2,-7.55056E-1,1.6624635E-1,-2.374E-1,2E0,7E0,-1.9569165E-1,-2.8905192E-1,1.3272208E-1,1.6702019E-2,-9.112833E-2,3.203462E-2,-2.3411159E-1,1.4034816E-2,1.9292022E-1,-1.4461204E-1,5.0668612E-2,1.2025113E-1,-2.8115407E-1,-1.3203935E-1,-3.0560747E-1,-2.499565E-1,8.637812E-2,1.8255278E-1,-9.7203E-2,-2.379316E-1,-2.100109E-2,1.10917635E-1,-1.47996E-1,-5.4618903E-2,2.360934E-1,-1.5793504E-1,2.349031E-1,2.8233358E-1,-2.0363025E-1,1.8708451E-1,-5.2771296E-2,5.457848E-2,-1.4100696E-1,2.4654786E-1,-2.4683757E-1,-1.628337E-2,1.604392E-1,-3.7731555E-1,3.1018972E-2,2.3081131E-1,-2.0359884E-1],"split_indices":[1,18,17,27,31,8,21,32,33,27,18,7,6,8,26,7,16,15,1,14,18,6,4,34,0,0,7,13,20,17,18,14,3,15,30,35,19,32,4,2,3,34,17,7,30,5,29,0,0,0,0,0,0,5,15,20,0,0,0,0,0,0,0,0,0,0,0,0,0,0,0,0,0,0,0,0,0,0,0,0,0,0,0,0,0,0,0,0,0,0,0,0,0,0,0,0,0],"split_type":[0,0,0,0,0,0,0,0,0,0,0,0,0,0,0,0,0,0,0,0,0,0,0,0,0,0,0,0,0,0,0,0,0,0,0,0,0,0,0,0,0,0,0,0,0,0,0,0,0,0,0,0,0,0,0,0,0,0,0,0,0,0,0,0,0,0,0,0,0,0,0,0,0,0,0,0,0,0,0,0,0,0,0,0,0,0,0,0,0,0,0,0,0,0,0,0,0],"sum_hessian":[5.5142446E3,5.160167E3,3.5407782E2,2.7809023E3,2.3792646E3,2.85521E1,3.2552573E2,2.254437E3,5.2646515E2,1.1942743E3,1.1849904E3,2.0547602E1,8.004497E0,1.38796E2,1.8672972E2,9.169039E2,1.3375332E3,4.4508066E2,8.138452E1,6.8402313E2,5.1025116E2,8.497898E2,3.3520065E2,1.9155506E1,1.3920971E0,1.5625416E0,6.4419546E0,5.175402E0,1.3362059E2,1.8046135E2,6.268363E0,6.829865E2,2.3391734E2,4.9561948E2,8.4191376E2,1.493217E2,2.9575894E2,2.3472658E1,5.7911865E1,3.9769177E2,2.863314E2,3.144282E2,1.9582297E2,6.8829834E1,7.8095996E2,2.780204E2,5.7180237E1,1.7943476E1,1.2120297E0,5.3967247E0,1.0452303E0,3.1777494E0,1.9976528E0,1.2163827E2,1.1982329E1,1.7739366E2,3.0676963E0,4.1781654E0,2.0901978E0,3.533266E2,3.296599E2,3.314369E1,2.0077365E2,1.2961E2,3.660095E2,3.1276022E2,5.291535E2,6.4101295E1,8.522041E1,2.69481E1,2.6881085E2,1.4809156E1,8.663502E0,4.519877E1,1.2713098E1,3.112822E2,8.640958E1,1.6128702E2,1.2504438E2,2.845164E2,2.9911814E1,1.6651117E1,1.7917184E2,5.1650987E0,6.3664734E1,6.880502E2,9.290979E1,1.23208565E2,1.5481183E2,5.1007725E1,6.172515E0,2.1957464E1,9.96808E1,4.1070676E0,7.875262E0,1.7607982E2,1.3138391E0],"tree_param":{"num_deleted":"0","num_feature":"39","num_nodes":"97","size_leaf_vector":"1"}},{"base_weights":[-4.3712505E-3,-4.027437E-2,5.6112295E-1,4.3187823E-2,-2.783581E-1,3.8612564E-3,7.7632177E-1,-2.7802344E-2,3.9715204E-1,-1.0535842E-1,-8.232132E-1,4.9314135E-1,-5.6964433E-1,-5.566698E-1,8.16477E-1,8.2596105E-1,-6.033678E-2,7.9922146E-1,-4.311903E-1,-7.519623E-1,3.5072014E-2,-5.1101494E-1,-1.1890974E0,-2.1860364E-1,8.592358E-1,-2.0336254E-1,-2.3882917E-1,-3.0419692E-1,2.6146933E-1,-2.3590125E-1,8.37331E-1,1.620781E-1,1.2483964E0,-1.0104804E-1,5.540865E-1,-6.988743E-1,9.843208E-1,-5.4991114E-1,8.6292297E-1,-1.120163E0,2.4642944E-1,-5.4874815E-2,9.131134E-1,-8.5162634E-1,2.3799868E-1,-1.228438E0,1.6325033E-1,6.953134E-1,-1.8658938E-1,-3.3084968E-1,1.0585984E0,1.4796971E-1,-2.1672338E-1,1.8137799E-1,-1.48193E-1,-1.12342305E-1,8.802835E-1,1.4910981E-1,-2.2324641E-1,2.7878E-1,-2.554471E-1,3.6872275E-2,-4.388868E-2,-2.305717E-4,1.7954265E-1,-5.1617473E-2,-3.865685E-1,2.3004438E-1,-2.6538774E-1,-1.7190471E-1,1.3114426E-2,3.0631787E-1,-1.4759217E-1,1.5098783E-1,-2.518921E-1,-7.168854E-2,2.1140212E-1,1.8385562E-1,-3.335442E-2,2.8535184E-1,-1.17079526E-1,-1.9578728E-1,2.2692372E-1,-2.4635293E-1,8.720158E-2,2.4324045E-1,-2.6419514E-1,2.1580061E-1,1.3854534E-2,7.672457E-2,-2.6951286E-1,-1.812723E-2,2.3379987E-1,-1.9420774E-1,9.086253E-2,-2.481542E-1,1.0165008E-1,1.9151574E-1,-2.4057145E-1],"categories":[],"categories_nodes":[],"categories_segments":[],"categories_sizes":[],"default_left":[0,0,0,0,0,0,0,0,0,0,0,0,0,0,0,0,0,0,0,0,0,0,0,0,0,0,0,0,0,0,0,0,0,0,0,0,0,0,0,0,0,0,0,0,0,0,0,0,0,0,0,0,0,0,0,0,0,0,0,0,0,0,0,0,0,0,0,0,0,0,0,0,0,0,0,0,0,0,0,0,0,0,0,0,0,0,0,0,0,0,0,0,0,0,0,0,0,0,0],"id":7,"left_children":[1,3,5,7,9,11,13,15,17,19,21,23,25,27,29,31,33,35,37,39,41,43,45,47,49,51,-1,-1,53,-1,55,57,59,61,63,65,67,69,71,73,75,77,79,81,83,85,-1,87,-1,89,91,93,-1,-1,-1,95,97,-1,-1,-1,-1,-1,-1,-1,-1,-1,-1,-1,-1,-1,-1,-1,-1,-1,-1,-1,-1,-1,-1,-1,-1,-1,-1,-1,-1,-1,-1,-1,-1,-1,-1,-1,-1,-1,-1,-1,-1,-1,-1],"loss_changes":[1.0800797E2,9.940868E1,3.8083023E1,9.3099976E1,1.2231013E2,2.5389997E1,1.271788E1,8.5787155E1,2.0648029E2,8.962325E1,3.512155E1,1.2909365E1,8.430324E0,5.7014275E0,9.954086E0,3.1593132E1,7.445465E1,1.16328766E2,3.1647964E1,6.501362E1,6.414899E1,4.3708576E1,1.2037735E1,1.1258744E1,8.047522E0,7.8788843E0,0E0,0E0,3.3188448E0,0E0,9.114349E0,3.112445E1,1.5098953E1,8.335814E1,3.0900879E1,2.3577366E1,9.421542E1,3.0729942E1,1.7291767E1,1.9658142E1,2.191325E1,7.1433975E1,5.02278E1,1.9318695E1,1.4015382E1,1.1418335E1,0E0,1.5869386E0,0E0,4.0611706E0,1.8523712E0,6.3594265E0,0E0,0E0,0E0,7.2368026E0,1.4629913E1,0E0,0E0,0E0,0E0,0E0,0E0,0E0,0E0,0E0,0E0,0E0,0E0,0E0,0E0,0E0,0E0,0E0,0E0,0E0,0E0,0E0,0E0,0E0,0E0,0E0,0E0,0E0,0E0,0E0,0E0,0E0,0E0,0E0,0E0,0E0,0E0,0E0,0E0,0E0,0E0,0E0,0E0],"parents":[2147483647,0,0,1,1,2,2,3,3,4,4,5,5,6,6,7,7,8,8,9,9,10,10,11,11,12,12,13,13,14,14,15,15,16,16,17,17,18,18,19,19,20,20,21,21,22,22,23,23,24,24,25,25,28,28,30,30,31,31,32,32,33,33,34,34,35,35,36,36,37,37,38,38,39,39,40,40,41,41,42,42,43,43,44,44,45,45,47,47,49,49,50,50,51,51,55,55,56,56],"right_children":[2,4,6,8,10,12,14,16,18,20,22,24,26,28,30,32,34,36,38,40,42,44,46,48,50,52,-1,-1,54,-1,56,58,60,62,64,66,68,70,72,74,76,78,80,82,84,86,-1,88,-1,90,92,94,-1,-1,-1,96,98,-1,-1,-1,-1,-1,-1,-1,-1,-1,-1,-1,-1,-1,-1,-1,-1,-1,-1,-1,-1,-1,-1,-1,-1,-1,-1,-1,-1,-1,-1,-1,-1,-1,-1,-1,-1,-1,-1,-1,-1,-1,-1],"split_conditions":[2.0431E0,2E0,1E0,1.3781E0,1.5E1,1E1,3E0,-2.6486E0,4E0,6E0,1E0,3E0,3E0,9.56E-2,-1.1577E0,4E0,1.9E1,-2E-4,1.7E1,1E1,5E0,9E0,1.9E1,8.12E-1,1E1,3E0,-2.3882917E-1,-3.0419692E-1,-3.498E-1,-2.3590125E-1,4E0,9.121E-1,1.9E1,4E0,5E0,6.406E-1,8E0,1.5884E0,5E0,-9.203E-1,6E0,4E0,3.55E-1,1.7E1,1E0,-1.0911E0,1.6325033E-1,-8.867E-1,-1.8658938E-1,4E0,-1.255E-1,4E0,-2.1672338E-1,1.8137799E-1,-1.48193E-1,-1.4E-2,1.8E1,1.4910981E-1,-2.2324641E-1,2.7878E-1,-2.554471E-1,3.6872275E-2,-4.388868E-2,-2.305717E-4,1.7954265E-1,-5.1617473E-2,-3.865685E-1,2.3004438E-1,-2.6538774E-1,-1.7190471E-1,1.3114426E-2,3.0631787E-1,-1.4759217E-1,1.5098783E-1,-2.518921E-1,-7.168854E-2,2.1140212E-1,1.8385562E-1,-3.335442E-2,2.8535184E-1,-1.17079526E-1,-1.9578728E-1,2.2692372E-1,-2.4635293E-1,8.720158E-2,2.4324045E-1,-2.6419514E-1,2.1580061E-1,1.3854534E-2,7.672457E-2,-2.6951286E-1,-1.812723E-2,2.3379987E-1,-1.9420774E-1,9.086253E-2,-2.481542E-1,1.0165008E-1,1.9151574E-1,-2.4057145E-1],"split_indices":[1,13,21,6,27,35,16,7,19,32,21,18,19,8,4,18,34,7,32,27,19,33,26,2,31,18,0,0,2,0,17,4,28,16,16,3,16,5,26,7,16,29,6,26,20,1,0,4,0,18,3,17,0,0,0,8,34,0,0,0,0,0,0,0,0,0,0,0,0,0,0,0,0,0,0,0,0,0,0,0,0,0,0,0,0,0,0,0,0,0,0,0,0,0,0,0,0,0,0],"split_type":[0,0,0,0,0,0,0,0,0,0,0,0,0,0,0,0,0,0,0,0,0,0,0,0,0,0,0,0,0,0,0,0,0,0,0,0,0,0,0,0,0,0,0,0,0,0,0,0,0,0,0,0,0,0,0,0,0,0,0,0,0,0,0,0,0,0,0,0,0,0,0,0,0,0,0,0,0,0,0,0,0,0,0,0,0,0,0,0,0,0,0,0,0,0,0,0,0,0,0],"sum_hessian":[5.3176885E3,5.0010986E3,3.1659E2,3.7035928E3,1.297506E3,8.8481995E1,2.2810802E2,3.0856616E3,6.17931E2,9.857188E2,3.1178717E2,4.78227E1,4.0659294E1,6.2944565E0,2.2181355E2,1.12374E2,2.9732876E3,4.1602948E2,2.0190157E2,1.7510468E2,8.1061414E2,1.6952939E2,1.4225778E2,1.63801E1,3.1442602E1,2.553833E1,1.5120963E1,2.642839E0,3.6516178E0,1.7969468E0,2.2001662E2,4.4236816E1,6.8137184E1,2.7893057E3,1.839819E2,4.544513E1,3.7058435E2,1.8546246E2,1.64391E1,1.2783716E2,4.7267513E1,7.361411E2,7.4473015E1,1.1644117E2,5.3088223E1,1.398356E2,2.4221823E0,6.9122853E0,9.467814E0,4.4168553E0,2.7025745E1,1.8511335E1,7.0269947E0,2.3162622E0,1.3353556E0,9.450561E0,2.1056606E2,3.0856327E1,1.338049E1,6.646488E1,1.6723053E0,7.827475E2,2.0065582E3,6.5013885E1,1.1896802E2,3.340604E1,1.2039089E1,3.536168E2,1.6967566E1,1.286698E2,5.6792656E1,1.1957794E1,4.4813066E0,4.9522543E0,1.228849E2,2.6967735E1,2.029978E1,7.3239975E1,6.629011E2,5.7210335E1,1.7262682E1,1.1226999E2,4.1711836E0,5.2972193E0,4.7791004E1,1.2478509E0,1.3858775E2,4.1094985E0,2.8027866E0,2.9079266E0,1.5089289E0,1.2067251E0,2.5819021E1,3.4109251E0,1.51004095E1,3.0322516E0,6.4183087E0,2.0786368E2,2.7023726E0],"tree_param":{"num_deleted":"0","num_feature":"39","num_nodes":"99","size_leaf_vector":"1"}},{"base_weights":[-3.5058288E-3,-7.414E-1,1.7976096E-2,-9.8418385E-1,4.729562E-1,4.46764E-2,-6.054906E-1,-1.1398177E0,-1.38503015E-2,-2.5088966E-1,1.137836E0,8.756567E-2,-3.037447E-1,-8.654658E-1,1.0008721E-1,-8.0700374E-1,-1.2969917E0,-9.12562E-1,9.861538E-1,1.4630247E0,-1.1299673E-1,-5.649034E-2,2.6083255E-1,-4.7412556E-1,4.8055604E-1,2.6062807E-1,-9.306401E-1,-5.5657095E-1,9.978448E-1,-9.9141306E-1,1.2562364E0,-8.4692216E-1,-2.89097E-1,-2.882028E-1,2.2483209E-1,1.4251288E0,-1.7667234E-1,3.232231E-1,7.704445E-2,1.6496733E-1,-2.7303857E-1,-9.322288E-2,6.115087E-1,1.484222E-1,6.057099E-1,-1.9418204E-1,-1.096827E0,1.2773503E0,-8.344652E-1,-1.9617619E-2,-1.0795482E0,-1.1393112E0,1.2379243E0,-5.658635E-1,1.2823309E0,5.3708255E-2,-2.564267E-1,3.2946754E-1,8.942108E-2,-2.449748E-1,1.3499615E-1,3.518455E-1,9.3049526E-2,-3.3216674E-2,5.4160383E-2,-1.8428923E-1,2.2346929E-1,3.7611205E-2,-2.3572864E-1,1.9132178E-1,-6.706792E-2,-1.8728982E-1,2.3517372E-2,-2.4759687E-1,2.2244918E-1,-2.4229726E-1,2.897232E-1,-2.349678E-1,1.9131798E-1,-9.6812196E-2,2.3500034E-1,-2.6650977E-1,-9.279534E-2,-2.7030915E-1,2.0679039E-1,6.27748E-2,2.7869073E-1,-1.7140433E-1,8.171682E-3,1.0430966E-1,3.0205217E-1],"categories":[],"categories_nodes":[],"categories_segments":[],"categories_sizes":[],"default_left":[0,0,0,0,0,0,0,0,0,0,0,0,0,0,0,0,0,0,0,0,0,0,0,0,0,0,0,0,0,0,0,0,0,0,0,0,0,0,0,0,0,0,0,0,0,0,0,0,0,0,0,0,0,0,0,0,0,0,0,0,0,0,0,0,0,0,0,0,0,0,0,0,0,0,0,0,0,0,0,0,0,0,0,0,0,0,0,0,0,0,0],"id":8,"left_children":[1,3,5,7,9,11,13,15,17,-1,19,21,23,25,27,29,31,33,35,37,39,41,43,45,47,-1,49,51,53,55,57,59,-1,-1,-1,61,-1,-1,-1,-1,-1,63,65,67,69,71,73,75,77,79,81,83,85,87,89,-1,-1,-1,-1,-1,-1,-1,-1,-1,-1,-1,-1,-1,-1,-1,-1,-1,-1,-1,-1,-1,-1,-1,-1,-1,-1,-1,-1,-1,-1,-1,-1,-1,-1,-1,-1],"loss_changes":[8.181562E1,4.3513245E1,8.351991E1,1.8409393E1,2.9082973E1,7.191279E1,3.7881493E1,4.452713E0,1.6965782E1,0E0,7.644924E0,1.0694508E2,7.071457E1,2.1840805E1,3.3788483E1,1.5083532E1,1.335228E0,1.0528896E1,8.372291E0,6.592312E-1,6.0590897E0,5.7474957E1,7.531416E1,7.5414986E1,1.0022448E2,0E0,1.98825E1,3.6128906E1,1.1478943E1,1.0035217E1,2.2121906E-1,6.9826202E0,0E0,0E0,0E0,1.1213169E0,0E0,0E0,0E0,0E0,0E0,5.0646687E1,8.323006E1,5.744822E1,1.3525497E2,6.429018E1,2.5059189E1,1.6343758E1,1.9046688E1,1.1387529E1,1.4679062E1,9.302803E0,3.2490063E-1,7.0015836E-1,1.8298035E0,0E0,0E0,0E0,0E0,0E0,0E0,0E0,0E0,0E0,0E0,0E0,0E0,0E0,0E0,0E0,0E0,0E0,0E0,0E0,0E0,0E0,0E0,0E0,0E0,0E0,0E0,0E0,0E0,0E0,0E0,0E0,0E0,0E0,0E0,0E0,0E0],"parents":[2147483647,0,0,1,1,2,2,3,3,4,4,5,5,6,6,7,7,8,8,10,10,11,11,12,12,13,13,14,14,15,15,16,16,17,17,18,18,19,19,20,20,21,21,22,22,23,23,24,24,26,26,27,27,28,28,29,29,30,30,31,31,35,35,41,41,42,42,43,43,44,44,45,45,46,46,47,47,48,48,49,49,50,50,51,51,52,52,53,53,54,54],"right_children":[2,4,6,8,10,12,14,16,18,-1,20,22,24,26,28,30,32,34,36,38,40,42,44,46,48,-1,50,52,54,56,58,60,-1,-1,-1,62,-1,-1,-1,-1,-1,64,66,68,70,72,74,76,78,80,82,84,86,88,90,-1,-1,-1,-1,-1,-1,-1,-1,-1,-1,-1,-1,-1,-1,-1,-1,-1,-1,-1,-1,-1,-1,-1,-1,-1,-1,-1,-1,-1,-1,-1,-1,-1,-1,-1,-1],"split_conditions":[-9.007E-1,1E0,2.1544E0,1.8E1,0E0,1.9092E0,5E0,-6.554E-1,1.8E1,-2.5088966E-1,5.474E-1,4.79E-2,5E0,2E0,7.238E-1,8E0,-1.7175E0,1.7203E0,3E0,-9.955E-1,7E0,2E0,9.839E-1,5E0,1.2334E0,2.6062807E-1,5E0,2E0,3E0,-1.4578E0,-1.421E0,-1.8043E0,-2.89097E-1,-2.882028E-1,2.2483209E-1,4E0,-1.7667234E-1,3.232231E-1,7.704445E-2,1.6496733E-1,-2.7303857E-1,1.2E1,9E0,3.268E0,8E0,4E0,3.5718E0,1E0,5E0,1.4765E0,4E0,2.5731E0,9E0,-3.982E-1,5E0,5.3708255E-2,-2.564267E-1,3.2946754E-1,8.942108E-2,-2.449748E-1,1.3499615E-1,3.518455E-1,9.3049526E-2,-3.3216674E-2,5.4160383E-2,-1.8428923E-1,2.2346929E-1,3.7611205E-2,-2.3572864E-1,1.9132178E-1,-6.706792E-2,-1.8728982E-1,2.3517372E-2,-2.4759687E-1,2.2244918E-1,-2.4229726E-1,2.897232E-1,-2.349678E-1,1.9131798E-1,-9.6812196E-2,2.3500034E-1,-2.6650977E-1,-9.279534E-2,-2.7030915E-1,2.0679039E-1,6.27748E-2,2.7869073E-1,-1.7140433E-1,8.171682E-3,1.0430966E-1,3.0205217E-1],"split_indices":[8,35,2,30,0,7,18,4,32,0,5,5,19,27,4,16,7,4,21,8,34,14,7,20,6,0,28,21,17,7,0,7,0,0,0,18,0,0,0,0,0,26,26,5,30,17,5,34,18,0,18,3,30,0,16,0,0,0,0,0,0,0,0,0,0,0,0,0,0,0,0,0,0,0,0,0,0,0,0,0,0,0,0,0,0,0,0,0,0,0,0],"split_type":[0,0,0,0,0,0,0,0,0,0,0,0,0,0,0,0,0,0,0,0,0,0,0,0,0,0,0,0,0,0,0,0,0,0,0,0,0,0,0,0,0,0,0,0,0,0,0,0,0,0,0,0,0,0,0,0,0,0,0,0,0,0,0,0,0,0,0,0,0,0,0,0,0,0,0,0,0,0,0,0,0,0,0,0,0,0,0,0,0,0,0],"sum_hessian":[5.159576E3,1.4501076E2,5.0145654E3,1.21007515E2,2.4003246E1,4.8095234E3,2.0504211E2,1.0413104E2,1.6876469E1,6.6148415E0,1.7388405E1,4.283046E3,5.264775E2,1.4966893E2,5.5373188E1,3.5369995E1,6.876105E1,8.934448E0,7.942019E0,1.3665927E1,3.7224786E0,2.3390269E3,1.944019E3,4.328426E2,9.363489E1,3.9501553E0,1.4571877E2,3.220045E1,2.3172737E1,3.2944916E1,2.4250803E0,1.2089434E1,5.6671616E1,7.5027995E0,1.431649E0,6.581275E0,1.3607442E0,1.2400496E1,1.2654316E0,2.311362E0,1.4111166E0,2.2179258E3,1.21100876E2,1.4672195E3,4.767995E2,2.995071E2,1.3333546E2,5.8324005E1,3.5310883E1,2.0630814E1,1.2508796E2,2.4582645E1,7.6178036E0,3.4146535E0,1.9758083E1,5.1056914E0,2.7839224E1,1.1157311E0,1.3093491E0,1.013249E1,1.9569436E0,4.6817646E0,1.8995101E0,1.8721635E3,3.4576245E2,2.8010939E1,9.308994E1,1.4334764E3,3.3743134E1,3.58487E2,1.1831248E2,9.076538E1,2.0874174E2,1.2887502E2,4.460439E0,1.9396999E0,5.6384304E1,3.0671894E1,4.6389894E0,1.5296434E1,5.3343787E0,9.566218E1,2.9425781E1,2.3350935E1,1.2317111E0,1.0381689E0,6.5796347E0,2.1677167E0,1.2469367E0,3.966777E0,1.5791307E1],"tree_param":{"num_deleted":"0","num_feature":"39","num_nodes":"91","size_leaf_vector":"1"}},{"base_weights":[-3.1490498E-3,-3.2794476E-2,5.114362E-1,7.549956E-3,-4.0202576E-1,1.5454997E-1,8.271215E-1,-1.7994344E-1,1.13191776E-1,-7.154596E-2,-8.449532E-1,-1.295448E-1,7.8387046E-1,1.0063514E0,2.811813E-1,-9.1805495E-3,-9.259244E-1,1.5935744E-1,-8.9982945E-1,-6.0424167E-1,1.9011076E-1,-3.6670813E-1,-1.1190642E0,4.612588E-1,-5.984174E-1,9.9196833E-1,3.107259E-1,1.0311226E0,-1.6922994E-1,-6.5417105E-1,7.3401296E-1,-1.8866713E-1,4.1065174E-1,-1.1242486E0,4.5998767E-1,-2.2263698E-1,2.397908E-1,-1.1543007E0,2.71682E-1,-8.6194503E-1,6.3834393E-1,4.4480473E-1,-6.626982E-1,-6.1660206E-1,6.3717157E-1,-1.1465892E0,2.0054175E-1,6.4539117E-1,-1.7657006E-1,-1.0070385E0,5.6877923E-1,2.2987235E-1,-4.984995E-2,-4.722881E-1,6.1944807E-1,1.0571742E0,-1.2104373E-1,-1.174753E0,3.8120914E-1,8.317697E-1,-5.8320817E-2,2.3041216E-3,-1.1775074E-1,1.2820901E-1,-1.2083735E-1,-1.7310107E-2,-2.653429E-1,1.7108572E-1,-6.270952E-2,-1.6156045E-1,1.05844155E-1,8.2624875E-2,4.139861E-3,-2.562373E-1,6.313194E-2,-8.722026E-2,2.8538236E-1,-2.896626E-1,-6.9446355E-2,1.9828625E-1,-1.1806465E-1,1.7758036E-1,-7.19361E-2,-2.1420096E-1,4.592712E-2,-2.3283648E-1,-6.2818184E-2,-2.3877844E-1,2.0675957E-1,-2.5048912E-1,3.5056043E-2,1.8651049E-1,-3.2143302E-2,-5.536755E-1,-1.5995266E-1,-1.329222E-1,2.1015918E-1,1.184689E-1,-1.11021176E-1,-3.6353323E-1,1.06960066E-1,1.7091376E-1,-2.0299971E-2,3.9468464E-2,2.2421943E-1,-1.15708396E-1,7.732315E-2,-2.8698888E-1,-4.7056093E-3,1.6764657E-1,-6.781541E-2,1.9080566E-1,-6.184199E-2],"categories":[],"categories_nodes":[],"categories_segments":[],"categories_sizes":[],"default_left":[0,0,0,0,0,0,0,0,0,0,0,0,0,0,0,0,0,0,0,0,0,0,0,0,0,0,0,0,0,0,0,0,0,0,0,0,0,0,0,0,0,0,0,0,0,0,0,0,0,0,0,0,0,0,0,0,0,0,0,0,0,0,0,0,0,0,0,0,0,0,0,0,0,0,0,0,0,0,0,0,0,0,0,0,0,0,0,0,0,0,0,0,0,0,0,0,0,0,0,0,0,0,0,0,0,0,0,0,0,0,0,0,0],"id":9,"left_children":[1,3,5,7,9,11,13,15,17,19,21,23,25,27,29,31,33,35,37,39,41,43,45,47,49,51,53,55,-1,57,59,61,63,65,67,69,71,73,75,77,79,81,83,85,87,89,-1,91,-1,93,95,-1,97,99,101,103,105,107,109,111,-1,-1,-1,-1,-1,-1,-1,-1,-1,-1,-1,-1,-1,-1,-1,-1,-1,-1,-1,-1,-1,-1,-1,-1,-1,-1,-1,-1,-1,-1,-1,-1,-1,-1,-1,-1,-1,-1,-1,-1,-1,-1,-1,-1,-1,-1,-1,-1,-1,-1,-1,-1,-1],"loss_changes":[7.747904E1,7.153771E1,3.104158E1,8.578713E1,6.918292E1,2.353784E1,1.4059074E1,1.9882693E2,1.2969688E2,3.802752E1,2.6075592E1,2.5531916E1,3.7200413E0,5.7670593E0,1.641194E1,9.5864204E1,8.0429596E1,8.148438E1,3.635353E1,2.9317348E1,4.0079536E1,1.9232288E1,8.398865E0,1.0349909E1,2.5024115E1,3.0449219E0,3.665616E0,3.3971558E0,0E0,7.346318E0,2.7842464E0,6.619689E1,7.5440796E1,3.684662E1,1.022785E1,1.8372658E2,7.404546E1,9.904404E0,1.7284174E1,2.0112354E1,6.4084444E0,4.4989807E1,1.3615353E1,9.142454E0,1.064831E1,7.8918304E0,0E0,7.19195E0,0E0,1.3318325E1,7.8664203E0,0E0,1.3167504E0,6.458633E0,1.5323119E0,7.7581024E-1,8.981979E-1,1.9064751E0,1.7372038E0,2.3261948E0,0E0,0E0,0E0,0E0,0E0,0E0,0E0,0E0,0E0,0E0,0E0,0E0,0E0,0E0,0E0,0E0,0E0,0E0,0E0,0E0,0E0,0E0,0E0,0E0,0E0,0E0,0E0,0E0,0E0,0E0,0E0,0E0,0E0,0E0,0E0,0E0,0E0,0E0,0E0,0E0,0E0,0E0,0E0,0E0,0E0,0E0,0E0,0E0,0E0,0E0,0E0,0E0,0E0],"parents":[2147483647,0,0,1,1,2,2,3,3,4,4,5,5,6,6,7,7,8,8,9,9,10,10,11,11,12,12,13,13,14,14,15,15,16,16,17,17,18,18,19,19,20,20,21,21,22,22,23,23,24,24,25,25,26,26,27,27,29,29,30,30,31,31,32,32,33,33,34,34,35,35,36,36,37,37,38,38,39,39,40,40,41,41,42,42,43,43,44,44,45,45,47,47,49,49,50,50,52,52,53,53,54,54,55,55,56,56,57,57,58,58,59,59],"right_children":[2,4,6,8,10,12,14,16,18,20,22,24,26,28,30,32,34,36,38,40,42,44,46,48,50,52,54,56,-1,58,60,62,64,66,68,70,72,74,76,78,80,82,84,86,88,90,-1,92,-1,94,96,-1,98,100,102,104,106,108,110,112,-1,-1,-1,-1,-1,-1,-1,-1,-1,-1,-1,-1,-1,-1,-1,-1,-1,-1,-1,-1,-1,-1,-1,-1,-1,-1,-1,-1,-1,-1,-1,-1,-1,-1,-1,-1,-1,-1,-1,-1,-1,-1,-1,-1,-1,-1,-1,-1,-1,-1,-1,-1,-1],"split_conditions":[2.0431E0,7.39E-1,2E0,3E0,1.803E-1,2.7E-3,0E0,1.8E1,1.7E1,2E0,2.911E-1,1E1,1.217E-1,5E0,2.68E-2,4E0,1.1E1,5E0,1E1,1.1E1,1.9037E0,1.4258E0,2E1,8.215E-1,3E0,1.9548E0,-3.68E-2,7.873E-1,-1.6922994E-1,3E0,2.0228E0,1E0,1.5E1,1E0,4.714E-1,4E0,1.2E1,1.7E1,2E0,-1.187E-1,1.4E1,7.76E-1,1.1E1,3.741E-1,3E0,1.8E1,2.0054175E-1,4E0,-1.7657006E-1,-2.041E-1,3.4907E0,2.2987235E-1,3.9E-3,-3.498E-1,7E0,-4.779E-1,4E0,1.1E-3,2.173E-1,7.873E-1,-5.8320817E-2,2.3041216E-3,-1.1775074E-1,1.2820901E-1,-1.2083735E-1,-1.7310107E-2,-2.653429E-1,1.7108572E-1,-6.270952E-2,-1.6156045E-1,1.05844155E-1,8.2624875E-2,4.139861E-3,-2.562373E-1,6.313194E-2,-8.722026E-2,2.8538236E-1,-2.896626E-1,-6.9446355E-2,1.9828625E-1,-1.1806465E-1,1.7758036E-1,-7.19361E-2,-2.1420096E-1,4.592712E-2,-2.3283648E-1,-6.2818184E-2,-2.3877844E-1,2.0675957E-1,-2.5048912E-1,3.5056043E-2,1.8651049E-1,-3.2143302E-2,-5.536755E-1,-1.5995266E-1,-1.329222E-1,2.1015918E-1,1.184689E-1,-1.11021176E-1,-3.6353323E-1,1.06960066E-1,1.7091376E-1,-2.0299971E-2,3.9468464E-2,2.2421943E-1,-1.15708396E-1,7.732315E-2,-2.8698888E-1,-4.7056093E-3,1.6764657E-1,-6.781541E-2,1.9080566E-1,-6.184199E-2],"split_indices":[1,0,21,18,6,8,2,27,35,20,7,35,8,18,6,19,33,30,31,26,0,4,36,0,13,4,7,8,0,13,3,21,31,19,4,19,30,29,21,5,33,3,28,6,16,34,0,19,0,8,0,0,0,2,17,4,20,5,5,8,0,0,0,0,0,0,0,0,0,0,0,0,0,0,0,0,0,0,0,0,0,0,0,0,0,0,0,0,0,0,0,0,0,0,0,0,0,0,0,0,0,0,0,0,0,0,0,0,0,0,0,0,0],"split_type":[0,0,0,0,0,0,0,0,0,0,0,0,0,0,0,0,0,0,0,0,0,0,0,0,0,0,0,0,0,0,0,0,0,0,0,0,0,0,0,0,0,0,0,0,0,0,0,0,0,0,0,0,0,0,0,0,0,0,0,0,0,0,0,0,0,0,0,0,0,0,0,0,0,0,0,0,0,0,0,0,0,0,0,0,0,0,0,0,0,0,0,0,0,0,0,0,0,0,0,0,0,0,0,0,0,0,0,0,0,0,0,0,0],"sum_hessian":[5.076795E3,4.801136E3,2.7565875E2,4.329093E3,4.720432E2,1.3008525E2,1.455735E2,1.5598909E3,2.769202E3,2.710026E2,2.0104062E2,9.017267E1,3.9912586E1,1.0895928E2,3.661422E1,1.270152E3,2.8973883E2,2.6493096E3,1.19892334E2,8.883596E1,1.8216663E2,7.409825E1,1.26942375E2,3.990569E1,5.026698E1,2.6958977E1,1.2953607E1,1.079152E2,1.0440832E0,1.1798678E1,2.4815538E1,8.9014716E2,3.8000485E2,2.5363275E2,3.6106083E1,4.605058E2,2.188804E3,9.8509224E1,2.1383114E1,7.38304E1,1.5005566E1,1.4064192E2,4.1524708E1,5.9638363E1,1.4459887E1,1.2572106E2,1.221312E0,3.540344E1,4.502251E0,3.733402E1,1.29329605E1,2.4494564E1,2.4644144E0,3.5132115E0,9.440395E0,1.05609695E2,2.305504E0,7.7615933E0,4.0370855E0,2.2791248E1,2.0242908E0,5.799315E2,3.1021567E2,3.1627875E2,6.3726112E1,3.0098806E1,2.2353395E2,2.4552126E1,1.1553957E1,2.627601E2,1.977457E2,1.2884218E3,9.003821E2,9.4396454E1,4.112771E0,1.3482184E1,7.9009295E0,3.6593906E1,3.723649E1,1.2128896E1,2.8766696E0,9.314903E1,4.7492886E1,2.943495E1,1.208976E1,2.2408272E1,3.723009E1,1.995509E0,1.2464377E1,1.2153671E2,4.184352E0,2.706311E1,8.340326E0,3.6104102E0,3.372361E1,3.2966347E0,9.636326E0,1.0017308E0,1.4626837E0,1.2047412E0,2.3084702E0,7.317233E0,2.123162E0,1.4905385E0,1.04119156E2,1.1599493E0,1.1455548E0,6.494367E0,1.2672263E0,2.4512825E0,1.5858028E0,2.151672E1,1.2745284E0],"tree_param":{"num_deleted":"0","num_feature":"39","num_nodes":"113","size_leaf_vector":"1"}},{"base_weights":[-4.0285727E-3,-2.8597437E-2,4.6627435E-1,8.7030396E-2,-1.4511934E-1,1.3668941E-1,7.756764E-1,-2.5212085E-1,1.9980918E-1,-8.0617166E-1,-4.1647453E-2,2.769925E-1,-9.3898195E-1,9.3885505E-1,1.753963E-1,3.7712654E-1,-3.810791E-1,2.4411671E-1,-8.294684E-1,-9.5310396E-1,9.2544883E-1,5.208856E-1,-1.3254434E-1,3.627331E-2,8.316211E-1,-3.8133395E-1,-2.3096737E-2,-2.1510255E-1,9.7423166E-1,-1.0268459E0,4.78743E-1,-5.021205E-1,7.791186E-1,3.214331E-1,-5.133712E-1,2.8883675E-1,-5.9273404E-1,-2.9906905E-1,-4.807707E-1,-1.0352831E0,1.3710569E0,-2.5809956E-1,4.9668077E-1,6.774845E-1,-7.9440767E-1,-2.6544553E-1,1.929148E-1,-3.681662E-1,5.1855814E-1,2.2341944E-1,2.8843853E-1,-8.087078E-1,1.5405001E-1,-1.7528757E-1,1.3119845E-1,9.9697995E-1,-1.23800606E-1,6.996681E-2,-3.2274094E-1,-2.4701217E-1,7.2042584E-1,1.1956175E-1,-2.1005504E-1,2.0871358E-1,-4.5836773E-2,-2.5997487E-1,1.05440415E-1,-5.639177E-2,-1.980104E-1,4.0709585E-2,1.9427934E-1,1.1622375E-1,-1.6756204E-1,-1.3872698E-1,1.3139726E-1,2.5633916E-1,-2.3251103E-1,3.7232205E-1,-4.1995216E-2,3.963749E-1,-2.3347633E-1,1.5528214E-1,-1.2652425E-1,-2.4080023E-1,3.3528975E-1,-1.5592968E-1,2.2501605E-2,1.3513336E-1,-8.305952E-2,1.2439486E-2,-2.4262832E-1,1.4424892E-1,-9.396525E-2,-7.258393E-2,1.65606E-1,-2.2048002E-1,-3.4752055E-3,2.1536167E-1,-5.4344162E-2,4.1050866E-2,-1.7865992E-1,1.7746313E-1,-7.496293E-2],"categories":[],"categories_nodes":[],"categories_segments":[],"categories_sizes":[],"default_left":[0,0,0,0,0,0,0,0,0,0,0,0,0,0,0,0,0,0,0,0,0,0,0,0,0,0,0,0,0,0,0,0,0,0,0,0,0,0,0,0,0,0,0,0,0,0,0,0,0,0,0,0,0,0,0,0,0,0,0,0,0,0,0,0,0,0,0,0,0,0,0,0,0,0,0,0,0,0,0,0,0,0,0,0,0,0,0,0,0,0,0,0,0,0,0,0,0,0,0,0,0,0,0],"id":10,"left_children":[1,3,5,7,9,11,13,15,17,19,21,23,25,27,29,31,33,35,37,39,41,43,45,47,49,-1,51,53,55,57,59,61,63,65,67,69,71,-1,73,75,77,79,-1,81,83,85,87,89,91,-1,93,95,-1,-1,-1,97,-1,-1,-1,99,101,-1,-1,-1,-1,-1,-1,-1,-1,-1,-1,-1,-1,-1,-1,-1,-1,-1,-1,-1,-1,-1,-1,-1,-1,-1,-1,-1,-1,-1,-1,-1,-1,-1,-1,-1,-1,-1,-1,-1,-1,-1,-1],"loss_changes":[5.7021927E1,6.3198463E1,2.4878029E1,9.0109E1,1.5976463E2,1.834731E1,1.2192787E1,4.7859047E1,8.08097E1,8.131612E1,1.0341226E2,1.4227384E1,1.1246963E1,4.24955E0,1.0773864E1,3.591792E1,4.5564606E1,6.3617706E1,1.4488674E1,5.717148E1,4.360785E1,5.8489006E1,7.534483E1,1.4920474E1,3.765356E0,0E0,5.282278E0,2.479547E0,4.009865E0,4.6728187E0,4.2465124E0,1.772636E1,1.5075493E1,2.2604317E1,4.302005E1,9.712526E1,2.07438E1,0E0,9.892059E0,4.718161E1,6.920494E0,2.9116861E1,0E0,2.042575E1,2.7430552E1,2.1986389E2,1.3422885E2,1.4084074E1,5.9759445E0,0E0,3.7737038E0,8.1293535E-1,0E0,0E0,0E0,3.678444E0,0E0,0E0,0E0,1.9133172E0,2.6725798E0,0E0,0E0,0E0,0E0,0E0,0E0,0E0,0E0,0E0,0E0,0E0,0E0,0E0,0E0,0E0,0E0,0E0,0E0,0E0,0E0,0E0,0E0,0E0,0E0,0E0,0E0,0E0,0E0,0E0,0E0,0E0,0E0,0E0,0E0,0E0,0E0,0E0,0E0,0E0,0E0,0E0,0E0],"parents":[2147483647,0,0,1,1,2,2,3,3,4,4,5,5,6,6,7,7,8,8,9,9,10,10,11,11,12,12,13,13,14,14,15,15,16,16,17,17,18,18,19,19,20,20,21,21,22,22,23,23,24,24,26,26,27,27,28,28,29,29,30,30,31,31,32,32,33,33,34,34,35,35,36,36,38,38,39,39,40,40,41,41,43,43,44,44,45,45,46,46,47,47,48,48,50,50,51,51,55,55,59,59,60,60],"right_children":[2,4,6,8,10,12,14,16,18,20,22,24,26,28,30,32,34,36,38,40,42,44,46,48,50,-1,52,54,56,58,60,62,64,66,68,70,72,-1,74,76,78,80,-1,82,84,86,88,90,92,-1,94,96,-1,-1,-1,98,-1,-1,-1,100,102,-1,-1,-1,-1,-1,-1,-1,-1,-1,-1,-1,-1,-1,-1,-1,-1,-1,-1,-1,-1,-1,-1,-1,-1,-1,-1,-1,-1,-1,-1,-1,-1,-1,-1,-1,-1,-1,-1,-1,-1,-1,-1],"split_conditions":[2.0431E0,5E0,2E0,-9.83E-2,2E0,5E0,1.774E-1,3E0,1.8461E0,3E0,-1.4234E0,2.7E-3,2E0,4E0,-2.27E-1,6E0,2E0,1.003E0,3.734E-1,1.846E-1,2E0,2E0,8E0,7.77E-2,1.753E-1,-3.8133395E-1,1E0,1.2E-3,9E0,8.031E-1,3E0,-5.083E-1,1.3E1,1E1,1E0,3.25E-2,-7.458E-1,-2.9906905E-1,2E0,-2.053E-1,1.2E1,3.9E-3,4.9668077E-1,2.0549E0,3E0,5E0,5E0,3E0,2.935E0,2.2341944E-1,1.863E-1,1.158E-1,1.5405001E-1,-1.7528757E-1,1.3119845E-1,5E0,-1.23800606E-1,6.996681E-2,-3.2274094E-1,-7.45E-2,1.0194E0,1.1956175E-1,-2.1005504E-1,2.0871358E-1,-4.5836773E-2,-2.5997487E-1,1.05440415E-1,-5.639177E-2,-1.980104E-1,4.0709585E-2,1.9427934E-1,1.1622375E-1,-1.6756204E-1,-1.3872698E-1,1.3139726E-1,2.5633916E-1,-2.3251103E-1,3.7232205E-1,-4.1995216E-2,3.963749E-1,-2.3347633E-1,1.5528214E-1,-1.2652425E-1,-2.4080023E-1,3.3528975E-1,-1.5592968E-1,2.2501605E-2,1.3513336E-1,-8.305952E-2,1.2439486E-2,-2.4262832E-1,1.4424892E-1,-9.396525E-2,-7.258393E-2,1.65606E-1,-2.2048002E-1,-3.4752055E-3,2.1536167E-1,-5.4344162E-2,4.1050866E-2,-1.7865992E-1,1.7746313E-1,-7.496293E-2],"split_indices":[1,16,21,3,30,20,2,17,2,15,7,8,15,17,6,28,29,0,3,2,20,21,29,7,8,0,21,4,17,4,19,5,34,27,14,1,7,0,21,3,27,0,0,5,35,17,17,18,6,0,4,6,0,0,0,26,0,0,0,7,7,0,0,0,0,0,0,0,0,0,0,0,0,0,0,0,0,0,0,0,0,0,0,0,0,0,0,0,0,0,0,0,0,0,0,0,0,0,0,0,0,0,0],"split_type":[0,0,0,0,0,0,0,0,0,0,0,0,0,0,0,0,0,0,0,0,0,0,0,0,0,0,0,0,0,0,0,0,0,0,0,0,0,0,0,0,0,0,0,0,0,0,0,0,0,0,0,0,0,0,0,0,0,0,0,0,0,0,0,0,0,0,0,0,0,0,0,0,0,0,0,0,0,0,0,0,0,0,0,0,0,0,0,0,0,0,0,0,0,0,0,0,0,0,0,0,0,0,0],"sum_hessian":[4.9327544E3,4.688751E3,2.4400356E2,2.3535312E3,2.3352197E3,1.1884638E2,1.25157166E2,5.8701355E2,1.7665177E3,3.151331E2,2.0200867E3,1.0579032E2,1.3056061E1,9.79631E1,2.7194067E1,9.9514E1,4.8749957E2,1.6943438E3,7.217395E1,2.9089917E2,2.423393E1,2.803508E2,1.7397358E3,7.451488E1,3.127545E1,6.168E0,6.8880606E0,2.7627873E0,9.520031E1,4.99853E0,2.2195538E1,3.1144625E1,6.836938E1,7.702788E1,4.104717E2,1.6090154E3,8.532845E1,2.5537716E1,4.663624E1,2.8150024E2,9.398908E0,1.3750571E1,1.0483359E1,2.5095679E2,2.939402E1,1.2354319E3,5.04304E2,4.0656956E1,3.3857918E1,2.1235758E1,1.0039691E1,3.3456569E0,3.542404E0,1.593401E0,1.1693863E0,9.419252E1,1.0077899E0,1.4578159E0,3.540714E0,5.539323E0,1.6656214E1,9.838937E0,2.1305687E1,5.625928E1,1.2110098E1,7.389841E0,6.963803E1,2.6248062E2,1.4799107E2,1.4011665E3,2.0784879E2,1.2697915E1,7.263054E1,4.0462814E1,6.173424E0,8.202637E0,2.732976E2,7.381918E0,2.01699E0,3.56916E0,1.0181412E1,2.3977345E2,1.1183325E1,2.607319E1,3.3208299E0,5.413225E2,6.941093E2,2.8555518E2,2.1874883E2,2.6949753E1,1.3707203E1,2.9079355E1,4.7785645E0,4.563409E0,5.476282E0,2.3153164E0,1.0303404E0,9.227777E1,1.914749E0,3.5867727E0,1.9525503E0,1.5122436E1,1.5337782E0],"tree_param":{"num_deleted":"0","num_feature":"39","num_nodes":"103","size_leaf_vector":"1"}},{"base_weights":[-3.9267982E-3,-1.6095925E-2,8.5531574E-1,3.3759316E-3,-5.467963E-1,-2.0423055E-1,1.1872901E0,1.1511461E-1,-9.786654E-2,-7.224146E-1,7.084546E-1,-1.0742612E0,2.4311432E-1,8.3213025E-1,3.1768355E-1,-5.193088E-1,1.573871E-1,1.8994525E-2,-6.353001E-1,-8.0719477E-1,1.051456E0,-2.3221555E-1,1.1528339E0,2.1760471E-2,-2.5697258E-1,3.6902323E-1,1.2235917E0,-3.277998E-1,-1.4214797E0,-2.1186604E-1,2.0802191E-1,-8.041606E-2,4.2667884E-1,-7.89054E-1,2.0920101E-1,-8.5426694E-1,2.883148E-1,6.914357E-2,2.579587E-1,-2.0627525E-1,1.4149582E0,5.544108E-1,-1.6626227E-1,1.3690501E0,3.1287313E-2,-1.12982735E-1,1.3090445E-1,-3.3428854E-1,-7.6182775E-2,-2.2989506E-1,-9.936645E-5,1.7364675E-2,8.216269E-2,-1.4965516E-1,-4.438809E-3,1.276139E-1,-1.0972092E-1,-1.9800042E-1,6.2268864E-2,1.1174223E-1,-3.3397123E-1,-1.1581593E-1,-2.5681236E-1,3.196941E-1,5.190156E-2,1.0540408E-2,1.94857E-1,5.61562E-2,3.0428284E-1],"categories":[],"categories_nodes":[],"categories_segments":[],"categories_sizes":[],"default_left":[0,0,0,0,0,0,0,0,0,0,0,0,0,0,0,0,0,0,0,0,0,0,0,0,0,0,0,0,0,0,0,0,0,0,0,0,0,0,0,0,0,0,0,0,0,0,0,0,0,0,0,0,0,0,0,0,0,0,0,0,0,0,0,0,0,0,0,0,0],"id":11,"left_children":[1,3,5,7,9,11,13,15,17,19,21,23,-1,25,-1,27,29,31,33,35,37,-1,39,-1,-1,41,43,45,47,49,51,53,55,57,59,61,-1,-1,-1,-1,63,65,-1,67,-1,-1,-1,-1,-1,-1,-1,-1,-1,-1,-1,-1,-1,-1,-1,-1,-1,-1,-1,-1,-1,-1,-1,-1,-1],"loss_changes":[5.0370808E1,4.9084034E1,2.3905201E1,5.185286E1,3.757066E1,2.1271603E1,4.6796265E0,5.8515293E1,1.5104327E2,2.3102005E1,1.8316368E1,2.0332775E0,0E0,4.4048405E0,0E0,2.3090446E1,3.8251476E1,8.012713E1,5.5938095E1,1.5723549E1,5.134368E-1,0E0,1.11663475E1,0E0,0E0,3.387652E0,1.9976864E0,2.308273E1,3.6747055E0,4.60835E1,4.1248283E1,5.956143E1,6.6904785E1,6.098633E1,3.9748653E1,1.4885231E1,0E0,0E0,0E0,0E0,1.6264324E0,2.2892787E0,0E0,6.9397354E-1,0E0,0E0,0E0,0E0,0E0,0E0,0E0,0E0,0E0,0E0,0E0,0E0,0E0,0E0,0E0,0E0,0E0,0E0,0E0,0E0,0E0,0E0,0E0,0E0,0E0],"parents":[2147483647,0,0,1,1,2,2,3,3,4,4,5,5,6,6,7,7,8,8,9,9,10,10,11,11,13,13,15,15,16,16,17,17,18,18,19,19,20,20,22,22,25,25,26,26,27,27,28,28,29,29,30,30,31,31,32,32,33,33,34,34,35,35,40,40,41,41,43,43],"right_children":[2,4,6,8,10,12,14,16,18,20,22,24,-1,26,-1,28,30,32,34,36,38,-1,40,-1,-1,42,44,46,48,50,52,54,56,58,60,62,-1,-1,-1,-1,64,66,-1,68,-1,-1,-1,-1,-1,-1,-1,-1,-1,-1,-1,-1,-1,-1,-1,-1,-1,-1,-1,-1,-1,-1,-1,-1,-1],"split_conditions":[1.115E-1,1.3733E0,1E0,2.817E-1,1.7203E0,1.1E1,1.1E1,-8.69E-1,7E0,8E0,-3.11E-1,5E0,2.4311432E-1,9.121E-1,3.1768355E-1,1.2197E0,-7.71E-1,3.25E-2,1.3E1,9E0,1.9E1,-2.3221555E-1,-4.109E-1,2.1760471E-2,-2.5697258E-1,6.901E-1,7E0,7E0,2.4058E0,2E0,2.854E-1,-3.81E-1,1.1E1,1E1,5.649E-1,3E0,2.883148E-1,6.914357E-2,2.579587E-1,-2.0627525E-1,3E0,1.566E-1,-1.6626227E-1,1E0,3.1287313E-2,-1.12982735E-1,1.3090445E-1,-3.3428854E-1,-7.6182775E-2,-2.2989506E-1,-9.936645E-5,1.7364675E-2,8.216269E-2,-1.4965516E-1,-4.438809E-3,1.276139E-1,-1.0972092E-1,-1.9800042E-1,6.2268864E-2,1.1174223E-1,-3.3397123E-1,-1.1581593E-1,-2.5681236E-1,3.196941E-1,5.190156E-2,1.0540408E-2,1.94857E-1,5.61562E-2,3.0428284E-1],"split_indices":[9,8,18,3,4,27,27,2,16,20,3,20,0,4,0,4,6,1,28,16,30,0,5,0,0,4,17,16,4,19,4,8,27,26,7,21,0,0,0,0,21,8,0,15,0,0,0,0,0,0,0,0,0,0,0,0,0,0,0,0,0,0,0,0,0,0,0,0,0],"split_type":[0,0,0,0,0,0,0,0,0,0,0,0,0,0,0,0,0,0,0,0,0,0,0,0,0,0,0,0,0,0,0,0,0,0,0,0,0,0,0,0,0,0,0,0,0,0,0,0,0,0,0,0,0,0,0,0,0,0,0,0,0,0,0,0,0,0,0,0,0],"sum_hessian":[4.8149834E3,4.7487104E3,6.627293E1,4.5816016E3,1.6710928E2,1.5902499E1,5.0370426E1,2.1778396E3,2.4037617E3,1.4697144E2,2.0137836E1,9.832464E0,6.0700345E0,2.5788088E1,2.4582338E1,1.3534244E2,2.0424972E3,1.9752273E3,4.2853436E2,1.4078761E2,6.1838346E0,3.669241E0,1.6468596E1,1.1413714E0,8.691093E0,1.2702934E1,1.3085154E1,1.127679E2,2.2574543E1,2.4592332E2,1.7965739E3,1.5886503E3,3.8657703E2,3.625859E2,6.594846E1,1.3840733E2,2.380269E0,1.779753E0,4.4040813E0,1.5003538E0,1.4968243E1,1.1403936E1,1.2989984E0,1.1283777E1,1.8013756E0,9.271209E1,2.0055809E1,1.9011553E1,3.5629919E0,4.670083E1,1.9922249E2,1.067696E3,7.2887787E2,1.3524101E2,1.4534093E3,3.249653E2,6.1611725E1,3.177046E2,4.488131E1,5.6512344E1,9.436118E0,7.736519E1,6.104215E1,1.342962E1,1.5386229E0,5.3353324E0,6.0686035E0,1.0571481E0,1.0226629E1],"tree_param":{"num_deleted":"0","num_feature":"39","num_nodes":"69","size_leaf_vector":"1"}},{"base_weights":[-3.8325405E-3,-2.4446511E-1,3.2690845E-2,1.11596994E-1,-7.6842993E-1,-4.855363E-1,5.3688817E-2,-5.10503E-1,2.6156542E-1,-8.965674E-1,7.49935E-2,-6.2322843E-1,5.2405137E-1,9.21678E-2,-2.563425E-1,3.6831997E-2,-1.3746212E0,4.0865526E-1,-7.704677E-1,-2.3932856E-1,-1.0895E0,-8.2688046E-1,7.7904314E-1,-5.21931E-2,-9.0437144E-1,9.4359E-1,-3.0024663E-1,1.5653357E-2,2.8424636E-1,-4.6790323E-1,3.0718765E-1,6.3277256E-1,-5.215139E-1,1.8068708E-1,-1.5029644E0,6.53966E-1,-1.5225908E-2,-5.4627955E-1,-2.2339483E-1,-1.0597256E0,5.7441515E-1,-1.1263491E0,6.474979E-1,2.3522443E-1,-2.2595917E-1,-2.1272552E-1,1.0382736E0,1.330532E0,-5.717519E-1,-1.0236163E0,7.8912973E-1,1.2599323E0,-4.0162048E-1,-1.2561705E-2,6.128532E-1,6.861004E-3,5.342596E-1,5.473816E-1,-5.7950425E-1,6.136019E-1,-9.945599E-1,2.8293386E-1,-1.21541604E-1,9.119333E-3,-3.1553325E-1,-3.265747E-1,-4.616299E-2,8.9117475E-2,2.2964196E-1,8.049132E-2,-2.0667967E-1,-1.2738575E-1,1.6640428E-1,-2.593832E-1,2.595855E-1,2.0018834E-1,-2.1080501E-1,-2.4929856E-1,-5.752594E-2,2.2808357E-1,1.794477E-2,2.599928E-1,-2.0489635E-1,1.9457031E-2,3.2167158E-1,-1.7415692E-1,1.5872861E-1,-2.4490473E-1,3.671858E-2,2.6106197E-1,-1.886681E-1,4.8066333E-2,2.9365343E-1,-2.4501292E-1,1.3771954E-1,-2.731384E-2,4.0662464E-2,2.6421228E-1,1.5771694E-2,5.8142394E-2,-8.18346E-2,2.1673737E-1,-1.4344203E-2,1.8553336E-1,-2.0328633E-1,-1.2757319E-2,-1.6511038E-1,-2.682085E-1,1.6785724E-1,1.6787958E-1,-2.3553672E-1],"categories":[],"categories_nodes":[],"categories_segments":[],"categories_sizes":[],"default_left":[0,0,0,0,0,0,0,0,0,0,0,0,0,0,0,0,0,0,0,0,0,0,0,0,0,0,0,0,0,0,0,0,0,0,0,0,0,0,0,0,0,0,0,0,0,0,0,0,0,0,0,0,0,0,0,0,0,0,0,0,0,0,0,0,0,0,0,0,0,0,0,0,0,0,0,0,0,0,0,0,0,0,0,0,0,0,0,0,0,0,0,0,0,0,0,0,0,0,0,0,0,0,0,0,0,0,0,0,0,0,0],"id":12,"left_children":[1,3,5,7,9,11,13,15,17,19,21,23,25,27,29,31,33,35,37,39,41,43,45,47,49,51,-1,53,55,57,59,61,63,-1,65,67,69,-1,71,73,75,77,79,-1,-1,-1,81,83,85,87,89,91,93,95,97,99,101,103,105,107,109,-1,-1,-1,-1,-1,-1,-1,-1,-1,-1,-1,-1,-1,-1,-1,-1,-1,-1,-1,-1,-1,-1,-1,-1,-1,-1,-1,-1,-1,-1,-1,-1,-1,-1,-1,-1,-1,-1,-1,-1,-1,-1,-1,-1,-1,-1,-1,-1,-1,-1],"loss_changes":[4.167343E1,1.16661224E2,4.482537E1,3.4924263E1,2.7404099E1,2.2626545E1,4.7235565E1,3.446981E1,4.602777E1,2.7593002E1,2.2412872E1,2.2689037E1,1.7575632E1,5.1747368E1,5.2268677E1,1.5478798E1,9.395687E0,2.7484669E1,3.739195E1,3.4742905E1,1.1580505E1,8.730535E0,1.0234974E1,3.508884E1,1.9959381E1,7.6973057E0,0E0,4.2457012E1,6.955854E1,3.6379654E1,4.845156E1,2.0235226E1,1.3396036E1,0E0,1.4701042E0,1.6429314E1,3.8156475E1,0E0,1.2268815E1,1.19232235E1,1.6693323E1,8.295685E0,9.319203E-1,0E0,0E0,0E0,8.355509E0,3.1840172E0,1.2742766E1,1.5419662E1,6.329399E0,1.6669884E0,3.981648E0,5.83327E1,3.93514E1,5.112884E1,1.5831912E2,1.717181E1,3.0757141E1,3.5330738E1,6.1921654E0,0E0,0E0,0E0,0E0,0E0,0E0,0E0,0E0,0E0,0E0,0E0,0E0,0E0,0E0,0E0,0E0,0E0,0E0,0E0,0E0,0E0,0E0,0E0,0E0,0E0,0E0,0E0,0E0,0E0,0E0,0E0,0E0,0E0,0E0,0E0,0E0,0E0,0E0,0E0,0E0,0E0,0E0,0E0,0E0,0E0,0E0,0E0,0E0,0E0,0E0],"parents":[2147483647,0,0,1,1,2,2,3,3,4,4,5,5,6,6,7,7,8,8,9,9,10,10,11,11,12,12,13,13,14,14,15,15,16,16,17,17,18,18,19,19,20,20,21,21,22,22,23,23,24,24,25,25,27,27,28,28,29,29,30,30,31,31,32,32,34,34,35,35,36,36,38,38,39,39,40,40,41,41,42,42,46,46,47,47,48,48,49,49,50,50,51,51,52,52,53,53,54,54,55,55,56,56,57,57,58,58,59,59,60,60],"right_children":[2,4,6,8,10,12,14,16,18,20,22,24,26,28,30,32,34,36,38,40,42,44,46,48,50,52,-1,54,56,58,60,62,64,-1,66,68,70,-1,72,74,76,78,80,-1,-1,-1,82,84,86,88,90,92,94,96,98,100,102,104,106,108,110,-1,-1,-1,-1,-1,-1,-1,-1,-1,-1,-1,-1,-1,-1,-1,-1,-1,-1,-1,-1,-1,-1,-1,-1,-1,-1,-1,-1,-1,-1,-1,-1,-1,-1,-1,-1,-1,-1,-1,-1,-1,-1,-1,-1,-1,-1,-1,-1,-1,-1],"split_conditions":[-2.648E-1,1.5E1,-8.69E-1,1E1,8E0,1.9E1,1.9092E0,5E0,-3.767E-1,1E0,4E0,6E0,7E0,6.717E-1,6.862E-1,5E0,-2.6486E0,2E0,1E0,7E0,2E1,-1.3633E0,-6.35E-2,2E0,2E1,1.3E-3,-3.0024663E-1,3E0,5E0,4E0,7.39E-1,1.4E1,1.1E1,1.8068708E-1,3E0,1.6E1,1.6E1,-5.4627955E-1,1E0,1.75E-1,4.151E-1,1.3E1,-2.3751E0,2.3522443E-1,-2.2595917E-1,-2.1272552E-1,3E0,5E0,8.868E-1,8E0,-9.683E-1,3E0,-6.37E-1,1.3E1,-3.782E-1,5E0,1E1,1E0,4E0,3E0,-4.443E-1,2.8293386E-1,-1.21541604E-1,9.119333E-3,-3.1553325E-1,-3.265747E-1,-4.616299E-2,8.9117475E-2,2.2964196E-1,8.049132E-2,-2.0667967E-1,-1.2738575E-1,1.6640428E-1,-2.593832E-1,2.595855E-1,2.0018834E-1,-2.1080501E-1,-2.4929856E-1,-5.752594E-2,2.2808357E-1,1.794477E-2,2.599928E-1,-2.0489635E-1,1.9457031E-2,3.2167158E-1,-1.7415692E-1,1.5872861E-1,-2.4490473E-1,3.671858E-2,2.6106197E-1,-1.886681E-1,4.8066333E-2,2.9365343E-1,-2.4501292E-1,1.3771954E-1,-2.731384E-2,4.0662464E-2,2.6421228E-1,1.5771694E-2,5.8142394E-2,-8.18346E-2,2.1673737E-1,-1.4344203E-2,1.8553336E-1,-2.0328633E-1,-1.2757319E-2,-1.6511038E-1,-2.682085E-1,1.6785724E-1,1.6787958E-1,-2.3553672E-1],"split_indices":[0,27,2,27,16,28,7,16,0,15,33,34,29,5,2,17,7,15,16,33,33,1,8,19,33,6,0,15,17,28,0,34,26,0,15,32,30,0,21,4,3,29,0,0,0,0,13,17,4,16,2,18,5,27,7,18,27,13,20,17,1,0,0,0,0,0,0,0,0,0,0,0,0,0,0,0,0,0,0,0,0,0,0,0,0,0,0,0,0,0,0,0,0,0,0,0,0,0,0,0,0,0,0,0,0,0,0,0,0,0,0],"split_type":[0,0,0,0,0,0,0,0,0,0,0,0,0,0,0,0,0,0,0,0,0,0,0,0,0,0,0,0,0,0,0,0,0,0,0,0,0,0,0,0,0,0,0,0,0,0,0,0,0,0,0,0,0,0,0,0,0,0,0,0,0,0,0,0,0,0,0,0,0,0,0,0,0,0,0,0,0,0,0,0,0,0,0,0,0,0,0,0,0,0,0,0,0,0,0,0,0,0,0,0,0,0,0,0,0,0,0,0,0,0,0],"sum_hessian":[4.7397876E3,6.2385504E2,4.1159326E3,3.719096E2,2.5194545E2,1.5941708E2,3.9565154E3,7.177364E1,3.0013596E2,2.186621E2,3.328335E1,1.4062122E2,1.8795862E1,3.520302E3,4.3621332E2,4.4527298E1,2.7246347E1,2.6322412E2,3.6911816E1,5.013023E1,1.6853186E2,1.45152E1,1.8768152E1,4.678365E1,9.383757E1,1.5898935E1,2.896928E0,2.5182424E3,1.00205975E3,3.1727246E2,1.1894087E2,2.147405E1,2.3053247E1,1.1698561E0,2.607649E1,1.6638824E2,9.683589E1,7.6281247E0,2.9283691E1,2.4812534E1,2.5317694E1,1.653751E2,3.1567535E0,1.2499187E0,1.3265281E1,2.0043988E0,1.6763754E1,1.2351408E1,3.4432243E1,8.8034355E1,5.803218E0,1.2923268E1,2.975667E0,2.4055688E3,1.1267355E2,4.7551337E2,5.265464E2,3.1034338E1,2.8623813E2,9.670615E1,2.2234724E1,1.3437159E1,8.036893E0,1.5235421E1,7.8178263E0,2.4854324E1,1.222167E0,1.10589806E2,5.579844E1,6.904379E1,2.7792099E1,2.1555008E1,7.7286844E0,2.3480335E1,1.3321999E0,2.0735962E1,4.5817323E0,1.5400044E2,1.137466E1,1.2493513E0,1.9074023E0,1.5601351E1,1.1624031E0,1.9313635E0,1.0420045E1,2.9151848E1,5.2803946E0,7.869762E1,9.3367405E0,4.7804203E0,1.0227978E0,1.8436749E0,1.1079593E1,1.6664984E0,1.3091687E0,1.5325654E3,8.730034E2,5.0606285E1,6.2067272E1,2.8307297E2,1.9244038E2,2.879429E2,2.3860345E2,2.5741907E1,5.2924294E0,8.193503E1,2.0430309E2,8.123579E0,8.8582565E1,1.1204385E0,2.1114286E1],"tree_param":{"num_deleted":"0","num_feature":"39","num_nodes":"111","size_leaf_vector":"1"}},{"base_weights":[-3.4056809E-3,-1.995042E-2,5.047006E-1,-8.408597E-3,-1.3309866E0,6.697839E-1,-9.8627245E-1,-5.965617E-1,6.004438E-3,-1.5522597E0,2.62014E-1,-2.169123E-1,7.6927865E-1,1.837346E-1,-3.0080432E-1,-8.09298E-1,7.7074796E-1,2.1186369E-2,-5.6638354E-1,1.3124722E-1,-3.4881246E-1,-2.0363842E-1,2.1349819E-1,1.4580113E-1,1.0872757E0,-1.3296798E-1,-1.0379984E0,-1.8272224E-1,1.1915863E0,-9.856621E-5,4.2102E-1,-7.863175E-1,7.532977E-1,6.2809664E-1,-2.704826E-1,-3.0381095E-1,1.1486499E0,-2.2264534E-1,9.849862E-2,1.1589442E-1,-2.2797382E-1,2.7626422E-1,2.3603085E-2,8.989305E-2,-4.476315E-3,2.1829198E-1,-5.098587E-3,-2.055683E-1,1.4003778E-1,2.6547936E-1,-2.1218148E-1,-1.580102E-1,1.6729271E-1,1.4942199E-1,-1.7622943E-1,2.599843E-1,-2.3430907E-3],"categories":[],"categories_nodes":[],"categories_segments":[],"categories_sizes":[],"default_left":[0,0,0,0,0,0,0,0,0,0,0,0,0,0,0,0,0,0,0,0,0,0,0,0,0,0,0,0,0,0,0,0,0,0,0,0,0,0,0,0,0,0,0,0,0,0,0,0,0,0,0,0,0,0,0,0,0],"id":13,"left_children":[1,3,5,7,9,11,13,15,17,19,21,-1,23,-1,-1,25,27,29,31,-1,-1,-1,-1,33,35,37,39,-1,41,43,45,47,49,51,-1,53,55,-1,-1,-1,-1,-1,-1,-1,-1,-1,-1,-1,-1,-1,-1,-1,-1,-1,-1,-1,-1],"loss_changes":[3.9025204E1,6.801634E1,3.6693054E1,3.778975E1,1.4233551E1,2.3223701E1,1.3706277E1,3.1639847E1,3.782917E1,9.227547E0,6.2280445E0,0E0,2.4755234E1,0E0,0E0,1.4209965E1,1.1304188E1,3.608721E1,3.3239056E1,0E0,0E0,0E0,0E0,3.0958124E1,7.440468E0,1.42223425E1,5.833061E0,0E0,1.4916382E0,3.6592117E1,5.9050373E1,2.777076E1,1.621545E1,8.346426E0,0E0,2.9348876E0,8.281235E0,0E0,0E0,0E0,0E0,0E0,0E0,0E0,0E0,0E0,0E0,0E0,0E0,0E0,0E0,0E0,0E0,0E0,0E0,0E0,0E0],"parents":[2147483647,0,0,1,1,2,2,3,3,4,4,5,5,6,6,7,7,8,8,9,9,10,10,12,12,15,15,16,16,17,17,18,18,23,23,24,24,25,25,26,26,28,28,29,29,30,30,31,31,32,32,33,33,35,35,36,36],"right_children":[2,4,6,8,10,12,14,16,18,20,22,-1,24,-1,-1,26,28,30,32,-1,-1,-1,-1,34,36,38,40,-1,42,44,46,48,50,52,-1,54,56,-1,-1,-1,-1,-1,-1,-1,-1,-1,-1,-1,-1,-1,-1,-1,-1,-1,-1,-1,-1],"split_conditions":[1E0,5E0,2.3977E0,-9.007E-1,3.9E-3,-9.115E-1,-3.112E-1,1E0,2.7873E0,-2.0926E0,5E0,-2.169123E-1,1.1E1,1.837346E-1,-3.0080432E-1,2E0,0E0,2E0,1.5E1,1.3124722E-1,-3.4881246E-1,-2.0363842E-1,2.1349819E-1,7E0,-9.683E-1,3E0,2E0,-1.8272224E-1,8.834E-1,-2.3477E0,2E0,2.673E0,3.195E0,-1.011E-1,-2.704826E-1,-1.0874E0,2E0,-2.2264534E-1,9.849862E-2,1.1589442E-1,-2.2797382E-1,2.7626422E-1,2.3603085E-2,8.989305E-2,-4.476315E-3,2.1829198E-1,-5.098587E-3,-2.055683E-1,1.4003778E-1,2.6547936E-1,-2.1218148E-1,-1.580102E-1,1.6729271E-1,1.4942199E-1,-1.7622943E-1,2.599843E-1,-2.3430907E-3],"split_indices":[22,36,6,8,0,9,1,35,4,8,17,0,27,0,0,21,0,14,30,0,0,0,0,20,2,19,16,0,3,7,30,5,3,9,0,3,14,0,0,0,0,0,0,0,0,0,0,0,0,0,0,0,0,0,0,0,0],"split_type":[0,0,0,0,0,0,0,0,0,0,0,0,0,0,0,0,0,0,0,0,0,0,0,0,0,0,0,0,0,0,0,0,0,0,0,0,0,0,0,0,0,0,0,0,0,0,0,0,0,0,0,0,0,0,0,0,0],"sum_hessian":[4.6400757E3,4.494682E3,1.453932E2,4.456456E3,3.8226395E1,1.313956E2,1.3997595E1,1.05629745E2,4.350826E3,3.358667E1,4.639724E0,6.7360954E0,1.2465951E2,2.520637E0,1.1476957E1,9.176099E1,1.3868754E1,4.239345E3,1.1148076E2,1.3719988E0,3.2214672E1,1.6544179E0,2.985306E0,4.2598232E1,8.206127E1,2.358755E1,6.817344E1,2.613016E0,1.1255738E1,4.026022E3,2.1332343E2,9.590216E1,1.5578598E1,3.2296513E1,1.030172E1,3.3006122E0,7.8760666E1,8.985874E0,1.4601675E1,1.6734183E0,6.650002E1,9.899639E0,1.3560992E0,1.8918184E2,3.83684E3,8.8740036E1,1.2458339E2,8.49682E1,1.0933959E1,1.2299108E1,3.2794907E0,3.136874E0,2.915964E1,1.0259194E0,2.2746928E0,7.306323E1,5.697428E0],"tree_param":{"num_deleted":"0","num_feature":"39","num_nodes":"57","size_leaf_vector":"1"}},{"base_weights":[-2.9637318E-3,1.3279259E-2,-4.415977E-1,-4.0511573E-3,4.1412145E-1,-6.9622093E-1,1.6377755E-1,1.4168768E-2,-5.035407E-1,3.5969388E-2,7.5532866E-1,-2.4241625E-1,-4.2603585E-1,7.9751134E-1,-5.34097E-1,-3.919514E-1,4.120301E-2,-7.57934E-1,9.794058E-2,-2.4160783E-1,6.498081E-1,1.268656E-1,8.832531E-1,-1.6180675E-1,-1.2402623E0,1.98866E-1,2.920558E-1,-2.5585228E-1,5.3421986E-1,-6.130844E-1,2.5418547E-1,-5.3091362E-2,1.4928117E-1,-8.7436086E-1,5.607696E-1,-9.156169E-1,5.006288E-1,-5.218448E-1,3.3068573E-1,8.8477826E-1,8.4482916E-2,4.153407E-1,-7.89933E-1,9.2140895E-1,-1.481516E-1,6.035098E-1,-6.9784755E-1,1.02788955E-1,-2.956485E-1,-4.452857E-1,2.7748245E-1,-1.769049E-1,9.68849E-1,2.7861653E-2,-1.732914E-1,5.1570088E-3,3.206315E-1,1.1563534E-2,-1.2234587E-1,9.5919736E-2,-1.0161774E-4,9.917353E-2,-2.0469292E-1,2.4836135E-1,-2.4148594E-1,-2.8064287E-1,1.9819097E-1,1.8372469E-1,-2.5435376E-1,-1.813957E-1,1.2635294E-1,1.3669926E-1,-1.9860983E-1,2.1475664E-1,-2.9420415E-2,-2.0308103E-1,1.084697E-1,1.2159296E-1,-1.3981463E-1,-2.0185496E-1,-4.6427067E-2,-6.2018305E-2,2.0407335E-1,2.2630213E-1,-1.5005973E-1,-2.0346315E-1,2.0752528E-1,1.0913842E-1,-2.591253E-1,5.303886E-2,2.2754298E-1],"categories":[],"categories_nodes":[],"categories_segments":[],"categories_sizes":[],"default_left":[0,0,0,0,0,0,0,0,0,0,0,0,0,0,0,0,0,0,0,0,0,0,0,0,0,0,0,0,0,0,0,0,0,0,0,0,0,0,0,0,0,0,0,0,0,0,0,0,0,0,0,0,0,0,0,0,0,0,0,0,0,0,0,0,0,0,0,0,0,0,0,0,0,0,0,0,0,0,0,0,0,0,0,0,0,0,0,0,0,0,0],"id":14,"left_children":[1,3,5,7,9,11,13,15,17,19,21,-1,23,25,27,29,31,33,35,37,39,41,43,45,47,49,-1,-1,51,53,55,57,59,61,63,65,67,69,71,73,75,77,79,81,-1,83,85,-1,-1,87,-1,-1,89,-1,-1,-1,-1,-1,-1,-1,-1,-1,-1,-1,-1,-1,-1,-1,-1,-1,-1,-1,-1,-1,-1,-1,-1,-1,-1,-1,-1,-1,-1,-1,-1,-1,-1,-1,-1,-1,-1],"loss_changes":[3.2809166E1,3.085024E1,2.5460709E1,3.8754696E1,2.3720089E1,1.3859825E1,2.2315922E1,4.512723E1,2.3006077E1,1.5210299E1,7.6621895E0,0E0,1.5830882E1,9.077894E0,1.8307524E1,3.681015E1,3.9277126E1,1.667839E1,1.9001093E1,1.0046375E1,3.6155882E0,4.962227E0,5.510376E0,2.397275E1,5.937971E0,1.0911548E1,0E0,0E0,6.8745675E0,3.0388939E1,1.9284084E1,1.1792638E2,8.2690155E1,1.3607574E1,1.1108446E1,1.1644474E1,2.2303913E1,1.6546448E1,9.138922E0,2.9013624E0,4.7074194E0,2.8599331E0,2.2968745E-1,5.1120605E0,0E0,1.5883033E1,1.6597328E1,0E0,0E0,8.114234E0,0E0,0E0,3.967595E-1,0E0,0E0,0E0,0E0,0E0,0E0,0E0,0E0,0E0,0E0,0E0,0E0,0E0,0E0,0E0,0E0,0E0,0E0,0E0,0E0,0E0,0E0,0E0,0E0,0E0,0E0,0E0,0E0,0E0,0E0,0E0,0E0,0E0,0E0,0E0,0E0,0E0,0E0],"parents":[2147483647,0,0,1,1,2,2,3,3,4,4,5,5,6,6,7,7,8,8,9,9,10,10,12,12,13,13,14,14,15,15,16,16,17,17,18,18,19,19,20,20,21,21,22,22,23,23,24,24,25,25,28,28,29,29,30,30,31,31,32,32,33,33,34,34,35,35,36,36,37,37,38,38,39,39,40,40,41,41,42,42,43,43,45,45,46,46,49,49,52,52],"right_children":[2,4,6,8,10,12,14,16,18,20,22,-1,24,26,28,30,32,34,36,38,40,42,44,46,48,50,-1,-1,52,54,56,58,60,62,64,66,68,70,72,74,76,78,80,82,-1,84,86,-1,-1,88,-1,-1,90,-1,-1,-1,-1,-1,-1,-1,-1,-1,-1,-1,-1,-1,-1,-1,-1,-1,-1,-1,-1,-1,-1,-1,-1,-1,-1,-1,-1,-1,-1,-1,-1,-1,-1,-1,-1,-1,-1],"split_conditions":[2.1544E0,2.3346E0,5E0,4E0,2E0,-2.087E-1,2E0,2E0,4.154E-1,2.7E-3,3E0,-2.4241625E-1,1.5E1,-4.89E-2,1.942E-1,2E0,4E0,5E0,-7.909E-1,1.6E1,1.217E-1,3.949E-1,7E0,9.643E-1,-3.0706E0,1.2133E0,2.920558E-1,-2.5585228E-1,-4.161E-1,-4.358E-1,1.3496E0,1.8E1,6E0,4E0,2E0,1.512E0,3E0,3E0,8.215E-1,1.9548E0,2E0,8E0,3.4907E0,7E0,-1.481516E-1,4.115E-1,4E0,1.02788955E-1,-2.956485E-1,6E0,2.7748245E-1,-1.769049E-1,7E0,2.7861653E-2,-1.732914E-1,5.1570088E-3,3.206315E-1,1.1563534E-2,-1.2234587E-1,9.5919736E-2,-1.0161774E-4,9.917353E-2,-2.0469292E-1,2.4836135E-1,-2.4148594E-1,-2.8064287E-1,1.9819097E-1,1.8372469E-1,-2.5435376E-1,-1.813957E-1,1.2635294E-1,1.3669926E-1,-1.9860983E-1,2.1475664E-1,-2.9420415E-2,-2.0308103E-1,1.084697E-1,1.2159296E-1,-1.3981463E-1,-2.0185496E-1,-4.6427067E-2,-6.2018305E-2,2.0407335E-1,2.2630213E-1,-1.5005973E-1,-2.0346315E-1,2.0752528E-1,1.0913842E-1,-2.591253E-1,5.303886E-2,2.2754298E-1],"split_indices":[2,1,18,13,21,1,15,28,5,8,20,0,28,5,1,21,18,19,7,33,8,2,20,4,7,3,0,0,4,7,3,27,29,17,33,5,35,13,0,4,19,17,0,32,0,6,18,0,0,18,0,0,31,0,0,0,0,0,0,0,0,0,0,0,0,0,0,0,0,0,0,0,0,0,0,0,0,0,0,0,0,0,0,0,0,0,0,0,0,0,0],"split_type":[0,0,0,0,0,0,0,0,0,0,0,0,0,0,0,0,0,0,0,0,0,0,0,0,0,0,0,0,0,0,0,0,0,0,0,0,0,0,0,0,0,0,0,0,0,0,0,0,0,0,0,0,0,0,0,0,0,0,0,0,0,0,0,0,0,0,0,0,0,0,0,0,0,0,0,0,0,0,0,0,0,0,0,0,0,0,0,0,0,0,0],"sum_hessian":[4.603148E3,4.4397114E3,1.6343657E2,4.256664E3,1.8304704E2,1.1494161E2,4.8494965E1,4.1077954E3,1.4886879E2,8.7347374E1,9.569966E1,4.1425514E1,7.35161E1,2.5340607E1,2.3154356E1,2.5553523E2,3.8522603E3,1.0443743E2,4.4431366E1,6.0565926E1,2.6781448E1,1.652211E1,7.917755E1,5.640917E1,1.7106926E1,1.3277323E1,1.2063285E1,1.4028681E1,9.125675E0,1.90418E2,6.511723E1,2.0575923E3,1.7946677E3,9.627442E1,8.163009E0,1.2271217E1,3.216015E1,4.071636E1,1.9849567E1,1.851913E1,8.262317E0,1.2983695E1,3.5384157E0,7.773077E1,1.4467814E0,2.31836E1,3.322557E1,1.3413796E0,1.5765547E1,8.819448E0,4.4578733E0,1.9646668E0,7.161008E0,4.2249435E1,1.4816858E2,5.602721E1,9.090021E0,1.7093429E3,3.482495E2,5.871509E2,1.2075168E3,6.420889E0,8.985353E1,6.213012E0,1.9499966E0,1.0236069E1,2.0351484E0,2.6791727E1,5.368421E0,3.1393074E1,9.323284E0,1.6259945E1,3.589623E0,1.6325146E1,2.1939855E0,2.0454876E0,6.2168293E0,1.1679889E1,1.3038062E0,2.1894336E0,1.3489822E0,2.8965793E0,7.483419E1,1.7184633E1,5.9989657E0,2.8990831E1,4.2347393E0,4.119636E0,4.699813E0,1.4303052E0,5.730703E0],"tree_param":{"num_deleted":"0","num_feature":"39","num_nodes":"91","size_leaf_vector":"1"}},{"base_weights":[-2.9986792E-3,1.1455222E-2,-4.1180873E-1,2.5442477E-2,-5.04257E-1,-5.717986E-1,6.652279E-1,1.5061268E-3,4.204836E-1,-6.725326E-1,5.888484E-1,-7.6638305E-1,-2.87024E-3,-7.1296877E-1,9.628077E-1,8.713516E-2,-8.320067E-2,1.3676862E-1,1.0337789E0,-1.1452347E0,-3.1990176E-1,9.464765E-1,-1.8382514E-1,-8.9394987E-1,5.2128E-1,5.12679E-1,-1.0120792E0,1.1559764E-2,-2.0371099E-1,-3.2389164E-1,1.232207E0,1.7468613E-1,-3.246588E-1,2.60133E-1,-2.5028107E-1,3.6972237E-1,-8.335834E-1,1.2090439E0,1.6590902E-1,-5.4082775E-1,-3.820425E-1,5.754426E-1,-8.71311E-1,-1.0859305E-1,1.2333286E0,-4.50376E-1,-1.1680611E0,8.829498E-1,-1.8417372E-1,-4.9681702E-1,1.29517E0,-2.8855175E-1,1.2498833E-1,1.0956733E-1,-1.7521948E-1,1.3407679E0,2.9146915E-2,-3.8619176E-2,6.887742E-2,1.1409391E-1,-1.4391941E-1,8.019339E-2,-2.2893421E-2,-1.5638076E-1,-2.7943086E-2,1.0831142E-1,-2.5118944E-1,-2.693328E-1,3.6012966E-2,-1.9690454E-1,2.6698226E-1,1.6869222E-1,-1.353044E-1,1.1119255E-1,-2.9214966E-1,1.9157082E-1,-6.2043384E-2,-5.0824855E-2,-3.4262514E-1,2.9990733E-1,6.425814E-3,-1.5429786E-1,3.134201E-1,-2.56761E-1,-5.8983177E-2,-2.1550115E-2,2.4806902E-1,1.3317834E-1,-2.2177018E-1,3.0301267E-1,-2.3274984E-2,9.172214E-2,2.9746807E-1],"categories":[],"categories_nodes":[],"categories_segments":[],"categories_sizes":[],"default_left":[0,0,0,0,0,0,0,0,0,0,0,0,0,0,0,0,0,0,0,0,0,0,0,0,0,0,0,0,0,0,0,0,0,0,0,0,0,0,0,0,0,0,0,0,0,0,0,0,0,0,0,0,0,0,0,0,0,0,0,0,0,0,0,0,0,0,0,0,0,0,0,0,0,0,0,0,0,0,0,0,0,0,0,0,0,0,0,0,0,0,0,0,0],"id":15,"left_children":[1,3,5,7,9,11,13,15,17,19,21,23,25,27,29,31,33,35,37,39,41,43,-1,45,47,49,51,-1,-1,53,55,57,59,61,63,65,67,69,71,73,-1,75,77,-1,79,81,83,85,-1,87,89,-1,-1,-1,-1,91,-1,-1,-1,-1,-1,-1,-1,-1,-1,-1,-1,-1,-1,-1,-1,-1,-1,-1,-1,-1,-1,-1,-1,-1,-1,-1,-1,-1,-1,-1,-1,-1,-1,-1,-1,-1,-1],"loss_changes":[2.676351E1,3.157063E1,2.7032549E1,4.028423E1,2.1654552E1,1.4965591E1,9.080255E0,2.915071E1,4.2208706E1,1.6405972E1,9.181139E0,1.701442E1,1.8969255E1,8.844271E-1,6.381201E0,7.211122E1,1.1596117E2,3.8184807E1,1.148568E1,1.637181E1,2.9638144E1,6.2216845E0,0E0,1.06638565E1,5.686208E0,1.9708147E1,7.9891806E0,0E0,0E0,2.0669346E0,1.5324745E0,9.069866E1,1.1017865E2,2.9784851E1,7.8687004E1,3.1676151E1,1.4996033E1,9.719475E0,7.7824316E0,2.2475266E1,0E0,7.043823E0,1.7268559E1,0E0,2.6310349E0,2.1416265E1,2.382042E0,2.5366316E0,0E0,7.7925406E0,3.0418873E0,0E0,0E0,0E0,0E0,2.7523804E-1,0E0,0E0,0E0,0E0,0E0,0E0,0E0,0E0,0E0,0E0,0E0,0E0,0E0,0E0,0E0,0E0,0E0,0E0,0E0,0E0,0E0,0E0,0E0,0E0,0E0,0E0,0E0,0E0,0E0,0E0,0E0,0E0,0E0,0E0,0E0,0E0,0E0],"parents":[2147483647,0,0,1,1,2,2,3,3,4,4,5,5,6,6,7,7,8,8,9,9,10,10,11,11,12,12,13,13,14,14,15,15,16,16,17,17,18,18,19,19,20,20,21,21,23,23,24,24,25,25,26,26,29,29,30,30,31,31,32,32,33,33,34,34,35,35,36,36,37,37,38,38,39,39,41,41,42,42,44,44,45,45,46,46,47,47,49,49,50,50,55,55],"right_children":[2,4,6,8,10,12,14,16,18,20,22,24,26,28,30,32,34,36,38,40,42,44,-1,46,48,50,52,-1,-1,54,56,58,60,62,64,66,68,70,72,74,-1,76,78,-1,80,82,84,86,-1,88,90,-1,-1,-1,-1,92,-1,-1,-1,-1,-1,-1,-1,-1,-1,-1,-1,-1,-1,-1,-1,-1,-1,-1,-1,-1,-1,-1,-1,-1,-1,-1,-1,-1,-1,-1,-1,-1,-1,-1,-1,-1,-1],"split_conditions":[1.3733E0,2.7873E0,1.7203E0,5.847E-1,1.5E1,7.335E-1,-4.109E-1,5E0,9E0,-1.1E-2,1.1934E0,8E0,7E0,7E0,-3.11E-1,7E0,-9.83E-2,2E0,2E0,1.7E1,3.1511E0,-7.288E-1,-1.8382514E-1,5E0,1E1,3E0,1E0,1.1559764E-2,-2.0371099E-1,4E0,3E0,6E0,3E0,2E0,4E0,2.3385E0,4E0,-9.908E-1,5E0,1E0,-3.820425E-1,1E0,7E0,-1.0859305E-1,2E0,1.8E1,6E0,1E0,-1.8417372E-1,-8.48E-1,1.2E1,-2.8855175E-1,1.2498833E-1,1.0956733E-1,-1.7521948E-1,-6.525E-1,2.9146915E-2,-3.8619176E-2,6.887742E-2,1.1409391E-1,-1.4391941E-1,8.019339E-2,-2.2893421E-2,-1.5638076E-1,-2.7943086E-2,1.0831142E-1,-2.5118944E-1,-2.693328E-1,3.6012966E-2,-1.9690454E-1,2.6698226E-1,1.6869222E-1,-1.353044E-1,1.1119255E-1,-2.9214966E-1,1.9157082E-1,-6.2043384E-2,-5.0824855E-2,-3.4262514E-1,2.9990733E-1,6.425814E-3,-1.5429786E-1,3.134201E-1,-2.56761E-1,-5.8983177E-2,-2.1550115E-2,2.4806902E-1,1.3317834E-1,-2.2177018E-1,3.0301267E-1,-2.3274984E-2,9.172214E-2,2.9746807E-1],"split_indices":[8,4,4,8,30,5,5,16,35,6,5,17,18,32,3,29,3,21,15,31,4,3,0,17,26,18,35,0,0,20,21,29,17,15,30,4,18,5,26,15,0,35,26,0,13,31,20,35,0,6,26,0,0,0,0,2,0,0,0,0,0,0,0,0,0,0,0,0,0,0,0,0,0,0,0,0,0,0,0,0,0,0,0,0,0,0,0,0,0,0,0,0,0],"split_type":[0,0,0,0,0,0,0,0,0,0,0,0,0,0,0,0,0,0,0,0,0,0,0,0,0,0,0,0,0,0,0,0,0,0,0,0,0,0,0,0,0,0,0,0,0,0,0,0,0,0,0,0,0,0,0,0,0,0,0,0,0,0,0,0,0,0,0,0,0,0,0,0,0,0,0,0,0,0,0,0,0,0,0,0,0,0,0,0,0,0,0,0,0],"sum_hessian":[4.5275576E3,4.373886E3,1.5367126E2,4.259315E3,1.1457135E2,1.3420474E2,1.9466526E1,4.0169248E3,2.423899E2,9.962029E1,1.4951061E1,9.9743484E1,3.4461258E1,3.208934E0,1.6257591E1,1.997574E3,2.019351E3,1.6656068E2,7.582921E1,4.160331E1,5.801698E1,1.2300332E1,2.6507294E0,9.103095E1,8.712536E0,2.3134909E1,1.132635E1,1.001856E0,2.2070782E0,2.7795734E0,1.3478018E1,1.6478108E3,3.497631E2,6.6083777E2,1.3585132E3,1.3481454E2,3.1746134E1,6.27615E1,1.3067708E1,2.2884548E1,1.8718763E1,2.2095722E1,3.5921257E1,1.8841672E0,1.0416164E1,3.5777668E1,5.525328E1,7.214944E0,1.4975923E0,1.0261532E1,1.2873377E1,9.362815E0,1.9635358E0,1.0380094E0,1.7415639E0,1.2054907E1,1.4231118E0,4.9343048E2,1.1543804E3,1.0252601E2,2.4723709E2,4.969245E2,1.6391328E2,2.593422E2,1.0991709E3,1.2392666E2,1.0887891E1,2.1753195E1,9.992938E0,1.3738066E0,6.138769E1,7.3187065E0,5.7490015E0,1.0298972E1,1.2585575E1,1.5899428E1,6.196294E0,2.0374544E1,1.5546714E1,8.802973E0,1.613192E0,3.1751947E1,4.025721E0,5.16932E1,3.560082E0,1.8289227E0,5.386021E0,3.3507967E0,6.910735E0,1.1625478E1,1.2478992E0,1.4551163E0,1.0599791E1],"tree_param":{"num_deleted":"0","num_feature":"39","num_nodes":"93","size_leaf_vector":"1"}}]},"name":"gbtree"},"learner_model_param":{"base_score":"4.8213893E-1","boost_from_average":"1","num_class":"0","num_feature":"39","num_target":"1"},"objective":{"name":"binary:logistic","reg_loss_param":{"scale_pos_weight":"5"}}},"version":[2,1,4]}