{"learner":{"attributes":{"best_iteration":"26","best_score":"0.3191555123681746"},"feature_names":[],"feature_types":[],"gradient_booster":{"model":{"gbtree_model_param":{"num_parallel_tree":"1","num_trees":"37"},"iteration_indptr":[0,1,2,3,4,5,6,7,8,9,10,11,12,13,14,15,16,17,18,19,20,21,22,23,24,25,26,27,28,29,30,31,32,33,34,35,36,37],"tree_info":[0,0,0,0,0,0,0,0,0,0,0,0,0,0,0,0,0,0,0,0,0,0,0,0,0,0,0,0,0,0,0,0,0,0,0,0,0],"trees":[{"base_weights":[-6.929758E-3,-1.3422241E0,4.507003E-1,-1.4978137E0,1.0196401E-2,1.2883204E-1,1.923281E0,1.1890459E0,-1.3080101E0,1.2225659E0,-7.8380805E-1,-2.543527E-1,6.0349476E-1,-1.1821188E0,1.78536E0],"categories":[],"categories_nodes":[],"categories_segments":[],"categories_sizes":[],"default_left":[0,0,0,0,0,0,0,0,0,0,0,0,0,0,0],"id":0,"left_children":[1,3,5,7,9,11,13,-1,-1,-1,-1,-1,-1,-1,-1],"loss_changes":[5.594818E2,4.9189392E1,3.2295413E2,1.606549E1,3.395013E1,1.365873E2,6.441824E1,0E0,0E0,0E0,0E0,0E0,0E0,0E0,0E0],"parents":[2147483647,0,0,1,1,2,2,3,3,4,4,5,5,6,6],"right_children":[2,4,6,8,10,12,14,-1,-1,-1,-1,-1,-1,-1,-1],"split_conditions":[4E0,1E1,7.317E-1,-2.5365E0,1E0,9E0,3E0,1.1890459E0,-1.3080101E0,1.2225659E0,-7.8380805E-1,-2.543527E-1,6.0349476E-1,-1.1821188E0,1.78536E0],"split_indices":[33,34,1,5,13,30,17,0,0,0,0,0,0,0,0],"split_type":[0,0,0,0,0,0,0,0,0,0,0,0,0,0,0],"sum_hessian":[9.1358606E2,2.3269237E2,6.808937E2,2.0858783E2,2.4104544E1,5.59655E2,1.212387E2,1.1932943E0,2.0739453E2,9.307695E0,1.4796848E1,3.2171213E2,2.3794287E2,5.0118356E0,1.1622686E2],"tree_param":{"num_deleted":"0","num_feature":"39","num_nodes":"15","size_leaf_vector":"1"}},{"base_weights":[-7.445111E-2,3.644715E-1,-3.6078614E-1,1.17315225E-1,1.8054839E0,-4.6588618E-1,1.0400748E0,1.045316E0,-1.023094E-1,1.0112774E-1,1.9997734E0,-1.7221683E-1,-8.2630175E-1,1.0203947E0,-1.3503096E0],"categories":[],"categories_nodes":[],"categories_segments":[],"categories_sizes":[],"default_left":[0,0,0,0,0,0,0,0,0,0,0,0,0,0,0],"id":1,"left_children":[1,3,5,7,9,11,13,-1,-1,-1,-1,-1,-1,-1,-1],"loss_changes":[9.586513E1,1.0707378E2,6.843132E1,6.7141045E1,3.8361725E1,5.6337418E1,1.4291443E1,0E0,0E0,0E0,0E0,0E0,0E0,0E0,0E0],"parents":[2147483647,0,0,1,1,2,2,3,3,4,4,5,5,6,6],"right_children":[2,4,6,8,10,12,14,-1,-1,-1,-1,-1,-1,-1,-1],"split_conditions":[-7.33E-2,1.2975E0,2.43E0,-1.1137E0,1.1E1,2E0,2.0182E0,1.045316E0,-1.023094E-1,1.0112774E-1,1.9997734E0,-1.7221683E-1,-8.2630175E-1,1.0203947E0,-1.3503096E0],"split_indices":[7,5,0,3,33,13,6,0,0,0,0,0,0,0,0],"split_type":[0,0,0,0,0,0,0,0,0,0,0,0,0,0,0],"sum_hessian":[7.607318E2,3.0023267E2,4.6049915E2,2.572002E2,4.3032463E1,4.2898206E2,3.151709E1,4.480652E1,2.1239368E2,1.0421196E1,3.2611267E1,2.800701E2,1.4891197E2,3.0359383E1,1.157706E0],"tree_param":{"num_deleted":"0","num_feature":"39","num_nodes":"15","size_leaf_vector":"1"}},{"base_weights":[-1.0065816E-2,1.5827258E-1,-6.142077E-1,-1.1021993E-2,7.6185924E-1,-8.826381E-1,7.764327E-1,-1.3983136E-1,7.046275E-1,1.2080824E0,1.4346452E-1,-8.207481E-1,1.8458749E0,1.006462E0,-7.5263524E-1],"categories":[],"categories_nodes":[],"categories_segments":[],"categories_sizes":[],"default_left":[0,0,0,0,0,0,0,0,0,0,0,0,0,0,0],"id":2,"left_children":[1,3,5,7,9,11,13,-1,-1,-1,-1,-1,-1,-1,-1],"loss_changes":[6.863359E1,5.394555E1,5.558209E1,5.2139366E1,4.4001114E1,2.8928871E1,1.6848616E1,0E0,0E0,0E0,0E0,0E0,0E0,0E0,0E0],"parents":[2147483647,0,0,1,1,2,2,3,3,4,4,5,5,6,6],"right_children":[2,4,6,8,10,12,14,-1,-1,-1,-1,-1,-1,-1,-1],"split_conditions":[1.31E-2,8E0,1.2741E0,1.1418E0,-1.493E-1,9E0,9E0,-1.3983136E-1,7.046275E-1,1.2080824E0,1.4346452E-1,-8.207481E-1,1.8458749E0,1.006462E0,-7.5263524E-1],"split_indices":[8,29,4,6,5,20,32,0,0,0,0,0,0,0,0],"split_type":[0,0,0,0,0,0,0,0,0,0,0,0,0,0,0],"sum_hessian":[6.729056E2,5.268436E2,1.4606195E2,4.1220868E2,1.1463495E2,1.2273597E2,2.3325989E1,3.4925934E2,6.294934E1,5.444799E1,6.018696E1,1.20566154E2,2.1698132E0,1.9069656E1,4.256332E0],"tree_param":{"num_deleted":"0","num_feature":"39","num_nodes":"15","size_leaf_vector":"1"}},{"base_weights":[-3.164798E-3,-4.002277E-2,1.6059347E0,6.965545E-1,-1.279073E-1,2.8237548E0,-2.8255534E-1,1.1850727E0,1.430602E-1,-1.9609908E-2,-6.4981145E-1,2.7359731E0,5.9718746E-1,-1.251766E0,9.627853E-1],"categories":[],"categories_nodes":[],"categories_segments":[],"categories_sizes":[],"default_left":[0,0,0,0,0,0,0,0,0,0,0,0,0,0,0],"id":3,"left_children":[1,3,5,7,9,11,13,-1,-1,-1,-1,-1,-1,-1,-1],"loss_changes":[3.610974E1,3.8614204E1,3.2153973E1,2.2747366E1,3.5115963E1,4.171875E0,1.1915278E1,0E0,0E0,0E0,0E0,0E0,0E0,0E0,0E0],"parents":[2147483647,0,0,1,1,2,2,3,3,4,4,5,5,6,6],"right_children":[2,4,6,8,10,12,14,-1,-1,-1,-1,-1,-1,-1,-1],"split_conditions":[2E1,6E0,-5.28E-1,-1.071E-1,1.8E1,8.7E-2,6E0,1.1850727E0,1.430602E-1,-1.9609908E-2,-6.4981145E-1,2.7359731E0,5.9718746E-1,-1.251766E0,9.627853E-1],"split_indices":[28,31,3,6,27,6,16,0,0,0,0,0,0,0,0],"split_type":[0,0,0,0,0,0,0,0,0,0,0,0,0,0,0],"sum_hessian":[6.067658E2,5.941318E2,1.2634032E1,6.2593956E1,5.315378E2,7.379811E0,5.254222E0,2.6690937E1,3.5903023E1,4.5618655E2,7.5351265E1,5.8956285E0,1.4841824E0,2.8400643E0,2.4141576E0],"tree_param":{"num_deleted":"0","num_feature":"39","num_nodes":"15","size_leaf_vector":"1"}},{"base_weights":[-5.100323E-3,1.2237363E0,-3.5588905E-2,1.4812263E0,-7.39009E-1,-7.458061E-2,8.5564137E-1,4.1051692E-1,1.6590824E0,2.6820626E-3,-4.4714382E-1,8.740312E-1,-1.0413384E0],"categories":[],"categories_nodes":[],"categories_segments":[],"categories_sizes":[],"default_left":[0,0,0,0,0,0,0,0,0,0,0,0,0],"id":4,"left_children":[1,3,5,7,-1,9,11,-1,-1,-1,-1,-1,-1],"loss_changes":[2.153552E1,8.737101E0,1.9549534E1,4.8136654E0,0E0,1.8623484E1,9.061304E0,0E0,0E0,0E0,0E0,0E0,0E0],"parents":[2147483647,0,0,1,1,2,2,3,3,5,5,6,6],"right_children":[2,4,6,8,-1,10,12,-1,-1,-1,-1,-1,-1],"split_conditions":[-1.5779E0,1.31E-2,3.7875E0,-6.977E-1,-7.39009E-1,1.7E1,2.0182E0,4.1051692E-1,1.6590824E0,2.6820626E-3,-4.4714382E-1,8.740312E-1,-1.0413384E0],"split_indices":[6,8,0,4,0,35,6,0,0,0,0,0,0],"split_type":[0,0,0,0,0,0,0,0,0,0,0,0,0],"sum_hessian":[5.7264716E2,1.2916404E1,5.597308E2,1.175256E1,1.163844E0,5.3714667E2,2.2584078E1,4.263418E0,7.4891415E0,4.581993E2,7.894736E1,2.1426336E1,1.1577406E0],"tree_param":{"num_deleted":"0","num_feature":"39","num_nodes":"13","size_leaf_vector":"1"}},{"base_weights":[9.227922E-3,-2.4754366E-2,1.1425294E0,6.0218107E-3,-1.1089431E0,1.5484575E0,-7.2987676E-1,-4.0765952E-2,1.0090283E0,1.8666428E-1,1.5108038E0,-1.7805816E-1,-8.3584607E-1],"categories":[],"categories_nodes":[],"categories_segments":[],"categories_sizes":[],"default_left":[0,0,0,0,0,0,0,0,0,0,0,0,0],"id":5,"left_children":[1,3,5,7,-1,9,11,-1,-1,-1,-1,-1,-1],"loss_changes":[2.1511364E1,2.1126057E1,1.3489389E1,3.3148335E1,0E0,3.413536E0,2.513975E-1,0E0,0E0,0E0,0E0,0E0,0E0],"parents":[2147483647,0,0,1,1,2,2,3,3,5,5,6,6],"right_children":[2,4,6,8,-1,10,12,-1,-1,-1,-1,-1,-1],"split_conditions":[4.37E-2,2.9576E0,9.156E-1,2.051E0,-1.1089431E0,-6.801E-1,-2.412E-1,-4.0765952E-2,1.0090283E0,1.8666428E-1,1.5108038E0,-1.7805816E-1,-8.3584607E-1],"split_indices":[9,6,7,6,0,8,1,0,0,0,0,0,0],"split_type":[0,0,0,0,0,0,0,0,0,0,0,0,0],"sum_hessian":[5.568257E2,5.415649E2,1.5260782E1,5.2967084E2,1.1894032E1,1.2683973E1,2.5768087E0,5.0740695E2,2.2263878E1,1.9921459E0,1.0691827E1,1.4025464E0,1.1742623E0],"tree_param":{"num_deleted":"0","num_feature":"39","num_nodes":"13","size_leaf_vector":"1"}},{"base_weights":[2.60057E-3,1.2536138E0,-2.1755828E-2,1.5376141E0,-1.6285019E-1,1.3170388E-2,-9.0176105E-1,1.441212E0,3.026174E-1,-3.8158115E-2,5.055058E-1,1.6200937E-2,-1.0394033E0],"categories":[],"categories_nodes":[],"categories_segments":[],"categories_sizes":[],"default_left":[0,0,0,0,0,0,0,0,0,0,0,0,0],"id":6,"left_children":[1,3,5,7,-1,9,11,-1,-1,-1,-1,-1,-1],"loss_changes":[1.648784E1,4.5260487E0,1.6328762E1,8.43338E-1,0E0,1.6941887E1,5.751587E0,0E0,0E0,0E0,0E0,0E0,0E0],"parents":[2147483647,0,0,1,1,2,2,3,3,5,5,6,6],"right_children":[2,4,6,8,-1,10,12,-1,-1,-1,-1,-1,-1],"split_conditions":[-1.4595E0,-4.47E-2,9.664E-1,3.248E-1,-1.6285019E-1,1.6E1,7E0,1.441212E0,3.026174E-1,-3.8158115E-2,5.055058E-1,1.6200937E-2,-1.0394033E0],"split_indices":[0,6,8,4,0,26,31,0,0,0,0,0,0],"split_type":[0,0,0,0,0,0,0,0,0,0,0,0,0],"sum_hessian":[5.3921893E2,9.3339E0,5.298851E2,7.7441435E0,1.5897568E0,5.1060486E2,1.9280182E1,6.565515E0,1.1786284E0,4.6496805E2,4.5636803E1,5.054463E0,1.42257185E1],"tree_param":{"num_deleted":"0","num_feature":"39","num_nodes":"13","size_leaf_vector":"1"}},{"base_weights":[-2.8435474E-3,3.5087664E-2,-7.839322E-1,-5.9708697E-1,8.232657E-2,2.1312927E-1,-1.9229802E0,3.064503E-1,-9.251801E-1,2.6505578E-1,-1.0715355E-1,-8.678352E-1,6.775029E-1,-1.8499299E0,1.5038879E-1],"categories":[],"categories_nodes":[],"categories_segments":[],"categories_sizes":[],"default_left":[0,0,0,0,0,0,0,0,0,0,0,0,0,0,0],"id":7,"left_children":[1,3,5,7,9,11,13,-1,-1,-1,-1,-1,-1,-1,-1],"loss_changes":[1.5568648E1,1.5016987E1,2.804852E1,1.6343912E1,2.1877075E1,1.054198E1,5.859585E0,0E0,0E0,0E0,0E0,0E0,0E0,0E0,0E0],"parents":[2147483647,0,0,1,1,2,2,3,3,4,4,5,5,6,6],"right_children":[2,4,6,8,10,12,14,-1,-1,-1,-1,-1,-1,-1,-1],"split_conditions":[1.8E1,4E0,4E0,4E0,1E0,5E0,2.1259E0,3.064503E-1,-9.251801E-1,2.6505578E-1,-1.0715355E-1,-8.678352E-1,6.775029E-1,-1.8499299E0,1.5038879E-1],"split_indices":[29,30,17,16,14,16,0,0,0,0,0,0,0,0,0],"split_type":[0,0,0,0,0,0,0,0,0,0,0,0,0,0,0],"sum_hessian":[5.2354877E2,5.0021255E2,2.3336231E1,3.3969955E1,4.6624258E2,1.2877152E1,1.045908E1,1.1440256E1,2.25297E1,2.2267798E2,2.4356462E2,3.8764434E0,9.000709E0,9.410495E0,1.0485848E0],"tree_param":{"num_deleted":"0","num_feature":"39","num_nodes":"15","size_leaf_vector":"1"}},{"base_weights":[-2.4424292E-2,-8.20303E-2,5.631233E-1,-2.4859015E-2,-7.825943E-1,-9.5328426E-1,1.0222667E0,-4.617948E-1,3.178964E-2,-8.512274E-1,1.1731572E0,-1.4334241E0,4.4504362E-1,9.753107E-1,-9.387018E-2],"categories":[],"categories_nodes":[],"categories_segments":[],"categories_sizes":[],"default_left":[0,0,0,0,0,0,0,0,0,0,0,0,0,0,0],"id":8,"left_children":[1,3,5,7,9,11,13,-1,-1,-1,-1,-1,-1,-1,-1],"loss_changes":[1.748277E1,1.8806778E1,3.309027E1,1.3811574E1,1.7110857E1,1.2655423E1,4.664097E0,0E0,0E0,0E0,0E0,0E0,0E0,0E0,0E0],"parents":[2147483647,0,0,1,1,2,2,3,3,4,4,5,5,6,6],"right_children":[2,4,6,8,10,12,14,-1,-1,-1,-1,-1,-1,-1,-1],"split_conditions":[1.3378E0,1.5303E0,1E0,3E0,1.0279E0,1.1922E0,5E0,-4.617948E-1,3.178964E-2,-8.512274E-1,1.1731572E0,-1.4334241E0,4.4504362E-1,9.753107E-1,-9.387018E-2],"split_indices":[1,0,21,28,6,5,26,0,0,0,0,0,0,0,0],"split_type":[0,0,0,0,0,0,0,0,0,0,0,0,0,0,0],"sum_hessian":[5.1416986E2,4.69043E2,4.5126858E1,4.3461096E2,3.443203E1,1.0237934E1,3.4888924E1,4.598796E1,3.8862302E2,3.1892643E1,2.539388E0,6.8039923E0,3.4339416E0,3.1748898E1,3.1400266E0],"tree_param":{"num_deleted":"0","num_feature":"39","num_nodes":"15","size_leaf_vector":"1"}},{"base_weights":[-4.16665E-3,4.3514315E-2,-5.283641E-1,5.640654E-1,-8.204402E-3,4.8800987E-1,-1.4461746E0,1.032411E0,-5.465105E-1,-8.86952E-2,3.469238E-1,6.71461E-1,-1.2581495E0,4.266005E-2,-1.3470883E0],"categories":[],"categories_nodes":[],"categories_segments":[],"categories_sizes":[],"default_left":[0,0,0,0,0,0,0,0,0,0,0,0,0,0,0],"id":9,"left_children":[1,3,5,7,9,11,13,-1,-1,-1,-1,-1,-1,-1,-1],"loss_changes":[1.2079622E1,1.1933373E1,3.829422E1,3.1343082E1,1.582819E1,1.2490349E1,3.9302292E0,0E0,0E0,0E0,0E0,0E0,0E0,0E0,0E0],"parents":[2147483647,0,0,1,1,2,2,3,3,4,4,5,5,6,6],"right_children":[2,4,6,8,10,12,14,-1,-1,-1,-1,-1,-1,-1,-1],"split_conditions":[1.9E1,3E0,2E0,1.48E-2,1.771E-1,2.02E-2,2E0,1.032411E0,-5.465105E-1,-8.86952E-2,3.469238E-1,6.71461E-1,-1.2581495E0,4.266005E-2,-1.3470883E0],"split_indices":[34,29,13,1,1,2,20,0,0,0,0,0,0,0,0],"split_type":[0,0,0,0,0,0,0,0,0,0,0,0,0,0,0],"sum_hessian":[4.813763E2,4.420816E2,3.929472E1,3.905771E1,4.030239E2,1.8868368E1,2.0426352E1,2.55183E1,1.3539408E1,3.281021E2,7.4921776E1,1.6928E1,1.9403703E0,1.5631303E0,1.8863222E1],"tree_param":{"num_deleted":"0","num_feature":"39","num_nodes":"15","size_leaf_vector":"1"}},{"base_weights":[-1.0977871E-2,3.8792247E-1,-7.7434756E-2,2.0394659E-1,2.5270772E0,1.8217096E-1,-2.3073494E-1,-8.620428E-2,9.224434E-1,2.559153E0,5.610962E-1,3.012905E-1,-6.244255E-1,2.6063386E-1,-3.1582376E-1],"categories":[],"categories_nodes":[],"categories_segments":[],"categories_sizes":[],"default_left":[0,0,0,0,0,0,0,0,0,0,0,0,0,0,0],"id":10,"left_children":[1,3,5,7,9,11,13,-1,-1,-1,-1,-1,-1,-1,-1],"loss_changes":[1.2024442E1,2.497919E1,1.5510296E1,1.615656E1,2.2997398E0,2.238018E1,1.7949322E1,0E0,0E0,0E0,0E0,0E0,0E0,0E0,0E0],"parents":[2147483647,0,0,1,1,2,2,3,3,4,4,5,5,6,6],"right_children":[2,4,6,8,10,12,14,-1,-1,-1,-1,-1,-1,-1,-1],"split_conditions":[-2.652E-1,-2.773E-1,-1.847E-1,1E0,1.2431E0,1.82E-2,-6.977E-1,-8.620428E-2,9.224434E-1,2.559153E0,5.610962E-1,3.012905E-1,-6.244255E-1,2.6063386E-1,-3.1582376E-1],"split_indices":[1,1,7,35,4,8,4,0,0,0,0,0,0,0,0],"split_type":[0,0,0,0,0,0,0,0,0,0,0,0,0,0,0],"sum_hessian":[4.514538E2,6.378057E1,3.8767325E2,5.9738186E1,4.0423837E0,1.4386209E2,2.4381114E2,4.4899937E1,1.4838249E1,2.787773E0,1.2546108E0,1.21905E2,2.1957098E1,4.940201E1,1.9440913E2],"tree_param":{"num_deleted":"0","num_feature":"39","num_nodes":"15","size_leaf_vector":"1"}},{"base_weights":[-8.49688E-4,6.1198317E-2,-4.497048E-1,9.757505E-2,-1.1478254E0,-7.382751E-1,4.1550976E-1,-1.4907673E-1,2.0316467E-1,5.220586E-1,-1.2627163E0,-7.922712E-1,5.532379E-1,6.8781376E-1,-6.8583024E-1],"categories":[],"categories_nodes":[],"categories_segments":[],"categories_sizes":[],"default_left":[0,0,0,0,0,0,0,0,0,0,0,0,0,0,0],"id":11,"left_children":[1,3,5,7,9,11,13,-1,-1,-1,-1,-1,-1,-1,-1],"loss_changes":[1.2210672E1,1.7053246E1,1.3601152E1,1.4123565E1,7.2624846E0,1.07773E1,7.1435623E0,0E0,0E0,0E0,0E0,0E0,0E0,0E0,0E0],"parents":[2147483647,0,0,1,1,2,2,3,3,4,4,5,5,6,6],"right_children":[2,4,6,8,10,12,14,-1,-1,-1,-1,-1,-1,-1,-1],"split_conditions":[8E0,1.9E1,1E0,1E1,-1.3594E0,1.9E1,1.4339E0,-1.4907673E-1,2.0316467E-1,5.220586E-1,-1.2627163E0,-7.922712E-1,5.532379E-1,6.8781376E-1,-6.8583024E-1],"split_indices":[17,30,21,34,6,30,4,0,0,0,0,0,0,0,0],"split_type":[0,0,0,0,0,0,0,0,0,0,0,0,0,0,0],"sum_hessian":[4.364472E2,3.8420047E2,5.2246735E1,3.7387085E2,1.0329618E1,3.928945E1,1.2957283E1,1.2648802E2,2.4738281E2,1.4568954E0,8.872723E0,3.4988857E1,4.300596E0,1.0098677E1,2.8586068E0],"tree_param":{"num_deleted":"0","num_feature":"39","num_nodes":"15","size_leaf_vector":"1"}},{"base_weights":[-1.3249365E-2,1.387901E-2,-1.0889198E0,-6.522323E-1,6.358052E-2,3.4389994E-1,-1.1126045E0,5.782E-1,-9.904104E-1,1.5053666E-1,-2.2205345E-1],"categories":[],"categories_nodes":[],"categories_segments":[],"categories_sizes":[],"default_left":[0,0,0,0,0,0,0,0,0,0,0],"id":12,"left_children":[1,3,5,7,9,-1,-1,-1,-1,-1,-1],"loss_changes":[1.2364403E1,1.374006E1,3.6954718E0,1.9837505E1,1.3887957E1,0E0,0E0,0E0,0E0,0E0,0E0],"parents":[2147483647,0,0,1,1,2,2,3,3,4,4],"right_children":[2,4,6,8,10,-1,-1,-1,-1,-1,-1],"split_conditions":[2.042E0,1E0,-1.0738E0,5E0,8E0,3.4389994E-1,-1.1126045E0,5.782E-1,-9.904104E-1,1.5053666E-1,-2.2205345E-1],"split_indices":[7,18,6,28,35,0,0,0,0,0,0],"split_type":[0,0,0,0,0,0,0,0,0,0,0],"sum_hessian":[4.2219348E2,4.127705E2,9.422962E0,2.7818428E1,3.849521E2,1.024324E0,8.398639E0,7.521973E0,2.0296455E1,2.8625296E2,9.869912E1],"tree_param":{"num_deleted":"0","num_feature":"39","num_nodes":"11","size_leaf_vector":"1"}},{"base_weights":[-1.9249875E-2,3.207651E-1,-9.246536E-2,5.900264E-1,-5.6680024E-1,-5.001735E-1,-1.4352021E-2,-4.1821596E-1,7.89142E-1,-9.441558E-1,7.114395E-1,-7.3864377E-1,3.8573122E-1,-3.2085064E-1,6.8575114E-2],"categories":[],"categories_nodes":[],"categories_segments":[],"categories_sizes":[],"default_left":[0,0,0,0,0,0,0,0,0,0,0,0,0,0,0],"id":13,"left_children":[1,3,5,7,9,11,13,-1,-1,-1,-1,-1,-1,-1,-1],"loss_changes":[1.0348581E1,1.7939562E1,1.0879638E1,2.0546734E1,1.3979567E1,1.9079927E1,9.747561E0,0E0,0E0,0E0,0E0,0E0,0E0,0E0,0E0],"parents":[2147483647,0,0,1,1,2,2,3,3,4,4,5,5,6,6],"right_children":[2,4,6,8,10,12,14,-1,-1,-1,-1,-1,-1,-1,-1],"split_conditions":[4E0,6.7E-1,2E0,6E0,1.7E1,1.8E1,-6.126E-1,-4.1821596E-1,7.89142E-1,-9.441558E-1,7.114395E-1,-7.3864377E-1,3.8573122E-1,-3.2085064E-1,6.8575114E-2],"split_indices":[16,7,18,29,30,35,5,0,0,0,0,0,0,0,0],"split_type":[0,0,0,0,0,0,0,0,0,0,0,0,0,0,0],"sum_hessian":[4.1350836E2,7.2665665E1,3.4084268E2,5.600931E1,1.6656351E1,5.393401E1,2.869087E2,1.2955896E1,4.3053413E1,1.2215441E1,4.440911E0,3.9204838E1,1.472917E1,5.899995E1,2.2790872E2],"tree_param":{"num_deleted":"0","num_feature":"39","num_nodes":"15","size_leaf_vector":"1"}},{"base_weights":[-2.1725941E-2,1.38822E-1,-2.3447265E-1,3.0045675E-2,6.906314E-1,-5.108168E-1,3.1709945E-1,1.3253252E-1,-6.2184054E-1,1.0075002E0,-3.9227717E-2,-1.0470414E-1,-7.3774487E-1,8.755123E-1,-1.23305574E-1],"categories":[],"categories_nodes":[],"categories_segments":[],"categories_sizes":[],"default_left":[0,0,0,0,0,0,0,0,0,0,0,0,0,0,0],"id":14,"left_children":[1,3,5,7,9,11,13,-1,-1,-1,-1,-1,-1,-1,-1],"loss_changes":[1.3510549E1,1.3515667E1,2.60867E1,1.7810242E1,1.3184885E1,1.5246334E1,1.866884E1,0E0,0E0,0E0,0E0,0E0,0E0,0E0,0E0],"parents":[2147483647,0,0,1,1,2,2,3,3,4,4,5,5,6,6],"right_children":[2,4,6,8,10,12,14,-1,-1,-1,-1,-1,-1,-1,-1],"split_conditions":[2.888E-1,6.84E-2,3.924E-1,1.5002E0,8E0,-1.297E-1,6E0,1.3253252E-1,-6.2184054E-1,1.0075002E0,-3.9227717E-2,-1.0470414E-1,-7.3774487E-1,8.755123E-1,-1.23305574E-1],"split_indices":[5,5,7,3,26,7,30,0,0,0,0,0,0,0,0],"split_type":[0,0,0,0,0,0,0,0,0,0,0,0,0,0,0],"sum_hessian":[3.936007E2,2.2451749E2,1.6908322E2,1.884278E2,3.6089687E1,1.1269538E2,5.6387833E1,1.6246077E2,2.5967026E1,2.1473207E1,1.4616482E1,5.376626E1,5.8929127E1,2.1876568E1,3.4511265E1],"tree_param":{"num_deleted":"0","num_feature":"39","num_nodes":"15","size_leaf_vector":"1"}},{"base_weights":[-1.4370904E-2,8.513194E-1,-4.698299E-2,1.0679982E0,-7.6165503E-1,-4.0597472E-1,2.198399E-2,1.2015053E0,1.9932462E-1,-5.1203436E-1,5.307011E-1,3.1272414E-1,-5.163276E-2],"categories":[],"categories_nodes":[],"categories_segments":[],"categories_sizes":[],"default_left":[0,0,0,0,0,0,0,0,0,0,0,0,0],"id":15,"left_children":[1,3,5,7,-1,9,11,-1,-1,-1,-1,-1,-1],"loss_changes":[1.093504E1,6.238473E0,9.240138E0,3.2417574E0,0E0,1.2021029E1,8.812898E0,0E0,0E0,0E0,0E0,0E0,0E0],"parents":[2147483647,0,0,1,1,2,2,3,3,5,5,6,6],"right_children":[2,4,6,8,-1,10,12,-1,-1,-1,-1,-1,-1],"split_conditions":[-1.5756E0,7.644E-1,-8.517E-1,3E0,-7.6165503E-1,8E0,-2.762E-1,1.2015053E0,1.9932462E-1,-5.1203436E-1,5.307011E-1,3.1272414E-1,-5.163276E-2],"split_indices":[5,7,3,20,0,16,3,0,0,0,0,0,0],"split_type":[0,0,0,0,0,0,0,0,0,0,0,0,0],"sum_hessian":[3.8491162E2,1.3062486E1,3.7184912E2,1.1956144E1,1.1063412E0,5.9137257E1,3.1271188E2,8.098295E0,3.8578491E0,5.0251564E1,8.88569E0,5.9875893E1,2.5283598E2],"tree_param":{"num_deleted":"0","num_feature":"39","num_nodes":"13","size_leaf_vector":"1"}},{"base_weights":[3.1971247E-3,5.664319E-2,-4.007767E-1,1.1390903E-1,-3.9628664E-1,-6.310046E-1,1.0253954E0,1.4632805E-1,-5.7417667E-1,-9.0410954E-1,3.6348894E-1,-8.184688E-1,1.994837E-1,-2.5046057E-1,1.3742009E0],"categories":[],"categories_nodes":[],"categories_segments":[],"categories_sizes":[],"default_left":[0,0,0,0,0,0,0,0,0,0,0,0,0,0,0],"id":16,"left_children":[1,3,5,7,9,11,13,-1,-1,-1,-1,-1,-1,-1,-1],"loss_changes":[8.228107E0,8.773407E0,1.5267824E1,1.3278812E1,2.082508E1,1.1002759E1,5.4178467E0,0E0,0E0,0E0,0E0,0E0,0E0,0E0,0E0],"parents":[2147483647,0,0,1,1,2,2,3,3,4,4,5,5,6,6],"right_children":[2,4,6,8,10,12,14,-1,-1,-1,-1,-1,-1,-1,-1],"split_conditions":[1.1736E0,1.6303E0,2.1093E0,3.406E-1,5.265E-1,1.8E1,1.5E1,1.4632805E-1,-5.7417667E-1,-9.0410954E-1,3.6348894E-1,-8.184688E-1,1.994837E-1,-2.5046057E-1,1.3742009E0],"split_indices":[7,5,5,8,6,34,31,0,0,0,0,0,0,0,0],"split_type":[0,0,0,0,0,0,0,0,0,0,0,0,0,0,0],"sum_hessian":[3.790415E2,3.355127E2,4.3528816E1,2.9851828E2,3.6994423E1,3.795868E1,5.57014E0,2.79209E2,1.9309254E1,2.0396986E1,1.6597437E1,2.759915E1,1.0359529E1,1.8369483E0,3.7331915E0],"tree_param":{"num_deleted":"0","num_feature":"39","num_nodes":"15","size_leaf_vector":"1"}},{"base_weights":[-1.7179046E-2,-9.885926E-2,2.3436159E-1,-4.0250648E-2,-1.1491634E0,-2.5937794E-2,8.079808E-1,8.732983E-4,-9.945131E-1,6.31332E-2,-1.1338806E0,7.9721767E-1,-1.7559312E-1,-5.6429017E-1,8.792634E-1],"categories":[],"categories_nodes":[],"categories_segments":[],"categories_sizes":[],"default_left":[0,0,0,0,0,0,0,0,0,0,0,0,0,0,0],"id":17,"left_children":[1,3,5,7,9,11,13,-1,-1,-1,-1,-1,-1,-1,-1],"loss_changes":[7.473439E0,1.6847025E1,1.3337016E1,1.2021137E1,3.0914783E0,1.0773369E1,9.4198E0,0E0,0E0,0E0,0E0,0E0,0E0,0E0,0E0],"parents":[2147483647,0,0,1,1,2,2,3,3,4,4,5,5,6,6],"right_children":[2,4,6,8,10,12,14,-1,-1,-1,-1,-1,-1,-1,-1],"split_conditions":[1.3742E0,9.91E-1,1.8E1,1.2019E0,2E0,4E0,4E0,8.732983E-4,-9.945131E-1,6.31332E-2,-1.1338806E0,7.9721767E-1,-1.7559312E-1,-5.6429017E-1,8.792634E-1],"split_indices":[3,2,31,3,18,16,17,0,0,0,0,0,0,0,0],"split_type":[0,0,0,0,0,0,0,0,0,0,0,0,0,0,0],"sum_hessian":[3.6161606E2,2.7343372E2,8.818234E1,2.5996555E2,1.3468162E1,6.1313858E1,2.6868484E1,2.5166039E2,8.305172E0,1.707109E0,1.1761053E1,8.999348E0,5.231451E1,3.1690242E0,2.369946E1],"tree_param":{"num_deleted":"0","num_feature":"39","num_nodes":"15","size_leaf_vector":"1"}},{"base_weights":[-9.441578E-3,-1.9344798E-1,7.6266356E-2,-1.9948801E-2,-9.513257E-1,5.646132E-1,-2.7673248E-2,1.2542273E-1,-6.930288E-1,3.1095466E-1,-9.704128E-1,-7.17885E-1,6.88976E-1,-1.5557377E-1,2.2675663E-1],"categories":[],"categories_nodes":[],"categories_segments":[],"categories_sizes":[],"default_left":[0,0,0,0,0,0,0,0,0,0,0,0,0,0,0],"id":18,"left_children":[1,3,5,7,9,11,13,-1,-1,-1,-1,-1,-1,-1,-1],"loss_changes":[5.511535E0,1.4581782E1,1.2121633E1,1.2023289E1,5.211481E0,1.4537155E1,8.868901E0,0E0,0E0,0E0,0E0,0E0,0E0,0E0,0E0],"parents":[2147483647,0,0,1,1,2,2,3,3,4,4,5,5,6,6],"right_children":[2,4,6,8,10,12,14,-1,-1,-1,-1,-1,-1,-1,-1],"split_conditions":[6E0,2E0,2E0,1.2E1,-6.182E-1,-5.171E-1,1.2E1,1.2542273E-1,-6.930288E-1,3.1095466E-1,-9.704128E-1,-7.17885E-1,6.88976E-1,-1.5557377E-1,2.2675663E-1],"split_indices":[32,13,20,30,0,5,33,0,0,0,0,0,0,0,0],"split_type":[0,0,0,0,0,0,0,0,0,0,0,0,0,0,0],"sum_hessian":[3.4754156E2,1.1003987E2,2.375017E2,9.037651E1,1.966336E1,4.0901085E1,1.9660062E2,7.5304985E1,1.50715275E1,2.212879E0,1.7450481E1,5.5479226E0,3.535316E1,1.2908827E2,6.751234E1],"tree_param":{"num_deleted":"0","num_feature":"39","num_nodes":"15","size_leaf_vector":"1"}},{"base_weights":[-1.8338047E-2,-5.8226767E-3,-1.2129147E0,-5.230688E-2,5.131182E-1,1.523412E-1,-1.1941021E-1,-1.6101421E-1,6.886775E-1],"categories":[],"categories_nodes":[],"categories_segments":[],"categories_sizes":[],"default_left":[0,0,0,0,0,0,0,0,0],"id":19,"left_children":[1,3,-1,5,7,-1,-1,-1,-1],"loss_changes":[5.8180366E0,8.046338E0,0E0,6.1013045E0,5.674863E0,0E0,0E0,0E0,0E0],"parents":[2147483647,0,0,1,1,3,3,4,4],"right_children":[2,4,-1,6,8,-1,-1,-1,-1],"split_conditions":[1.4708E0,1.3378E0,-1.2129147E0,-5.341E-1,1E0,1.523412E-1,-1.1941021E-1,-1.6101421E-1,6.886775E-1],"split_indices":[1,1,0,4,21,0,0,0,0],"split_type":[0,0,0,0,0,0,0,0,0],"sum_hessian":[3.3342395E2,3.3144815E2,1.9757838E0,3.0502475E2,2.642343E1,8.325235E1,2.2177238E2,7.7950945E0,1.8628334E1],"tree_param":{"num_deleted":"0","num_feature":"39","num_nodes":"9","size_leaf_vector":"1"}},{"base_weights":[2.3856561E-3,-2.2910124E-2,6.5565443E-1,1.281834E-3,-9.592724E-1,-7.0284986E-1,9.7048986E-1,8.9538045E-2,-1.6218904E-1,-1.1092192E0,-1.6512817E-2,1.3833293E-2,1.0234283E0],"categories":[],"categories_nodes":[],"categories_segments":[],"categories_sizes":[],"default_left":[0,0,0,0,0,0,0,0,0,0,0,0,0],"id":20,"left_children":[1,3,5,7,9,-1,11,-1,-1,-1,-1,-1,-1],"loss_changes":[5.3774095E0,7.0998683E0,6.418492E0,6.003661E0,2.4278975E0,0E0,2.1708002E0,0E0,0E0,0E0,0E0,0E0,0E0],"parents":[2147483647,0,0,1,1,2,2,3,3,4,4,6,6],"right_children":[2,4,6,8,10,-1,12,-1,-1,-1,-1,-1,-1],"split_conditions":[1.3702E0,9.91E-1,6.221E-1,1.6E1,1.2431E0,-7.0284986E-1,4E0,8.9538045E-2,-1.6218904E-1,-1.1092192E0,-1.6512817E-2,1.3833293E-2,1.0234283E0],"split_indices":[2,2,3,34,4,0,17,0,0,0,0,0,0],"split_type":[0,0,0,0,0,0,0,0,0,0,0,0,0],"sum_hessian":[3.2350266E2,3.1237195E2,1.11306925E1,3.054782E2,6.8937383E0,1.6791457E0,9.451547E0,1.9845192E2,1.070263E2,4.8252335E0,2.0685048E0,1.9682739E0,7.483273E0],"tree_param":{"num_deleted":"0","num_feature":"39","num_nodes":"13","size_leaf_vector":"1"}},{"base_weights":[-3.4909165E-3,-2.8225568E-1,5.3325582E-2,8.4181976E-1,-4.074449E-1,-1.0081909E-2,3.8218242E-1,-1.0677563E-1,1.0799068E0,-1.5750185E-1,-9.076375E-1,5.9169196E-2,-4.7514954E-1,-8.501176E-1,4.6339616E-1],"categories":[],"categories_nodes":[],"categories_segments":[],"categories_sizes":[],"default_left":[0,0,0,0,0,0,0,0,0,0,0,0,0,0,0],"id":21,"left_children":[1,3,5,7,9,11,13,-1,-1,-1,-1,-1,-1,-1,-1],"loss_changes":[5.120093E0,8.044735E0,5.6044807E0,2.4790368E0,7.061844E0,9.714355E0,9.860434E0,0E0,0E0,0E0,0E0,0E0,0E0,0E0,0E0],"parents":[2147483647,0,0,1,1,2,2,3,3,4,4,5,5,6,6],"right_children":[2,4,6,8,10,12,14,-1,-1,-1,-1,-1,-1,-1,-1],"split_conditions":[-9.678E-1,-2.5526E0,5.462E-1,5E0,8.525E-1,1.8E1,3E0,-1.0677563E-1,1.0799068E0,-1.5750185E-1,-9.076375E-1,5.9169196E-2,-4.7514954E-1,-8.501176E-1,4.6339616E-1],"split_indices":[7,7,0,16,4,35,26,0,0,0,0,0,0,0,0],"split_type":[0,0,0,0,0,0,0,0,0,0,0,0,0,0,0],"sum_hessian":[3.2131976E2,5.3730125E1,2.6758963E2,4.810671E0,4.8919453E1,2.2514781E2,4.244182E1,1.6529149E0,3.157756E0,3.7292404E1,1.16270485E1,1.9732428E2,2.7823534E1,3.8083591E0,3.8633457E1],"tree_param":{"num_deleted":"0","num_feature":"39","num_nodes":"15","size_leaf_vector":"1"}},{"base_weights":[-1.1129218E-2,8.6953765E-1,-2.7244592E-2,4.5523923E-2,-2.34257E-1,-9.607691E-2,2.5405127E-1,-2.7704188E-1,1.0854658E0],"categories":[],"categories_nodes":[],"categories_segments":[],"categories_sizes":[],"default_left":[0,0,0,0,0,0,0,0,0],"id":22,"left_children":[1,-1,3,5,7,-1,-1,-1,-1],"loss_changes":[5.186874E0,0E0,4.6700063E0,9.058162E0,1.10078335E1,0E0,0E0,0E0,0E0],"parents":[2147483647,0,0,2,2,3,3,4,4],"right_children":[2,-1,4,6,8,-1,-1,-1,-1],"split_conditions":[-1.7399E0,8.6953765E-1,7E0,2.829E-1,6E0,-9.607691E-2,2.5405127E-1,-2.7704188E-1,1.0854658E0],"split_indices":[0,0,17,7,18,0,0,0,0],"split_type":[0,0,0,0,0,0,0,0,0],"sum_hessian":[3.1219052E2,3.8870811E0,3.0830344E2,2.2869366E2,7.960977E1,1.4070633E2,8.7987335E1,7.593486E1,3.674908E0],"tree_param":{"num_deleted":"0","num_feature":"39","num_nodes":"9","size_leaf_vector":"1"}},{"base_weights":[1.4957777E-3,2.5609013E-2,-7.848996E-1,1.3872647E-1,-9.69649E-2,-1.2137117E0,3.2776713E-1,9.3441004E-1,4.0878735E-2,1.2676063E-1,-4.3369493E-1,-3.925405E-1,-1.4720447E0,-1.5292172E-1,5.4239494E-1],"categories":[],"categories_nodes":[],"categories_segments":[],"categories_sizes":[],"default_left":[0,0,0,0,0,0,0,0,0,0,0,0,0,0,0],"id":23,"left_children":[1,3,5,7,9,11,13,-1,-1,-1,-1,-1,-1,-1,-1],"loss_changes":[5.916219E0,4.2098107E0,4.82656E0,1.3588215E1,1.45910015E1,1.825448E0,6.2819767E-1,0E0,0E0,0E0,0E0,0E0,0E0,0E0,0E0],"parents":[2147483647,0,0,1,1,2,2,3,3,4,4,5,5,6,6],"right_children":[2,4,6,8,10,12,14,-1,-1,-1,-1,-1,-1,-1,-1],"split_conditions":[2.4527E0,1E0,1.5062E0,-3.427E-1,1E1,6E0,1.1132E0,9.3441004E-1,4.0878735E-2,1.2676063E-1,-4.3369493E-1,-3.925405E-1,-1.4720447E0,-1.5292172E-1,5.4239494E-1],"split_indices":[5,14,6,0,30,30,4,0,0,0,0,0,0,0,0],"split_type":[0,0,0,0,0,0,0,0,0,0,0,0,0,0,0],"sum_hessian":[3.0993512E2,3.0165298E2,8.282147E0,1.5680945E2,1.4484352E2,5.91265E0,2.3694975E0,1.2805325E1,1.4400412E2,9.0931335E1,5.391219E1,3.1059635E0,2.8066866E0,1.042523E0,1.3269745E0],"tree_param":{"num_deleted":"0","num_feature":"39","num_nodes":"15","size_leaf_vector":"1"}},{"base_weights":[4.5024637E-5,-4.4258192E-1,2.5177248E-2,-8.9021194E-1,6.9125086E-1,-3.8863388E-1,6.0936637E-2,5.1922804E-1,-9.625103E-1,1.2030046E0,-4.519123E-1,-1.0133541E0,2.0374802E-1,4.3455333E-1,2.924441E-2],"categories":[],"categories_nodes":[],"categories_segments":[],"categories_sizes":[],"default_left":[0,0,0,0,0,0,0,0,0,0,0,0,0,0,0],"id":24,"left_children":[1,3,5,7,9,11,13,-1,-1,-1,-1,-1,-1,-1,-1],"loss_changes":[3.4307566E0,9.0254E0,4.342118E0,4.8893948E0,5.257703E0,1.1812923E1,3.2078013E0,0E0,0E0,0E0,0E0,0E0,0E0,0E0,0E0],"parents":[2147483647,0,0,1,1,2,2,3,3,4,4,5,5,6,6],"right_children":[2,4,6,8,10,12,14,-1,-1,-1,-1,-1,-1,-1,-1],"split_conditions":[5E0,1E0,3E0,-1.3404E0,4E0,9E0,-6.801E-1,5.1922804E-1,-9.625103E-1,1.2030046E0,-4.519123E-1,-1.0133541E0,2.0374802E-1,4.3455333E-1,2.924441E-2],"split_indices":[30,14,16,7,16,32,8,0,0,0,0,0,0,0,0],"split_type":[0,0,0,0,0,0,0,0,0,0,0,0,0,0,0],"sum_hessian":[3.0640314E2,1.5570282E1,2.9083286E2,1.1317191E1,4.253091E0,2.2348288E1,2.6848456E2,1.2865775E0,1.0030614E1,2.5945513E0,1.6585395E0,9.487617E0,1.286067E1,1.4327355E1,2.5415721E2],"tree_param":{"num_deleted":"0","num_feature":"39","num_nodes":"15","size_leaf_vector":"1"}},{"base_weights":[-1.5659662E-2,3.4290963E-1,-4.4354044E-2,6.8214816E-1,-8.060889E-1,-2.4820705E-1,3.5773326E-2,7.790663E-1,-1.9379339E-1,2.7586028E-1,-1.0044622E0,2.402275E-1,-4.6627015E-1,-4.1181806E-1,1.0948256E-1],"categories":[],"categories_nodes":[],"categories_segments":[],"categories_sizes":[],"default_left":[0,0,0,0,0,0,0,0,0,0,0,0,0,0,0],"id":25,"left_children":[1,3,5,7,9,11,13,-1,-1,-1,-1,-1,-1,-1,-1],"loss_changes":[3.038244E0,9.080218E0,4.4669676E0,3.744793E0,2.595896E0,1.2113589E1,9.331007E0,0E0,0E0,0E0,0E0,0E0,0E0,0E0,0E0],"parents":[2147483647,0,0,1,1,2,2,3,3,4,4,5,5,6,6],"right_children":[2,4,6,8,10,12,14,-1,-1,-1,-1,-1,-1,-1,-1],"split_conditions":[2E0,8E0,1E1,1.6E1,-1.2074E0,4E0,2E0,7.790663E-1,-1.9379339E-1,2.7586028E-1,-1.0044622E0,2.402275E-1,-4.6627015E-1,-4.1181806E-1,1.0948256E-1],"split_indices":[17,35,34,33,5,17,20,0,0,0,0,0,0,0,0],"split_type":[0,0,0,0,0,0,0,0,0,0,0,0,0,0,0],"sum_hessian":[2.9281442E2,2.0884771E1,2.7192963E2,1.6437855E1,4.446918E0,7.6135284E1,1.9579436E2,1.3188074E1,3.2497795E0,1.1085963E0,3.3383217E0,2.726195E1,4.8873337E1,2.8926384E1,1.6686797E2],"tree_param":{"num_deleted":"0","num_feature":"39","num_nodes":"15","size_leaf_vector":"1"}},{"base_weights":[-8.069009E-3,3.1029293E-1,-4.9756467E-2,1.0148988E0,-9.5502967E-1,-2.2081184E-1,1.12198725E-1,1.0304173E0,-6.5026456E-1,-9.692524E-1,2.6338604E-1,-1.481327E-1,-1.4797958E0,1.6497305E-1,-8.035522E-1],"categories":[],"categories_nodes":[],"categories_segments":[],"categories_sizes":[],"default_left":[0,0,0,0,0,0,0,0,0,0,0,0,0,0,0],"id":26,"left_children":[1,3,5,7,9,11,13,-1,-1,-1,-1,-1,-1,-1,-1],"loss_changes":[3.7523596E0,3.0157986E1,6.9459305E0,7.8884525E0,2.9974928E0,8.578497E0,1.0929221E1,0E0,0E0,0E0,0E0,0E0,0E0,0E0,0E0],"parents":[2147483647,0,0,1,1,2,2,3,3,4,4,5,5,6,6],"right_children":[2,4,6,8,10,12,14,-1,-1,-1,-1,-1,-1,-1,-1],"split_conditions":[2E0,1E0,1E0,2.18E-1,1.422E0,1.9E1,1.9E1,1.0304173E0,-6.5026456E-1,-9.692524E-1,2.6338604E-1,-1.481327E-1,-1.4797958E0,1.6497305E-1,-8.035522E-1],"split_indices":[26,13,13,2,1,26,34,0,0,0,0,0,0,0,0],"split_type":[0,0,0,0,0,0,0,0,0,0,0,0,0,0,0],"sum_hessian":[2.805706E2,3.1739172E1,2.488314E2,2.05138E1,1.1225373E1,1.2083905E2,1.27992355E2,1.8883266E1,1.6305314E0,9.971904E0,1.2534696E0,1.18129005E2,2.7100494E0,1.1970127E2,8.291081E0],"tree_param":{"num_deleted":"0","num_feature":"39","num_nodes":"15","size_leaf_vector":"1"}},{"base_weights":[-1.8284468E-2,1.8566813E-1,-1.13490105E-1,4.1510664E-2,9.77366E-1,-2.4379516E-1,1.4653294E-1,-7.563868E-2,9.9358314E-1,1.0937719E0,-3.6299986E-1,2.5637338E-1,-2.9657608E-1,-7.8007084E-1,2.2858083E-1],"categories":[],"categories_nodes":[],"categories_segments":[],"categories_sizes":[],"default_left":[0,0,0,0,0,0,0,0,0,0,0,0,0,0,0],"id":27,"left_children":[1,3,5,7,9,11,13,-1,-1,-1,-1,-1,-1,-1,-1],"loss_changes":[5.2238307E0,9.734682E0,6.2460756E0,1.0700396E1,5.9554214E0,6.8103414E0,8.00799E0,0E0,0E0,0E0,0E0,0E0,0E0,0E0,0E0],"parents":[2147483647,0,0,1,1,2,2,3,3,4,4,5,5,6,6],"right_children":[2,4,6,8,10,12,14,-1,-1,-1,-1,-1,-1,-1,-1],"split_conditions":[-2.475E-1,5E0,8.974E-1,2.055E0,1.48E-2,-1.0443E0,1E0,-7.563868E-2,9.9358314E-1,1.0937719E0,-3.6299986E-1,2.5637338E-1,-2.9657608E-1,-7.8007084E-1,2.2858083E-1],"split_indices":[5,20,5,4,1,4,20,0,0,0,0,0,0,0,0],"split_type":[0,0,0,0,0,0,0,0,0,0,0,0,0,0,0],"sum_hessian":[2.6694266E2,8.4650795E1,1.8229185E2,7.250166E1,1.2149138E1,1.2147809E2,6.0813766E1,6.577721E1,6.724455E0,1.0112545E1,2.0365932E0,1.8787382E1,1.02690704E2,5.512015E0,5.530175E1],"tree_param":{"num_deleted":"0","num_feature":"39","num_nodes":"15","size_leaf_vector":"1"}},{"base_weights":[-4.389243E-4,4.510658E-1,-4.287516E-2,8.348689E-1,-7.622027E-1,-1.7046972E-1,1.2137334E-1,-7.880076E-1,8.957232E-1,-1.4024749E-2,-4.2670327E-1,1.8050355E-1,-4.7732025E-1],"categories":[],"categories_nodes":[],"categories_segments":[],"categories_sizes":[],"default_left":[0,0,0,0,0,0,0,0,0,0,0,0,0],"id":28,"left_children":[1,3,5,7,-1,9,11,-1,-1,-1,-1,-1,-1],"loss_changes":[4.9457393E0,1.212271E1,4.965339E0,7.3769493E0,0E0,6.6800056E0,6.327371E0,0E0,0E0,0E0,0E0,0E0,0E0],"parents":[2147483647,0,0,1,1,2,2,3,3,5,5,6,6],"right_children":[2,4,6,8,-1,10,12,-1,-1,-1,-1,-1,-1],"split_conditions":[1E0,7.206E-1,1.6E1,-4.65E-2,-7.622027E-1,8.153E-1,6E0,-7.880076E-1,8.957232E-1,-1.4024749E-2,-4.2670327E-1,1.8050355E-1,-4.7732025E-1],"split_indices":[20,5,33,0,0,3,18,0,0,0,0,0,0],"split_type":[0,0,0,0,0,0,0,0,0,0,0,0,0],"sum_hessian":[2.5611682E2,2.1176628E1,2.3494019E2,1.6746351E1,4.4302773E0,1.3220241E2,1.02737785E2,1.4053057E0,1.5341045E1,9.04431E1,4.17593E1,9.145899E1,1.12787895E1],"tree_param":{"num_deleted":"0","num_feature":"39","num_nodes":"13","size_leaf_vector":"1"}},{"base_weights":[-2.474453E-3,-3.6049983E-1,4.02826E-2,1.4395267E-1,-4.6396032E-1,1.1557918E-1,-1.9609289E-1,3.4741547E-2,1.633847E-1,-6.6304654E-1,-3.2778007E-1,6.037185E-1,5.23857E-2,3.2638106E-4,-7.394931E-1],"categories":[],"categories_nodes":[],"categories_segments":[],"categories_sizes":[],"default_left":[0,0,0,0,0,0,0,0,0,0,0,0,0,0,0],"id":29,"left_children":[1,3,5,7,9,11,13,-1,-1,-1,-1,-1,-1,-1,-1],"loss_changes":[3.8296745E0,1.4596982E0,4.001209E0,1.761379E-2,2.75311E-1,5.412078E0,7.091588E0,0E0,0E0,0E0,0E0,0E0,0E0,0E0,0E0],"parents":[2147483647,0,0,1,1,2,2,3,3,4,4,5,5,6,6],"right_children":[2,4,6,8,10,12,14,-1,-1,-1,-1,-1,-1,-1,-1],"split_conditions":[-9.837E-1,-1.0608E0,1.48E-2,-1.3001E0,6E0,-1.4615E0,1.2E1,3.4741547E-2,1.633847E-1,-6.6304654E-1,-3.2778007E-1,6.037185E-1,5.23857E-2,3.2638106E-4,-7.394931E-1],"split_indices":[1,6,1,3,28,3,28,0,0,0,0,0,0,0,0],"split_type":[0,0,0,0,0,0,0,0,0,0,0,0,0,0,0],"sum_hessian":[2.4822427E2,2.568874E1,2.2253552E2,4.3053484E0,2.138339E1,1.6916093E2,5.3374588E1,1.9025955E0,2.4027529E0,2.7775774E0,1.8605814E1,1.3414683E1,1.5574626E2,4.1955616E1,1.1418972E1],"tree_param":{"num_deleted":"0","num_feature":"39","num_nodes":"15","size_leaf_vector":"1"}},{"base_weights":[-4.92924E-3,-1.2721224E-1,1.2932116E-1,7.174435E-2,-5.311264E-1,-3.7013477E-1,2.6892468E-1,4.5384225E-1,-1.2741446E-1,1.6245161E-1,-7.576058E-1,-6.99537E-1,3.0708557E-1,-1.6458909E-1,3.4910595E-1],"categories":[],"categories_nodes":[],"categories_segments":[],"categories_sizes":[],"default_left":[0,0,0,0,0,0,0,0,0,0,0,0,0,0,0],"id":30,"left_children":[1,3,5,7,9,11,13,-1,-1,-1,-1,-1,-1,-1,-1],"loss_changes":[3.9980166E0,1.0278408E1,8.195096E0,8.727077E0,1.0788407E1,8.602221E0,5.837129E0,0E0,0E0,0E0,0E0,0E0,0E0,0E0,0E0],"parents":[2147483647,0,0,1,1,2,2,3,3,4,4,5,5,6,6],"right_children":[2,4,6,8,10,12,14,-1,-1,-1,-1,-1,-1,-1,-1],"split_conditions":[2.805E-1,1.147E-1,1E1,1E1,5E0,6.973E-1,4E0,4.5384225E-1,-1.2741446E-1,1.6245161E-1,-7.576058E-1,-6.99537E-1,3.0708557E-1,-1.6458909E-1,3.4910595E-1],"split_indices":[3,7,34,34,28,5,17,0,0,0,0,0,0,0,0],"split_type":[0,0,0,0,0,0,0,0,0,0,0,0,0,0,0],"sum_hessian":[2.4153374E2,1.2642813E2,1.1510561E2,8.525589E1,4.117224E1,2.4784264E1,9.032135E1,2.7282963E1,5.7972927E1,1.36127615E1,2.755948E1,1.5324492E1,9.45977E0,2.0626772E1,6.969457E1],"tree_param":{"num_deleted":"0","num_feature":"39","num_nodes":"15","size_leaf_vector":"1"}},{"base_weights":[-1.3522358E-3,1.55210635E-2,-9.485898E-1,7.6374374E-2,-2.3401329E-1,3.9668754E-2,-1.1853095E0,-3.2932302E-1,1.3658021E-1,-4.602118E-1,2.589086E-1],"categories":[],"categories_nodes":[],"categories_segments":[],"categories_sizes":[],"default_left":[0,0,0,0,0,0,0,0,0,0,0],"id":31,"left_children":[1,3,5,7,9,-1,-1,-1,-1,-1,-1],"loss_changes":[3.6789486E0,3.4531572E0,1.7853508E0,6.976126E0,7.346917E0,0E0,0E0,0E0,0E0,0E0,0E0],"parents":[2147483647,0,0,1,1,2,2,3,3,4,4],"right_children":[2,4,6,8,10,-1,-1,-1,-1,-1,-1],"split_conditions":[2E1,1.699E-1,1E0,3E0,1.1E1,3.9668754E-2,-1.1853095E0,-3.2932302E-1,1.3658021E-1,-4.602118E-1,2.589086E-1],"split_indices":[32,0,15,28,35,0,0,0,0,0,0],"split_type":[0,0,0,0,0,0,0,0,0,0,0],"sum_hessian":[2.2825734E2,2.2522891E2,3.0284255E0,1.8162936E2,4.359956E1,1.1828161E0,1.8456092E0,2.7084543E1,1.5454482E2,2.7898977E1,1.5700585E1],"tree_param":{"num_deleted":"0","num_feature":"39","num_nodes":"11","size_leaf_vector":"1"}},{"base_weights":[-9.8498E-3,3.417142E-2,-3.0819386E-1,9.340981E-2,-3.4559253E-1,-1.0375469E0,-8.026426E-2,-4.9958606E-3,2.2835098E-1,4.341577E-1,-5.7717115E-1,-9.974088E-1,-1.6444106E-1,-9.730981E-1,9.5275305E-2],"categories":[],"categories_nodes":[],"categories_segments":[],"categories_sizes":[],"default_left":[0,0,0,0,0,0,0,0,0,0,0,0,0,0,0],"id":32,"left_children":[1,3,5,7,9,11,13,-1,-1,-1,-1,-1,-1,-1,-1],"loss_changes":[2.9268346E0,4.405624E0,4.679711E0,2.8867965E0,7.6599445E0,4.7527218E-1,4.727216E0,0E0,0E0,0E0,0E0,0E0,0E0,0E0,0E0],"parents":[2147483647,0,0,1,1,2,2,3,3,4,4,5,5,6,6],"right_children":[2,4,6,8,10,12,14,-1,-1,-1,-1,-1,-1,-1,-1],"split_conditions":[1.7887E0,1.8E1,-4.47E-2,2.309E-1,-2.53E-2,3E0,-1.171E-1,-4.9958606E-3,2.2835098E-1,4.341577E-1,-5.7717115E-1,-9.974088E-1,-1.6444106E-1,-9.730981E-1,9.5275305E-2],"split_indices":[4,32,6,4,1,13,0,0,0,0,0,0,0,0,0],"split_type":[0,0,0,0,0,0,0,0,0,0,0,0,0,0,0],"sum_hessian":[2.2105121E2,1.9340012E2,2.7651083E1,1.6795525E2,2.5444868E1,5.7379956E0,2.1913088E1,1.0715172E2,6.0803535E1,6.891319E0,1.855355E1,4.690262E0,1.047734E0,2.6129267E0,1.9300161E1],"tree_param":{"num_deleted":"0","num_feature":"39","num_nodes":"15","size_leaf_vector":"1"}},{"base_weights":[-1.5140131E-2,1.8263E-1,-8.553994E-2,-6.359155E-1,3.1479108E-1,8.692392E-1,-1.05720855E-1,-1.0517484E0,3.9838237E-1,4.5901814E-1,-1.7367777E-1,-1.1422794E-1,5.424362E-1],"categories":[],"categories_nodes":[],"categories_segments":[],"categories_sizes":[],"default_left":[0,0,0,0,0,0,0,0,0,0,0,0,0],"id":33,"left_children":[1,3,5,7,9,-1,11,-1,-1,-1,-1,-1,-1],"loss_changes":[3.0478687E0,6.419695E0,3.675344E0,5.9371786E0,5.7839675E0,0E0,3.2630668E0,0E0,0E0,0E0,0E0,0E0,0E0],"parents":[2147483647,0,0,1,1,2,2,3,3,4,4,6,6],"right_children":[2,4,6,8,10,-1,12,-1,-1,-1,-1,-1,-1],"split_conditions":[-8.6E-3,7E0,-2.8339E0,1.1256E0,7E0,8.692392E-1,4E0,-1.0517484E0,3.9838237E-1,4.5901814E-1,-1.7367777E-1,-1.1422794E-1,5.424362E-1],"split_indices":[0,33,4,4,17,0,13,0,0,0,0,0,0],"split_type":[0,0,0,0,0,0,0,0,0,0,0,0,0],"sum_hessian":[2.167872E2,5.649234E1,1.6029486E2,7.3233266E0,4.9169014E1,2.0102167E0,1.5828465E2,4.7002935E0,2.6230328E0,3.4512627E1,1.4656387E1,1.5345695E2,4.82769E0],"tree_param":{"num_deleted":"0","num_feature":"39","num_nodes":"13","size_leaf_vector":"1"}},{"base_weights":[2.8329722E-3,1.1136846E-1,-1.2289979E-1,2.2838983E-1,-2.3507756E-1,-7.189742E-1,6.962752E-2,3.686343E-1,-4.9106948E-2,-8.3392644E-1,1.1268621E-1,4.1736767E-1,-8.0056095E-1,-2.2866061E-1,2.8775978E-1],"categories":[],"categories_nodes":[],"categories_segments":[],"categories_sizes":[],"default_left":[0,0,0,0,0,0,0,0,0,0,0,0,0,0,0],"id":34,"left_children":[1,3,5,7,9,11,13,-1,-1,-1,-1,-1,-1,-1,-1],"loss_changes":[2.9069202E0,4.6881223E0,1.1376963E1,4.9387302E0,8.022143E0,6.6237373E0,6.8025165E0,0E0,0E0,0E0,0E0,0E0,0E0,0E0,0E0],"parents":[2147483647,0,0,1,1,2,2,3,3,4,4,5,5,6,6],"right_children":[2,4,6,8,10,12,14,-1,-1,-1,-1,-1,-1,-1,-1],"split_conditions":[1.17E-2,6.057E-1,3.732E-1,1.6E1,-4.721E-1,-4.999E-1,1E1,3.686343E-1,-4.9106948E-2,-8.3392644E-1,1.1268621E-1,4.1736767E-1,-8.0056095E-1,-2.2866061E-1,2.8775978E-1],"split_indices":[6,4,6,31,6,8,31,0,0,0,0,0,0,0,0],"split_type":[0,0,0,0,0,0,0,0,0,0,0,0,0,0,0],"sum_hessian":[2.1101335E2,1.1331307E2,9.770028E1,8.495726E1,2.8355812E1,2.318474E1,7.451554E1,4.963786E1,3.53194E1,8.8830805E0,1.9472733E1,3.2761655E0,1.9908573E1,3.2879856E1,4.163568E1],"tree_param":{"num_deleted":"0","num_feature":"39","num_nodes":"15","size_leaf_vector":"1"}},{"base_weights":[-4.2074504E-3,-3.9092667E-2,4.1131875E-1,6.516267E-2,-2.1893279E-1,-8.384262E-2,8.2957536E-1,1.7070313E-1,-1.539865E-1,1.7080438E-1,-3.968457E-1,-6.5412945E-1,4.167482E-1],"categories":[],"categories_nodes":[],"categories_segments":[],"categories_sizes":[],"default_left":[0,0,0,0,0,0,0,0,0,0,0,0,0],"id":35,"left_children":[1,3,5,7,9,11,-1,-1,-1,-1,-1,-1,-1],"loss_changes":[2.9074385E0,3.4815233E0,4.3372297E0,3.8723848E0,6.986757E0,3.8765101E0,0E0,0E0,0E0,0E0,0E0,0E0,0E0],"parents":[2147483647,0,0,1,1,2,2,3,3,4,4,5,5],"right_children":[2,4,6,8,10,12,-1,-1,-1,-1,-1,-1,-1],"split_conditions":[9.026E-1,1.1E1,1.5E1,1.5E1,-1.578E-1,1.3109E0,8.2957536E-1,1.7070313E-1,-1.539865E-1,1.7080438E-1,-3.968457E-1,-6.5412945E-1,4.167482E-1],"split_indices":[2,30,30,34,6,2,0,0,0,0,0,0,0],"split_type":[0,0,0,0,0,0,0,0,0,0,0,0,0],"sum_hessian":[1.9846292E2,1.8392735E2,1.4535574E1,1.1683465E2,6.70927E1,8.118581E0,6.416993E0,7.569593E1,4.1138718E1,2.4717422E1,4.2375275E1,3.5517733E0,4.5668077E0],"tree_param":{"num_deleted":"0","num_feature":"39","num_nodes":"13","size_leaf_vector":"1"}},{"base_weights":[7.870248E-3,-8.7199934E-2,1.3196728E-1,-4.4297907E-1,-3.3071202E-3,-6.70635E-1,2.2123635E-1,4.2060096E-2,-9.0157753E-1,-1.8637243E-1,1.353898E-1,4.2229193E-1,-8.9674973E-1,3.6203873E-1,-1.3491437E-1],"categories":[],"categories_nodes":[],"categories_segments":[],"categories_sizes":[],"default_left":[0,0,0,0,0,0,0,0,0,0,0,0,0,0,0],"id":36,"left_children":[1,3,5,7,9,11,13,-1,-1,-1,-1,-1,-1,-1,-1],"loss_changes":[2.338045E0,3.349201E0,6.3056626E0,6.4273343E0,3.184684E0,4.337399E0,5.96362E0,0E0,0E0,0E0,0E0,0E0,0E0,0E0,0E0],"parents":[2147483647,0,0,1,1,2,2,3,3,4,4,5,5,6,6],"right_children":[2,4,6,8,10,12,14,-1,-1,-1,-1,-1,-1,-1,-1],"split_conditions":[1.456E-1,1E1,-1.995E-1,4E0,3E0,-5.85E-1,9.537E-1,4.2060096E-2,-9.0157753E-1,-1.8637243E-1,1.353898E-1,4.2229193E-1,-8.9674973E-1,3.6203873E-1,-1.3491437E-1],"split_indices":[6,34,0,17,20,2,6,0,0,0,0,0,0,0,0],"split_type":[0,0,0,0,0,0,0,0,0,0,0,0,0,0,0],"sum_hessian":[1.9619885E2,1.11260216E2,8.493864E1,2.0412598E1,9.084762E1,7.849818E0,7.708881E1,1.1769E1,8.643598E0,3.8879906E1,5.1967712E1,1.826843E0,6.022975E0,5.0368332E1,2.6720488E1],"tree_param":{"num_deleted":"0","num_feature":"39","num_nodes":"15","size_leaf_vector":"1"}}]},"name":"gbtree"},"learner_model_param":{"base_score":"3.935052E-1","boost_from_average":"1","num_class":"0","num_feature":"39","num_target":"1"},"objective":{"name":"binary:logistic","reg_loss_param":{"scale_pos_weight":"5"}}},"version":[2,1,4]}