{"learner":{"attributes":{"best_iteration":"8","best_score":"0.22975511621749314"},"feature_names":[],"feature_types":[],"gradient_booster":{"model":{"gbtree_model_param":{"num_parallel_tree":"1","num_trees":"19"},"iteration_indptr":[0,1,2,3,4,5,6,7,8,9,10,11,12,13,14,15,16,17,18,19],"tree_info":[0,0,0,0,0,0,0,0,0,0,0,0,0,0,0,0,0,0,0],"trees":[{"base_weights":[-0E0,-8.00638E-2,1.1821036E0,1.8665163E-1,-5.974838E-1,-2.1518987E-1,1.6395833E0,2.9246372E-1,-1.5027323E0,-1.2249953E0,-1.6101696E-1,1.185965E0,-1.3504274E0,-7.246377E-1,1.7239892E0,-7.2329193E-3,5.25723E-1,-1.8430718E0,2.962963E-2,-1.7209691E-1,-1.5345168E0,4.879555E-2,-1.4185185E0,1.6175299E0,-1.36E0,-1.4924471E0,8.333333E-1,1.2592592E0,-1.3878261E0,1.8124294E0,-1.1235955E-1,-3.6010697E-1,3.6563885E-1,6.9598526E-1,-2.925894E-1,-1.5136335E0,-9.415385E-1,-6.94104E-1,1.2491089E0,-6.9003177E-1,4.8714533E-1,-9.278132E-1,-1.3705148E0,-2.0126846E-1,4.5619413E-1,-1.2157017E0,1.1458461E0,-9.12E-1,1.296653E0,4E-1,-1.2121519E0,1.2E0,-8.4444445E-1,2.5333333E-1,1.2E0,1.4177855E0,-1.5510204E-1,-1.0766666E0,9.7955555E-1],"categories":[],"categories_nodes":[],"categories_segments":[],"categories_sizes":[],"default_left":[0,0,0,0,0,0,0,0,0,0,0,0,0,0,0,0,0,0,0,0,0,0,0,0,0,0,0,0,0,0,0,0,0,0,0,0,0,0,0,0,0,0,0,0,0,0,0,0,0,0,0,0,0,0,0,0,0,0,0],"id":0,"left_children":[1,3,5,7,9,11,13,15,17,19,21,23,25,27,29,31,33,35,37,39,41,43,45,47,-1,49,51,53,-1,55,57,-1,-1,-1,-1,-1,-1,-1,-1,-1,-1,-1,-1,-1,-1,-1,-1,-1,-1,-1,-1,-1,-1,-1,-1,-1,-1,-1,-1],"loss_changes":[9.5041205E2,1.2980381E3,4.0754443E2,1.109941E3,8.760387E2,2.5292323E2,9.703528E1,4.083831E2,1.9093213E2,4.2739124E2,4.981983E2,9.438629E1,2.8458252E1,3.999356E1,7.55199E1,5.830216E2,1.167248E3,2.4414429E1,1.0422381E2,1.7962166E2,8.330176E1,2.8016534E2,1.454859E2,1.7710526E1,0E0,1.7960602E1,1.0453217E1,1.471734E0,0E0,4.774243E1,4.2491325E1,0E0,0E0,0E0,0E0,0E0,0E0,0E0,0E0,0E0,0E0,0E0,0E0,0E0,0E0,0E0,0E0,0E0,0E0,0E0,0E0,0E0,0E0,0E0,0E0,0E0,0E0,0E0,0E0],"parents":[2147483647,0,0,1,1,2,2,3,3,4,4,5,5,6,6,7,7,8,8,9,9,10,10,11,11,12,12,13,13,14,14,15,15,16,16,17,17,18,18,19,19,20,20,21,21,22,22,23,23,25,25,26,26,27,27,29,29,30,30],"right_children":[2,4,6,8,10,12,14,16,18,20,22,24,26,28,30,32,34,36,38,40,42,44,46,48,-1,50,52,54,-1,56,58,-1,-1,-1,-1,-1,-1,-1,-1,-1,-1,-1,-1,-1,-1,-1,-1,-1,-1,-1,-1,-1,-1,-1,-1,-1,-1,-1,-1],"split_conditions":[2.3346E0,1E0,1E0,1.8E1,7E0,1E1,3E0,4E0,6E0,9E0,2E0,8.354E-1,5.6854E0,7E0,8E0,9E0,9E0,2E0,2E0,9E0,2E0,1E1,2E0,-2.4441E0,-1.36E0,-1.2435E0,-1.165E-1,2.1047E0,-1.3878261E0,7E0,5E0,-3.6010697E-1,3.6563885E-1,6.9598526E-1,-2.925894E-1,-1.5136335E0,-9.415385E-1,-6.94104E-1,1.2491089E0,-6.9003177E-1,4.8714533E-1,-9.278132E-1,-1.3705148E0,-2.0126846E-1,4.5619413E-1,-1.2157017E0,1.1458461E0,-9.12E-1,1.296653E0,4E-1,-1.2121519E0,1.2E0,-8.4444445E-1,2.5333333E-1,1.2E0,1.4177855E0,-1.5510204E-1,-1.0766666E0,9.7955555E-1],"split_indices":[1,13,21,37,28,37,17,18,28,33,21,0,0,34,17,28,28,21,21,32,13,28,22,5,0,0,2,6,0,31,16,0,0,0,0,0,0,0,0,0,0,0,0,0,0,0,0,0,0,0,0,0,0,0,0,0,0,0,0],"split_type":[0,0,0,0,0,0,0,0,0,0,0,0,0,0,0,0,0,0,0,0,0,0,0,0,0,0,0,0,0,0,0,0,0,0,0,0,0,0,0,0,0,0,0,0,0,0,0,0,0,0,0,0,0,0,0,0,0,0,0],"sum_hessian":[1.004E4,9.404E3,6.36E2,6.20575E3,3.19825E3,1.57E2,4.79E2,5.84075E3,3.65E2,1.31125E3,1.887E3,7.025E1,8.675E1,1.625E1,4.6275E2,2.55675E3,3.284E3,2.985E2,6.65E1,2.9825E2,1.013E3,1.618E3,2.69E2,6.175E1,8.5E0,8.175E1,5E0,5.75E0,1.05E1,4.415E2,2.125E1,1.3075E3,1.24925E3,2.29925E3,9.8475E2,2.3775E2,6.075E1,4.225E1,2.425E1,1.565E2,1.4175E2,4.7E2,5.43E2,1.03175E3,5.8625E2,2.5375E2,1.525E1,1.5E0,6.025E1,3.75E0,7.8E1,3.75E0,1.25E0,2E0,3.75E0,4.3025E2,1.125E1,1.1E1,1.025E1],"tree_param":{"num_deleted":"0","num_feature":"41","num_nodes":"59","size_leaf_vector":"1"}},{"base_weights":[-8.71765E-3,6.3237846E-2,-6.5135837E-1,2.6034263E-1,-1.5213773E-1,-7.4130094E-1,1.0704911E0,7.0084476E-1,9.2782624E-2,-1.2578958E0,4.5573823E-2,-4.6059215E-1,-1.2819884E0,1.697745E0,-6.223964E-1,1.6242653E-1,1.551049E0,-1.91188E-1,4.0082687E-1,-1.5323039E0,1.0600519E0,3.6373422E-1,-1.918628E-1,-1.1658982E0,-1.6760638E-1,-1.4924722E0,-2.2250965E-1,-9.010328E-1,1.8448045E0,-1.1220663E0,9.0561324E-1,-4.253065E-1,7.238842E-1,-1.2347106E0,1.2278775E0,-4.7912976E-1,-3.2063294E-2,-1.0193814E-1,5.139674E-1,-1.351708E0,-6.760108E-1,1.3946862E0,-3.455703E-1,8.236552E-1,2.0082393E-1,-2.539792E-1,3.79945E-1,-1.1842368E0,3.2457894E-1,3.7686348E-2,-8.1106985E-1,-1.2073637E0,6.026739E-1,3.610491E-1,-1.2028718E0,1.5237151E0,2.4769303E-1],"categories":[],"categories_nodes":[],"categories_segments":[],"categories_sizes":[],"default_left":[0,0,0,0,0,0,0,0,0,0,0,0,0,0,0,0,0,0,0,0,0,0,0,0,0,0,0,0,0,0,0,0,0,0,0,0,0,0,0,0,0,0,0,0,0,0,0,0,0,0,0,0,0,0,0,0,0],"id":1,"left_children":[1,3,5,7,9,11,13,15,17,19,21,23,25,27,29,31,33,35,37,39,41,43,45,47,49,51,53,-1,55,-1,-1,-1,-1,-1,-1,-1,-1,-1,-1,-1,-1,-1,-1,-1,-1,-1,-1,-1,-1,-1,-1,-1,-1,-1,-1,-1,-1],"loss_changes":[4.1242883E2,3.4054495E2,1.3987842E2,3.0909268E2,8.3814197E2,1.2904059E2,4.883328E1,5.280348E2,2.656064E2,3.7149805E2,2.4581078E2,1.163053E2,6.463385E1,1.6220993E1,2.173671E1,4.0424283E2,9.4368774E1,1.0338894E2,2.1468512E2,8.079077E1,7.379409E1,9.932631E1,1.8363672E2,1.0396277E2,7.810567E1,5.4636475E1,4.768134E1,0E0,7.09877E0,0E0,0E0,0E0,0E0,0E0,0E0,0E0,0E0,0E0,0E0,0E0,0E0,0E0,0E0,0E0,0E0,0E0,0E0,0E0,0E0,0E0,0E0,0E0,0E0,0E0,0E0,0E0,0E0],"parents":[2147483647,0,0,1,1,2,2,3,3,4,4,5,5,6,6,7,7,8,8,9,9,10,10,11,11,12,12,13,13,14,14,15,15,16,16,17,17,18,18,19,19,20,20,21,21,22,22,23,23,24,24,25,25,26,26,28,28],"right_children":[2,4,6,8,10,12,14,16,18,20,22,24,26,28,30,32,34,36,38,40,42,44,46,48,50,52,54,-1,56,-1,-1,-1,-1,-1,-1,-1,-1,-1,-1,-1,-1,-1,-1,-1,-1,-1,-1,-1,-1,-1,-1,-1,-1,-1,-1,-1,-1],"split_conditions":[1.913E0,5E0,6E0,2E0,2E0,5E0,1.4E1,5.3E1,1.082E-1,3E0,2.115E-1,4E0,1.4E1,1E0,7E0,1E0,-7.28E-2,7E0,2.68E-2,2E0,3.9E-3,-2.1909E0,2E0,7E0,7E0,3.1303E0,1.0904E0,-9.010328E-1,5.8E1,-1.1220663E0,9.0561324E-1,-4.253065E-1,7.238842E-1,-1.2347106E0,1.2278775E0,-4.7912976E-1,-3.2063294E-2,-1.0193814E-1,5.139674E-1,-1.351708E0,-6.760108E-1,1.3946862E0,-3.455703E-1,8.236552E-1,2.0082393E-1,-2.539792E-1,3.79945E-1,-1.1842368E0,3.2457894E-1,3.7686348E-2,-8.1106985E-1,-1.2073637E0,6.026739E-1,3.610491E-1,-1.2028718E0,1.5237151E0,2.4769303E-1],"split_indices":[7,16,19,32,32,20,33,27,5,15,3,17,29,36,17,14,26,32,6,15,0,7,21,31,16,5,3,0,27,0,0,0,0,0,0,0,0,0,0,0,0,0,0,0,0,0,0,0,0,0,0,0,0,0,0,0,0],"split_type":[0,0,0,0,0,0,0,0,0,0,0,0,0,0,0,0,0,0,0,0,0,0,0,0,0,0,0,0,0,0,0,0,0,0,0,0,0,0,0,0,0,0,0,0,0,0,0,0,0,0,0,0,0,0,0,0,0],"sum_hessian":[8.917122E3,8.020033E3,8.9708923E2,4.187531E3,3.8325022E3,8.530963E2,4.3992886E1,1.1530555E3,3.0344753E3,5.8050433E2,3.2519978E3,5.627732E2,2.9032318E2,3.2097244E1,1.1895641E1,7.067042E2,4.4635135E2,1.579132E3,1.4553435E3,5.1935944E2,6.1144943E1,1.3895271E3,1.8624707E3,1.6429227E2,3.984809E2,2.41864E2,4.8459183E1,1.2149308E0,3.0882315E1,8.214469E0,3.6811724E0,3.6939792E2,3.373063E2,8.414496E0,4.3793686E2,3.9916736E2,1.1799646E3,4.9482834E2,9.605152E2,3.7422787E2,1.4513155E2,4.030853E1,2.0836416E1,1.674928E2,1.2220343E3,1.5451149E3,3.1735583E2,1.318443E2,3.2447968E1,3.2174493E2,7.673596E1,2.323907E2,9.473291E0,3.246206E1,1.599712E1,2.7648348E1,3.2339664E0],"tree_param":{"num_deleted":"0","num_feature":"41","num_nodes":"57","size_leaf_vector":"1"}},{"base_weights":[-2.6016836E-3,2.9168177E-2,-9.522702E-1,-3.0694657E-3,8.9342314E-1,-4.8941952E-1,-1.4817472E0,-9.5054364E-1,2.4775412E-2,1.1835386E0,8.2687E-2,-2.1563394E0,-1.2875067E-1,-1.8829201E0,8.0897945E-1,-1.1873715E0,5.855487E-1,3.7796833E-2,-1.7145469E0,-1.0165598E-1,1.476346E0,-1.0249398E0,7.276872E-1,-2.5753787E0,1.2168516E0,-6.308972E-1,4.5640954E-1,-1.6502453E0,-3.085738E0,-7.445009E-1,1.2675532E0,-1.24890715E-1,-1.0639985E0,-1.0367509E0,8.952039E-1,3.829996E-2,-1.2495911E0,5.709481E-2,-1.5133193E0,-5.078383E-1,7.703074E-1,1.2036815E0,-1.7616458E0,6.8952715E-1,-6.666205E-1,-1.1274519E0,-2.316582E0,-8.446415E-1,2.3228548E-1,7.950159E-1,-6.3175714E-1,8.183961E-1,-1.3534856E0,-2.499201E0,-7.9451853E-1,-1.3526909E0,3.3009648E-1,1.177819E0,-4.1665584E-1],"categories":[],"categories_nodes":[],"categories_segments":[],"categories_sizes":[],"default_left":[0,0,0,0,0,0,0,0,0,0,0,0,0,0,0,0,0,0,0,0,0,0,0,0,0,0,0,0,0,0,0,0,0,0,0,0,0,0,0,0,0,0,0,0,0,0,0,0,0,0,0,0,0,0,0,0,0,0,0],"id":2,"left_children":[1,3,5,7,9,11,13,15,17,19,21,23,25,27,29,31,33,35,37,39,41,-1,43,45,-1,47,49,51,53,55,57,-1,-1,-1,-1,-1,-1,-1,-1,-1,-1,-1,-1,-1,-1,-1,-1,-1,-1,-1,-1,-1,-1,-1,-1,-1,-1,-1,-1],"loss_changes":[2.4873683E2,2.222678E2,6.467706E1,2.0294606E2,6.7376434E1,8.622924E1,1.15462006E2,8.0589645E1,1.6931659E2,7.9625916E1,7.176788E1,4.4323524E1,3.5359455E1,2.4519623E1,1.4604978E1,4.1232697E1,3.626126E1,1.5727628E2,2.7655518E1,2.6028852E1,7.382123E1,0E0,1.6216482E1,7.5330048E0,0E0,2.9433075E1,4.3164074E1,3.4273376E1,3.1790771E0,6.8764114E0,8.626364E0,0E0,0E0,0E0,0E0,0E0,0E0,0E0,0E0,0E0,0E0,0E0,0E0,0E0,0E0,0E0,0E0,0E0,0E0,0E0,0E0,0E0,0E0,0E0,0E0,0E0,0E0,0E0,0E0],"parents":[2147483647,0,0,1,1,2,2,3,3,4,4,5,5,6,6,7,7,8,8,9,9,10,10,11,11,12,12,13,13,14,14,15,15,16,16,17,17,18,18,19,19,20,20,22,22,23,23,25,25,26,26,27,27,28,28,29,29,30,30],"right_children":[2,4,6,8,10,12,14,16,18,20,22,24,26,28,30,32,34,36,38,40,42,-1,44,46,-1,48,50,52,54,56,58,-1,-1,-1,-1,-1,-1,-1,-1,-1,-1,-1,-1,-1,-1,-1,-1,-1,-1,-1,-1,-1,-1,-1,-1,-1,-1,-1,-1],"split_conditions":[1.5747E0,1E0,3E0,-9.007E-1,1E0,-1.418E-1,1E1,1E0,5E0,1.2E1,2E0,6.569E-1,5.933E-1,2.389E0,4E0,3E0,0E0,3.6748E0,3E0,1.1E1,2.389E0,-1.0249398E0,1.0478E0,-1.879E-1,1.2168516E0,4.7E1,4E0,6E0,3.7E1,1.1E1,1.1987E0,-1.24890715E-1,-1.0639985E0,-1.0367509E0,8.952039E-1,3.829996E-2,-1.2495911E0,5.709481E-2,-1.5133193E0,-5.078383E-1,7.703074E-1,1.2036815E0,-1.7616458E0,6.8952715E-1,-6.666205E-1,-1.1274519E0,-2.316582E0,-8.446415E-1,2.3228548E-1,7.950159E-1,-6.3175714E-1,8.183961E-1,-1.3534856E0,-2.499201E0,-7.9451853E-1,-1.3526909E0,3.3009648E-1,1.177819E0,-4.1665584E-1],"split_indices":[8,22,21,8,13,1,37,37,38,29,36,5,4,6,21,28,0,4,16,28,6,0,9,1,0,27,19,36,27,29,3,0,0,0,0,0,0,0,0,0,0,0,0,0,0,0,0,0,0,0,0,0,0,0,0,0,0,0,0],"split_type":[0,0,0,0,0,0,0,0,0,0,0,0,0,0,0,0,0,0,0,0,0,0,0,0,0,0,0,0,0,0,0,0,0,0,0,0,0,0,0,0,0,0,0,0,0,0,0,0,0,0,0,0,0,0,0,0,0,0,0],"sum_hessian":[8.242359E3,7.9764863E3,2.6587314E2,7.6906147E3,2.8587177E2,1.428889E2,1.2298425E2,2.186172E2,7.4719976E3,2.1019525E2,7.567653E1,2.4531555E1,1.18357346E2,1.0480744E2,1.8176815E1,1.8961087E2,2.9006336E1,7.417445E3,5.4552364E1,3.9124084E1,1.7107117E2,2.3170036E1,5.250649E1,2.235327E1,2.1782846E0,6.365478E1,5.4702564E1,8.9807014E1,1.50004225E1,4.0006294E0,1.4176185E1,3.2932175E1,1.566787E2,6.4554863E0,2.255085E1,7.3632656E3,5.417953E1,7.4015775E0,4.7150787E1,2.620982E1,1.2914264E1,1.6692679E2,4.1443787E0,4.7613064E1,4.893425E0,8.004293E0,1.4348976E1,4.1947613E1,2.1707165E1,3.7649364E1,1.7053202E1,3.7749143E0,8.6032104E1,1.3088495E1,1.9119271E0,1.858499E0,2.1421306E0,1.2396093E1,1.7800916E0],"tree_param":{"num_deleted":"0","num_feature":"41","num_nodes":"59","size_leaf_vector":"1"}},{"base_weights":[-4.80686E-3,-3.0074555E-1,6.867265E-2,1.4668655E-1,-8.993543E-1,3.423733E-2,9.7806597E-1,5.832065E-1,-6.767613E-2,-1.1766778E0,-4.9886802E-1,-2.7305937E-1,1.1756315E-1,1.176435E0,-7.8974926E-1,-4.8871106E-1,8.309188E-1,-6.1374515E-1,2.678721E-1,2.8482275E-2,-1.2511255E0,-1.5979144E-1,-1.1452707E0,-1.0543242E0,3.5311E-1,-1.5602407E0,1.5497625E-1,1.4528688E0,5.3728815E-2,-1.4037514E0,6.4948654E-1,9.0314823E-1,-1.0550425E0,7.553518E-2,9.617676E-1,-6.6596866E-1,1.2366393E0,3.2584885E-1,-4.3722856E-1,1.0322239E0,-8.343886E-1,-1.0193608E0,-2.9853976E-1,2.4039626E-1,-4.4733799E-1,-1.0138592E0,6.683435E-1,-9.9212503E-1,5.990058E-1,-1.0236764E0,3.5821626E-1,4.112357E-1,-1.4978156E0,4.4186424E-2,4.022961E-1,1.2030603E0,-3.9858842E-1,-4.6400434E-1,9.453172E-1,1.0199883E0,-9.881411E-1],"categories":[],"categories_nodes":[],"categories_segments":[],"categories_sizes":[],"default_left":[0,0,0,0,0,0,0,0,0,0,0,0,0,0,0,0,0,0,0,0,0,0,0,0,0,0,0,0,0,0,0,0,0,0,0,0,0,0,0,0,0,0,0,0,0,0,0,0,0,0,0,0,0,0,0,0,0,0,0,0,0],"id":3,"left_children":[1,3,5,7,9,11,13,15,17,19,21,23,25,27,29,31,33,35,37,39,41,43,45,47,49,51,53,55,57,-1,59,-1,-1,-1,-1,-1,-1,-1,-1,-1,-1,-1,-1,-1,-1,-1,-1,-1,-1,-1,-1,-1,-1,-1,-1,-1,-1,-1,-1,-1,-1],"loss_changes":[1.7350667E2,4.2520685E2,2.001329E2,8.5105064E1,7.4824646E1,1.5775851E2,8.269824E1,7.9931694E1,1.1204182E2,3.5964294E1,6.1087143E1,6.433247E2,3.0446704E2,6.5111786E1,3.7907837E1,8.74093E1,7.7330215E1,1.383194E2,5.1640976E1,3.784975E1,2.8653748E1,3.7857773E1,3.786901E1,2.716718E2,1.4742078E2,9.234915E1,1.7186444E2,4.4181488E1,3.4388184E1,0E0,1.6539625E1,0E0,0E0,0E0,0E0,0E0,0E0,0E0,0E0,0E0,0E0,0E0,0E0,0E0,0E0,0E0,0E0,0E0,0E0,0E0,0E0,0E0,0E0,0E0,0E0,0E0,0E0,0E0,0E0,0E0,0E0],"parents":[2147483647,0,0,1,1,2,2,3,3,4,4,5,5,6,6,7,7,8,8,9,9,10,10,11,11,12,12,13,13,14,14,15,15,16,16,17,17,18,18,19,19,20,20,21,21,22,22,23,23,24,24,25,25,26,26,27,27,28,28,30,30],"right_children":[2,4,6,8,10,12,14,16,18,20,22,24,26,28,30,32,34,36,38,40,42,44,46,48,50,52,54,56,58,-1,60,-1,-1,-1,-1,-1,-1,-1,-1,-1,-1,-1,-1,-1,-1,-1,-1,-1,-1,-1,-1,-1,-1,-1,-1,-1,-1,-1,-1,-1,-1],"split_conditions":[-9.38E-2,1.3E1,2E1,4E0,3E0,3E0,2E0,0E0,5E0,1E0,4.548E-1,7E0,1E0,1.5E1,5E0,-4.78E-1,1.392E-1,6.1E1,2E0,8.85E-2,1.6E1,-2.839E-1,8E0,7E0,-4.643E-1,1E0,1.336E0,4E0,6E0,-1.4037514E0,-5.059E-1,9.0314823E-1,-1.0550425E0,7.553518E-2,9.617676E-1,-6.6596866E-1,1.2366393E0,3.2584885E-1,-4.3722856E-1,1.0322239E0,-8.343886E-1,-1.0193608E0,-2.9853976E-1,2.4039626E-1,-4.4733799E-1,-1.0138592E0,6.683435E-1,-9.9212503E-1,5.990058E-1,-1.0236764E0,3.5821626E-1,4.112357E-1,-1.4978156E0,4.4186424E-2,4.022961E-1,1.2030603E0,-3.9858842E-1,-4.6400434E-1,9.453172E-1,1.0199883E0,-9.881411E-1],"split_indices":[1,29,36,16,18,17,21,0,32,15,2,28,36,35,20,4,3,27,21,6,32,5,18,31,2,20,5,19,16,0,7,0,0,0,0,0,0,0,0,0,0,0,0,0,0,0,0,0,0,0,0,0,0,0,0,0,0,0,0,0,0],"split_type":[0,0,0,0,0,0,0,0,0,0,0,0,0,0,0,0,0,0,0,0,0,0,0,0,0,0,0,0,0,0,0,0,0,0,0,0,0,0,0,0,0,0,0,0,0,0,0,0,0,0,0,0,0,0,0,0,0,0,0,0,0],"sum_hessian":[7.9770454E3,1.5860674E3,6.390978E3,9.080771E2,6.779903E2,6.158805E3,2.3217323E2,2.9850082E2,6.095763E2,3.994477E2,2.785426E2,1.3132826E3,4.8455225E3,2.0904997E2,2.3123272E1,5.5850014E1,2.4265082E2,2.3169241E2,3.7788385E2,2.3275795E1,3.761719E2,1.8352174E2,9.502084E1,5.83977E2,7.293056E2,1.0480493E2,4.7407173E3,1.6751114E2,4.1538822E1,1.3167101E1,9.956171E0,1.9385641E1,3.6464375E1,9.088577E1,1.5176505E2,2.0794044E2,2.3751974E1,3.1774918E2,6.0134666E1,1.0579973E1,1.2695822E1,3.3991208E2,3.6259827E1,8.708974E1,9.6432014E1,8.722976E1,7.7910824E0,5.141919E2,6.9785095E1,4.6744747E1,6.8256085E2,1.7078304E1,8.772663E1,3.7673652E3,9.733524E2,1.5735674E2,1.0154414E1,2.6971596E1,1.4567227E1,7.576368E0,2.3798027E0],"tree_param":{"num_deleted":"0","num_feature":"41","num_nodes":"61","size_leaf_vector":"1"}},{"base_weights":[-1.48979835E-2,-4.3658648E-2,5.519727E-1,-1.1057815E-2,-6.296303E-1,-6.021536E-2,7.854157E-1,2.4837883E-2,-4.751198E-1,-1.0091972E0,3.5755786E-1,-6.1387813E-1,6.8125546E-1,-1.5703615E0,8.1542945E-1,9.963149E-2,-1.7708816E-1,-6.7897856E-1,3.0653656E-1,4.00552E-1,-1.0994997E0,-3.2124126E-1,1.2590706E0,-9.994038E-1,4.5010006E-1,-4.0583202E-1,1.0922748E0,-9.6784854E-1,8.652524E-1,1.5927465E-1,-2.819621E-1,-3.0032095E-1,3.3800343E-1,3.1092525E-1,-6.296678E-1,-6.0987973E-1,3.9547446E-1,1.7733369E0,-3.8378122E-1,9.686376E-1,-8.75699E-1,7.604816E-1,-7.0776093E-1,1.1471438E0,-9.990801E-1,3.9771754E-1,-9.28151E-1,-8.903415E-1,1.4698126E0,4.782289E-1,-1.126149E0,8.766135E-1,-1.4798959E-1,5.6424606E-1,-1.1680466E0,7.166189E-1,1.6697746E-2],"categories":[],"categories_nodes":[],"categories_segments":[],"categories_sizes":[],"default_left":[0,0,0,0,0,0,0,0,0,0,0,0,0,0,0,0,0,0,0,0,0,0,0,0,0,0,0,0,0,0,0,0,0,0,0,0,0,0,0,0,0,0,0,0,0,0,0,0,0,0,0,0,0,0,0,0,0],"id":4,"left_children":[1,3,5,7,9,11,13,15,17,19,21,23,25,-1,27,29,31,33,35,37,39,41,43,45,47,49,51,53,55,-1,-1,-1,-1,-1,-1,-1,-1,-1,-1,-1,-1,-1,-1,-1,-1,-1,-1,-1,-1,-1,-1,-1,-1,-1,-1,-1,-1],"loss_changes":[1.1975636E2,1.3352882E2,5.0735268E1,1.10334145E2,1.3839854E2,4.099512E1,2.36678E1,9.287402E1,7.598643E1,3.4347168E1,6.3462906E1,2.3877195E1,1.9534851E1,0E0,2.3483276E1,2.3224994E2,2.2556996E2,6.175879E1,2.3907932E1,3.0523481E1,3.2839996E1,4.8976223E1,3.0631256E1,1.4906002E1,4.0476574E1,1.4800031E1,2.6866074E0,8.342657E0,1.6253769E1,0E0,0E0,0E0,0E0,0E0,0E0,0E0,0E0,0E0,0E0,0E0,0E0,0E0,0E0,0E0,0E0,0E0,0E0,0E0,0E0,0E0,0E0,0E0,0E0,0E0,0E0,0E0,0E0],"parents":[2147483647,0,0,1,1,2,2,3,3,4,4,5,5,6,6,7,7,8,8,9,9,10,10,11,11,12,12,14,14,15,15,16,16,17,17,18,18,19,19,20,20,21,21,22,22,23,23,24,24,25,25,26,26,27,27,28,28],"right_children":[2,4,6,8,10,12,14,16,18,20,22,24,26,-1,28,30,32,34,36,38,40,42,44,46,48,50,52,54,56,-1,-1,-1,-1,-1,-1,-1,-1,-1,-1,-1,-1,-1,-1,-1,-1,-1,-1,-1,-1,-1,-1,-1,-1,-1,-1,-1,-1],"split_conditions":[2.3346E0,1.8E1,1E0,7.686E-1,2E0,1.6E1,-8.275E-1,6E0,8E0,-5.043E-1,1E0,2.3871E0,2.341E-1,-1.5703615E0,3E0,7E0,7E0,-9.72E-1,-4.443E-1,-1.106E0,-4.283E-1,2E0,8E0,3.6E1,2E0,5.95E-1,8E0,3.6E1,8.13E-2,1.5927465E-1,-2.819621E-1,-3.0032095E-1,3.3800343E-1,3.1092525E-1,-6.296678E-1,-6.0987973E-1,3.9547446E-1,1.7733369E0,-3.8378122E-1,9.686376E-1,-8.75699E-1,7.604816E-1,-7.0776093E-1,1.1471438E0,-9.990801E-1,3.9771754E-1,-9.28151E-1,-8.903415E-1,1.4698126E0,4.782289E-1,-1.126149E0,8.766135E-1,-1.4798959E-1,5.6424606E-1,-1.1680466E0,7.166189E-1,1.6697746E-2],"split_indices":[1,37,21,0,21,35,7,16,31,2,13,0,7,0,16,31,31,7,1,3,8,18,20,27,15,6,16,27,26,0,0,0,0,0,0,0,0,0,0,0,0,0,0,0,0,0,0,0,0,0,0,0,0,0,0,0,0],"split_type":[0,0,0,0,0,0,0,0,0,0,0,0,0,0,0,0,0,0,0,0,0,0,0,0,0,0,0,0,0,0,0,0,0,0,0,0,0,0,0,0,0,0,0,0,0,0,0,0,0,0,0,0,0,0,0,0,0],"sum_hessian":[7.342926E3,6.989243E3,3.536822E2,6.621852E3,3.6739124E2,9.784157E1,2.5584064E2,6.1472983E3,4.745537E2,2.6534546E2,1.0204576E2,5.611333E1,4.1728237E1,1.9580436E0,2.5388258E2,4.4861357E3,1.6611625E3,3.7649408E2,9.805962E1,1.5766862E1,2.4957861E2,5.858073E1,4.346503E1,4.1233376E1,1.4879954E1,1.1451986E1,3.027625E1,6.3996177E0,2.4748297E2,3.637069E3,8.490667E2,1.2301298E3,4.310328E2,4.5278942E1,3.3121515E2,1.5405485E1,8.265414E1,4.5271654E0,1.12396965E1,4.920115E0,2.446585E2,1.8295475E1,4.0285255E1,3.998897E1,3.4760585E0,5.070644E0,3.616273E1,7.210573E0,7.669381E0,6.0484304E0,5.403556E0,2.9001732E1,1.2745187E0,1.5216556E0,4.877962E0,2.2650357E2,2.0979395E1],"tree_param":{"num_deleted":"0","num_feature":"41","num_nodes":"57","size_leaf_vector":"1"}},{"base_weights":[-9.218412E-3,-1.7874482E0,-2.9230749E-3,5.960779E-1,-1.94311E0,7.0788E-2,-1.475381E-1,-7.238822E-1,-1.6179048E0,1.21202916E-1,-2.8383875E-1,-1.0823535E0,-2.4873445E-2,1.9843024E-1,-1.7850704E-1,-2.989976E-2,-7.0251673E-1,-1.2186022E0,1.1420836E0,2.3304307E-1,-2.6398405E-1,-5.0255793E-1,1.8813452E-1,-8.7544006E-1,-7.8088045E-2,5.208796E-2,-1.1270626E0,-8.4653705E-1,-8.599121E-2,-1.2008147E0,-6.7642766E-1,-5.176946E-1,1.0092152E0,-3.979698E-1,2.1890782E-1,-3.0992082E-1,1.1667691E-1],"categories":[],"categories_nodes":[],"categories_segments":[],"categories_sizes":[],"default_left":[0,0,0,0,0,0,0,0,0,0,0,0,0,0,0,0,0,0,0,0,0,0,0,0,0,0,0,0,0,0,0,0,0,0,0,0,0],"id":5,"left_children":[1,3,5,-1,7,9,11,-1,-1,13,15,17,19,21,23,25,27,29,31,33,35,-1,-1,-1,-1,-1,-1,-1,-1,-1,-1,-1,-1,-1,-1,-1,-1],"loss_changes":[7.749082E1,1.129982E1,7.355442E1,0E0,2.2613983E0,8.174971E1,2.671099E2,0E0,0E0,9.2674225E1,6.0494984E1,8.32854E1,1.27129456E2,1.3455627E2,6.039136E1,5.0928864E1,5.196102E1,2.8886261E1,6.3634033E0,4.142112E1,6.428539E1,0E0,0E0,0E0,0E0,0E0,0E0,0E0,0E0,0E0,0E0,0E0,0E0,0E0,0E0,0E0,0E0],"parents":[2147483647,0,0,1,1,2,2,4,4,5,5,6,6,9,9,10,10,11,11,12,12,13,13,14,14,15,15,16,16,17,17,18,18,19,19,20,20],"right_children":[2,4,6,-1,8,10,12,-1,-1,14,16,18,20,22,24,26,28,30,32,34,36,-1,-1,-1,-1,-1,-1,-1,-1,-1,-1,-1,-1,-1,-1,-1,-1],"split_conditions":[-1.392E-1,-7.374E-1,4E0,5.960779E-1,1.1E1,1.6E1,2E0,-7.238822E-1,-1.6179048E0,2E0,5E0,6E0,1.287E-1,-3.68E-2,2E0,1.6911E0,4.8E1,3E0,-1.8193E0,-6.079E-1,2E0,-5.0255793E-1,1.8813452E-1,-8.7544006E-1,-7.8088045E-2,5.208796E-2,-1.1270626E0,-8.4653705E-1,-8.599121E-2,-1.2008147E0,-6.7642766E-1,-5.176946E-1,1.0092152E0,-3.979698E-1,2.1890782E-1,-3.0992082E-1,1.1667691E-1],"split_indices":[26,3,20,0,33,30,35,0,0,13,17,19,7,26,28,2,27,19,7,0,21,0,0,0,0,0,0,0,0,0,0,0,0,0,0,0,0],"split_type":[0,0,0,0,0,0,0,0,0,0,0,0,0,0,0,0,0,0,0,0,0,0,0,0,0,0,0,0,0,0,0,0,0,0,0,0,0],"sum_hessian":[6.921655E3,2.3419676E1,6.8982354E3,1.1061348E0,2.231354E1,4.5695967E3,2.3286382E3,4.4902463E0,1.7823294E1,4.0014023E3,5.681944E2,2.6920786E2,2.0594304E3,3.1818594E3,8.195431E2,3.543459E2,2.1384851E2,2.540964E2,1.5111443E1,9.907663E2,1.0686642E3,1.7128568E2,3.0105737E3,5.815402E1,7.6138904E2,3.3275662E2,2.1589268E1,1.254214E2,8.842711E1,1.1918541E2,1.3491098E2,1.1511829E0,1.396026E1,6.654965E1,9.242167E2,7.948932E2,2.7377094E2],"tree_param":{"num_deleted":"0","num_feature":"41","num_nodes":"37","size_leaf_vector":"1"}},{"base_weights":[-1.1335632E-2,-5.403667E-2,1.8510409E-1,-2.3918794E-2,-8.3387E-1,5.478309E-1,-4.34621E-1,-4.1850958E-2,6.698289E-1,-1.4431721E0,-1.2421886E-2,9.275003E-1,-1.09874554E-1,-5.749341E-1,9.3036425E-1,-1.9322038E-2,-6.3119894E-1,-2.0408301E-1,1.042608E0,-5.6859916E-1,-2.0809455E0,-1.218128E0,2.231695E-1,-5.3758013E-1,1.132866E0,-2.606081E-2,-1.8137494E0,-8.380937E-1,-1.2380902E-1,-1.7417896E-1,1.4052488E0,-6.755946E-2,1.3629222E-1,9.0432817E-1,-5.5370367E-1,3.6706588E-1,-1.1909609E0,1.5769774E-1,8.826995E-1,-7.2814606E-2,-1.2721657E0,-7.487492E-1,-2.0527658E0,4.6411344E-1,-8.363879E-1,1.2008853E0,-6.424102E-1,9.35413E-1,-1.0995921E0,1.4460105E-1,-4.057467E-1,4.808044E-1,-1.9194684E0,1.1712444E0,-7.0962906E-1,-7.735062E-1,4.1535464E-1,5.251377E-1,-1.4578096E0,1.2113299E0,-7.6015335E-1],"categories":[],"categories_nodes":[],"categories_segments":[],"categories_sizes":[],"default_left":[0,0,0,0,0,0,0,0,0,0,0,0,0,0,0,0,0,0,0,0,0,0,0,0,0,0,0,0,0,0,0,0,0,0,0,0,0,0,0,0,0,0,0,0,0,0,0,0,0,0,0,0,0,0,0,0,0,0,0,0,0],"id":6,"left_children":[1,3,5,7,9,11,13,15,17,19,21,23,25,27,29,31,33,35,37,39,41,-1,43,45,47,49,51,53,55,57,59,-1,-1,-1,-1,-1,-1,-1,-1,-1,-1,-1,-1,-1,-1,-1,-1,-1,-1,-1,-1,-1,-1,-1,-1,-1,-1,-1,-1,-1,-1],"loss_changes":[5.5902298E1,1.2855237E2,2.677421E2,6.560984E1,1.0184979E2,1.8765846E2,8.479013E1,6.8230736E1,4.3504868E1,6.3990158E1,3.3210876E1,1.4391913E2,3.9337498E1,4.7327484E1,2.1953949E1,6.845047E1,3.4414276E1,3.875056E1,9.020111E0,2.6308434E1,4.2992676E1,0E0,4.0295216E1,3.9934013E1,1.07409546E2,2.908892E1,2.4090042E1,5.88105E1,8.9466354E1,2.144354E1,1.4775536E1,0E0,0E0,0E0,0E0,0E0,0E0,0E0,0E0,0E0,0E0,0E0,0E0,0E0,0E0,0E0,0E0,0E0,0E0,0E0,0E0,0E0,0E0,0E0,0E0,0E0,0E0,0E0,0E0,0E0,0E0],"parents":[2147483647,0,0,1,1,2,2,3,3,4,4,5,5,6,6,7,7,8,8,9,9,10,10,11,11,12,12,13,13,14,14,15,15,16,16,17,17,18,18,19,19,20,20,22,22,23,23,24,24,25,25,26,26,27,27,28,28,29,29,30,30],"right_children":[2,4,6,8,10,12,14,16,18,20,22,24,26,28,30,32,34,36,38,40,42,-1,44,46,48,50,52,54,56,58,60,-1,-1,-1,-1,-1,-1,-1,-1,-1,-1,-1,-1,-1,-1,-1,-1,-1,-1,-1,-1,-1,-1,-1,-1,-1,-1,-1,-1,-1,-1],"split_conditions":[9.796E-1,2.3756E0,4E0,1E0,5.407E-1,6E0,1.8E1,1.2297E0,1.1E1,-1.362E-1,-7.059E-1,3E0,2E1,1E0,1.4E1,4E0,3E0,7E0,-6.744E-1,7E0,2.6522E0,-1.218128E0,1.1E1,1.2387E0,7E0,1.3E1,2E0,2E0,1E0,-3.726E-1,2.8699E0,-6.755946E-2,1.3629222E-1,9.0432817E-1,-5.5370367E-1,3.6706588E-1,-1.1909609E0,1.5769774E-1,8.826995E-1,-7.2814606E-2,-1.2721657E0,-7.487492E-1,-2.0527658E0,4.6411344E-1,-8.363879E-1,1.2008853E0,-6.424102E-1,9.35413E-1,-1.0995921E0,1.4460105E-1,-4.057467E-1,4.808044E-1,-1.9194684E0,1.1712444E0,-7.0962906E-1,-7.735062E-1,4.1535464E-1,5.251377E-1,-1.4578096E0,1.2113299E0,-7.6015335E-1],"split_indices":[6,5,19,22,3,32,34,8,29,3,2,18,34,21,32,19,36,20,8,18,5,0,28,6,20,35,18,32,37,3,7,0,0,0,0,0,0,0,0,0,0,0,0,0,0,0,0,0,0,0,0,0,0,0,0,0,0,0,0,0,0],"split_type":[0,0,0,0,0,0,0,0,0,0,0,0,0,0,0,0,0,0,0,0,0,0,0,0,0,0,0,0,0,0,0,0,0,0,0,0,0,0,0,0,0,0,0,0,0,0,0,0,0,0,0,0,0,0,0,0,0,0,0,0,0],"sum_hessian":[6.662221E3,5.4732085E3,1.1890125E3,5.2706807E3,2.0252783E2,7.500955E2,4.3891696E2,5.1387915E3,1.318891E2,1.1584438E2,8.668345E1,4.7530756E2,2.7478796E2,3.985291E2,4.038784E1,4.9505796E3,1.8821231E2,3.9572113E1,9.231699E1,4.9650562E1,6.6193825E1,1.0435369E1,7.624808E1,5.8235733E1,4.170718E2,2.6287256E2,1.1915426E1,2.511597E2,1.4736943E2,1.233375E1,2.805409E1,3.6669155E3,1.2836638E3,8.981945E0,1.7923036E2,2.6738869E1,1.2833242E1,1.1842523E1,8.047447E1,3.553657E1,1.4113992E1,2.4856781E1,4.1337044E1,5.9398018E1,1.6850061E1,6.8634405E0,5.137229E1,4.0232025E2,1.4751568E1,1.8478226E2,7.809029E1,2.7108102E0,9.204616E0,9.120867E0,2.4203883E2,6.2928493E1,8.444093E1,8.647664E0,3.6860857E0,2.6327225E1,1.7268656E0],"tree_param":{"num_deleted":"0","num_feature":"41","num_nodes":"61","size_leaf_vector":"1"}},{"base_weights":[4.870827E-3,2.010313E-2,-4.1826087E-1,-2.6474997E-1,4.6090618E-2,-8.6506385E-1,6.9694005E-2,-4.689314E-1,1.5304382E-1,2.99885E-1,1.14316605E-2,2.9892346E-1,-1.1138995E0,-8.88536E-1,3.698989E-1,1.8743503E-1,-7.2435826E-1,4.391632E-1,-8.561444E-1,3.816737E-1,-7.4543524E-1,-2.9848117E-1,5.3207412E-2,-4.6856654E-1,1.1641963E0,-1.2628845E0,1.3741584E-1,-1.1264344E0,6.567558E-1,-2.760379E-1,9.923457E-1,-6.258745E-1,8.3809173E-1,-3.2798004E-1,-9.8995626E-1,-1.1657513E0,4.567692E-1,-1.106953E0,2.0501643E-2,3.5477102E-1,-2.5535968E-1,-7.800665E-1,7.642243E-1,-4.484429E-1,3.8729462E-1,6.1355403E-4,2.3410307E-1,-1.0811232E0,8.3468395E-1,1.2546314E0,3.7187543E-2,6.358286E-1,-9.9054354E-1,7.2072303E-1,-9.974738E-1,-9.7429574E-1,6.868765E-1,6.810096E-1,-1.1014111E-2,1.0406293E0,-5.180308E-1,8.713154E-1,-9.006304E-1],"categories":[],"categories_nodes":[],"categories_segments":[],"categories_sizes":[],"default_left":[0,0,0,0,0,0,0,0,0,0,0,0,0,0,0,0,0,0,0,0,0,0,0,0,0,0,0,0,0,0,0,0,0,0,0,0,0,0,0,0,0,0,0,0,0,0,0,0,0,0,0,0,0,0,0,0,0,0,0,0,0,0,0],"id":7,"left_children":[1,3,5,7,9,11,13,15,17,19,21,23,25,27,29,31,33,35,37,39,41,43,45,47,49,51,53,55,57,59,61,-1,-1,-1,-1,-1,-1,-1,-1,-1,-1,-1,-1,-1,-1,-1,-1,-1,-1,-1,-1,-1,-1,-1,-1,-1,-1,-1,-1,-1,-1,-1,-1],"loss_changes":[4.0958195E1,4.541724E1,4.820262E1,4.382892E1,4.944645E1,3.374121E1,3.0957264E1,5.794306E1,4.921576E1,5.803091E1,6.406738E1,1.4560063E1,1.7928848E1,1.0185312E1,3.3154297E1,9.102382E1,4.1495865E1,4.321534E1,2.0028355E1,3.8468826E1,2.5311699E1,1.3880011E2,5.822374E1,1.934433E1,5.4587164E0,8.328629E0,1.4218557E1,8.305708E0,6.650902E-1,2.8235716E1,1.5407673E1,0E0,0E0,0E0,0E0,0E0,0E0,0E0,0E0,0E0,0E0,0E0,0E0,0E0,0E0,0E0,0E0,0E0,0E0,0E0,0E0,0E0,0E0,0E0,0E0,0E0,0E0,0E0,0E0,0E0,0E0,0E0,0E0],"parents":[2147483647,0,0,1,1,2,2,3,3,4,4,5,5,6,6,7,7,8,8,9,9,10,10,11,11,12,12,13,13,14,14,15,15,16,16,17,17,18,18,19,19,20,20,21,21,22,22,23,23,24,24,25,25,26,26,27,27,28,28,29,29,30,30],"right_children":[2,4,6,8,10,12,14,16,18,20,22,24,26,28,30,32,34,36,38,40,42,44,46,48,50,52,54,56,58,60,62,-1,-1,-1,-1,-1,-1,-1,-1,-1,-1,-1,-1,-1,-1,-1,-1,-1,-1,-1,-1,-1,-1,-1,-1,-1,-1,-1,-1,-1,-1,-1,-1],"split_conditions":[2.1544E0,-3.58E-1,4E0,4E0,-1.2865E0,5E0,-4.97E-2,3E0,1.4E1,2E0,2E0,8.08E-2,6E1,2E0,5E0,5E0,2.522E-1,-2.3477E0,1.1E-2,4.652E-1,1E0,7E0,6E0,5E0,3.459E-1,-3.6448E0,1.3E-3,1.892E-1,5.1E1,-1.6075E0,1E1,-6.258745E-1,8.3809173E-1,-3.2798004E-1,-9.8995626E-1,-1.1657513E0,4.567692E-1,-1.106953E0,2.0501643E-2,3.5477102E-1,-2.5535968E-1,-7.800665E-1,7.642243E-1,-4.484429E-1,3.8729462E-1,6.1355403E-4,2.3410307E-1,-1.0811232E0,8.3468395E-1,1.2546314E0,3.7187543E-2,6.358286E-1,-9.9054354E-1,7.2072303E-1,-9.974738E-1,-9.7429574E-1,6.868765E-1,6.810096E-1,-1.1014111E-2,1.0406293E0,-5.180308E-1,8.713154E-1,-9.006304E-1],"split_indices":[2,8,18,19,7,30,1,28,33,21,17,0,27,21,17,18,5,7,5,2,37,31,18,20,3,4,6,8,27,7,28,0,0,0,0,0,0,0,0,0,0,0,0,0,0,0,0,0,0,0,0,0,0,0,0,0,0,0,0,0,0,0,0],"split_type":[0,0,0,0,0,0,0,0,0,0,0,0,0,0,0,0,0,0,0,0,0,0,0,0,0,0,0,0,0,0,0,0,0,0,0,0,0,0,0,0,0,0,0,0,0,0,0,0,0,0,0,0,0,0,0,0,0,0,0,0,0,0,0],"sum_hessian":[6.3524624E3,6.132646E3,2.1981642E2,5.1194504E2,5.6207007E3,1.143434E2,1.0547302E2,3.43802E2,1.6814304E2,6.7443286E2,4.946268E3,2.010346E1,9.4239944E1,2.469352E1,8.07795E1,9.6386154E1,2.4741585E2,1.3144214E2,3.67009E1,6.260814E2,4.8351444E1,5.868184E2,4.3594497E3,1.0896674E1,9.206786E0,8.420502E1,1.0034924E1,2.1634007E1,3.0595129E0,3.991486E1,4.0864647E1,4.584801E1,5.0538147E1,1.6540297E2,8.201286E1,9.32211E0,1.22120026E2,2.1461452E1,1.5239448E1,5.600035E2,6.607795E1,4.2022278E1,6.329166E0,4.314208E2,1.5539764E2,3.616732E3,7.427176E2,6.8302126E0,4.066461E0,6.075564E0,3.1312227E0,1.2201015E0,8.298492E1,6.657426E0,3.3774977E0,2.0436905E1,1.1971003E0,2.0085218E0,1.0509909E0,7.423717E0,3.2491146E1,3.8605495E1,2.259148E0],"tree_param":{"num_deleted":"0","num_feature":"41","num_nodes":"63","size_leaf_vector":"1"}},{"base_weights":[-2.1375744E-3,1.17414474E-1,-5.6189872E-2,5.0491285E-1,-4.8429E-2,-4.010576E-1,-5.4454175E-3,-3.8608405E-1,1.0024011E0,7.7026166E-2,-4.4792807E-1,-8.696416E-1,1.4170247E-1,-1.2654947E-1,9.3533844E-2,-5.764095E-1,1.168809E0,-2.4673782E-1,1.2072741E0,2.1784018E-1,-2.5688216E-1,-6.52062E-1,1.1236302E0,-9.9916804E-1,1.1814376E0,8.276473E-1,-5.292132E-1,-5.4097074E-1,2.945243E-1,2.5299662E-1,-4.3019313E-1,-9.133516E-1,-8.358289E-2,9.926239E-1,-2.1147698E-2,4.8974004E-1,-8.1546825E-1,-5.208461E-1,9.7586673E-1,2.8500807E-1,-1.7091355E-1,1.6271915E-1,-4.8730066E-1,-2.9899195E-1,-9.73582E-1,-1.0492207E0,9.586529E-1,-1.0399103E0,-3.868608E-1,1.3988423E0,-3.1152692E-1,-5.5692047E-1,1.1249144E0,-4.869594E-1,1.7736515E0,3.5383856E-1,-5.3423065E-1,6.6453624E-1,1.6301948E-1,7.844973E-2,4.7704768E-1,-5.159855E-1,2.2402133E-1],"categories":[],"categories_nodes":[],"categories_segments":[],"categories_sizes":[],"default_left":[0,0,0,0,0,0,0,0,0,0,0,0,0,0,0,0,0,0,0,0,0,0,0,0,0,0,0,0,0,0,0,0,0,0,0,0,0,0,0,0,0,0,0,0,0,0,0,0,0,0,0,0,0,0,0,0,0,0,0,0,0,0,0],"id":8,"left_children":[1,3,5,7,9,11,13,15,17,19,21,23,25,27,29,31,33,35,37,39,41,43,45,47,49,51,53,55,57,59,61,-1,-1,-1,-1,-1,-1,-1,-1,-1,-1,-1,-1,-1,-1,-1,-1,-1,-1,-1,-1,-1,-1,-1,-1,-1,-1,-1,-1,-1,-1,-1,-1],"loss_changes":[3.9599873E1,1.2264006E2,7.384899E1,2.5390448E2,6.704682E1,1.3778696E2,4.4120274E1,6.1531353E1,9.429352E1,4.7939014E1,1.03289E2,7.839221E1,1.1625073E2,2.890195E2,1.6926114E2,5.3506477E1,3.7745857E0,3.940773E1,4.674582E1,4.99648E1,5.4896362E1,4.5627014E1,1.4545734E1,4.886151E1,1.934297E1,1.2817719E2,4.2309444E1,1.3638991E2,3.794368E1,8.710555E1,8.551443E1,0E0,0E0,0E0,0E0,0E0,0E0,0E0,0E0,0E0,0E0,0E0,0E0,0E0,0E0,0E0,0E0,0E0,0E0,0E0,0E0,0E0,0E0,0E0,0E0,0E0,0E0,0E0,0E0,0E0,0E0,0E0,0E0],"parents":[2147483647,0,0,1,1,2,2,3,3,4,4,5,5,6,6,7,7,8,8,9,9,10,10,11,11,12,12,13,13,14,14,15,15,16,16,17,17,18,18,19,19,20,20,21,21,22,22,23,23,24,24,25,25,26,26,27,27,28,28,29,29,30,30],"right_children":[2,4,6,8,10,12,14,16,18,20,22,24,26,28,30,32,34,36,38,40,42,44,46,48,50,52,54,56,58,60,62,-1,-1,-1,-1,-1,-1,-1,-1,-1,-1,-1,-1,-1,-1,-1,-1,-1,-1,-1,-1,-1,-1,-1,-1,-1,-1,-1,-1,-1,-1,-1,-1],"split_conditions":[4E0,4E0,2E0,3E0,4E0,2E0,5E0,5.5E1,-1.2387E0,9E0,1.9E1,5E0,3.9E-3,8E0,1E1,-4.804E-1,2E0,4.483E-1,-2.514E-1,1E0,-4.271E-1,1.2E1,1.4E1,4.7E1,1.91E-2,-1.2233E0,4E0,-6.467E-1,1E0,5E0,7E0,-9.133516E-1,-8.358289E-2,9.926239E-1,-2.1147698E-2,4.8974004E-1,-8.1546825E-1,-5.208461E-1,9.7586673E-1,2.8500807E-1,-1.7091355E-1,1.6271915E-1,-4.8730066E-1,-2.9899195E-1,-9.73582E-1,-1.0492207E0,9.586529E-1,-1.0399103E0,-3.868608E-1,1.3988423E0,-3.1152692E-1,-5.5692047E-1,1.1249144E0,-4.869594E-1,1.7736515E0,3.5383856E-1,-5.3423065E-1,6.6453624E-1,1.6301948E-1,7.844973E-2,4.7704768E-1,-5.159855E-1,2.2402133E-1],"split_indices":[16,32,32,19,19,15,17,27,5,28,34,35,0,28,28,5,35,3,0,14,7,30,32,27,7,7,15,3,36,18,16,0,0,0,0,0,0,0,0,0,0,0,0,0,0,0,0,0,0,0,0,0,0,0,0,0,0,0,0,0,0,0,0],"split_type":[0,0,0,0,0,0,0,0,0,0,0,0,0,0,0,0,0,0,0,0,0,0,0,0,0,0,0,0,0,0,0,0,0,0,0,0,0,0,0,0,0,0,0,0,0,0,0,0,0,0,0,0,0,0,0,0,0,0,0,0,0,0,0],"sum_hessian":[6.126033E3,1.9069961E3,4.219037E3,5.709378E2,1.3360582E3,5.402827E2,3.6787544E3,2.0464479E2,3.66293E2,1.01737726E3,3.1868097E2,2.896314E2,2.506513E2,1.6543408E3,2.0244136E3,1.8288785E2,2.1756948E1,5.1582565E1,3.1471045E2,7.158433E2,3.01534E2,2.8256317E2,3.6117805E1,2.729099E2,1.6721504E1,1.23821976E2,1.2682932E2,8.3361316E2,8.207277E2,1.5522931E3,4.7212045E2,7.7458626E1,1.0542922E2,1.943585E1,2.321099E0,2.492273E1,2.6659836E1,1.1957692E1,3.0275275E2,5.2840826E2,1.8743503E2,1.3568579E2,1.6584819E2,2.0137624E2,8.1186935E1,1.412834E0,3.470497E1,1.5464893E2,1.1826096E2,1.1713197E1,5.0083084E0,3.647362E1,8.734836E1,1.228212E2,4.0081325E0,1.1528505E2,7.183281E2,9.832596E1,7.2240173E2,1.1099156E3,4.423774E2,3.51562E2,1.2055844E2],"tree_param":{"num_deleted":"0","num_feature":"41","num_nodes":"63","size_leaf_vector":"1"}},{"base_weights":[6.502246E-3,-7.052627E-3,5.836943E-1,-2.1868071E-1,3.8469132E-2,7.0414215E-1,-1.0152216E0,1.708841E-1,-7.9564476E-1,-9.429721E-2,1.081387E-1,8.215274E-1,-1.5991054E-1,-8.7403387E-1,-1.7336215E-1,-8.8321514E-2,8.491909E-1,-1.4367089E0,-1.04263976E-1,1.0873948E-1,-4.4342083E-1,1.7698494E-1,-1.8191877E-1,-3.909796E-1,8.917483E-1,-1.4458861E0,5.3901833E-1,-3.107395E-1,2.1889758E-1,-1.6066387E-1,9.4662255E-1,-1.1827607E0,-2.0183031E-1,-3.679472E-1,5.380412E-1,2.1170114E-1,-2.8963637E-1,-5.3321916E-1,1.261506E-1,1.5148847E-1,-7.081997E-1,3.692106E-2,-6.330321E-1,-1.6477836E0,2.7054006E-1,7.276864E-1,1.9087969E-1,-1.6545476E0,3.903741E-1,7.5218475E-1,-9.1189575E-1],"categories":[],"categories_nodes":[],"categories_segments":[],"categories_sizes":[],"default_left":[0,0,0,0,0,0,0,0,0,0,0,0,0,0,0,0,0,0,0,0,0,0,0,0,0,0,0,0,0,0,0,0,0,0,0,0,0,0,0,0,0,0,0,0,0,0,0,0,0,0,0],"id":9,"left_children":[1,3,5,7,9,11,13,15,17,19,21,23,25,-1,-1,27,29,31,33,35,37,39,41,43,45,47,49,-1,-1,-1,-1,-1,-1,-1,-1,-1,-1,-1,-1,-1,-1,-1,-1,-1,-1,-1,-1,-1,-1,-1,-1],"loss_changes":[4.379875E1,5.27065E1,2.5452862E1,2.1782211E2,4.165902E1,1.2307041E1,7.3605824E-1,1.018696E2,1.7294449E2,1.0993124E2,5.9012196E1,9.360954E0,1.4436635E1,0E0,0E0,5.076058E1,6.759516E1,2.7949066E1,5.8648872E1,8.170349E1,8.983305E1,5.933158E1,8.513133E1,9.386588E0,3.9854813E0,9.172998E0,9.473618E0,0E0,0E0,0E0,0E0,0E0,0E0,0E0,0E0,0E0,0E0,0E0,0E0,0E0,0E0,0E0,0E0,0E0,0E0,0E0,0E0,0E0,0E0,0E0,0E0],"parents":[2147483647,0,0,1,1,2,2,3,3,4,4,5,5,6,6,7,7,8,8,9,9,10,10,11,11,12,12,15,15,16,16,17,17,18,18,19,19,20,20,21,21,22,22,23,23,24,24,25,25,26,26],"right_children":[2,4,6,8,10,12,14,16,18,20,22,24,26,-1,-1,28,30,32,34,36,38,40,42,44,46,48,50,-1,-1,-1,-1,-1,-1,-1,-1,-1,-1,-1,-1,-1,-1,-1,-1,-1,-1,-1,-1,-1,-1,-1,-1],"split_conditions":[3.4907E0,8E0,8E0,4E0,3E0,1.9033E0,1.16E-2,1.8E1,8E0,1.5E1,8E0,4E0,9.17E-2,-8.7403387E-1,-1.7336215E-1,1E0,3E0,1.0791E0,1E0,1E0,9E0,1.9E1,6E0,1.2E-3,2.283E-1,7.6E-2,3.3E-2,-3.107395E-1,2.1889758E-1,-1.6066387E-1,9.4662255E-1,-1.1827607E0,-2.0183031E-1,-3.679472E-1,5.380412E-1,2.1170114E-1,-2.8963637E-1,-5.3321916E-1,1.261506E-1,1.5148847E-1,-7.081997E-1,3.692106E-2,-6.330321E-1,-1.6477836E0,2.7054006E-1,7.276864E-1,1.9087969E-1,-1.6545476E0,3.903741E-1,7.5218475E-1,-9.1189575E-1],"split_indices":[0,33,33,18,18,4,1,32,28,33,31,17,5,0,0,21,19,2,13,21,31,32,18,4,2,8,26,0,0,0,0,0,0,0,0,0,0,0,0,0,0,0,0,0,0,0,0,0,0,0,0],"split_type":[0,0,0,0,0,0,0,0,0,0,0,0,0,0,0,0,0,0,0,0,0,0,0,0,0,0,0,0,0,0,0,0,0,0,0,0,0,0,0,0,0,0,0,0,0,0,0,0,0,0,0],"sum_hessian":[5.5966426E3,5.469191E3,1.27451614E2,9.675061E2,4.501685E3,1.1904356E2,8.408057E0,5.779675E2,3.8953854E2,1.549161E3,2.952524E3,1.0484863E2,1.419492E1,6.78481E0,1.6232471E0,4.1879904E2,1.5916852E2,2.0156491E2,1.8797363E2,9.799493E2,5.692118E2,2.3864749E3,5.66049E2,5.4897103E0,9.9358925E1,4.6220274E0,9.572893E0,2.2611899E2,1.9268007E2,4.3428783E1,1.1573973E2,1.8259592E2,1.8968992E1,1.2834827E2,5.9625366E1,7.280016E2,2.519477E2,3.9971594E2,1.6949582E2,2.340143E3,4.6331806E1,4.1872195E2,1.4732707E2,1.0615126E0,4.428198E0,8.966348E1,9.69544E0,3.2852323E0,1.336795E0,7.9445786E0,1.628314E0],"tree_param":{"num_deleted":"0","num_feature":"41","num_nodes":"51","size_leaf_vector":"1"}},{"base_weights":[-4.121773E-3,8.986162E-3,-6.026274E-1,2.2492412E-2,-5.150567E-1,-9.488324E-1,7.192414E-1,-1.10614955E-1,7.237069E-2,9.3415576E-1,-6.7279243E-1,-6.2072194E-1,-1.9014323E0,1.1955051E0,-7.1787876E-1,-2.8721625E-2,-5.410245E-1,-3.706275E-1,1.0962548E-1,1.1755244E0,-7.360829E-1,-1.1437038E0,-1.4168195E-1,-9.593224E-1,5.335261E-1,-1.5280082E0,-5.108829E-1,9.5626974E-1,2.3346558E-1,-9.3344337E-1,6.057792E-1,4.525163E-2,-3.3256713E-1,-8.029983E-1,1.7168941E-2,-1.126208E-1,-8.8699704E-1,-2.2885463E-1,1.0849449E-1,1.0219831E0,-9.6885204E-2,6.043135E-1,-9.707546E-1,3.9955476E-1,-4.9221277E-1,-9.103063E-1,5.053676E-1,-6.8822163E-1,7.593059E-1],"categories":[],"categories_nodes":[],"categories_segments":[],"categories_sizes":[],"default_left":[0,0,0,0,0,0,0,0,0,0,0,0,0,0,0,0,0,0,0,0,0,0,0,0,0,0,0,0,0,0,0,0,0,0,0,0,0,0,0,0,0,0,0,0,0,0,0,0,0],"id":10,"left_children":[1,3,5,7,9,11,13,15,17,19,21,23,25,27,29,31,33,35,37,39,-1,41,43,45,47,-1,-1,-1,-1,-1,-1,-1,-1,-1,-1,-1,-1,-1,-1,-1,-1,-1,-1,-1,-1,-1,-1,-1,-1],"loss_changes":[4.172079E1,3.684726E1,5.284134E1,3.369879E1,3.0529419E1,2.7184486E1,1.7438248E1,4.8753784E1,6.0971573E1,7.2273655E0,2.9487072E1,2.7473269E1,1.7015839E0,6.4848137E-1,6.1237707E0,4.201426E1,6.427536E1,5.060798E1,4.639714E1,2.864828E0,0E0,1.7255577E1,1.9539242E1,2.1593277E1,1.1818363E1,0E0,0E0,0E0,0E0,0E0,0E0,0E0,0E0,0E0,0E0,0E0,0E0,0E0,0E0,0E0,0E0,0E0,0E0,0E0,0E0,0E0,0E0,0E0,0E0],"parents":[2147483647,0,0,1,1,2,2,3,3,4,4,5,5,6,6,7,7,8,8,9,9,10,10,11,11,12,12,13,13,14,14,15,15,16,16,17,17,18,18,19,19,21,21,22,22,23,23,24,24],"right_children":[2,4,6,8,10,12,14,16,18,20,22,24,26,28,30,32,34,36,38,40,-1,42,44,46,48,-1,-1,-1,-1,-1,-1,-1,-1,-1,-1,-1,-1,-1,-1,-1,-1,-1,-1,-1,-1,-1,-1,-1,-1],"split_conditions":[3.564E0,2.7167E0,2E0,-4.362E-1,6E0,5E0,1E0,2E0,-8.545E-1,5.4E-3,5.68E-2,1E0,1.3921E0,5E0,6.317E-1,5E0,5E0,7E0,-5.69E-1,7.344E-1,-7.360829E-1,-1.2612E0,3.1592E0,1.182E-1,2E0,-1.5280082E0,-5.108829E-1,9.5626974E-1,2.3346558E-1,-9.3344337E-1,6.057792E-1,4.525163E-2,-3.3256713E-1,-8.029983E-1,1.7168941E-2,-1.126208E-1,-8.8699704E-1,-2.2885463E-1,1.0849449E-1,1.0219831E0,-9.6885204E-2,6.043135E-1,-9.707546E-1,3.9955476E-1,-4.9221277E-1,-9.103063E-1,5.053676E-1,-6.8822163E-1,7.593059E-1],"split_indices":[3,4,21,4,35,20,14,21,6,2,6,21,2,20,5,37,37,17,2,6,0,6,4,26,18,0,0,0,0,0,0,0,0,0,0,0,0,0,0,0,0,0,0,0,0,0,0,0,0],"split_type":[0,0,0,0,0,0,0,0,0,0,0,0,0,0,0,0,0,0,0,0,0,0,0,0,0,0,0,0,0,0,0,0,0,0,0,0,0,0,0,0,0,0,0,0,0,0,0,0,0],"sum_hessian":[5.31633E3,5.203356E3,1.1297425E2,5.0735513E3,1.2980447E2,8.9750336E1,2.322392E1,1.3826182E3,3.690933E3,1.2258253E1,1.1754621E2,6.79853E1,2.1765034E1,1.756949E1,5.654431E0,1.1624982E3,2.2011992E2,2.8562357E2,3.4053096E3,1.1217423E1,1.0408293E0,6.1692696E1,5.585352E1,5.2695786E1,1.5289514E1,1.9406866E1,2.3581681E0,1.6021399E1,1.5480927E0,4.3711996E0,1.2832311E0,9.5680444E2,2.0569377E2,1.1450492E2,1.05615005E2,2.2419545E2,6.14281E1,2.5356236E2,3.1517473E3,9.899942E0,1.3174813E0,3.6579256E0,5.803477E1,2.4067465E1,3.1786053E1,4.6179134E1,6.51665E0,3.506277E0,1.17832365E1],"tree_param":{"num_deleted":"0","num_feature":"41","num_nodes":"49","size_leaf_vector":"1"}},{"base_weights":[-8.296315E-3,4.202061E-1,-2.4383374E-2,6.0365987E-1,-8.7978584E-1,1.0578948E-2,-2.2855495E-1,7.393079E-2,1.0774295E0,-1.0559818E0,7.442377E-1,-2.365544E-2,2.0862256E-1,-4.484857E-1,3.003362E-1,-3.8612995E-1,6.87366E-1,1.3053744E0,-2.4679996E-1,9.4523305E-1,-1.1255546E-1,2.7462065E-1,-5.59671E-2,4.6203732E-1,-7.920606E-1,6.535287E-2,-8.868414E-1,-3.9039668E-1,6.0538864E-1,-8.0824316E-1,2.0008007E-1,6.760981E-1,-1.0970517E0,1.0991362E0,-7.345102E-1,-5.924943E-1,1.5169765E0,5.6616604E-1,-6.665055E-1,6.530934E-1,-1.7345563E-1,-1.2409192E-1,7.094662E-2,4.7143397E-1,5.5661206E-3,-8.114676E-1,7.826224E-2,-3.348305E-1,3.0411434E-1,-1.6299682E0,-5.957871E-1,5.749123E-1,-9.301187E-1,6.3109463E-1,-1.5075827E-1],"categories":[],"categories_nodes":[],"categories_segments":[],"categories_sizes":[],"default_left":[0,0,0,0,0,0,0,0,0,0,0,0,0,0,0,0,0,0,0,0,0,0,0,0,0,0,0,0,0,0,0,0,0,0,0,0,0,0,0,0,0,0,0,0,0,0,0,0,0,0,0,0,0,0,0],"id":11,"left_children":[1,3,5,7,9,11,13,15,17,-1,19,21,23,25,27,29,31,33,35,-1,37,39,41,43,45,47,49,51,53,-1,-1,-1,-1,-1,-1,-1,-1,-1,-1,-1,-1,-1,-1,-1,-1,-1,-1,-1,-1,-1,-1,-1,-1,-1,-1],"loss_changes":[3.5753456E1,4.528956E1,3.5683273E1,4.134522E1,2.058142E1,2.8946005E1,8.5146164E1,2.2560917E1,2.6600815E1,0E0,2.8328414E0,3.5100956E1,1.5993347E2,1.1641793E2,4.5591568E1,2.0418972E1,1.602937E1,2.5216446E1,1.7838705E1,0E0,2.7734275E0,1.0486383E2,5.265959E1,3.6175156E1,3.157206E1,4.061641E1,3.441397E1,6.453558E1,2.7237335E1,0E0,0E0,0E0,0E0,0E0,0E0,0E0,0E0,0E0,0E0,0E0,0E0,0E0,0E0,0E0,0E0,0E0,0E0,0E0,0E0,0E0,0E0,0E0,0E0,0E0,0E0],"parents":[2147483647,0,0,1,1,2,2,3,3,4,4,5,5,6,6,7,7,8,8,10,10,11,11,12,12,13,13,14,14,15,15,16,16,17,17,18,18,20,20,21,21,22,22,23,23,24,24,25,25,26,26,27,27,28,28],"right_children":[2,4,6,8,10,12,14,16,18,-1,20,22,24,26,28,30,32,34,36,-1,38,40,42,44,46,48,50,52,54,-1,-1,-1,-1,-1,-1,-1,-1,-1,-1,-1,-1,-1,-1,-1,-1,-1,-1,-1,-1,-1,-1,-1,-1,-1,-1],"split_conditions":[2E0,3E0,7E0,4E0,5.4E1,6.81E-2,8E0,6E0,1.6E1,-1.0559818E0,2E0,1E0,1.1E1,6E0,7E0,-6.1E-3,1.1948E0,2E0,7E0,9.4523305E-1,-1.934E0,6E0,1.1E1,8.558E-1,8.049E-1,4E0,-5.99E-2,1.3E1,5E0,-8.0824316E-1,2.0008007E-1,6.760981E-1,-1.0970517E0,1.0991362E0,-7.345102E-1,-5.924943E-1,1.5169765E0,5.6616604E-1,-6.665055E-1,6.530934E-1,-1.7345563E-1,-1.2409192E-1,7.094662E-2,4.7143397E-1,5.5661206E-3,-8.114676E-1,7.826224E-2,-3.348305E-1,3.0411434E-1,-1.6299682E0,-5.957871E-1,5.749123E-1,-9.301187E-1,6.3109463E-1,-1.5075827E-1],"split_indices":[34,13,16,20,27,1,31,16,28,0,19,19,29,31,34,3,5,13,20,0,0,28,33,0,6,28,26,31,18,0,0,0,0,0,0,0,0,0,0,0,0,0,0,0,0,0,0,0,0,0,0,0,0,0,0],"split_type":[0,0,0,0,0,0,0,0,0,0,0,0,0,0,0,0,0,0,0,0,0,0,0,0,0,0,0,0,0,0,0,0,0,0,0,0,0,0,0,0,0,0,0,0,0,0,0,0,0,0,0,0,0,0,0],"sum_hessian":[5.1841763E3,1.8667566E2,4.9975005E3,1.6405939E2,2.2616278E1,4.267656E3,7.2984485E2,7.800115E1,8.6058235E1,1.7323973E1,5.2923064E0,3.6394165E3,6.2823944E2,5.1559503E2,2.1424979E2,4.478448E1,3.321667E1,7.343228E1,1.2625951E1,3.057973E0,2.2343333E0,3.5498373E2,3.2844326E3,5.01721E2,1.2651843E2,2.3775298E2,2.7784207E2,6.554834E1,1.4870145E2,2.1608324E1,2.3176157E1,3.086941E1,2.3472629E0,6.948736E1,3.944922E0,1.0729489E1,1.8964616E0,1.065055E0,1.1692781E0,1.6380426E2,1.9117947E2,1.9109666E3,1.3734662E3,3.7190808E2,1.2981294E2,9.658008E1,2.993835E1,9.4554245E1,1.4319873E2,1.9511988E1,2.5833008E2,2.7625977E1,3.7922367E1,1.16153015E2,3.2548428E1],"tree_param":{"num_deleted":"0","num_feature":"41","num_nodes":"55","size_leaf_vector":"1"}},{"base_weights":[-2.3034222E-3,1.182959E-1,-4.452987E-2,-1.5186861E-1,2.7770948E-1,-1.2328381E-1,4.9935956E-2,-2.958297E-1,4.8455608E-1,2.2859992E-1,1.6222192E0,-2.7984098E-1,7.2823495E-2,1.6384174E-1,-1.5084976E-1,-5.512527E-1,3.2048574E-1,7.7534914E-1,-3.4895423E-1,4.3586113E-2,5.0791985E-1,1.8425363E0,-2.932763E-1,-3.5357472E-1,3.9053565E-1,-4.179032E-1,1.6337255E-1,7.6627615E-3,4.7304308E-1,-2.6651412E-1,5.3353965E-1,-6.4766705E-1,-2.277493E-1,5.0155365E-1,-4.539169E-1,2.7566516E-1,1.0693971E0,1.8072687E-1,-1.1335405E0,5.492395E-1,-4.0526804E-2,2.7252612E-1,8.6250633E-1,7.761016E-2,1.5331491E0,5.989989E-1,-7.8350955E-1,-2.1271741E-1,-8.2843107E-1,1.6259567E-1,8.164086E-1,9.4713444E-1,-4.2994648E-1,4.4932353E-1,4.291294E-2,-2.3143403E-1,2.3491248E-1,4.750607E-1,-3.5752958E-1,5.6357557E-1,-2.9170522E-1,7.6449895E-1,-1.3505478E-1],"categories":[],"categories_nodes":[],"categories_segments":[],"categories_sizes":[],"default_left":[0,0,0,0,0,0,0,0,0,0,0,0,0,0,0,0,0,0,0,0,0,0,0,0,0,0,0,0,0,0,0,0,0,0,0,0,0,0,0,0,0,0,0,0,0,0,0,0,0,0,0,0,0,0,0,0,0,0,0,0,0,0,0],"id":12,"left_children":[1,3,5,7,9,11,13,15,17,19,21,23,25,27,29,31,33,35,37,39,41,43,45,47,49,51,53,55,57,59,61,-1,-1,-1,-1,-1,-1,-1,-1,-1,-1,-1,-1,-1,-1,-1,-1,-1,-1,-1,-1,-1,-1,-1,-1,-1,-1,-1,-1,-1,-1,-1,-1],"loss_changes":[2.541096E1,5.5774666E1,2.7501286E1,4.42003E1,5.33892E1,6.1909573E1,3.8470272E1,6.2008205E1,2.1863174E1,4.0631424E1,1.25793915E1,5.555538E1,3.9866875E1,5.1813503E1,4.8348362E1,2.0796959E1,3.644394E1,1.6787113E1,1.6263838E1,3.1254126E1,2.8930977E1,7.617691E0,3.8481984E0,5.453392E1,1.3240423E1,3.5094765E1,3.45852E1,6.7276985E1,5.194568E1,6.196627E1,2.987011E1,0E0,0E0,0E0,0E0,0E0,0E0,0E0,0E0,0E0,0E0,0E0,0E0,0E0,0E0,0E0,0E0,0E0,0E0,0E0,0E0,0E0,0E0,0E0,0E0,0E0,0E0,0E0,0E0,0E0,0E0,0E0,0E0],"parents":[2147483647,0,0,1,1,2,2,3,3,4,4,5,5,6,6,7,7,8,8,9,9,10,10,11,11,12,12,13,13,14,14,15,15,16,16,17,17,18,18,19,19,20,20,21,21,22,22,23,23,24,24,25,25,26,26,27,27,28,28,29,29,30,30],"right_children":[2,4,6,8,10,12,14,16,18,20,22,24,26,28,30,32,34,36,38,40,42,44,46,48,50,52,54,56,58,60,62,-1,-1,-1,-1,-1,-1,-1,-1,-1,-1,-1,-1,-1,-1,-1,-1,-1,-1,-1,-1,-1,-1,-1,-1,-1,-1,-1,-1,-1,-1,-1,-1],"split_conditions":[-4E-2,-3E-2,1.1E1,-1.537E-1,2E1,9.7E-3,1E0,2E0,1.2E1,1.56E-2,2E0,1.4E1,-1.86E-2,1.3E1,7E0,-3.106E-1,1.5E1,1.7E1,1.91E-2,3E0,4.508E-1,3.9E1,-1.651E-1,1.8E1,3E0,6E0,1.786E-1,5E0,6E0,2E0,2E0,-6.4766705E-1,-2.277493E-1,5.0155365E-1,-4.539169E-1,2.7566516E-1,1.0693971E0,1.8072687E-1,-1.1335405E0,5.492395E-1,-4.0526804E-2,2.7252612E-1,8.6250633E-1,7.761016E-2,1.5331491E0,5.989989E-1,-7.8350955E-1,-2.1271741E-1,-8.2843107E-1,1.6259567E-1,8.164086E-1,9.4713444E-1,-4.2994648E-1,4.4932353E-1,4.291294E-2,-2.3143403E-1,2.3491248E-1,4.750607E-1,-3.5752958E-1,5.6357557E-1,-2.9170522E-1,7.6449895E-1,-1.3505478E-1],"split_indices":[2,3,29,2,35,2,15,13,32,5,21,31,26,30,18,7,29,34,7,16,0,27,1,34,21,36,2,17,18,33,28,0,0,0,0,0,0,0,0,0,0,0,0,0,0,0,0,0,0,0,0,0,0,0,0,0,0,0,0,0,0,0,0],"split_type":[0,0,0,0,0,0,0,0,0,0,0,0,0,0,0,0,0,0,0,0,0,0,0,0,0,0,0,0,0,0,0,0,0,0,0,0,0,0,0,0,0,0,0,0,0,0,0,0,0,0,0,0,0,0,0,0,0,0,0,0,0,0,0],"sum_hessian":[4.987864E3,1.2930613E3,3.6948022E3,4.79864E2,8.131972E2,2.0148031E3,1.6799991E3,3.917779E2,8.808613E1,7.8566986E2,2.7527348E1,1.1201409E3,8.9466223E2,1.0720238E3,6.0797534E2,2.7705997E2,1.1471792E2,6.5355E1,2.273112E1,4.733151E2,3.1235477E2,2.4721958E1,2.8053896E0,1.00957214E3,1.10568794E2,1.3880411E2,7.558581E2,7.129396E2,3.590842E2,5.2060223E2,8.737314E1,1.2506776E2,1.519922E2,8.394825E1,3.0769669E1,4.048572E1,2.4869286E1,1.5541618E1,7.189501E0,5.830298E1,4.1501212E2,2.5353745E2,5.8817337E1,2.4005132E0,2.2321445E1,1.1098499E0,1.6955396E0,9.1900574E2,9.056637E1,8.89152E1,2.1653593E1,1.0717213E1,1.2808688E2,1.5020657E2,6.0565155E2,3.5022052E2,3.6271906E2,3.0954068E2,4.9543537E1,5.3712902E1,4.6688934E2,5.2253857E1,3.5119278E1],"tree_param":{"num_deleted":"0","num_feature":"41","num_nodes":"63","size_leaf_vector":"1"}},{"base_weights":[3.1076153E-3,3.964646E-2,-1.1781149E-1,6.69243E-2,-8.124046E-1,-5.359103E-1,2.2508623E-1,8.196584E-2,-7.543713E-1,-1.2586564E0,7.932266E-1,2.7982384E-1,-1.0624962E0,-8.106989E-2,8.1796736E-1,-1.5666749E-1,1.16410084E-1,-1.0359677E0,9.802337E-1,5.221099E-1,-1.3197975E0,9.944144E-1,-7.501187E-1,1.0824568E0,-3.03376E-1,-1.1899598E0,5.5974245E-1,-5.8577746E-1,1.9243829E-1,-1.5601778E0,9.0429443E-1,8.027006E-1,-3.229937E-1,-7.8710616E-1,1.0971244E-1,9.82088E-1,-9.554682E-1,9.397287E-1,4.483398E-2,1.4416721E0,-5.2977854E-1,-5.109325E-1,-1.0329075E0,9.0619165E-1,-7.022288E-1,-5.072859E-1,1.1360791E0,-4.8531702E-1,5.517315E-1,-1.0971007E0,-6.4801204E-1,8.387545E-1,-5.323544E-1,2.9973796E-1,-7.905916E-1,1.696308E-2,4.3772212E-1,-7.451552E-1,-1.9075874E0,7.276073E-1,-1.1912489E0],"categories":[],"categories_nodes":[],"categories_segments":[],"categories_sizes":[],"default_left":[0,0,0,0,0,0,0,0,0,0,0,0,0,0,0,0,0,0,0,0,0,0,0,0,0,0,0,0,0,0,0,0,0,0,0,0,0,0,0,0,0,0,0,0,0,0,0,0,0,0,0,0,0,0,0,0,0,0,0,0,0],"id":13,"left_children":[1,3,5,7,9,11,13,15,17,19,21,23,25,27,29,31,33,35,37,39,41,43,-1,45,47,49,51,53,55,57,59,-1,-1,-1,-1,-1,-1,-1,-1,-1,-1,-1,-1,-1,-1,-1,-1,-1,-1,-1,-1,-1,-1,-1,-1,-1,-1,-1,-1,-1,-1],"loss_changes":[2.1137476E1,8.544333E1,1.5928275E2,4.405093E1,8.271314E1,2.1530429E2,1.1090824E2,2.876779E1,3.2345184E1,1.0447632E1,1.008457E1,9.261304E1,6.3605927E1,5.5827923E1,4.4121155E1,1.441636E2,9.858408E1,3.0296799E1,2.1631174E0,7.5102406E0,1.2981415E0,9.96232E0,0E0,6.1028114E1,4.0129993E1,2.2937042E1,1.6437449E1,6.37099E1,1.711412E1,1.7535896E0,2.7924103E1,0E0,0E0,0E0,0E0,0E0,0E0,0E0,0E0,0E0,0E0,0E0,0E0,0E0,0E0,0E0,0E0,0E0,0E0,0E0,0E0,0E0,0E0,0E0,0E0,0E0,0E0,0E0,0E0,0E0,0E0],"parents":[2147483647,0,0,1,1,2,2,3,3,4,4,5,5,6,6,7,7,8,8,9,9,10,10,11,11,12,12,13,13,14,14,15,15,16,16,17,17,18,18,19,19,20,20,21,21,23,23,24,24,25,25,26,26,27,27,28,28,29,29,30,30],"right_children":[2,4,6,8,10,12,14,16,18,20,22,24,26,28,30,32,34,36,38,40,42,44,-1,46,48,50,52,54,56,58,60,-1,-1,-1,-1,-1,-1,-1,-1,-1,-1,-1,-1,-1,-1,-1,-1,-1,-1,-1,-1,-1,-1,-1,-1,-1,-1,-1,-1,-1,-1],"split_conditions":[9E0,3E0,1E0,9E0,1E0,2E0,6E0,1E0,1.9E1,-1.3927E0,2E0,1E0,8E0,1E1,2E0,1E0,1E0,2E0,9E0,-1.41E-2,2E0,8E0,-7.501187E-1,1E0,8.69E-1,5.329E-1,3E0,3E0,1.0067E0,2.8235E0,5E0,8.027006E-1,-3.229937E-1,-7.8710616E-1,1.0971244E-1,9.82088E-1,-9.554682E-1,9.397287E-1,4.483398E-2,1.4416721E0,-5.2977854E-1,-5.109325E-1,-1.0329075E0,9.0619165E-1,-7.022288E-1,-5.072859E-1,1.1360791E0,-4.8531702E-1,5.517315E-1,-1.0971007E0,-6.4801204E-1,8.387545E-1,-5.323544E-1,2.9973796E-1,-7.905916E-1,1.696308E-2,4.3772212E-1,-7.451552E-1,-1.9075874E0,7.276073E-1,-1.1912489E0],"split_indices":[37,21,21,18,37,20,18,20,30,0,13,19,17,37,30,36,36,17,32,26,34,18,0,17,4,3,19,20,0,0,38,0,0,0,0,0,0,0,0,0,0,0,0,0,0,0,0,0,0,0,0,0,0,0,0,0,0,0,0,0,0],"split_type":[0,0,0,0,0,0,0,0,0,0,0,0,0,0,0,0,0,0,0,0,0,0,0,0,0,0,0,0,0,0,0,0,0,0,0,0,0,0,0,0,0,0,0,0,0,0,0,0,0,0,0,0,0,0,0,0,0,0,0,0,0],"sum_hessian":[4.782077E3,3.6728904E3,1.109187E3,3.5598457E3,1.13044586E2,4.9953534E2,6.096517E2,3.4967058E3,6.3139904E1,8.8628296E1,2.441629E1,1.9614922E2,3.0338614E2,4.0261154E2,2.0704012E2,4.4060437E2,3.0561013E3,5.4667866E1,8.472039E0,2.6917045E0,8.593659E1,2.2333712E1,2.0825796E0,8.218519E1,1.1396403E2,2.815319E2,2.1854227E1,1.4109877E2,2.615128E2,6.654292E0,2.0038582E2,7.928627E1,3.613181E2,7.15285E1,2.984573E3,4.3237467E0,5.034412E1,6.360591E0,2.1114483E0,1.0038269E0,1.6878777E0,5.952343E0,7.998425E1,2.0587889E1,1.7458231E0,1.5555857E1,6.662933E1,8.6255104E1,2.7708925E1,1.5883728E2,1.2269462E2,1.5352593E1,6.5016327E0,4.473994E1,9.6358826E1,1.8188867E2,7.96241E1,5.3942275E0,1.2600647E0,1.9677254E2,3.613284E0],"tree_param":{"num_deleted":"0","num_feature":"41","num_nodes":"61","size_leaf_vector":"1"}},{"base_weights":[-8.659886E-3,1.292676E-2,-2.2174385E-1,-6.33975E-2,7.793791E-2,-4.1090816E-1,2.188861E-1,-3.3536617E-2,-8.379654E-1,1.3973476E-1,-1.7260826E-1,-1.0757128E0,-2.786015E-1,4.513729E-1,-9.395262E-1,1.6936119E-1,-1.440731E-1,-1.4888825E-2,-1.3328931E0,5.931342E-1,1.0979579E-1,3.8571216E-2,-3.992538E-1,-3.1394272E0,-5.723329E-1,5.365993E-1,-3.8323393E-1,6.678342E-1,-6.4692265E-1,-1.2112617E0,9.464129E-1,2.1541025E-1,-2.0632315E-1,-2.323369E-1,4.4539798E-2,-4.4001803E-1,5.276356E-1,-1.0916501E0,8.9439166E-1,-8.970995E-1,5.840978E-1,5.842534E-1,5.9343886E-2,-4.7868204E-1,2.1118353E-1,-3.3547524E-1,1.1801777E0,-2.7189147E0,-5.002378E-1,-6.727733E-1,8.9211905E-1,1.637661E0,2.4327186E-1,-8.7488914E-1,-1.9816625E-1,1.4787986E0,4.0931383E-1,-1.0702024E0,1.673277E-1],"categories":[],"categories_nodes":[],"categories_segments":[],"categories_sizes":[],"default_left":[0,0,0,0,0,0,0,0,0,0,0,0,0,0,0,0,0,0,0,0,0,0,0,0,0,0,0,0,0,0,0,0,0,0,0,0,0,0,0,0,0,0,0,0,0,0,0,0,0,0,0,0,0,0,0,0,0,0,0],"id":14,"left_children":[1,3,5,7,9,11,13,15,17,19,21,23,25,27,29,31,33,35,37,39,41,43,45,47,49,51,53,55,57,-1,-1,-1,-1,-1,-1,-1,-1,-1,-1,-1,-1,-1,-1,-1,-1,-1,-1,-1,-1,-1,-1,-1,-1,-1,-1,-1,-1,-1,-1],"loss_changes":[2.0358551E1,1.994812E1,3.402497E1,4.274517E1,3.3636513E1,2.4785397E1,3.3533222E1,3.998382E1,2.7927696E1,2.3580841E1,2.0594707E1,4.7015545E1,2.0609062E1,2.4934479E1,3.1820904E1,3.1698067E1,3.7819344E1,1.1111888E1,1.2815109E1,3.440494E1,3.4112152E1,3.5922634E1,1.776141E1,7.4183197E0,2.2345798E1,8.989313E0,1.969581E1,1.3255783E1,1.1845617E1,0E0,0E0,0E0,0E0,0E0,0E0,0E0,0E0,0E0,0E0,0E0,0E0,0E0,0E0,0E0,0E0,0E0,0E0,0E0,0E0,0E0,0E0,0E0,0E0,0E0,0E0,0E0,0E0,0E0,0E0],"parents":[2147483647,0,0,1,1,2,2,3,3,4,4,5,5,6,6,7,7,8,8,9,9,10,10,11,11,12,12,13,13,14,14,15,15,16,16,17,17,18,18,19,19,20,20,21,21,22,22,23,23,24,24,25,25,26,26,27,27,28,28],"right_children":[2,4,6,8,10,12,14,16,18,20,22,24,26,28,30,32,34,36,38,40,42,44,46,48,50,52,54,56,58,-1,-1,-1,-1,-1,-1,-1,-1,-1,-1,-1,-1,-1,-1,-1,-1,-1,-1,-1,-1,-1,-1,-1,-1,-1,-1,-1,-1,-1,-1],"split_conditions":[1.8199E0,0E0,7.241E-1,2.1212E0,9.48E-2,1.9033E0,3.1156E0,4E0,9E0,-4.443E-1,9E0,4E0,3E0,2.1544E0,2.5672E0,1.8E1,1E1,1.7E1,1.39E-2,-9.474E-1,-8.667E-1,-4.239E-1,2E1,4.1E1,8E0,-1.6648E0,6E0,-5.16E-2,-1.85E-1,-1.2112617E0,9.464129E-1,2.1541025E-1,-2.0632315E-1,-2.323369E-1,4.4539798E-2,-4.4001803E-1,5.276356E-1,-1.0916501E0,8.9439166E-1,-8.970995E-1,5.840978E-1,5.842534E-1,5.9343886E-2,-4.7868204E-1,2.1118353E-1,-3.3547524E-1,1.1801777E0,-2.7189147E0,-5.002378E-1,-6.727733E-1,8.9211905E-1,1.637661E0,2.4327186E-1,-8.7488914E-1,-1.9816625E-1,1.4787986E0,4.0931383E-1,-1.0702024E0,1.673277E-1],"split_indices":[4,7,2,5,26,4,6,17,30,1,35,17,28,2,5,34,35,29,9,0,0,5,30,27,16,6,28,26,6,0,0,0,0,0,0,0,0,0,0,0,0,0,0,0,0,0,0,0,0,0,0,0,0,0,0,0,0,0,0],"split_type":[0,0,0,0,0,0,0,0,0,0,0,0,0,0,0,0,0,0,0,0,0,0,0,0,0,0,0,0,0,0,0,0,0,0,0,0,0,0,0,0,0,0,0,0,0,0,0,0,0,0,0,0,0,0,0,0,0,0,0],"sum_hessian":[4.4243716E3,4.01824E3,4.0613177E2,1.8483125E3,2.1699275E3,2.8419366E2,1.219381E2,1.7807067E3,6.760591E1,1.7409635E3,4.2896387E2,4.5987698E1,2.3820598E2,1.0206466E2,1.9873447E1,6.278006E2,1.152906E3,2.5773705E1,4.1832207E1,1.0667365E2,1.6342898E3,2.2248802E2,2.0647586E2,7.9908385E0,3.7996857E1,2.6626678E1,2.115793E2,8.558816E1,1.64765E1,1.5501925E1,4.3715215E0,4.9902725E2,1.2877335E2,6.4111566E2,5.1179037E2,1.4457343E1,1.1316362E1,4.05863E1,1.2459072E0,9.085553E0,9.75881E1,7.397031E1,1.5603196E3,5.822432E1,1.642637E2,2.0286827E2,3.6075804E0,6.4161434E0,1.574695E0,3.2641E1,5.3558598E0,2.0855958E0,2.4541082E1,2.7950052E1,1.8362924E2,6.571052E0,7.9017105E1,8.441505E0,8.034994E0],"tree_param":{"num_deleted":"0","num_feature":"41","num_nodes":"59","size_leaf_vector":"1"}},{"base_weights":[-4.343666E-3,1.4890742E-3,-6.439873E-1,-5.02686E-3,6.617722E-1,-9.559242E-1,4.803273E-1,-7.6593133E-3,1.3479602E0,3.5879833E-1,2.2970798E0,-1.2668746E0,-1.0702534E-1,-4.2427146E-1,8.7695116E-1,-1.0699942E0,-4.681779E-3,2.3081246E-1,2.3224711E0,5.848185E-1,-1.1318794E0,5.798782E-1,2.3377676E0,-7.84818E-1,-1.2927002E0,-5.915985E-1,6.043494E-1,-5.4951113E-1,1.052466E-1,1.9435994E-1,7.3928714E-1,-9.8977923E-1,3.866231E-1,2.7404693E-1,-9.892735E-3,6.9597316E-1,-8.549718E-1,2.2437377E0,6.614131E-1,9.840873E-2,1.1780208E0,-1.6867061E-1,-1.0102428E0,4.8331854E-1,-7.7821076E-1],"categories":[],"categories_nodes":[],"categories_segments":[],"categories_sizes":[],"default_left":[0,0,0,0,0,0,0,0,0,0,0,0,0,0,0,0,0,0,0,0,0,0,0,0,0,0,0,0,0,0,0,0,0,0,0,0,0,0,0,0,0,0,0,0,0],"id":15,"left_children":[1,3,5,7,9,11,13,15,17,19,21,23,25,27,29,31,33,35,37,39,41,-1,-1,-1,-1,43,-1,-1,-1,-1,-1,-1,-1,-1,-1,-1,-1,-1,-1,-1,-1,-1,-1,-1,-1],"loss_changes":[1.6233713E1,1.855771E1,1.4248823E1,1.5223857E1,2.0059332E1,8.077324E0,3.6747317E0,1.3483101E1,8.500269E0,1.3042776E1,5.3047104E0,5.492172E-1,4.5947742E0,6.8519104E-1,1.5145588E-1,5.0326204E0,1.29537525E1,5.652423E0,1.3843842E0,1.4112669E1,6.3514996E-1,0E0,0E0,0E0,0E0,4.2128935E0,0E0,0E0,0E0,0E0,0E0,0E0,0E0,0E0,0E0,0E0,0E0,0E0,0E0,0E0,0E0,0E0,0E0,0E0,0E0],"parents":[2147483647,0,0,1,1,2,2,3,3,4,4,5,5,6,6,7,7,8,8,9,9,10,10,11,11,12,12,13,13,14,14,15,15,16,16,17,17,18,18,19,19,20,20,25,25],"right_children":[2,4,6,8,10,12,14,16,18,20,22,24,26,28,30,32,34,36,38,40,42,-1,-1,-1,-1,44,-1,-1,-1,-1,-1,-1,-1,-1,-1,-1,-1,-1,-1,-1,-1,-1,-1,-1,-1],"split_conditions":[3.9712E0,3.3276E0,6E0,7.6E1,2.0287E0,1.7E1,4E0,-5.946E-1,1.8E1,2E0,6.7E-2,1E1,5.7E1,1.2608E0,9E0,4.9E1,-3.0483E0,2E0,3.122E-1,1.565E-1,-9.114E-1,5.798782E-1,2.3377676E0,-7.84818E-1,-1.2927002E0,4E0,6.043494E-1,-5.4951113E-1,1.052466E-1,1.9435994E-1,7.3928714E-1,-9.8977923E-1,3.866231E-1,2.7404693E-1,-9.892735E-3,6.9597316E-1,-8.549718E-1,2.2437377E0,6.614131E-1,9.840873E-2,1.1780208E0,-1.6867061E-1,-1.0102428E0,4.8331854E-1,-7.7821076E-1],"split_indices":[7,7,18,27,5,34,17,9,33,15,26,29,27,5,33,27,7,32,3,2,5,0,0,0,0,20,0,0,0,0,0,0,0,0,0,0,0,0,0,0,0,0,0,0,0],"split_type":[0,0,0,0,0,0,0,0,0,0,0,0,0,0,0,0,0,0,0,0,0,0,0,0,0,0,0,0,0,0,0,0,0,0,0,0,0,0,0,0,0,0,0,0,0],"sum_hessian":[4.349924E3,4.311605E3,3.8318707E1,4.2704546E3,4.115015E1,3.0113579E1,8.20513E0,4.2631543E3,7.30031E0,3.5746746E1,5.4034014E0,2.1679893E1,8.433686E0,2.4797466E0,5.725383E0,1.091386E1,4.2522407E3,3.977492E0,3.322818E0,3.1568012E1,4.1787353E0,2.4862816E0,2.9171197E0,1.6276136E1,5.4037566E0,5.7107787E0,2.7229075E0,1.4337392E0,1.0460074E0,1.2552073E0,4.4701753E0,9.666282E0,1.2475783E0,9.392297E1,4.1583174E3,2.8581164E0,1.1193756E0,1.5971473E0,1.7256707E0,2.2219982E1,9.34803E0,1.1235584E0,3.0551767E0,1.3648639E0,4.345915E0],"tree_param":{"num_deleted":"0","num_feature":"41","num_nodes":"45","size_leaf_vector":"1"}},{"base_weights":[-1.1390101E-3,2.696095E-3,-7.561779E-1,-4.0562695E-1,9.452862E-3,5.061645E-1,-1.057027E0,-7.2365427E-1,7.346106E-1,9.844766E-2,-2.3060951E-2,-1.7768104E-1,6.551485E-1,-1.0656287E-1,-9.583774E-1,3.6289003E-1,-1.3753586E0,1.1888666E0,-1.8163584E-1,3.4975536E-2,5.1475537E-1,-8.8672775E-1,-1.4729013E-2,-6.125784E-1,3.710946E-1,-2.729768E-1,9.404353E-1,-1.2725548E0,-3.031844E-1,1.5765053E-1,9.664555E-1,5.188306E-1,-1.2244855E0,6.5106934E-1,-8.007079E-3,5.258856E-2,6.2234634E-1,7.724727E-1,-9.581412E-1,-7.96105E-4,-4.0021664E-1],"categories":[],"categories_nodes":[],"categories_segments":[],"categories_sizes":[],"default_left":[0,0,0,0,0,0,0,0,0,0,0,0,0,0,0,0,0,0,0,0,0,0,0,0,0,0,0,0,0,0,0,0,0,0,0,0,0,0,0,0,0],"id":16,"left_children":[1,3,5,7,9,11,13,15,17,19,21,-1,-1,23,-1,25,27,29,31,33,35,37,39,-1,-1,-1,-1,-1,-1,-1,-1,-1,-1,-1,-1,-1,-1,-1,-1,-1,-1],"loss_changes":[1.2514346E1,1.186791E1,8.829619E0,2.592375E1,1.2245505E1,1.4864943E0,3.3481293E0,3.962589E1,6.7784348E0,2.9904285E1,2.2293211E1,0E0,0E0,2.1685648E0,0E0,1.4025855E1,9.478683E0,6.034336E-1,8.628811E0,3.6794144E1,2.0233246E1,2.2350273E1,2.150765E1,0E0,0E0,0E0,0E0,0E0,0E0,0E0,0E0,0E0,0E0,0E0,0E0,0E0,0E0,0E0,0E0,0E0,0E0],"parents":[2147483647,0,0,1,1,2,2,3,3,4,4,5,5,6,6,7,7,8,8,9,9,10,10,13,13,15,15,16,16,17,17,18,18,19,19,20,20,21,21,22,22],"right_children":[2,4,6,8,10,12,14,16,18,20,22,-1,-1,24,-1,26,28,30,32,34,36,38,40,-1,-1,-1,-1,-1,-1,-1,-1,-1,-1,-1,-1,-1,-1,-1,-1,-1,-1],"split_conditions":[3.0666E0,-1.1255E0,1E1,1.9E1,-3.33E-1,6E0,2E0,6E0,-1.3988E0,-4.092E-1,-3.268E-1,-1.7768104E-1,6.551485E-1,5.96E-2,-9.583774E-1,5.1E1,9.657E-1,-1.879E-1,4E0,2E0,1.4E1,-3.599E-1,9E0,-6.125784E-1,3.710946E-1,-2.729768E-1,9.404353E-1,-1.2725548E0,-3.031844E-1,1.5765053E-1,9.664555E-1,5.188306E-1,-1.2244855E0,6.5106934E-1,-8.007079E-3,5.258856E-2,6.2234634E-1,7.724727E-1,-9.581412E-1,-7.96105E-4,-4.0021664E-1],"split_indices":[2,2,29,30,6,16,30,30,2,6,6,0,0,26,0,27,5,1,17,16,34,0,16,0,0,0,0,0,0,0,0,0,0,0,0,0,0,0,0,0,0],"split_type":[0,0,0,0,0,0,0,0,0,0,0,0,0,0,0,0,0,0,0,0,0,0,0,0,0,0,0,0,0,0,0,0,0,0,0,0,0,0,0,0,0],"sum_hessian":[4.320065E3,4.299224E3,2.0840824E1,6.902283E1,4.230201E3,3.8796446E0,1.696118E1,5.4255577E1,1.476725E1,1.1313933E3,3.0988079E3,1.3713307E0,2.508314E0,3.2660902E0,1.3695089E1,2.050766E1,3.374792E1,9.673694E0,5.093557E0,9.826571E2,1.4873625E2,2.8601736E1,3.070206E3,1.3378896E0,1.9282005E0,1.1555719E1,8.95194E0,2.5288027E1,8.459892E0,1.025224E0,8.648469E0,3.4999204E0,1.5936369E0,5.0634705E1,9.320224E2,6.0835438E1,8.790081E1,4.415297E0,2.418644E1,2.9912566E3,7.894941E1],"tree_param":{"num_deleted":"0","num_feature":"41","num_nodes":"41","size_leaf_vector":"1"}},{"base_weights":[-2.5091195E-3,-7.555531E-3,5.316133E-1,-1.8613756E-2,2.406223E-1,8.8560855E-1,-2.3908034E-1,-3.654284E-2,1.6472362E-1,5.357543E-1,-3.858916E-1,1.0162956E0,4.2795286E-2,-1.083664E0,9.7408456E-1,-2.9443508E-2,-9.618955E-1,2.7915418E-1,-8.778156E-1,7.2466886E-1,-3.9200538E-1,-7.075994E-2,-1.8330837E0,1.0766153E0,-1.576252E-2,-5.900123E-1,6.8096143E-1,-1.3297465E0,2.317409E-1,1.4179829E-1,8.398001E-1,9.379218E-2,-4.94719E-2,1.2693905E0,-9.9269706E-1,3.0935967E-1,-4.5816267E-1,-8.2057154E-1,5.607966E-1,6.5665543E-1,-6.2283146E-1,8.793005E-1,-6.8352455E-1,2.9968637E-1,-8.765923E-1,-1.5652705E0,6.9306254E-2,8.540621E-1,1.9723354E-1,-1.2744237E0,-5.333255E-1],"categories":[],"categories_nodes":[],"categories_segments":[],"categories_sizes":[],"default_left":[0,0,0,0,0,0,0,0,0,0,0,0,0,0,0,0,0,0,0,0,0,0,0,0,0,0,0,0,0,0,0,0,0,0,0,0,0,0,0,0,0,0,0,0,0,0,0,0,0,0,0],"id":17,"left_children":[1,3,5,7,9,11,13,15,17,19,21,23,25,27,29,31,33,35,37,39,41,43,45,47,-1,-1,-1,49,-1,-1,-1,-1,-1,-1,-1,-1,-1,-1,-1,-1,-1,-1,-1,-1,-1,-1,-1,-1,-1,-1,-1],"loss_changes":[1.1521537E1,1.1624344E1,1.1126756E1,1.33329115E1,3.3615654E1,2.999588E0,1.4764868E1,2.423892E1,4.3353172E1,2.1884426E1,2.6522139E1,1.5158081E0,4.0173E0,3.2626886E0,4.142995E-1,1.9990498E1,2.7639788E1,3.706153E1,1.2532986E1,2.2816906E1,1.7936403E1,2.5142601E1,4.724579E0,5.783577E-1,0E0,0E0,0E0,4.1232586E-1,0E0,0E0,0E0,0E0,0E0,0E0,0E0,0E0,0E0,0E0,0E0,0E0,0E0,0E0,0E0,0E0,0E0,0E0,0E0,0E0,0E0,0E0,0E0],"parents":[2147483647,0,0,1,1,2,2,3,3,4,4,5,5,6,6,7,7,8,8,9,9,10,10,11,11,12,12,13,13,14,14,15,15,16,16,17,17,18,18,19,19,20,20,21,21,22,22,23,23,27,27],"right_children":[2,4,6,8,10,12,14,16,18,20,22,24,26,28,30,32,34,36,38,40,42,44,46,48,-1,-1,-1,50,-1,-1,-1,-1,-1,-1,-1,-1,-1,-1,-1,-1,-1,-1,-1,-1,-1,-1,-1,-1,-1,-1,-1],"split_conditions":[1.115E-1,2E1,4.9E1,1.6323E0,3E0,7E0,9E0,1.5768E0,1.8E1,2E0,5E0,1.4E1,8.669E-1,5E0,7.22E-2,3.6E-3,5E0,6.125E-1,8E0,1.5E1,1E0,2E0,1.49E-2,4E0,-1.576252E-2,-5.900123E-1,6.8096143E-1,3.63E-2,2.317409E-1,1.4179829E-1,8.398001E-1,9.379218E-2,-4.94719E-2,1.2693905E0,-9.9269706E-1,3.0935967E-1,-4.5816267E-1,-8.2057154E-1,5.607966E-1,6.5665543E-1,-6.2283146E-1,8.793005E-1,-6.8352455E-1,2.9968637E-1,-8.765923E-1,-1.5652705E0,6.9306254E-2,8.540621E-1,1.9723354E-1,-1.2744237E0,-5.333255E-1],"split_indices":[9,36,27,6,19,17,34,6,29,13,30,31,8,19,6,26,35,0,18,32,14,15,0,22,0,0,0,26,0,0,0,0,0,0,0,0,0,0,0,0,0,0,0,0,0,0,0,0,0,0,0],"split_type":[0,0,0,0,0,0,0,0,0,0,0,0,0,0,0,0,0,0,0,0,0,0,0,0,0,0,0,0,0,0,0,0,0,0,0,0,0,0,0,0,0,0,0,0,0,0,0,0,0,0,0],"sum_hessian":[4.272026E3,4.233018E3,3.900788E1,4.053336E3,1.7968217E2,2.6627996E1,1.2379887E1,3.6929888E3,3.6034726E2,1.22242325E2,5.7439854E1,2.287513E1,3.7528663E0,7.361611E0,5.0182753E0,3.6658955E3,2.7093042E1,3.253668E2,3.4980473E1,1.0174372E2,2.0498608E1,4.8030025E1,9.409828E0,2.1581654E1,1.2934759E0,1.9606402E0,1.7922261E0,6.2893915E0,1.0722194E0,1.061017E0,3.9572582E0,6.928473E2,2.9730483E3,2.6883729E0,2.440467E1,2.8463116E2,4.0735626E1,3.139001E1,3.5904615E0,9.372609E1,8.0176325E0,4.7417803E0,1.5756826E1,3.4042053E1,1.3987972E1,8.356035E0,1.0537926E0,2.004939E1,1.532264E0,2.9748688E0,3.3145227E0],"tree_param":{"num_deleted":"0","num_feature":"41","num_nodes":"51","size_leaf_vector":"1"}},{"base_weights":[-8.9339774E-5,-2.0714592E-2,1.2947069E-1,3.6822592E-3,-1.4046691E-1,3.955289E-1,-1.4726177E-1,1.7498866E-2,-8.5837233E-1,-4.768126E-1,5.7202827E-2,8.717263E-2,7.546391E-1,-2.598298E-1,4.0983692E-1,-2.3824722E-1,3.4132496E-2,-1.2536349E0,4.2199335E-1,-3.0502868E-1,-1.3287724E0,1.9248907E-1,-3.788057E-1,3.0008933E-1,-7.8461146E-1,8.8032544E-1,-2.984198E-1,-4.8552868E-1,1.4183424E-1,7.426442E-1,-9.331122E-1,1.20553486E-1,-5.2315515E-1,3.2947063E-2,-4.94322E-1,-1.1035155E0,6.552166E-1,5.852109E-1,-9.9263555E-1,-7.5562847E-1,2.0619433E-2,-1.2845469E0,1.1505086E-1,-9.127411E-1,1.82382E-1,-4.1819805E-1,8.358574E-1,1.1129065E0,1.2409224E-1,5.5321E-1,-8.0925506E-1,8.4093875E-1,1.647151E-1,5.7264805E-1,-5.141453E-1,-5.6034356E-1,7.3012315E-2,-6.568257E-1,2.7404755E-1,-6.019238E-1,8.183838E-1],"categories":[],"categories_nodes":[],"categories_segments":[],"categories_sizes":[],"default_left":[0,0,0,0,0,0,0,0,0,0,0,0,0,0,0,0,0,0,0,0,0,0,0,0,0,0,0,0,0,0,0,0,0,0,0,0,0,0,0,0,0,0,0,0,0,0,0,0,0,0,0,0,0,0,0,0,0,0,0,0,0],"id":18,"left_children":[1,3,5,7,9,11,13,15,17,19,21,23,25,27,29,31,33,35,37,39,41,43,45,47,49,51,53,55,57,59,-1,-1,-1,-1,-1,-1,-1,-1,-1,-1,-1,-1,-1,-1,-1,-1,-1,-1,-1,-1,-1,-1,-1,-1,-1,-1,-1,-1,-1,-1,-1],"loss_changes":[1.1195632E1,1.0559917E1,4.242129E1,3.578926E1,4.069851E1,3.2447437E1,1.7838682E1,1.2587789E1,2.4517258E1,3.2750126E1,2.285258E1,2.9767508E1,1.8198692E1,2.1448956E1,2.7027847E1,3.239102E1,1.755619E1,1.6557854E1,8.180152E0,4.348448E1,2.0432442E1,1.9835304E1,2.3875114E1,2.024384E1,1.4127836E1,1.7968445E1,6.5534935E0,2.2213497E1,1.9155085E1,2.1596384E1,0E0,0E0,0E0,0E0,0E0,0E0,0E0,0E0,0E0,0E0,0E0,0E0,0E0,0E0,0E0,0E0,0E0,0E0,0E0,0E0,0E0,0E0,0E0,0E0,0E0,0E0,0E0,0E0,0E0,0E0,0E0],"parents":[2147483647,0,0,1,1,2,2,3,3,4,4,5,5,6,6,7,7,8,8,9,9,10,10,11,11,12,12,13,13,14,14,15,15,16,16,17,17,18,18,19,19,20,20,21,21,22,22,23,23,24,24,25,25,26,26,27,27,28,28,29,29],"right_children":[2,4,6,8,10,12,14,16,18,20,22,24,26,28,30,32,34,36,38,40,42,44,46,48,50,52,54,56,58,60,-1,-1,-1,-1,-1,-1,-1,-1,-1,-1,-1,-1,-1,-1,-1,-1,-1,-1,-1,-1,-1,-1,-1,-1,-1,-1,-1,-1,-1,-1,-1],"split_conditions":[5.6E1,3.36E-2,1E1,2E1,6E0,4.255E-1,5E0,3E0,2E0,7E0,9.843E-1,3.08E-1,5E0,6.266E-1,9.9E-2,3E0,3.5462E0,1E0,5.1E1,-1.577E-1,1E0,2E0,1.6E1,1E0,-4.609E-1,1.16E-2,-1.6596E0,2.039E-1,1E1,5E0,-9.331122E-1,1.20553486E-1,-5.2315515E-1,3.2947063E-2,-4.94322E-1,-1.1035155E0,6.552166E-1,5.852109E-1,-9.9263555E-1,-7.5562847E-1,2.0619433E-2,-1.2845469E0,1.1505086E-1,-9.127411E-1,1.82382E-1,-4.1819805E-1,8.358574E-1,1.1129065E0,1.2409224E-1,5.5321E-1,-8.0925506E-1,8.4093875E-1,1.647151E-1,5.7264805E-1,-5.141453E-1,-5.6034356E-1,7.3012315E-2,-6.568257E-1,2.7404755E-1,-6.019238E-1,8.183838E-1],"split_indices":[27,0,35,28,35,3,20,30,13,17,7,3,20,7,26,18,6,22,27,1,21,34,30,18,6,1,7,1,30,28,0,0,0,0,0,0,0,0,0,0,0,0,0,0,0,0,0,0,0,0,0,0,0,0,0,0,0,0,0,0,0],"split_type":[0,0,0,0,0,0,0,0,0,0,0,0,0,0,0,0,0,0,0,0,0,0,0,0,0,0,0,0,0,0,0,0,0,0,0,0,0,0,0,0,0,0,0,0,0,0,0,0,0,0,0,0,0,0,0,0,0,0,0,0,0],"sum_hessian":[4.187652E3,3.6132778E3,5.7437415E2,3.0025457E3,6.107322E2,2.9261584E2,2.8175827E2,2.9561458E3,4.6400013E1,2.2554428E2,3.851879E2,1.5810175E2,1.3451411E2,2.3483984E2,4.6918423E1,1.7971172E2,2.776434E3,3.5470703E1,1.092931E1,1.8882817E2,3.671611E1,2.943992E2,9.07887E1,1.2759489E2,3.0506853E1,1.2031779E2,1.4196332E1,1.5022063E2,8.461921E1,3.9448036E1,7.4703836E0,9.584868E1,8.386303E1,2.7404648E3,3.5969116E1,3.2717102E1,2.7536016E0,9.558696E0,1.370614E0,6.076001E1,1.2806816E2,2.939629E1,7.3198214E0,8.901566E0,2.8549762E2,8.191769E1,8.871006E0,1.2396496E1,1.15198395E2,4.5184183E0,2.5988436E1,8.923605E1,3.1081728E1,3.4909682E0,1.0705364E1,1.0465097E2,4.5569664E1,1.4585948E1,7.003326E1,6.808975E0,3.263906E1],"tree_param":{"num_deleted":"0","num_feature":"41","num_nodes":"61","size_leaf_vector":"1"}}]},"name":"gbtree"},"learner_model_param":{"base_score":"5E-1","boost_from_average":"1","num_class":"0","num_feature":"41","num_target":"1"},"objective":{"name":"binary:logistic","reg_loss_param":{"scale_pos_weight":"5"}}},"version":[2,1,4]}