{"learner":{"attributes":{"best_iteration":"2","best_score":"0.17878330076812912"},"feature_names":[],"feature_types":[],"gradient_booster":{"model":{"gbtree_model_param":{"num_parallel_tree":"1","num_trees":"13"},"iteration_indptr":[0,1,2,3,4,5,6,7,8,9,10,11,12,13],"tree_info":[0,0,0,0,0,0,0,0,0,0,0,0,0],"trees":[{"base_weights":[-0E0,-7.017729E-2,1.1749116E0,1.975595E-1,-5.883993E-1,-1.2637362E0,1.6386554E0,3.0329296E-1,-1.5027323E0,-1.7294064E0,-3.574088E-1,-7.2380954E-1,-1.5789874E0,-7.246377E-1,1.7237629E0,-2.2109575E-3,4.3704996E-1,-1.4928882E0,2.4E-2,-1.4342482E0,1.6530614E-1,-8.175919E-1,-1.0564334E-1,-9.064286E-1,6.3391304E-1,1.02E0,-1.4791305E0,1.4685291E0,-9.101124E-2],"categories":[],"categories_nodes":[],"categories_segments":[],"categories_sizes":[],"default_left":[0,0,0,0,0,0,0,0,0,0,0,0,0,0,0,0,0,0,0,0,0,0,0,0,0,0,0,0,0],"id":0,"left_children":[1,3,5,7,9,11,13,15,17,19,21,23,-1,25,27,-1,-1,-1,-1,-1,-1,-1,-1,-1,-1,-1,-1,-1,-1],"loss_changes":[8.279842E2,1.3148838E3,6.421647E2,1.1238418E3,8.502252E2,3.2276367E1,9.698889E1,4.2542853E2,1.9093213E2,4.371045E1,3.973587E2,3.2133957E1,0E0,3.999356E1,7.553284E1,0E0,0E0,0E0,0E0,0E0,0E0,0E0,0E0,0E0,0E0,0E0,0E0,0E0,0E0],"parents":[2147483647,0,0,1,1,2,2,3,3,4,4,5,5,6,6,7,7,8,8,9,9,10,10,11,11,13,13,14,14],"right_children":[2,4,6,8,10,12,14,16,18,20,22,24,-1,26,28,-1,-1,-1,-1,-1,-1,-1,-1,-1,-1,-1,-1,-1,-1],"split_conditions":[2.316E0,1E0,1E0,1.8E1,2E0,3E0,3E0,4E0,6E0,1.4E1,6E0,3E0,-1.5789874E0,7E0,8E0,-2.2109575E-3,4.3704996E-1,-1.4928882E0,2.4E-2,-1.4342482E0,1.6530614E-1,-8.175919E-1,-1.0564334E-1,-9.064286E-1,6.3391304E-1,1.02E0,-1.4791305E0,1.4685291E0,-9.101124E-2],"split_indices":[1,13,21,37,28,19,17,18,28,30,34,13,0,34,17,0,0,0,0,0,0,0,0,0,0,0,0,0,0],"split_type":[0,0,0,0,0,0,0,0,0,0,0,0,0,0,0,0,0,0,0,0,0,0,0,0,0,0,0,0,0],"sum_hessian":[1.004E4,9.475E3,5.65E2,6.24775E3,3.22725E3,9E1,4.75E2,5.88275E3,3.65E2,5.4225E2,2.685E3,5.15E1,3.85E1,1.625E1,4.5875E2,2.5635E3,3.31925E3,2.985E2,6.65E1,5.31E2,1.125E1,6.925E2,1.9925E3,4.1E1,1.05E1,5.75E0,1.05E1,4.375E2,2.125E1],"tree_param":{"num_deleted":"0","num_feature":"41","num_nodes":"29","size_leaf_vector":"1"}},{"base_weights":[-1.14945285E-2,1.2046375E-1,-3.4005898E-1,1.6347158E-1,-1.1062264E0,-1.7198235E0,-1.1226803E-1,-8.151886E-2,3.5759085E-1,-1.4813038E0,3.8483587E-1,-1.8817627E0,1.7014549E0,-4.2068222E-1,3.5611433E-1,9.2429705E-2,-4.339082E-1,4.5461145E-1,-5.2412715E-2,-1.3391395E0,9.637418E-1,-1.3422109E0,1.023716E0,-1.5792431E0,5.67698E-1,1.4455806E0,4.8935613E-1,-5.8385843E-1,2.2739843E-1,4.4280413E-1,-6.0009193E-1],"categories":[],"categories_nodes":[],"categories_segments":[],"categories_sizes":[],"default_left":[0,0,0,0,0,0,0,0,0,0,0,0,0,0,0,0,0,0,0,0,0,0,0,0,0,0,0,0,0,0,0],"id":1,"left_children":[1,3,5,7,9,11,13,15,17,19,21,23,25,27,29,-1,-1,-1,-1,-1,-1,-1,-1,-1,-1,-1,-1,-1,-1,-1,-1],"loss_changes":[4.013297E2,3.4859848E2,8.334297E2,3.0350867E2,1.2574902E2,2.1139111E2,3.2915756E2,2.5077933E2,3.0625406E2,8.420505E1,8.426428E1,6.4384766E1,5.204201E-1,2.8940253E2,1.8954285E2,0E0,0E0,0E0,0E0,0E0,0E0,0E0,0E0,0E0,0E0,0E0,0E0,0E0,0E0,0E0,0E0],"parents":[2147483647,0,0,1,1,2,2,3,3,4,4,5,5,6,6,7,7,8,8,9,9,10,10,11,11,12,12,13,13,14,14],"right_children":[2,4,6,8,10,12,14,16,18,20,22,24,26,28,30,-1,-1,-1,-1,-1,-1,-1,-1,-1,-1,-1,-1,-1,-1,-1,-1],"split_conditions":[6E0,1.2499E0,2E0,3E-4,1E0,3E0,8E0,1.4E1,4E0,6.3E1,3.2E-3,1.1E1,2.855E-1,1E0,2E0,9.2429705E-2,-4.339082E-1,4.5461145E-1,-5.2412715E-2,-1.3391395E0,9.637418E-1,-1.3422109E0,1.023716E0,-1.5792431E0,5.67698E-1,1.4455806E0,4.8935613E-1,-5.8385843E-1,2.2739843E-1,4.4280413E-1,-6.0009193E-1],"split_indices":[16,8,32,6,37,15,28,33,20,27,26,36,2,21,21,0,0,0,0,0,0,0,0,0,0,0,0,0,0,0,0],"split_type":[0,0,0,0,0,0,0,0,0,0,0,0,0,0,0,0,0,0,0,0,0,0,0,0,0,0,0,0,0,0,0],"sum_hessian":[9.254497E3,6.6031636E3,2.6513337E3,6.3803354E3,2.2282816E2,3.7476642E2,2.2765674E3,2.8208413E3,3.5594944E3,1.7804692E2,4.478123E1,3.5825894E2,1.6507486E1,1.3727555E3,9.0381195E2,1.9721183E3,8.487229E2,2.401173E3,1.1583213E3,1.6763626E2,1.0410661E1,1.3210035E1,3.1571196E1,3.4931738E2,8.941565E0,1.4761663E1,1.7458222E0,9.613684E2,4.1138705E2,7.7047266E2,1.3333928E2],"tree_param":{"num_deleted":"0","num_feature":"41","num_nodes":"31","size_leaf_vector":"1"}},{"base_weights":[-1.3302304E-2,-4.855468E-2,9.2478627E-1,2.5912736E-2,-4.7261304E-1,-7.1950865E-1,1.0519447E0,-3.9667107E-2,5.444203E-1,-1.8603475E0,-4.220953E-1,-9.9263346E-1,6.1774534E-1,1.6818844E-1,1.3455094E0,-6.4461604E-2,5.14185E-1,-1.2944253E-1,9.027575E-1,-4.3637234E-1,2.9325178E-1,1.040158E0,-9.019494E-1,5.125899E-1,-1.3727174E0,1.199513E0,-4.470449E-1],"categories":[],"categories_nodes":[],"categories_segments":[],"categories_sizes":[],"default_left":[0,0,0,0,0,0,0,0,0,0,0,0,0,0,0,0,0,0,0,0,0,0,0,0,0,0,0],"id":2,"left_children":[1,3,5,7,9,11,13,15,17,-1,19,-1,21,23,25,-1,-1,-1,-1,-1,-1,-1,-1,-1,-1,-1,-1],"loss_changes":[2.8773734E2,2.6481116E2,6.6645935E1,2.4259631E2,1.144599E2,1.646399E1,7.5767395E1,1.7056335E2,3.2177264E2,0E0,1.1178281E2,0E0,9.548872E0,6.528176E1,5.7256958E1,0E0,0E0,0E0,0E0,0E0,0E0,0E0,0E0,0E0,0E0,0E0,0E0],"parents":[2147483647,0,0,1,1,2,2,3,3,4,4,5,5,6,6,7,7,8,8,10,10,12,12,13,13,14,14],"right_children":[2,4,6,8,10,12,14,16,18,-1,20,-1,22,24,26,-1,-1,-1,-1,-1,-1,-1,-1,-1,-1,-1,-1],"split_conditions":[1E0,1.1147E0,-6.774E-1,1.0767E0,1E0,-4.782E-1,1.1E1,2E0,1.8E1,-1.8603475E0,7E0,-9.9263346E-1,1.6E-2,7E0,1.1E1,-6.4461604E-2,5.14185E-1,-1.2944253E-1,9.027575E-1,-4.3637234E-1,2.9325178E-1,1.040158E0,-9.019494E-1,5.125899E-1,-1.3727174E0,1.199513E0,-4.470449E-1],"split_indices":[22,7,9,6,36,4,29,14,33,0,18,0,0,20,19,0,0,0,0,0,0,0,0,0,0,0,0],"split_type":[0,0,0,0,0,0,0,0,0,0,0,0,0,0,0,0,0,0,0,0,0,0,0,0,0,0,0],"sum_hessian":[8.698538E3,8.384409E3,3.14129E2,7.1327847E3,1.2516248E3,2.221443E1,2.9191458E2,6.332754E3,8.0003107E2,3.2530693E1,1.219094E3,1.6177198E1,6.0372305E0,7.318103E1,2.1873354E2,5.979751E3,3.53003E2,3.582332E2,4.4179785E2,1.0615125E3,1.5758156E2,4.5457387E0,1.4914916E0,5.9100643E1,1.4080383E1,2.0437218E2,1.4361366E1],"tree_param":{"num_deleted":"0","num_feature":"41","num_nodes":"27","size_leaf_vector":"1"}},{"base_weights":[5.9819478E-3,-5.2020895E-1,5.2637458E-2,-9.018969E-1,1.1039764E-1,-2.34907E-1,1.3393217E-1,3.27336E-1,-1.092655E0,3.1310207E-1,-1.2238322E0,-1.0719699E0,3.134215E-1,-1.734859E0,1.6633804E-1,1.2709023E0,-2.45969E-1,-1.1760967E0,-5.1407933E-1,3.6868992E-1,-8.991919E-1,-1.189574E0,9.759785E-1,-1.1548111E0,7.777589E-1,1.061495E0,1.622925E-1,2.3455352E-1,-1.7433007E0,3.593246E-1,5.7472054E-2],"categories":[],"categories_nodes":[],"categories_segments":[],"categories_sizes":[],"default_left":[0,0,0,0,0,0,0,0,0,0,0,0,0,0,0,0,0,0,0,0,0,0,0,0,0,0,0,0,0,0,0],"id":3,"left_children":[1,3,5,7,9,11,13,15,17,19,21,23,25,27,29,-1,-1,-1,-1,-1,-1,-1,-1,-1,-1,-1,-1,-1,-1,-1,-1],"loss_changes":[2.0597249E2,1.6457281E2,1.801792E2,1.00198456E2,7.0306656E1,7.8012744E2,3.6417014E2,4.5894836E1,5.9772156E1,4.604786E1,2.2162384E1,4.848913E2,1.1554232E2,8.723184E1,1.5619794E2,0E0,0E0,0E0,0E0,0E0,0E0,0E0,0E0,0E0,0E0,0E0,0E0,0E0,0E0,0E0,0E0],"parents":[2147483647,0,0,1,1,2,2,3,3,4,4,5,5,6,6,7,7,8,8,9,9,10,10,11,11,12,12,13,13,14,14],"right_children":[2,4,6,8,10,12,14,16,18,20,22,24,26,28,30,-1,-1,-1,-1,-1,-1,-1,-1,-1,-1,-1,-1,-1,-1,-1,-1],"split_conditions":[-2.735E-1,1.2E1,3E0,1.2E1,3E0,7E0,1E0,2E0,3E0,9E0,-4.287E-1,7E0,1E0,1E0,3E0,1.2709023E0,-2.45969E-1,-1.1760967E0,-5.1407933E-1,3.6868992E-1,-8.991919E-1,-1.189574E0,9.759785E-1,-1.1548111E0,7.777589E-1,1.061495E0,1.622925E-1,2.3455352E-1,-1.7433007E0,3.593246E-1,5.7472054E-2],"split_indices":[1,35,17,29,13,28,36,20,18,37,1,31,36,20,28,0,0,0,0,0,0,0,0,0,0,0,0,0,0,0,0],"split_type":[0,0,0,0,0,0,0,0,0,0,0,0,0,0,0,0,0,0,0,0,0,0,0,0,0,0,0,0,0,0,0],"sum_hessian":[8.387903E3,6.823266E2,7.7055767E3,4.2478583E2,2.5754077E2,1.697946E3,6.0076304E3,5.6968487E1,3.6781735E2,2.2423842E2,3.3302353E1,6.716576E2,1.0262885E3,1.0150451E2,5.906126E3,1.869469E1,3.8273796E1,2.0489569E2,1.6292166E2,2.0450423E2,1.973419E1,3.061244E1,2.689912E0,5.7233435E2,9.9323265E1,1.03443306E2,9.228452E2,1.7402006E1,8.410251E1,1.5107894E3,4.3953364E3],"tree_param":{"num_deleted":"0","num_feature":"41","num_nodes":"31","size_leaf_vector":"1"}},{"base_weights":[-1.5212221E-2,1.8880793E-1,-1.0938017E-1,6.718665E-1,-3.679971E-2,-7.280532E-1,1.0106622E-4,-9.5304286E-1,1.1259276E0,9.1580495E-2,-4.9058414E-1,-1.2210274E0,-4.1167434E-2,-4.752114E-2,6.135017E-1,2.9058668E-1,-1.5180627E0,1.5082031E-1,1.1908436E0,-1.409599E-1,3.3702946E-1,-2.0971918E-1,-1.3662398E0,-1.0942904E0,-1.3285846E-1,5.263342E-1,-8.5067666E-1,-2.894951E-1,6.885379E-2,-4.5381206E-1,6.262077E-1],"categories":[],"categories_nodes":[],"categories_segments":[],"categories_sizes":[],"default_left":[0,0,0,0,0,0,0,0,0,0,0,0,0,0,0,0,0,0,0,0,0,0,0,0,0,0,0,0,0,0,0],"id":4,"left_children":[1,3,5,7,9,11,13,15,17,19,21,23,25,27,29,-1,-1,-1,-1,-1,-1,-1,-1,-1,-1,-1,-1,-1,-1,-1,-1],"loss_changes":[1.5316356E2,2.7440338E2,3.6944937E2,5.924719E2,1.0007772E2,2.776516E2,1.3543555E2,2.1286006E2,2.0254681E2,1.15505394E2,1.0453666E2,6.53537E1,2.4031245E2,1.7671602E2,6.300364E1,0E0,0E0,0E0,0E0,0E0,0E0,0E0,0E0,0E0,0E0,0E0,0E0,0E0,0E0,0E0,0E0],"parents":[2147483647,0,0,1,1,2,2,3,3,4,4,5,5,6,6,7,7,8,8,9,9,10,10,11,11,12,12,13,13,14,14],"right_children":[2,4,6,8,10,12,14,16,18,20,22,24,26,28,30,-1,-1,-1,-1,-1,-1,-1,-1,-1,-1,-1,-1,-1,-1,-1,-1],"split_conditions":[4E0,2E0,4E0,4.2E1,7E0,2E0,1.7182E0,3E0,3E0,4E0,6E0,6E0,5.35E-2,3E0,-4.53E-1,2.9058668E-1,-1.5180627E0,1.5082031E-1,1.1908436E0,-1.409599E-1,3.3702946E-1,-2.0971918E-1,-1.3662398E0,-1.0942904E0,-1.3285846E-1,5.263342E-1,-8.5067666E-1,-2.894951E-1,6.885379E-2,-4.5381206E-1,6.262077E-1],"split_indices":[16,32,32,27,31,15,1,18,19,18,18,35,0,18,5,0,0,0,0,0,0,0,0,0,0,0,0,0,0,0,0],"split_type":[0,0,0,0,0,0,0,0,0,0,0,0,0,0,0,0,0,0,0,0,0,0,0,0,0,0,0,0,0,0,0],"sum_hessian":[7.9701455E3,2.5166584E3,5.4534873E3,8.005619E2,1.7160966E3,8.191065E2,4.6343804E3,1.7460806E2,6.259538E2,1.3382814E3,3.778152E2,4.7641122E2,3.426953E2,4.301361E3,3.3301956E2,7.228059E1,1.02327484E2,1.682386E2,4.577152E2,7.361841E2,6.020973E2,3.1753094E2,6.0284214E1,4.2400574E2,5.240549E1,2.0361967E2,1.3907562E2,1.2879944E3,3.0133665E3,3.955977E1,2.934598E2],"tree_param":{"num_deleted":"0","num_feature":"41","num_nodes":"31","size_leaf_vector":"1"}},{"base_weights":[2.1122468E-3,7.378013E-1,-1.6803836E-2,1.4514847E-2,9.6918875E-1,-9.519918E-3,-1.3977201E0,1.0498586E0,-4.4232637E-1,1.1699252E0,1.2071816E-1,9.067613E-3,-4.879434E-1,-1.1448025E0,-2.0270045E0,-1.1539332E-1,1.0194782E0,8.579677E-1,-8.942572E-1,1.1344271E0,3.1767744E-1,4.4803956E-1,-1.5193831E0,8.34E-2,-7.591335E-2,-5.71082E-1,3.5616955E-1,-9.9933875E-1,4.056669E-1,-1.7894825E0,-6.9498616E-1],"categories":[],"categories_nodes":[],"categories_segments":[],"categories_sizes":[],"default_left":[0,0,0,0,0,0,0,0,0,0,0,0,0,0,0,0,0,0,0,0,0,0,0,0,0,0,0,0,0,0,0],"id":5,"left_children":[1,3,5,7,9,11,13,15,17,19,21,23,25,27,29,-1,-1,-1,-1,-1,-1,-1,-1,-1,-1,-1,-1,-1,-1,-1,-1],"loss_changes":[1.0256104E2,3.0904419E1,7.225876E1,2.212343E1,2.3695099E1,6.357391E1,3.678749E0,3.7425985E0,3.3436493E1,1.9727676E1,2.5116253E1,6.643113E1,5.415436E1,4.8899307E0,1.3011551E-1,0E0,0E0,0E0,0E0,0E0,0E0,0E0,0E0,0E0,0E0,0E0,0E0,0E0,0E0,0E0,0E0],"parents":[2147483647,0,0,1,1,2,2,3,3,4,4,5,5,6,6,7,7,8,8,9,9,10,10,11,11,12,12,13,13,14,14],"right_children":[2,4,6,8,10,12,14,16,18,20,22,24,26,28,30,-1,-1,-1,-1,-1,-1,-1,-1,-1,-1,-1,-1,-1,-1,-1,-1],"split_conditions":[-1.7049E0,-1.355E-1,2.9831E0,5E0,2.387E-1,1.0794E0,2E0,1.1E1,1.1E1,3.735E-1,5.1E1,1.717E-1,9E0,6.9E-3,1.6E-2,-1.1539332E-1,1.0194782E0,8.579677E-1,-8.942572E-1,1.1344271E0,3.1767744E-1,4.4803956E-1,-1.5193831E0,8.34E-2,-7.591335E-2,-5.71082E-1,3.5616955E-1,-9.9933875E-1,4.056669E-1,-1.7894825E0,-6.9498616E-1],"split_indices":[7,2,2,17,6,8,28,29,33,3,27,3,37,8,0,0,0,0,0,0,0,0,0,0,0,0,0,0,0,0,0],"split_type":[0,0,0,0,0,0,0,0,0,0,0,0,0,0,0,0,0,0,0,0,0,0,0,0,0,0,0,0,0,0,0],"sum_hessian":[7.3679297E3,1.837431E2,7.1841865E3,4.4791992E1,1.3895111E2,7.1474927E3,3.669398E1,1.3315917E1,3.1476076E1,1.1206032E2,2.6890785E1,6.8811304E3,2.6636206E2,2.8185194E1,8.508789E0,2.0313523E0,1.1284565E1,9.444179E0,2.2031898E1,8.581488E1,2.624544E1,2.2697693E1,4.193092E0,3.5961191E3,3.2850115E3,2.1604253E2,5.031954E1,2.6977303E1,1.2078898E0,6.591407E0,1.9173822E0],"tree_param":{"num_deleted":"0","num_feature":"41","num_nodes":"31","size_leaf_vector":"1"}},{"base_weights":[-6.84441E-4,-1.4980451E0,4.3316646E-3,8.0062926E-1,-1.6744488E0,4.6516385E-2,-1.6653048E-1,-1.413681E0,-6.256723E-1,-2.144102E-2,2.09187E-1,-1.7938385E0,-1.12389565E-1,-4.418992E-2,4.9839425E-1,2.6918712E-1,-3.207688E-1,-1.7332176E0,6.962952E-1,2.3066868E-1,-2.1459907E-1],"categories":[],"categories_nodes":[],"categories_segments":[],"categories_sizes":[],"default_left":[0,0,0,0,0,0,0,0,0,0,0,0,0,0,0,0,0,0,0,0,0],"id":6,"left_children":[1,3,5,-1,7,9,11,-1,-1,13,15,17,19,-1,-1,-1,-1,-1,-1,-1,-1],"loss_changes":[5.4470135E1,1.2275589E1,5.210587E1,0E0,1.2021637E-1,6.409537E1,1.2591222E2,0E0,0E0,8.627677E1,1.2745405E2,4.4085632E1,8.407265E1,0E0,0E0,0E0,0E0,0E0,0E0,0E0,0E0],"parents":[2147483647,0,0,1,1,2,2,4,4,5,5,6,6,9,9,10,10,11,11,12,12],"right_children":[2,4,6,-1,8,10,12,-1,-1,14,16,18,20,-1,-1,-1,-1,-1,-1,-1,-1],"split_conditions":[-1.392E-1,-6.587E-1,8.513E-1,8.0062926E-1,1.6E-2,5.1E1,3E0,-1.413681E0,-6.256723E-1,8.52E-1,1E0,5.6E1,7E0,-4.418992E-2,4.9839425E-1,2.6918712E-1,-3.207688E-1,-1.7332176E0,6.962952E-1,2.3066868E-1,-2.1459907E-1],"split_indices":[26,3,4,0,0,27,32,0,0,1,37,27,35,0,0,0,0,0,0,0,0],"split_type":[0,0,0,0,0,0,0,0,0,0,0,0,0,0,0,0,0,0,0,0,0],"sum_hessian":[7.2502617E3,2.3213253E1,7.227049E3,1.23283E0,2.1980423E1,5.796628E3,1.4304209E3,1.9513151E1,2.4672718E0,4.089192E3,1.7074358E3,4.5023426E1,1.3853975E3,3.8879116E3,2.0128041E2,1.419129E3,2.883067E2,4.00019E1,5.021524E0,3.8421265E2,1.0011848E3],"tree_param":{"num_deleted":"0","num_feature":"41","num_nodes":"21","size_leaf_vector":"1"}},{"base_weights":[-1.0024137E-4,3.6263432E-2,-2.0460741E-1,2.340771E-3,8.8320524E-1,1.4832819E-1,-1.0480586E0,-5.609603E-2,4.4603917E-1,1.0750799E0,-8.375269E-1,2.3103322E-1,-1.2232026E0,-6.564567E-1,-1.3913804E0,-1.4491682E-1,8.78941E-2,4.5941573E-1,-1.1114448E0,3.578705E-1,1.2312005E0,-1.3381295E0,1.0739313E0,-3.1848654E-1,3.404089E-1,-1.3125129E0,1.0203986E0,-8.814958E-1,1.3024348E-1,-1.1873729E0,5.078749E-1],"categories":[],"categories_nodes":[],"categories_segments":[],"categories_sizes":[],"default_left":[0,0,0,0,0,0,0,0,0,0,0,0,0,0,0,0,0,0,0,0,0,0,0,0,0,0,0,0,0,0,0],"id":7,"left_children":[1,3,5,7,9,11,13,15,17,19,21,23,25,27,29,-1,-1,-1,-1,-1,-1,-1,-1,-1,-1,-1,-1,-1,-1,-1,-1],"loss_changes":[5.303914E1,1.7397343E2,3.206783E2,1.5101154E2,7.789346E1,8.648718E1,4.18078E1,1.040597E2,1.5006851E2,5.8563797E1,4.440246E1,8.492563E1,4.4821556E1,5.3227737E1,2.6249023E1,0E0,0E0,0E0,0E0,0E0,0E0,0E0,0E0,0E0,0E0,0E0,0E0,0E0,0E0,0E0,0E0],"parents":[2147483647,0,0,1,1,2,2,3,3,4,4,5,5,6,6,7,7,8,8,9,9,10,10,11,11,12,12,13,13,14,14],"right_children":[2,4,6,8,10,12,14,16,18,20,22,24,26,28,30,-1,-1,-1,-1,-1,-1,-1,-1,-1,-1,-1,-1,-1,-1,-1,-1],"split_conditions":[2.81E-1,2E1,1.2E1,4.1E-3,2E0,9E0,1E0,1.2E1,2E0,4E0,6E0,4E0,7E0,1.2E1,1E0,-1.4491682E-1,8.78941E-2,4.5941573E-1,-1.1114448E0,3.578705E-1,1.2312005E0,-1.3381295E0,1.0739313E0,-3.1848654E-1,3.404089E-1,-1.3125129E0,1.0203986E0,-8.814958E-1,1.3024348E-1,-1.1873729E0,5.078749E-1],"split_indices":[1,36,29,1,21,16,21,29,21,20,20,17,31,35,37,0,0,0,0,0,0,0,0,0,0,0,0,0,0,0,0],"split_type":[0,0,0,0,0,0,0,0,0,0,0,0,0,0,0,0,0,0,0,0,0,0,0,0,0,0,0,0,0,0,0],"sum_hessian":[7.1301465E3,6.0544243E3,1.075722E3,5.822229E3,2.3219568E2,7.5896375E2,3.1675836E2,5.1454297E3,6.7679944E2,2.0923914E2,2.2956535E1,7.1658435E2,4.237939E1,1.4933499E2,1.6742336E2,2.9467615E3,2.198668E3,6.3516815E2,4.1631283E1,8.716642E1,1.2207272E2,1.6849318E1,6.107217E0,1.6644083E2,5.5014355E2,3.683457E1,5.5448165E0,9.749179E1,5.18432E1,1.6172668E2,5.696673E0],"tree_param":{"num_deleted":"0","num_feature":"41","num_nodes":"31","size_leaf_vector":"1"}},{"base_weights":[-4.3963655E-3,1.3533117E-1,-6.78332E-2,-2.041588E-1,2.850608E-1,1.356356E-1,-1.9396439E-1,4.344904E-1,-9.495976E-1,4.6342447E-1,-1.4251041E-1,3.5782886E-1,-6.54161E-1,-5.057624E-1,1.6345961E-1,5.432514E-1,-6.591406E-1,7.242903E-1,-8.7384784E-1,-3.3513582E-1,5.987574E-1,-4.0088007E-1,5.3774244E-1,1.8722823E-1,7.3153704E-1,5.308826E-1,-8.1592643E-1,-6.353281E-1,-2.7850624E-2,-8.195592E-2,4.3853995E-1],"categories":[],"categories_nodes":[],"categories_segments":[],"categories_sizes":[],"default_left":[0,0,0,0,0,0,0,0,0,0,0,0,0,0,0,0,0,0,0,0,0,0,0,0,0,0,0,0,0,0,0],"id":8,"left_children":[1,3,5,7,9,11,13,15,17,19,21,23,25,27,29,-1,-1,-1,-1,-1,-1,-1,-1,-1,-1,-1,-1,-1,-1,-1,-1],"loss_changes":[6.0865955E1,1.0904697E2,1.21226E2,3.131003E2,1.135689E2,3.1748584E2,3.250279E2,1.0503892E2,7.324957E1,2.5441652E2,1.2504248E2,9.7301865E1,1.8439638E2,2.0451172E2,1.3600647E2,0E0,0E0,0E0,0E0,0E0,0E0,0E0,0E0,0E0,0E0,0E0,0E0,0E0,0E0,0E0,0E0],"parents":[2147483647,0,0,1,1,2,2,3,3,4,4,5,5,6,6,7,7,8,8,9,9,10,10,11,11,12,12,13,13,14,14],"right_children":[2,4,6,8,10,12,14,16,18,20,22,24,26,28,30,-1,-1,-1,-1,-1,-1,-1,-1,-1,-1,-1,-1,-1,-1,-1,-1],"split_conditions":[7E0,3E0,3E0,1.8E1,1E1,1.8E1,1.7E1,6.817E-1,2E0,4E0,1E0,1.6E1,1E0,1E0,6E0,5.432514E-1,-6.591406E-1,7.242903E-1,-8.7384784E-1,-3.3513582E-1,5.987574E-1,-4.0088007E-1,5.3774244E-1,1.8722823E-1,7.3153704E-1,5.308826E-1,-8.1592643E-1,-6.353281E-1,-2.7850624E-2,-8.195592E-2,4.3853995E-1],"split_indices":[34,18,18,33,29,29,29,1,34,17,13,32,19,13,18,0,0,0,0,0,0,0,0,0,0,0,0,0,0,0,0],"split_type":[0,0,0,0,0,0,0,0,0,0,0,0,0,0,0,0,0,0,0,0,0,0,0,0,0,0,0,0,0,0,0],"sum_hessian":[6.86471E3,2.1431099E3,4.7216E3,6.55805E2,1.487305E3,1.8068313E3,2.9147688E3,3.534265E2,3.0237845E2,1.049441E3,4.3786392E2,1.4105488E3,3.962824E2,1.5565239E3,1.358245E3,2.9758145E2,5.5845085E1,1.9417273E1,2.8296118E2,2.5090251E2,7.985386E2,3.0497293E2,1.32891E2,1.1457875E3,2.6476138E2,8.398678E1,3.1229562E2,9.7790234E2,5.786216E2,7.993034E2,5.589415E2],"tree_param":{"num_deleted":"0","num_feature":"41","num_nodes":"31","size_leaf_vector":"1"}},{"base_weights":[-8.243082E-3,4.8418555E-2,-2.3207214E-1,-5.596342E-1,9.082106E-2,-5.698264E-1,4.5550264E-2,1.4375217E-1,-7.9665774E-1,-4.5132735E-1,1.3013653E-1,-7.9527473E-1,2.981703E-1,3.7240106E-1,-4.036435E-1,7.9201865E-1,-1.6177467E-1,-7.99344E-1,6.2318154E-2,3.05324E-1,-4.8635614E-1,2.0027047E-1,-4.80092E-2,-7.109158E-1,8.67711E-1,4.8063532E-1,-6.333468E-1,6.1811894E-1,5.8610413E-2,-4.6056563E-1,5.36029E-1],"categories":[],"categories_nodes":[],"categories_segments":[],"categories_sizes":[],"default_left":[0,0,0,0,0,0,0,0,0,0,0,0,0,0,0,0,0,0,0,0,0,0,0,0,0,0,0,0,0,0,0],"id":9,"left_children":[1,3,5,7,9,11,13,15,17,19,21,23,25,27,29,-1,-1,-1,-1,-1,-1,-1,-1,-1,-1,-1,-1,-1,-1,-1,-1],"loss_changes":[8.133673E1,1.3200467E2,1.21506035E2,5.5760086E1,1.0205238E2,1.14625824E2,1.04684395E2,2.4537283E1,4.157872E1,4.0213287E1,9.899664E1,7.2348724E1,3.912407E1,4.8318058E1,5.3161945E1,0E0,0E0,0E0,0E0,0E0,0E0,0E0,0E0,0E0,0E0,0E0,0E0,0E0,0E0,0E0,0E0],"parents":[2147483647,0,0,1,1,2,2,3,3,4,4,5,5,6,6,7,7,8,8,9,9,10,10,11,11,12,12,13,13,14,14],"right_children":[2,4,6,8,10,12,14,16,18,20,22,24,26,28,30,-1,-1,-1,-1,-1,-1,-1,-1,-1,-1,-1,-1,-1,-1,-1,-1],"split_conditions":[2E0,3E0,9E0,2E0,-4.761E-1,5.6E1,1.359E-1,3E0,1.3E1,-9.848E-1,1.2E1,1.9E1,1.5E1,1.2E1,1.8E1,7.9201865E-1,-1.6177467E-1,-7.99344E-1,6.2318154E-2,3.05324E-1,-4.8635614E-1,2.0027047E-1,-4.80092E-2,-7.109158E-1,8.67711E-1,4.8063532E-1,-6.333468E-1,6.1811894E-1,5.8610413E-2,-4.6056563E-1,5.36029E-1],"split_indices":[13,30,35,18,2,27,6,28,33,7,32,28,34,36,34,0,0,0,0,0,0,0,0,0,0,0,0,0,0,0,0],"split_type":[0,0,0,0,0,0,0,0,0,0,0,0,0,0,0,0,0,0,0,0,0,0,0,0,0,0,0,0,0,0,0],"sum_hessian":[6.411407E3,5.116871E3,1.2945364E3,3.3276828E2,4.7841025E3,5.8354517E2,7.109913E2,8.397104E1,2.4879724E2,3.2276694E2,4.4613354E3,4.6329538E2,1.2024979E2,4.1163828E2,2.99353E2,2.395499E1,6.0016052E1,2.0420987E2,4.4587376E1,4.900914E1,2.7375778E2,2.7566104E3,1.7047252E3,4.4421497E2,1.908043E1,9.479195E1,2.5457846E1,1.7813345E2,2.335048E2,2.5962225E2,3.9730762E1],"tree_param":{"num_deleted":"0","num_feature":"41","num_nodes":"31","size_leaf_vector":"1"}},{"base_weights":[-7.5857616E-3,-1.5644008E-2,1.0749259E0,-5.6391642E-3,-7.237037E-1,1.3338497E0,-6.1679435E-1,1.885157E-2,-3.5121235E-1,-1.4848098E0,7.9886705E-1,1.6063484E0,1.7238703E-1,4.551901E-1,-9.234475E-1,2.5779631E-2,-5.0904137E-1,-8.4458417E-1,1.9175975E-1,-8.030589E-2,-1.3845314E0,8.199403E-1,-1.72806E0,1.3850348E0,-2.822705E-3,-1.0005171E0,6.1962575E-1],"categories":[],"categories_nodes":[],"categories_segments":[],"categories_sizes":[],"default_left":[0,0,0,0,0,0,0,0,0,0,0,0,0,0,0,0,0,0,0,0,0,0,0,0,0,0,0],"id":10,"left_children":[1,3,5,7,9,11,13,15,17,19,21,23,25,-1,-1,-1,-1,-1,-1,-1,-1,-1,-1,-1,-1,-1,-1],"loss_changes":[5.416012E1,4.364753E1,2.0918037E1,5.1439445E1,1.0066942E2,1.2415726E1,4.818512E0,4.7690586E1,1.6377904E2,1.7743553E1,2.0470314E1,5.401825E0,8.2360525E0,0E0,0E0,0E0,0E0,0E0,0E0,0E0,0E0,0E0,0E0,0E0,0E0,0E0,0E0],"parents":[2147483647,0,0,1,1,2,2,3,3,4,4,5,5,6,6,7,7,8,8,9,9,10,10,11,11,12,12],"right_children":[2,4,6,8,10,12,14,16,18,20,22,24,26,-1,-1,-1,-1,-1,-1,-1,-1,-1,-1,-1,-1,-1,-1],"split_conditions":[3.69E-1,5E0,7E0,6E0,1E0,1.8962E0,4.2E1,2E1,7E0,3E0,5E0,1.451E-1,1.6E-2,4.551901E-1,-9.234475E-1,2.5779631E-2,-5.0904137E-1,-8.4458417E-1,1.9175975E-1,-8.030589E-2,-1.3845314E0,8.199403E-1,-1.72806E0,1.3850348E0,-2.822705E-3,-1.0005171E0,6.1962575E-1],"split_indices":[9,38,17,20,22,1,27,35,28,16,16,26,0,0,0,0,0,0,0,0,0,0,0,0,0,0,0],"split_type":[0,0,0,0,0,0,0,0,0,0,0,0,0,0,0,0,0,0,0,0,0,0,0,0,0,0,0],"sum_hessian":[6.2058545E3,6.1609775E3,4.487694E1,6.07613E3,8.484743E1,3.9103546E1,5.773395E0,5.674896E3,4.0123383E2,5.6585926E1,2.82615E1,3.1362368E1,7.7411785E0,1.7522178E0,4.0211773E0,5.56431E3,1.1058622E2,1.8402768E2,2.1720615E2,8.0902195E0,4.849571E1,2.6954584E1,1.3069166E0,2.9408175E1,1.9541935E0,1.9721599E0,5.7690187E0],"tree_param":{"num_deleted":"0","num_feature":"41","num_nodes":"27","size_leaf_vector":"1"}},{"base_weights":[-3.6270712E-3,-4.8835896E-2,1.1126011E-1,1.7989006E-2,-2.7503914E-1,1.810091E-1,-3.135099E-1,-4.123666E-1,6.691477E-2,-6.478069E-1,-1.5657927E-1,9.196056E-2,5.711786E-1,4.8199323E-1,-5.425742E-1,-6.7560007E-3,-4.5242855E-1,9.130157E-2,-1.735174E-1,1.4035549E0,-6.209121E-1,3.042308E-1,-2.1782409E-1,1.1337859E-1,-5.027035E-1,1.0174879E0,9.919584E-2,1.137257E-1,1.624371E0,-6.738136E-1,2.1372584E-1],"categories":[],"categories_nodes":[],"categories_segments":[],"categories_sizes":[],"default_left":[0,0,0,0,0,0,0,0,0,0,0,0,0,0,0,0,0,0,0,0,0,0,0,0,0,0,0,0,0,0,0],"id":11,"left_children":[1,3,5,7,9,11,13,15,17,19,21,23,25,27,29,-1,-1,-1,-1,-1,-1,-1,-1,-1,-1,-1,-1,-1,-1,-1,-1],"loss_changes":[3.1870028E1,6.65645E1,5.1393036E1,7.161681E1,4.4242912E1,5.16806E1,4.486173E1,2.0503315E1,3.9347534E1,6.969869E1,4.5738297E1,4.1604206E1,8.482847E1,2.846981E1,4.4664318E1,0E0,0E0,0E0,0E0,0E0,0E0,0E0,0E0,0E0,0E0,0E0,0E0,0E0,0E0,0E0,0E0],"parents":[2147483647,0,0,1,1,2,2,3,3,4,4,5,5,6,6,7,7,8,8,9,9,10,10,11,11,12,12,13,13,14,14],"right_children":[2,4,6,8,10,12,14,16,18,20,22,24,26,28,30,-1,-1,-1,-1,-1,-1,-1,-1,-1,-1,-1,-1,-1,-1,-1,-1],"split_conditions":[5.438E-1,2.053E-1,1.166E0,-6.003E-1,2E0,8.703E-1,-7.36E-2,1E1,1.083E-1,0E0,-4.698E-1,1.1964E0,4E0,1.261E-1,6E0,-6.7560007E-3,-4.5242855E-1,9.130157E-2,-1.735174E-1,1.4035549E0,-6.209121E-1,3.042308E-1,-2.1782409E-1,1.1337859E-1,-5.027035E-1,1.0174879E0,9.919584E-2,1.137257E-1,1.624371E0,-6.738136E-1,2.1372584E-1],"split_indices":[3,3,7,6,32,5,5,30,26,1,7,6,35,26,18,0,0,0,0,0,0,0,0,0,0,0,0,0,0,0,0],"split_type":[0,0,0,0,0,0,0,0,0,0,0,0,0,0,0,0,0,0,0,0,0,0,0,0,0,0,0,0,0,0,0],"sum_hessian":[6.133986E3,4.4022485E3,1.7317374E3,3.3990288E3,1.0032197E3,1.487979E3,2.4375839E2,3.462197E2,3.0528093E3,2.4084952E2,7.6237024E2,1.212488E3,2.7549094E2,5.425062E1,1.8950777E2,9.226863E1,2.5395105E2,2.6256318E3,4.271773E2,1.0797703E1,2.300518E2,1.3247371E2,6.298965E2,1.1367019E3,7.578618E1,1.0832674E2,1.671642E2,4.5206238E1,9.044386E0,1.3945065E2,5.0057114E1],"tree_param":{"num_deleted":"0","num_feature":"41","num_nodes":"31","size_leaf_vector":"1"}},{"base_weights":[3.6397434E-4,1.2086598E-2,-5.608512E-1,1.580064E-2,-1.3443296E0,-8.447499E-1,7.9064727E-1,3.855956E-2,-1.7098436E-1,-1.7643206E0,8.430885E-3,7.58162E-1,-1.0190924E0,-1.2806784E0,1.2189251E0,-1.458295E-1,6.863821E-2,4.981489E-1,-5.60438E-1,-1.2471712E-1,-1.55111E0,6.6657364E-1,-1.0903126E0,9.573789E-1,-7.5405437E-1,6.667863E-1,-9.2442197E-1,2.9385766E-1,-1.6214695E0,2.8967085E-1,1.013703E0],"categories":[],"categories_nodes":[],"categories_segments":[],"categories_sizes":[],"default_left":[0,0,0,0,0,0,0,0,0,0,0,0,0,0,0,0,0,0,0,0,0,0,0,0,0,0,0,0,0,0,0],"id":12,"left_children":[1,3,5,7,9,11,13,15,17,19,21,23,25,27,29,-1,-1,-1,-1,-1,-1,-1,-1,-1,-1,-1,-1,-1,-1,-1,-1],"loss_changes":[3.9311615E1,2.950793E1,4.7577618E1,2.4824541E1,9.102049E0,2.9142853E1,2.0847012E1,5.255571E1,2.60115E2,2.6668549E0,6.386211E0,8.639376E0,2.164312E1,5.7188544E0,7.204628E-2,0E0,0E0,0E0,0E0,0E0,0E0,0E0,0E0,0E0,0E0,0E0,0E0,0E0,0E0,0E0,0E0],"parents":[2147483647,0,0,1,1,2,2,3,3,4,4,5,5,6,6,7,7,8,8,9,9,10,10,11,11,12,12,13,13,14,14],"right_children":[2,4,6,8,10,12,14,16,18,20,22,24,26,28,30,-1,-1,-1,-1,-1,-1,-1,-1,-1,-1,-1,-1,-1,-1,-1,-1],"split_conditions":[2.3164E0,2.4113E0,7E0,7E0,6.03E-2,3.4E1,1E0,5E0,2E0,3E0,1.557E-1,2E0,-1.1537E0,4.6E1,-3.426E-1,-1.458295E-1,6.863821E-2,4.981489E-1,-5.60438E-1,-1.2471712E-1,-1.55111E0,6.6657364E-1,-1.0903126E0,9.573789E-1,-7.5405437E-1,6.667863E-1,-9.2442197E-1,2.9385766E-1,-1.6214695E0,2.8967085E-1,1.013703E0],"split_indices":[2,1,18,18,8,27,37,36,28,37,2,13,7,27,6,0,0,0,0,0,0,0,0,0,0,0,0,0,0,0,0],"split_type":[0,0,0,0,0,0,0,0,0,0,0,0,0,0,0,0,0,0,0,0,0,0,0,0,0,0,0,0,0,0,0],"sum_hessian":[5.9733643E3,5.8521045E3,1.2125989E2,5.83711E3,1.4994404E1,1.005195E2,2.0740387E1,5.203839E3,6.33271E2,1.1209849E1,3.7845542E0,9.532122E0,9.098737E1,3.2126086E0,1.7527779E1,9.0708777E2,4.296751E3,2.5234259E2,3.8092838E2,1.1318368E0,1.0078012E1,2.608456E0,1.1760986E0,7.8602586E0,1.6718634E0,5.30164E0,8.568574E1,1.1313006E0,2.081308E0,1.0749758E0,1.6452803E1],"tree_param":{"num_deleted":"0","num_feature":"41","num_nodes":"31","size_leaf_vector":"1"}}]},"name":"gbtree"},"learner_model_param":{"base_score":"5E-1","boost_from_average":"1","num_class":"0","num_feature":"41","num_target":"1"},"objective":{"name":"binary:logistic","reg_loss_param":{"scale_pos_weight":"5"}}},"version":[2,1,4]}