{"learner":{"attributes":{"best_iteration":"2","best_score":"0.1843608117964545"},"feature_names":[],"feature_types":[],"gradient_booster":{"model":{"gbtree_model_param":{"num_parallel_tree":"1","num_trees":"13"},"iteration_indptr":[0,1,2,3,4,5,6,7,8,9,10,11,12,13],"tree_info":[0,0,0,0,0,0,0,0,0,0,0,0,0],"trees":[{"base_weights":[3.1960145E-8,4.9886915E-1,-6.870911E-2,1.725156E0,-2.236281E-1,2.005073E-2,-6.524007E-1,-5.3236705E-1,1.9317863E0,-8.7796724E-1,2.8408626E-1,6.050414E-2,-8.6474314E-2,4.9448997E-1,-1.0147439E0,1.594374E0,-2.1151924E-1,-1.8331668E-1,1.9756413E0,-1.2122947E0,-1.0272827E-1,4.3527305E-1,-9.243501E-1,-7.190531E-2,1.6866226E-1,-4.4385183E-1,2.2672656E-1,1.1208122E0,-1.1122124E0,-1.1064498E0,2.0901932E-1,-1.2221112E-1,2.0626873E-1,-1.0999001E-1,2.182983E-1,-5.6321725E-2,-1.6858411E-1,-1.1283017E-1,6.482587E-2,-7.088944E-2,6.758376E-2,5.2399978E-2,-1.9664729E-1,5.8394022E-2,-4.6144277E-2,4.75651E-2,-6.0201462E-2,-9.5609E-2,-6.282392E-3,-8.434122E-2,3.1139156E-2,-6.3643314E-2,2.0506838E-1,-1.6695096E-1,2.0001815E-1,2.0812699E-1,-1.2817463E-1],"categories":[],"categories_nodes":[],"categories_segments":[],"categories_sizes":[],"default_left":[0,0,0,0,0,0,0,0,0,0,0,0,0,0,0,0,0,0,0,0,0,0,0,0,0,0,0,0,0,0,0,0,0,0,0,0,0,0,0,0,0,0,0,0,0,0,0,0,0,0,0,0,0,0,0,0,0],"id":0,"left_children":[1,3,5,7,9,11,13,15,17,19,21,23,25,27,29,31,-1,-1,33,35,37,39,41,43,45,47,49,51,53,55,-1,-1,-1,-1,-1,-1,-1,-1,-1,-1,-1,-1,-1,-1,-1,-1,-1,-1,-1,-1,-1,-1,-1,-1,-1,-1,-1],"loss_changes":[3.7757684E2,1.181852E3,5.0162173E2,2.316991E2,2.79312E2,3.6224903E1,5.315978E2,1.280121E2,7.481702E1,9.506067E1,8.69563E1,8.726019E1,2.5908087E2,3.1068793E2,2.6179938E2,1.5187504E1,0E0,0E0,1.3839966E1,5.674597E1,7.198666E1,8.196452E1,6.4945E1,5.742338E2,6.334772E2,1.7776216E2,6.9292725E1,2.8123825E2,1.0585443E2,1.6830615E2,0E0,0E0,0E0,0E0,0E0,0E0,0E0,0E0,0E0,0E0,0E0,0E0,0E0,0E0,0E0,0E0,0E0,0E0,0E0,0E0,0E0,0E0,0E0,0E0,0E0,0E0,0E0],"parents":[2147483647,0,0,1,1,2,2,3,3,4,4,5,5,6,6,7,7,8,8,9,9,10,10,11,11,12,12,13,13,14,14,15,15,18,18,19,19,20,20,21,21,22,22,23,23,24,24,25,25,26,26,27,27,28,28,29,29],"right_children":[2,4,6,8,10,12,14,16,18,20,22,24,26,28,30,32,-1,-1,34,36,38,40,42,44,46,48,50,52,54,56,-1,-1,-1,-1,-1,-1,-1,-1,-1,-1,-1,-1,-1,-1,-1,-1,-1,-1,-1,-1,-1,-1,-1,-1,-1,-1,-1],"split_conditions":[-8.082762E-3,-1.2931279E-2,3.595862E-2,1.3718E-3,-1.29853E-2,1.4019834E-2,-5.4312074E-3,6.969958E-3,-2.2180483E-2,-7.67514E-3,-2.7140006E-3,1.3902309E-4,-1.7732793E-3,7.927093E-5,1.5007035E-3,-4.813363E-4,-2.1151924E-1,-1.8331668E-1,8.585545E-3,6.2438794E-3,-9.006124E-3,-1.5651532E-3,-6.980903E-3,1.2763867E-3,2.3712873E-2,6.655149E-3,2.1184238E-3,6.916959E-4,2.7071175E-3,-1.5776508E-2,2.0901932E-1,-1.2221112E-1,2.0626873E-1,-1.0999001E-1,2.182983E-1,-5.6321725E-2,-1.6858411E-1,-1.1283017E-1,6.482587E-2,-7.088944E-2,6.758376E-2,5.2399978E-2,-1.9664729E-1,5.8394022E-2,-4.6144277E-2,4.75651E-2,-6.0201462E-2,-9.5609E-2,-6.282392E-3,-8.434122E-2,3.1139156E-2,-6.3643314E-2,2.0506838E-1,-1.6695096E-1,2.0001815E-1,2.0812699E-1,-1.2817463E-1],"split_indices":[1456,2346,3197,1607,2744,2270,1456,81,161,2372,3213,3127,3636,1281,57,1197,0,0,2406,1420,692,160,1788,262,789,482,938,1197,65,1559,0,0,0,0,0,0,0,0,0,0,0,0,0,0,0,0,0,0,0,0,0,0,0,0,0,0,0],"split_type":[0,0,0,0,0,0,0,0,0,0,0,0,0,0,0,0,0,0,0,0,0,0,0,0,0,0,0,0,0,0,0,0,0,0,0,0,0,0,0,0,0,0,0,0,0,0,0,0,0,0,0,0,0,0,0,0,0],"sum_hessian":[1.10135E4,1.3325E3,9.681E3,4.935E2,8.39E2,8.404E3,1.277E3,4.125E1,4.5225E2,3.6625E2,4.7275E2,6.09125E3,2.31275E3,3.065E2,9.705E2,1.625E1,2.5E1,5E0,4.4725E2,2.555E2,1.1075E2,4.2075E2,5.2E1,2.73875E3,3.3525E3,1.08E3,1.23275E3,2.2075E2,8.575E1,9.415E2,2.9E1,1.25E0,1.5E1,1E0,4.4625E2,8.1E1,1.745E2,4.725E1,6.35E1,5.95E1,3.6125E2,2E1,3.2E1,1.0015E3,1.73725E3,2.45025E3,9.0225E2,5.1375E2,5.6625E2,6.55E1,1.16725E3,6.725E1,1.535E2,7.575E1,1E1,1.75E1,9.24E2],"tree_param":{"num_deleted":"0","num_feature":"4608","num_nodes":"57","size_leaf_vector":"1"}},{"base_weights":[-9.33935E-6,4.4644365E-1,-6.1203588E-2,1.5538045E0,-2.0018809E-1,1.783481E-2,-5.833152E-1,-4.8206583E-1,1.740357E0,-8.0108285E-1,2.8411946E-1,1.00122236E-1,-2.8512102E-2,-8.785305E-1,6.044276E-1,1.4380598E0,-1.9127566E-1,-1.6772972E-1,1.7803452E0,-1.2583691E0,-3.2300583E-1,4.950985E-1,-6.7982006E-1,5.401247E-1,-3.0177113E-2,7.3262595E-2,-2.9679894E-1,-9.557454E-1,2.0458551E-1,-8.4199226E-1,1.5247653E0,-1.1499063E-1,1.8691973E-1,1.9723977E-1,3.2330908E-2,-3.360194E-2,-1.6920845E-1,3.0626774E-2,-1.11530274E-1,1.1300164E-1,-1.5960352E-3,-1.4338732E-1,1.2855342E-1,-3.56111E-2,1.02241784E-1,-2.1571578E-3,-2.0324183E-1,2.147829E-2,-5.4570395E-3,1.10997865E-2,-6.2370844E-2,2.0859948E-1,-1.1053919E-1,-1.374137E-1,2.0437749E-1,-7.2511725E-2,2.0454428E-1],"categories":[],"categories_nodes":[],"categories_segments":[],"categories_sizes":[],"default_left":[0,0,0,0,0,0,0,0,0,0,0,0,0,0,0,0,0,0,0,0,0,0,0,0,0,0,0,0,0,0,0,0,0,0,0,0,0,0,0,0,0,0,0,0,0,0,0,0,0,0,0,0,0,0,0,0,0],"id":1,"left_children":[1,3,5,7,9,11,13,15,17,19,21,23,25,27,29,31,-1,-1,33,35,37,39,41,43,45,47,49,51,-1,53,55,-1,-1,-1,-1,-1,-1,-1,-1,-1,-1,-1,-1,-1,-1,-1,-1,-1,-1,-1,-1,-1,-1,-1,-1,-1,-1],"loss_changes":[3.003949E2,9.493869E2,3.9905493E2,1.8646411E2,2.440061E2,3.203639E1,4.4633765E2,1.03395325E2,6.1201416E1,8.137898E1,9.481729E1,1.7353394E2,1.4675523E2,2.1717993E2,3.3900024E2,1.2860786E1,0E0,0E0,7.8640137E0,5.043457E1,7.683943E1,1.03542694E2,9.818782E1,2.3289421E2,4.482551E1,5.8421204E1,1.5890298E2,1.4090448E2,0E0,1.11495766E2,1.1482727E2,0E0,0E0,0E0,0E0,0E0,0E0,0E0,0E0,0E0,0E0,0E0,0E0,0E0,0E0,0E0,0E0,0E0,0E0,0E0,0E0,0E0,0E0,0E0,0E0,0E0,0E0],"parents":[2147483647,0,0,1,1,2,2,3,3,4,4,5,5,6,6,7,7,8,8,9,9,10,10,11,11,12,12,13,13,14,14,15,15,18,18,19,19,20,20,21,21,22,22,23,23,24,24,25,25,26,26,27,27,29,29,30,30],"right_children":[2,4,6,8,10,12,14,16,18,20,22,24,26,28,30,32,-1,-1,34,36,38,40,42,44,46,48,50,52,-1,54,56,-1,-1,-1,-1,-1,-1,-1,-1,-1,-1,-1,-1,-1,-1,-1,-1,-1,-1,-1,-1,-1,-1,-1,-1,-1,-1],"split_conditions":[-8.082762E-3,-1.2931279E-2,3.595862E-2,1.3718E-3,-1.0806988E-3,2.2261078E-2,2.1122348E-2,6.969958E-3,-2.2180483E-2,-9.616799E-3,-1.548823E-3,-5.999722E-3,2.8851759E-2,-6.758967E-3,-1.8501078E-3,-4.813363E-4,-1.9127566E-1,-1.6772972E-1,5.7623507E-3,5.0538676E-3,-6.7973905E-3,-5.792117E-3,-9.2456344E-4,4.602796E-3,9.917823E-3,-7.385844E-4,-7.4521853E-3,4.8854114E-3,2.0458551E-1,-3.6624041E-3,4.7281617E-3,-1.1499063E-1,1.8691973E-1,1.9723977E-1,3.2330908E-2,-3.360194E-2,-1.6920845E-1,3.0626774E-2,-1.11530274E-1,1.1300164E-1,-1.5960352E-3,-1.4338732E-1,1.2855342E-1,-3.56111E-2,1.02241784E-1,-2.1571578E-3,-2.0324183E-1,2.147829E-2,-5.4570395E-3,1.10997865E-2,-6.2370844E-2,2.0859948E-1,-1.1053919E-1,-1.374137E-1,2.0437749E-1,-7.2511725E-2,2.0454428E-1],"split_indices":[1456,2346,3197,1607,2898,1939,1778,81,161,2372,2341,2447,2506,454,1489,1197,0,0,2368,1248,1613,1293,38,1565,2795,2898,1793,1264,0,337,1984,0,0,0,0,0,0,0,0,0,0,0,0,0,0,0,0,0,0,0,0,0,0,0,0,0,0],"split_type":[0,0,0,0,0,0,0,0,0,0,0,0,0,0,0,0,0,0,0,0,0,0,0,0,0,0,0,0,0,0,0,0,0,0,0,0,0,0,0,0,0,0,0,0,0,0,0,0,0,0,0,0,0,0,0,0,0],"sum_hessian":[1.0993277E4,1.3244238E3,9.668854E3,4.877485E2,8.366753E2,8.398444E3,1.270409E3,4.0809155E1,4.4693936E2,3.731022E2,4.635731E2,3.0255388E3,5.3729053E3,1.0177148E3,2.5269421E2,1.6087181E1,2.4721972E1,4.958146E0,4.4198123E2,1.8986346E2,1.8323875E2,3.8072873E2,8.284435E1,6.905395E2,2.3349995E3,3.8957708E3,1.4771348E3,9.904383E2,2.7276506E1,9.8295815E1,1.543984E2,1.2453305E0,1.4841851E1,4.3801965E2,3.9615717E0,4.358109E1,1.4628236E2,9.82818E1,8.4956955E1,1.8574127E2,1.9498746E2,6.216424E1,2.0680113E1,2.1458882E2,4.7595065E2,2.3225076E3,1.2491989E1,1.9545697E3,1.9412009E3,5.9783673E2,8.7929803E2,1.6144419E1,9.742939E2,8.588024E1,1.2415574E1,2.0390368E1,1.3400804E2],"tree_param":{"num_deleted":"0","num_feature":"4608","num_nodes":"57","size_leaf_vector":"1"}},{"base_weights":[7.5410804E-5,4.7154984E-1,-4.670818E-2,1.3189778E0,-3.481161E-1,-4.3458122E-1,1.31999655E-2,-1.104947E0,1.4482279E0,-8.3772534E-1,2.1569926E-1,6.6766864E-1,-7.920419E-1,8.531945E-2,-3.2372035E-2,1.5820505E-1,-1.9593216E-1,-8.0767256E-1,1.5885308E0,5.583031E-1,-1.0118499E0,4.9871802E-1,-6.370785E-1,-9.9632585E-1,1.1381567E0,-8.703218E-1,1.7442902E0,2.5674784E-1,-7.5614095E-1,-1.9844392E-1,3.090121E-1,-1.7066658E-1,1.7143022E-1,1.8395701E-1,-8.15314E-2,1.04555115E-1,-1.6863912E-1,2.628602E-3,-1.3992678E-1,-6.909796E-2,8.663588E-2,-1.566374E-1,1.5908514E-1,1.9194049E-1,-1.7498133E-1,1.6399395E-1,-6.834719E-2,1.8554673E-1,-1.0177407E-1,1.9585519E-1,6.620594E-2,-3.643931E-2,3.9704952E-2,6.7596145E-2,-1.5925528E-1,-8.356575E-2,4.6724253E-3,1.1054124E-1,-3.1749394E-2],"categories":[],"categories_nodes":[],"categories_segments":[],"categories_sizes":[],"default_left":[0,0,0,0,0,0,0,0,0,0,0,0,0,0,0,0,0,0,0,0,0,0,0,0,0,0,0,0,0,0,0,0,0,0,0,0,0,0,0,0,0,0,0,0,0,0,0,0,0,0,0,0,0,0,0,0,0,0,0],"id":2,"left_children":[1,3,5,7,9,11,13,15,17,19,21,23,25,27,29,-1,-1,31,33,35,37,39,41,43,45,47,49,51,53,55,57,-1,-1,-1,-1,-1,-1,-1,-1,-1,-1,-1,-1,-1,-1,-1,-1,-1,-1,-1,-1,-1,-1,-1,-1,-1,-1,-1,-1],"loss_changes":[2.4172296E2,6.876121E2,2.3166727E2,1.5405005E2,1.3921622E2,5.260816E2,2.8388596E1,4.590293E1,1.476383E2,6.6142685E1,5.7008087E1,2.5728192E2,2.0158484E2,4.8264835E2,3.001554E2,0E0,0E0,5.1237076E1,8.63009E1,2.6524952E1,6.4771255E1,5.8087727E1,9.872913E1,1.21156494E2,1.5950104E2,1.3887354E2,1.9019318E-1,1.7041779E2,5.377467E2,4.816064E2,7.20912E2,0E0,0E0,0E0,0E0,0E0,0E0,0E0,0E0,0E0,0E0,0E0,0E0,0E0,0E0,0E0,0E0,0E0,0E0,0E0,0E0,0E0,0E0,0E0,0E0,0E0,0E0,0E0,0E0],"parents":[2147483647,0,0,1,1,2,2,3,3,4,4,5,5,6,6,7,7,8,8,9,9,10,10,11,11,12,12,13,13,14,14,17,17,18,18,19,19,20,20,21,21,22,22,23,23,24,24,25,25,26,26,27,27,28,28,29,29,30,30],"right_children":[2,4,6,8,10,12,14,16,18,20,22,24,26,28,30,-1,-1,32,34,36,38,40,42,44,46,48,50,52,54,56,58,-1,-1,-1,-1,-1,-1,-1,-1,-1,-1,-1,-1,-1,-1,-1,-1,-1,-1,-1,-1,-1,-1,-1,-1,-1,-1,-1,-1],"split_conditions":[-8.635169E-3,-2.6600916E-2,-2.1217652E-2,5.5504654E-4,-1.0806988E-3,-5.7281223E-3,-3.5793309E-3,-1.9885045E-3,7.487339E-3,-3.0672592E-3,-1.9273568E-3,4.250896E-3,1.8092208E-2,4.9966546E-3,9.623208E-3,1.5820505E-1,-1.9593216E-1,-1.2939346E-2,7.033437E-3,-2.6366084E-3,6.9819046E-3,7.0908912E-3,-7.7630067E-3,-8.173349E-3,-8.856421E-4,-1.5776508E-2,-1.3136943E-2,-1.697681E-2,-1.7397981E-2,-1.1082018E-2,3.3212167E-3,-1.7066658E-1,1.7143022E-1,1.8395701E-1,-8.15314E-2,1.04555115E-1,-1.6863912E-1,2.628602E-3,-1.3992678E-1,-6.909796E-2,8.663588E-2,-1.566374E-1,1.5908514E-1,1.9194049E-1,-1.7498133E-1,1.6399395E-1,-6.834719E-2,1.8554673E-1,-1.0177407E-1,1.9585519E-1,6.620594E-2,-3.643931E-2,3.9704952E-2,6.7596145E-2,-1.5925528E-1,-8.356575E-2,4.6724253E-3,1.1054124E-1,-3.1749394E-2],"split_indices":[1456,2910,2993,1554,2898,1456,980,10,1937,1909,2747,1773,570,2632,3132,0,0,311,249,11,2453,2115,203,1844,1474,1559,29,860,985,62,768,0,0,0,0,0,0,0,0,0,0,0,0,0,0,0,0,0,0,0,0,0,0,0,0,0,0,0,0],"split_type":[0,0,0,0,0,0,0,0,0,0,0,0,0,0,0,0,0,0,0,0,0,0,0,0,0,0,0,0,0,0,0,0,0,0,0,0,0,0,0,0,0,0,0,0,0,0,0,0,0,0,0,0,0,0,0,0,0,0,0],"sum_hessian":[1.0956882E4,9.882675E2,9.968615E3,4.8560547E2,5.0266205E2,1.3328531E3,8.635762E3,2.4200792E1,4.6140466E2,2.6877545E2,2.3388658E2,3.2618277E2,1.0066704E3,3.3435654E3,5.2921963E3,4.846797E0,1.9353996E1,2.6737722E1,4.3466696E2,2.9561592E1,2.3921385E2,1.7591826E2,5.7968334E1,7.165168E1,2.5453108E2,9.771685E2,2.9501905E1,2.7782544E3,5.6531116E2,3.5605347E3,1.7316615E3,2.0604538E1,6.1331835E0,4.1984628E2,1.4820681E1,2.535271E1,4.2088814E0,4.821342E1,1.9100044E2,3.5655804E1,1.4026245E2,4.23054E1,1.5662933E1,1.2423423E1,5.9228256E1,2.1215625E2,4.2374847E1,1.9912535E1,9.57256E2,2.8054127E1,1.4477773E0,4.1790793E2,2.3603464E3,1.8962733E2,3.7568384E2,1.0687164E3,2.491818E3,7.997426E2,9.319189E2],"tree_param":{"num_deleted":"0","num_feature":"4608","num_nodes":"59","size_leaf_vector":"1"}},{"base_weights":[1.7933623E-4,4.3112618E-1,-4.1693598E-2,1.3895243E0,-1.8747531E-1,-3.930527E-1,1.1747028E-2,-6.3542664E-1,1.5351793E0,-7.5512993E-1,2.873207E-1,-7.022009E-1,6.637854E-1,1.1595432E-1,-1.718965E-2,-1.2514976E0,1.456257E-1,-1.177083E-1,1.5489088E0,-2.0197581E-1,-1.2602669E0,-8.603975E-1,5.2772456E-1,-7.737696E-1,1.7960122E-1,-6.2426394E-1,1.3027515E0,3.259866E-1,-8.0349696E-1,-1.6995266E-1,1.1045846E-1,-1.6245282E-1,1.3635422E-1,1.7085962E-1,4.124323E-2,-6.584076E-2,9.000685E-2,-1.5177362E-1,1.0797073E-1,-2.054205E-1,2.8562732E-2,-3.778674E-2,9.397969E-2,-1.0057771E-1,2.1842789E-2,-1.1100461E-1,1.9278271E-1,1.6922663E-1,-1.5736178E-1,-7.587387E-3,5.8516093E-2,-1.4089026E-1,4.0504146E-2,-8.422479E-2,1.2453926E-2,-6.728484E-3,5.823196E-2],"categories":[],"categories_nodes":[],"categories_segments":[],"categories_sizes":[],"default_left":[0,0,0,0,0,0,0,0,0,0,0,0,0,0,0,0,0,0,0,0,0,0,0,0,0,0,0,0,0,0,0,0,0,0,0,0,0,0,0,0,0,0,0,0,0,0,0,0,0,0,0,0,0,0,0,0,0],"id":3,"left_children":[1,3,5,7,9,11,13,15,17,19,21,23,25,27,29,31,-1,-1,33,35,37,39,41,43,-1,45,47,49,51,53,55,-1,-1,-1,-1,-1,-1,-1,-1,-1,-1,-1,-1,-1,-1,-1,-1,-1,-1,-1,-1,-1,-1,-1,-1,-1,-1],"loss_changes":[1.967216E2,5.7264746E2,1.8657642E2,1.12710266E2,1.5859323E2,4.2905347E2,2.6011366E1,3.319532E1,1.4309143E1,7.460596E1,8.8942444E1,1.7094434E2,2.455765E2,3.6230063E2,1.3167712E2,1.327783E1,0E0,0E0,1.2208252E0,5.271108E1,3.8816208E1,6.3563602E1,7.593038E1,1.3493579E2,0E0,9.259401E1,1.3045999E2,1.24250046E2,1.9560924E2,5.1863055E2,2.645343E2,0E0,0E0,0E0,0E0,0E0,0E0,0E0,0E0,0E0,0E0,0E0,0E0,0E0,0E0,0E0,0E0,0E0,0E0,0E0,0E0,0E0,0E0,0E0,0E0,0E0,0E0],"parents":[2147483647,0,0,1,1,2,2,3,3,4,4,5,5,6,6,7,7,8,8,9,9,10,10,11,11,12,12,13,13,14,14,15,15,18,18,19,19,20,20,21,21,22,22,23,23,25,25,26,26,27,27,28,28,29,29,30,30],"right_children":[2,4,6,8,10,12,14,16,18,20,22,24,26,28,30,32,-1,-1,34,36,38,40,42,44,-1,46,48,50,52,54,56,-1,-1,-1,-1,-1,-1,-1,-1,-1,-1,-1,-1,-1,-1,-1,-1,-1,-1,-1,-1,-1,-1,-1,-1,-1,-1],"split_conditions":[-8.635169E-3,-1.7013742E-2,-2.1217652E-2,1.5085866E-2,-1.0806988E-3,2.1122348E-2,-7.127613E-4,-1.0407709E-3,-8.176872E-3,-6.63286E-3,3.890807E-3,-6.758967E-3,-1.8501078E-3,-3.3220558E-3,-2.3684578E-3,-6.37018E-3,1.456257E-1,-1.177083E-1,-1.465227E-2,-1.789692E-2,1.5422505E-2,-3.1737627E-3,-1.2147588E-2,1.22888265E-2,1.7960122E-1,9.439453E-3,5.4882322E-3,2.6252375E-3,1.0822174E-2,4.9272673E-3,-7.532244E-3,-1.6245282E-1,1.3635422E-1,1.7085962E-1,4.124323E-2,-6.584076E-2,9.000685E-2,-1.5177362E-1,1.0797073E-1,-2.054205E-1,2.8562732E-2,-3.778674E-2,9.397969E-2,-1.0057771E-1,2.1842789E-2,-1.1100461E-1,1.9278271E-1,1.6922663E-1,-1.5736178E-1,-7.587387E-3,5.8516093E-2,-1.4089026E-1,4.0504146E-2,-8.422479E-2,1.2453926E-2,-6.728484E-3,5.823196E-2],"split_indices":[1456,2784,2993,1211,2898,1778,22,2,2310,1613,1911,454,1489,2525,3358,2304,0,0,459,1259,3315,563,3330,1735,0,843,1132,2854,1082,482,470,0,0,0,0,0,0,0,0,0,0,0,0,0,0,0,0,0,0,0,0,0,0,0,0,0,0],"split_type":[0,0,0,0,0,0,0,0,0,0,0,0,0,0,0,0,0,0,0,0,0,0,0,0,0,0,0,0,0,0,0,0,0,0,0,0,0,0,0,0,0,0,0,0,0,0,0,0,0,0,0,0,0,0,0,0,0],"sum_hessian":[1.0899724E4,9.6445667E2,9.935267E3,3.7783356E2,5.866231E2,1.3107896E3,8.624478E3,2.512824E1,3.527053E2,2.6691525E2,3.1970786E2,1.01439307E3,2.963965E2,1.8737365E3,6.7507407E3,1.939198E1,5.736261E0,1.4456697E0,3.5125964E2,1.2807051E2,1.3884476E2,5.492241E1,2.6478546E2,9.848741E2,2.9518993E1,9.828776E1,1.9810875E2,1.5258326E3,3.4790384E2,3.072906E3,3.677835E3,1.8156654E1,1.2353255E0,3.4963794E2,1.6217113E0,9.251981E1,3.555069E1,1.3218365E2,6.6611037E0,2.8568634E1,2.6353773E1,7.218745E1,1.92598E2,8.605258E2,1.2434829E2,8.5085686E1,1.3202073E1,1.8278572E2,1.532304E1,5.2322095E2,1.0026117E3,2.4713504E2,1.007688E2,9.8950433E2,2.0834016E3,2.609582E3,1.0682528E3],"tree_param":{"num_deleted":"0","num_feature":"4608","num_nodes":"57","size_leaf_vector":"1"}},{"base_weights":[2.724974E-4,3.9630035E-1,-3.7253886E-2,1.1520826E0,-2.9132387E-1,1.1366899E-2,-3.5118446E-1,1.3028529E0,-5.321434E-1,-9.122709E-1,2.045685E-2,-5.9404135E-2,5.392826E-2,5.1755404E-1,-6.7210686E-1,-3.0505264E-1,1.444244E0,-1.4958932E0,1.516496E-1,-1.1998354E0,2.5308272E-1,-4.0710092E-1,3.2534787E-1,-2.8993642E-1,1.071892E-1,-1.5310106E-2,1.7380477E-1,9.464509E-1,-7.7706355E-1,7.3267996E-1,-7.8234786E-1,1.6593689E-1,-1.8066147E-1,1.6222478E-1,-6.0967226E-2,-1.7904057E-1,8.361291E-2,7.277916E-2,-1.4780967E-1,1.4761871E-1,-1.1717757E-1,1.435949E-1,-7.205805E-2,1.7165036E-1,6.972981E-3,7.506511E-2,-7.034727E-2,2.5329068E-2,-1.0331547E-1,4.7069173E-3,-1.5676914E-1,8.000925E-3,1.777972E-1,1.3847587E-1,-1.4224118E-1,1.9216245E-1,-1.21183634E-1,-1.05496615E-1,2.0597075E-1,2.0984095E-1,-9.226299E-2],"categories":[],"categories_nodes":[],"categories_segments":[],"categories_sizes":[],"default_left":[0,0,0,0,0,0,0,0,0,0,0,0,0,0,0,0,0,0,0,0,0,0,0,0,0,0,0,0,0,0,0,0,0,0,0,0,0,0,0,0,0,0,0,0,0,0,0,0,0,0,0,0,0,0,0,0,0,0,0,0,0],"id":4,"left_children":[1,3,5,7,9,11,13,15,17,19,21,23,25,27,29,31,33,35,-1,37,39,41,43,45,47,49,51,53,55,57,59,-1,-1,-1,-1,-1,-1,-1,-1,-1,-1,-1,-1,-1,-1,-1,-1,-1,-1,-1,-1,-1,-1,-1,-1,-1,-1,-1,-1,-1,-1],"loss_changes":[1.610712E2,4.8786032E2,1.5111414E2,1.1422656E2,9.526882E1,2.5827127E1,3.7050818E2,9.380084E1,7.101885E1,5.54234E1,4.2957302E1,1.237016E2,4.4442867E1,1.9992038E2,1.5078879E2,8.498242E1,2.3856262E1,8.778038E0,0E0,3.627133E1,4.934806E1,5.9114845E1,6.212635E1,4.5970435E2,2.410552E2,2.7814532E2,2.8569315E2,1.9047733E2,7.551278E1,1.3888557E2,1.3814197E2,0E0,0E0,0E0,0E0,0E0,0E0,0E0,0E0,0E0,0E0,0E0,0E0,0E0,0E0,0E0,0E0,0E0,0E0,0E0,0E0,0E0,0E0,0E0,0E0,0E0,0E0,0E0,0E0,0E0,0E0],"parents":[2147483647,0,0,1,1,2,2,3,3,4,4,5,5,6,6,7,7,8,8,9,9,10,10,11,11,12,12,13,13,14,14,15,15,16,16,17,17,19,19,20,20,21,21,22,22,23,23,24,24,25,25,26,26,27,27,28,28,29,29,30,30],"right_children":[2,4,6,8,10,12,14,16,18,20,22,24,26,28,30,32,34,36,-1,38,40,42,44,46,48,50,52,54,56,58,60,-1,-1,-1,-1,-1,-1,-1,-1,-1,-1,-1,-1,-1,-1,-1,-1,-1,-1,-1,-1,-1,-1,-1,-1,-1,-1,-1,-1,-1,-1],"split_conditions":[-8.635169E-3,-2.6600916E-2,1.1752576E-3,-4.5839245E-3,8.8554155E-4,-5.500073E-3,-5.4312074E-3,-3.763167E-3,-1.0868789E-2,1.8258594E-2,2.3744577E-3,-9.331536E-3,5.4288306E-3,7.927093E-5,7.4728047E-3,1.4680042E-3,-9.1380505E-5,-9.562635E-3,1.516496E-1,-7.3000756E-3,-7.053111E-3,-1.36169465E-2,-1.5310186E-2,-1.0262423E-2,1.4105431E-2,8.2005635E-3,8.2005635E-3,7.4309986E-3,-2.6431379E-5,1.1388443E-3,-1.3245219E-2,1.6593689E-1,-1.8066147E-1,1.6222478E-1,-6.0967226E-2,-1.7904057E-1,8.361291E-2,7.277916E-2,-1.4780967E-1,1.4761871E-1,-1.1717757E-1,1.435949E-1,-7.205805E-2,1.7165036E-1,6.972981E-3,7.506511E-2,-7.034727E-2,2.5329068E-2,-1.0331547E-1,4.7069173E-3,-1.5676914E-1,8.000925E-3,1.777972E-1,1.3847587E-1,-1.4224118E-1,1.9216245E-1,-1.21183634E-1,-1.05496615E-1,2.0597075E-1,2.0984095E-1,-9.226299E-2],"split_indices":[1456,2910,3417,2231,2998,1763,1456,2157,1037,2989,2710,2927,2950,1281,859,750,388,3,0,2225,2159,1974,168,84,884,541,541,1523,666,960,2016,0,0,0,0,0,0,0,0,0,0,0,0,0,0,0,0,0,0,0,0,0,0,0,0,0,0,0,0,0,0],"split_type":[0,0,0,0,0,0,0,0,0,0,0,0,0,0,0,0,0,0,0,0,0,0,0,0,0,0,0,0,0,0,0,0,0,0,0,0,0,0,0,0,0,0,0,0,0,0,0,0,0,0,0,0,0,0,0,0,0,0,0,0,0],"sum_hessian":[1.0836164E4,9.3709906E2,9.899064E3,4.4610275E2,4.9099634E2,8.572362E3,1.3267024E3,4.0965707E2,3.644566E1,1.634804E2,3.2751593E2,3.219155E3,5.3532075E3,3.5772537E2,9.6897705E2,3.301798E1,3.766391E2,2.4370758E1,1.2074902E1,1.311003E2,3.2380108E1,1.3619308E2,1.9132286E2,1.3501179E3,1.8690372E3,3.3938545E3,1.9593528E3,2.6890738E2,8.8818016E1,7.009677E1,8.9888025E2,1.3959388E1,1.905859E1,3.7123065E2,5.408451E0,2.3289227E1,1.0815316E0,9.148581E0,1.21951706E2,1.7723259E1,1.4656848E1,1.6687063E1,1.1950603E2,3.261035E1,1.587125E2,3.567865E2,9.933314E2,1.6730419E3,1.9599532E2,3.2604612E3,1.3339343E2,1.8320436E3,1.27309166E2,2.3637115E2,3.253621E1,9.621751E0,7.9196266E1,2.8280102E1,4.181667E1,1.7787502E1,8.810928E2],"tree_param":{"num_deleted":"0","num_feature":"4608","num_nodes":"61","size_leaf_vector":"1"}},{"base_weights":[3.9516235E-4,3.6690795E-1,-3.3292305E-2,1.2487258E0,-1.5472582E-1,-3.1949747E-1,1.01163E-2,-5.490221E-1,1.3799074E0,-6.6751325E-1,2.3817687E-1,4.6899018E-1,-6.1160666E-1,-7.8230284E-2,4.386885E-2,-1.0936494E0,1.2970944E-1,-1.14639744E-1,1.3941557E0,-2.461699E-1,-1.3222069E0,5.5140036E-1,-3.174538E-1,8.6679417E-1,-7.220883E-1,-7.29069E-1,7.5754464E-1,-2.7287072E-1,1.1225124E-1,1.3520707E-1,-1.8934539E-2,-1.4605016E-1,1.3126275E-1,2.7158862E-2,1.5387371E-1,-1.222908E-1,3.4809757E-3,6.1280828E-2,-1.6072454E-1,-1.2875985E-1,7.204397E-2,-1.8274637E-1,-7.0312596E-3,1.2673925E-1,-1.1854594E-1,1.757698E-1,-1.1387263E-1,-8.6058706E-2,2.129507E-1,-8.254423E-2,1.9476081E-1,-6.5620996E-2,1.1915856E-3,1.9847255E-2,-8.368179E-2,-3.398734E-2,4.211134E-2,2.1380432E-5,-1.9667129E-1],"categories":[],"categories_nodes":[],"categories_segments":[],"categories_sizes":[],"default_left":[0,0,0,0,0,0,0,0,0,0,0,0,0,0,0,0,0,0,0,0,0,0,0,0,0,0,0,0,0,0,0,0,0,0,0,0,0,0,0,0,0,0,0,0,0,0,0,0,0,0,0,0,0,0,0,0,0,0,0],"id":5,"left_children":[1,3,5,7,9,11,13,15,17,19,21,23,25,27,29,31,-1,-1,33,35,37,39,41,43,45,47,49,51,53,55,57,-1,-1,-1,-1,-1,-1,-1,-1,-1,-1,-1,-1,-1,-1,-1,-1,-1,-1,-1,-1,-1,-1,-1,-1,-1,-1,-1,-1],"loss_changes":[1.3297282E2,4.171978E2,1.22541245E2,8.024695E1,1.1510078E2,2.9947092E2,2.5544275E1,2.3538218E1,1.2303833E1,6.801789E1,5.6518524E1,1.6726959E2,1.530553E2,8.782866E1,3.5557228E1,1.1483908E1,0E0,0E0,1.3410034E0,3.657903E1,2.6082779E1,3.7745693E1,3.9875404E1,1.4779817E2,6.601674E1,1.2559897E2,1.1653095E2,1.07590225E2,7.1414154E1,2.7789676E2,1.2431202E2,0E0,0E0,0E0,0E0,0E0,0E0,0E0,0E0,0E0,0E0,0E0,0E0,0E0,0E0,0E0,0E0,0E0,0E0,0E0,0E0,0E0,0E0,0E0,0E0,0E0,0E0,0E0,0E0],"parents":[2147483647,0,0,1,1,2,2,3,3,4,4,5,5,6,6,7,7,8,8,9,9,10,10,11,11,12,12,13,13,14,14,15,15,18,18,19,19,20,20,21,21,22,22,23,23,24,24,25,25,26,26,27,27,28,28,29,29,30,30],"right_children":[2,4,6,8,10,12,14,16,18,20,22,24,26,28,30,32,-1,-1,34,36,38,40,42,44,46,48,50,52,54,56,58,-1,-1,-1,-1,-1,-1,-1,-1,-1,-1,-1,-1,-1,-1,-1,-1,-1,-1,-1,-1,-1,-1,-1,-1,-1,-1,-1,-1],"split_conditions":[-8.635169E-3,-1.7013742E-2,-1.7013742E-2,1.5085866E-2,-1.29853E-2,-5.4312074E-3,-3.4604283E-4,-1.0407709E-3,-8.176872E-3,-8.6168805E-3,-4.009261E-3,7.927093E-5,-6.5279147E-4,-6.809522E-3,-1.8208893E-3,-6.37018E-3,1.2970944E-1,-1.14639744E-1,-3.367597E-3,-3.2719818E-4,-6.4443434E-3,-3.7862507E-3,-6.635183E-3,7.456825E-3,3.0094665E-3,2.3439203E-3,-5.0538714E-4,3.7490304E-3,1.3953447E-2,2.2000535E-3,-1.0924752E-2,-1.4605016E-1,1.3126275E-1,2.7158862E-2,1.5387371E-1,-1.222908E-1,3.4809757E-3,6.1280828E-2,-1.6072454E-1,-1.2875985E-1,7.204397E-2,-1.8274637E-1,-7.0312596E-3,1.2673925E-1,-1.1854594E-1,1.757698E-1,-1.1387263E-1,-8.6058706E-2,2.129507E-1,-8.254423E-2,1.9476081E-1,-6.5620996E-2,1.1915856E-3,1.9847255E-2,-8.368179E-2,-3.398734E-2,4.211134E-2,2.1380432E-5,-1.9667129E-1],"split_indices":[1456,2784,2784,1211,2744,1456,1443,2,2310,3101,1482,1281,57,2946,2644,2304,0,0,1408,697,2121,253,1012,1523,322,1704,1818,306,813,262,1931,0,0,0,0,0,0,0,0,0,0,0,0,0,0,0,0,0,0,0,0,0,0,0,0,0,0,0,0],"split_type":[0,0,0,0,0,0,0,0,0,0,0,0,0,0,0,0,0,0,0,0,0,0,0,0,0,0,0,0,0,0,0,0,0,0,0,0,0,0,0,0,0,0,0,0,0,0,0,0,0,0,0,0,0,0,0,0,0,0,0],"sum_hessian":[1.0767754E4,9.055595E2,9.862194E3,3.3605957E2,5.6949994E2,1.2979678E3,8.564227E3,2.263795E1,3.134216E2,2.4675485E2,3.2274506E2,3.5070566E2,9.472621E2,2.367093E3,6.197134E3,1.7492508E1,5.145443E0,1.4110543E0,3.1201056E2,1.5097037E2,9.578449E1,2.0639975E2,1.1634531E2,2.6310458E2,8.760109E1,8.7284625E2,7.441579E1,1.1705515E3,1.1965416E3,2.5244875E3,3.6726462E3,1.6248802E1,1.2437053E0,1.4903753E0,3.1052017E2,3.5953E1,1.15017365E2,6.3861475E0,8.9398346E1,1.1122841E1,1.9527692E2,1.7584469E1,9.876084E1,2.2978746E2,3.3317112E1,9.929173E0,7.767192E1,8.564295E2,1.641675E1,3.0007048E1,4.4408745E1,5.462357E2,6.2431586E2,1.1106002E3,8.594132E1,9.035198E2,1.6209678E3,3.6343462E3,3.8300056E1],"tree_param":{"num_deleted":"0","num_feature":"4608","num_nodes":"59","size_leaf_vector":"1"}},{"base_weights":[3.9793286E-4,3.3880126E-1,-2.9776959E-2,1.0452782E0,-2.500331E-1,9.278331E-3,-2.9284245E-1,-8.87389E-1,1.1546872E0,-8.00221E-1,1.5463573E-2,-5.0192714E-2,5.5812232E-2,-5.4345113E-1,5.3278905E-1,1.2668921E-1,-1.5610905E-1,-6.265452E-1,1.2754833E0,-1.0533565E0,3.2533297E-1,-1.3957875E0,9.920011E-2,2.437673E-1,-2.7593327E-1,-6.774088E-1,1.3565448E-1,-5.946641E-1,2.014251E0,-5.249253E-1,1.0917208E0,-1.3278961E-1,1.3686852E-1,-5.122241E-2,1.4901349E-1,-1.2880105E-1,5.8642346E-2,-1.5200925E-1,1.01071E-1,-1.7839357E-1,1.0548525E-1,3.0456284E-2,-5.5498615E-2,-1.2602314E-2,7.668831E-2,3.373647E-3,-9.184441E-2,7.305325E-2,-1.0439881E-1,1.0446603E-2,8.1324935E-2,7.452046E-2,-7.716326E-2,2.370708E-1,3.4978207E-2,7.6195754E-2,-1.3930091E-1,1.4265704E-1,-1.4395335E-1],"categories":[],"categories_nodes":[],"categories_segments":[],"categories_sizes":[],"default_left":[0,0,0,0,0,0,0,0,0,0,0,0,0,0,0,0,0,0,0,0,0,0,0,0,0,0,0,0,0,0,0,0,0,0,0,0,0,0,0,0,0,0,0,0,0,0,0,0,0,0,0,0,0,0,0,0,0,0,0],"id":6,"left_children":[1,3,5,7,9,11,13,15,17,19,21,23,25,27,29,-1,-1,31,33,35,37,39,41,43,45,47,49,51,53,55,57,-1,-1,-1,-1,-1,-1,-1,-1,-1,-1,-1,-1,-1,-1,-1,-1,-1,-1,-1,-1,-1,-1,-1,-1,-1,-1,-1,-1],"loss_changes":[1.0930339E2,3.6481418E2,1.0097508E2,8.5301575E1,6.9947586E1,2.3687414E1,2.631655E2,2.5403215E1,8.205554E1,4.474798E1,3.8416634E1,2.4940808E2,2.8120502E2,1.289288E2,1.757687E2,0E0,0E0,2.8283009E1,4.9436157E1,2.4399155E1,3.1038122E1,1.1244534E1,3.3039577E1,2.653337E2,3.643822E2,1.7254759E2,1.0630498E2,1.3048874E2,3.9454193E0,9.398425E1,9.7340164E1,0E0,0E0,0E0,0E0,0E0,0E0,0E0,0E0,0E0,0E0,0E0,0E0,0E0,0E0,0E0,0E0,0E0,0E0,0E0,0E0,0E0,0E0,0E0,0E0,0E0,0E0,0E0,0E0],"parents":[2147483647,0,0,1,1,2,2,3,3,4,4,5,5,6,6,7,7,8,8,9,9,10,10,11,11,12,12,13,13,14,14,17,17,18,18,19,19,20,20,21,21,22,22,23,23,24,24,25,25,26,26,27,27,28,28,29,29,30,30],"right_children":[2,4,6,8,10,12,14,16,18,20,22,24,26,28,30,-1,-1,32,34,36,38,40,42,44,46,48,50,52,54,56,58,-1,-1,-1,-1,-1,-1,-1,-1,-1,-1,-1,-1,-1,-1,-1,-1,-1,-1,-1,-1,-1,-1,-1,-1,-1,-1,-1,-1],"split_conditions":[-8.635169E-3,-2.6600916E-2,1.1752576E-3,5.5504654E-4,8.8554155E-4,5.3507835E-3,2.0974582E-2,-1.9885045E-3,7.487339E-3,6.824634E-3,-1.4392386E-2,-1.2732074E-3,-5.3652204E-3,2.8814082E-3,-1.8501078E-3,1.2668921E-1,-1.5610905E-1,-1.2939346E-2,-1.2567622E-2,1.5628213E-2,-5.703635E-3,3.719398E-3,8.520613E-3,2.3786573E-2,2.3931181E-2,6.7862463E-3,6.326209E-3,-1.6358707E-2,-8.174874E-4,2.3708781E-3,5.4882322E-3,-1.3278961E-1,1.3686852E-1,-5.122241E-2,1.4901349E-1,-1.2880105E-1,5.8642346E-2,-1.5200925E-1,1.01071E-1,-1.7839357E-1,1.0548525E-1,3.0456284E-2,-5.5498615E-2,-1.2602314E-2,7.668831E-2,3.373647E-3,-9.184441E-2,7.305325E-2,-1.0439881E-1,1.0446603E-2,8.1324935E-2,7.452046E-2,-7.716326E-2,2.370708E-1,3.4978207E-2,7.6195754E-2,-1.3930091E-1,1.4265704E-1,-1.4395335E-1],"split_indices":[1456,2910,3417,1554,2998,947,1778,10,1937,1261,2501,3801,2726,1092,1489,0,0,311,531,1065,2913,2,2669,789,789,1065,2866,639,226,453,1132,0,0,0,0,0,0,0,0,0,0,0,0,0,0,0,0,0,0,0,0,0,0,0,0,0,0,0,0],"split_type":[0,0,0,0,0,0,0,0,0,0,0,0,0,0,0,0,0,0,0,0,0,0,0,0,0,0,0,0,0,0,0,0,0,0,0,0,0,0,0,0,0,0,0,0,0,0,0,0,0,0,0,0,0,0,0,0,0,0,0],"sum_hessian":[1.0702189E4,8.753333E2,9.826856E3,3.9756458E2,4.7776874E2,8.557374E3,1.269482E3,2.0919464E1,3.766451E2,1.548531E2,3.2291562E2,3.7564697E3,4.800905E3,9.741382E2,2.9534396E2,4.0860133E0,1.683345E1,2.3654495E1,3.529906E2,1.2647353E2,2.837957E1,1.7209364E1,3.0570627E2,1.6316501E3,2.1248193E3,4.707105E2,4.3301943E3,9.5576825E2,1.8369892E1,1.0213188E2,1.9321207E2,1.832254E1,5.331955E0,1.5142907E1,3.378477E2,1.1799191E2,8.481621E0,6.9780936E0,2.1401476E1,1.5986504E1,1.2228603E0,2.3661362E2,6.909266E1,9.117871E2,7.1986304E2,1.3728171E3,7.5200226E2,7.902682E1,3.916837E2,4.0578618E3,2.7233218E2,7.362492E1,8.821434E2,1.6710884E1,1.6590079E0,3.8678795E1,6.3453087E1,1.7842204E2,1.4790029E1],"tree_param":{"num_deleted":"0","num_feature":"4608","num_nodes":"59","size_leaf_vector":"1"}},{"base_weights":[4.486188E-4,3.1442147E-1,-2.6628368E-2,1.1567966E0,-1.318428E-1,-2.6220238E-1,8.893887E-3,1.2485029E0,-9.968646E-1,-5.5767894E-1,2.1555947E-1,3.2212102E-1,-5.875736E-1,-6.357388E-1,1.426264E-2,-4.9767298E-1,1.285381E0,-1.2973902E-1,4.712149E-2,-7.4896194E-2,-1.0239408E0,-7.0589775E-1,4.0746278E-1,1.0435913E0,-1.0842973E-1,-7.407655E-1,4.36841E-1,5.944277E-1,-1.6747347E0,1.980561E-2,-5.090635E-1,-1.2336545E-1,1.313638E-1,-1.0209491E-1,1.427426E-1,-4.7097284E-2,8.830046E-2,-1.2554893E-1,1.06135525E-1,-1.7040122E-1,1.9650279E-2,1.13810405E-1,1.0498734E-2,1.4009462E-1,-1.6329084E-1,-4.3246303E-2,1.7756002E-1,2.1816047E-1,-8.8061534E-2,2.0179951E-1,-5.3228408E-2,1.10990345E-1,-1.7147933E-1,-2.1143284E-1,8.4349096E-2,9.749278E-3,-2.8244765E-3,8.364916E-2,-1.5736759E-1],"categories":[],"categories_nodes":[],"categories_segments":[],"categories_sizes":[],"default_left":[0,0,0,0,0,0,0,0,0,0,0,0,0,0,0,0,0,0,0,0,0,0,0,0,0,0,0,0,0,0,0,0,0,0,0,0,0,0,0,0,0,0,0,0,0,0,0,0,0,0,0,0,0,0,0,0,0,0,0],"id":7,"left_children":[1,3,5,7,9,11,13,15,17,19,21,23,25,27,29,31,33,-1,-1,35,37,39,41,43,45,47,49,51,53,55,57,-1,-1,-1,-1,-1,-1,-1,-1,-1,-1,-1,-1,-1,-1,-1,-1,-1,-1,-1,-1,-1,-1,-1,-1,-1,-1,-1,-1],"loss_changes":[9.0379265E1,3.174425E2,8.190143E1,5.899405E1,8.187517E1,2.4401064E2,2.9445847E1,1.8728302E1,3.7575579E0,5.58768E1,5.423292E1,1.4279762E2,1.296524E2,9.0816315E1,2.4481989E1,8.232035E0,8.688843E0,0E0,0E0,3.853942E1,3.0609848E1,3.976821E1,4.9434498E1,1.01762405E2,1.4216853E2,1.18417786E2,1.3966202E2,3.0956919E1,2.4642853E1,2.6136774E1,1.0457513E2,0E0,0E0,0E0,0E0,0E0,0E0,0E0,0E0,0E0,0E0,0E0,0E0,0E0,0E0,0E0,0E0,0E0,0E0,0E0,0E0,0E0,0E0,0E0,0E0,0E0,0E0,0E0,0E0],"parents":[2147483647,0,0,1,1,2,2,3,3,4,4,5,5,6,6,7,7,8,8,9,9,10,10,11,11,12,12,13,13,14,14,15,15,16,16,19,19,20,20,21,21,22,22,23,23,24,24,25,25,26,26,27,27,28,28,29,29,30,30],"right_children":[2,4,6,8,10,12,14,16,18,20,22,24,26,28,30,32,34,-1,-1,36,38,40,42,44,46,48,50,52,54,56,58,-1,-1,-1,-1,-1,-1,-1,-1,-1,-1,-1,-1,-1,-1,-1,-1,-1,-1,-1,-1,-1,-1,-1,-1,-1,-1,-1,-1],"split_conditions":[-8.635169E-3,-1.7013742E-2,-1.2931279E-2,-1.8388561E-3,-1.0806988E-3,-5.3365063E-3,-5.1248968E-3,6.661376E-3,1.3523477E-2,-6.63286E-3,3.890807E-3,-1.3431637E-2,-9.1536314E-4,3.2319531E-3,6.4302864E-3,-3.933918E-3,-5.110662E-3,-1.2973902E-1,4.712149E-2,-1.789692E-2,1.5422505E-2,-3.1737627E-3,-1.195041E-4,-7.1562743E-3,2.6621222E-3,-3.7763799E-3,4.4535897E-3,4.175165E-3,3.4082253E-3,-6.6496017E-3,1.5006897E-2,-1.2336545E-1,1.313638E-1,-1.0209491E-1,1.427426E-1,-4.7097284E-2,8.830046E-2,-1.2554893E-1,1.06135525E-1,-1.7040122E-1,1.9650279E-2,1.13810405E-1,1.0498734E-2,1.4009462E-1,-1.6329084E-1,-4.3246303E-2,1.7756002E-1,2.1816047E-1,-8.8061534E-2,2.0179951E-1,-5.3228408E-2,1.10990345E-1,-1.7147933E-1,-2.1143284E-1,8.4349096E-2,9.749278E-3,-2.8244765E-3,8.364916E-2,-1.5736759E-1],"split_indices":[1456,2784,2346,1163,2898,2154,1365,1265,8,1613,1911,1225,212,2817,24,2304,2310,0,0,1259,3315,563,2785,127,844,1856,1787,2785,145,461,2822,0,0,0,0,0,0,0,0,0,0,0,0,0,0,0,0,0,0,0,0,0,0,0,0,0,0,0,0],"split_type":[0,0,0,0,0,0,0,0,0,0,0,0,0,0,0,0,0,0,0,0,0,0,0,0,0,0,0,0,0,0,0,0,0,0,0,0,0,0,0,0,0,0,0,0,0,0,0,0,0,0,0,0,0,0,0,0,0,0,0],"sum_hessian":[1.0629069E4,8.430316E2,9.786037E3,2.9139603E2,5.516356E2,1.2814468E3,8.504591E3,2.7989783E2,1.1498208E1,2.4756813E2,3.0406747E2,4.583397E2,8.231071E2,6.9274734E1,8.435315E3,5.5305758E0,2.7436725E2,1.034537E1,1.152838E0,1.2219946E2,1.2536867E2,5.1948635E1,2.5211884E2,1.7076552E2,2.8757416E2,7.16272E2,1.0683508E2,3.1915186E1,3.7359554E1,8.347859E3,8.745677E1,4.287006E0,1.2435699E0,1.1021192E0,2.7326514E2,8.749378E1,3.4705677E1,1.1878226E2,6.586413E0,2.6211052E1,2.5737583E1,8.298944E1,1.691294E2,1.5698007E2,1.3785447E1,2.4744713E2,4.012704E1,1.46938305E1,7.015782E2,4.2033974E1,6.480111E1,2.7208267E1,4.7069187E0,3.4115635E1,3.2439165E0,3.3212334E3,5.0266255E3,3.685747E1,5.0599304E1],"tree_param":{"num_deleted":"0","num_feature":"4608","num_nodes":"59","size_leaf_vector":"1"}},{"base_weights":[4.88691E-4,2.9220772E-1,-2.3791654E-2,1.1189753E0,-1.2002787E-1,7.4162134E-3,-2.4330115E-1,1.2085204E0,-9.5524734E-1,8.488108E-2,-7.8432286E-1,-2.5041813E-1,1.7916463E-2,4.3310076E-1,-4.8288694E-1,-4.6139053E-1,1.2451044E0,-1.2531273E-1,4.4755932E-2,-3.5192806E-1,3.132212E-1,6.9275856E-1,-1.0092692E0,4.668263E-1,-7.554565E-1,1.0267113E-2,3.6771932E-1,-8.9039576E-1,7.492138E-1,1.9708271E0,-5.361982E-1,-1.1818977E-1,1.2297823E-1,-9.726218E-2,1.3834156E-1,-6.724277E-3,-1.2472853E-1,4.025868E-3,9.131419E-2,1.352907E-1,-1.3851187E-1,6.623674E-2,-1.3312675E-1,-6.011439E-2,7.556032E-2,-2.4625764E-4,-1.2956358E-1,-3.1969582E-3,9.122016E-3,1.3981128E-1,-7.110097E-2,1.4669238E-1,-1.443021E-1,1.13099955E-1,-8.210224E-2,-6.479954E-3,2.3938666E-1,-8.404089E-2,5.607204E-4],"categories":[],"categories_nodes":[],"categories_segments":[],"categories_sizes":[],"default_left":[0,0,0,0,0,0,0,0,0,0,0,0,0,0,0,0,0,0,0,0,0,0,0,0,0,0,0,0,0,0,0,0,0,0,0,0,0,0,0,0,0,0,0,0,0,0,0,0,0,0,0,0,0,0,0,0,0,0,0],"id":8,"left_children":[1,3,5,7,9,11,13,15,17,19,21,23,25,27,29,31,33,-1,-1,35,37,39,41,43,45,47,49,51,53,55,57,-1,-1,-1,-1,-1,-1,-1,-1,-1,-1,-1,-1,-1,-1,-1,-1,-1,-1,-1,-1,-1,-1,-1,-1,-1,-1,-1,-1],"loss_changes":[7.485902E1,2.7690625E2,6.683948E1,5.135617E1,7.3950386E1,2.3133793E1,1.9702498E2,1.643042E1,3.4062529E0,4.1575474E1,4.32474E1,1.2147478E2,2.1963867E1,1.3378943E2,1.1843332E2,7.2951193E0,7.904114E0,0E0,0E0,3.24907E1,3.9082893E1,1.9915691E1,3.6850807E1,3.132547E1,6.254492E1,2.296505E1,1.6172923E2,5.9675682E1,1.08155E2,8.1729355E0,1.0839636E2,0E0,0E0,0E0,0E0,0E0,0E0,0E0,0E0,0E0,0E0,0E0,0E0,0E0,0E0,0E0,0E0,0E0,0E0,0E0,0E0,0E0,0E0,0E0,0E0,0E0,0E0,0E0,0E0],"parents":[2147483647,0,0,1,1,2,2,3,3,4,4,5,5,6,6,7,7,8,8,9,9,10,10,11,11,12,12,13,13,14,14,15,15,16,16,19,19,20,20,21,21,22,22,23,23,24,24,25,25,26,26,27,27,28,28,29,29,30,30],"right_children":[2,4,6,8,10,12,14,16,18,20,22,24,26,28,30,32,34,-1,-1,36,38,40,42,44,46,48,50,52,54,56,58,-1,-1,-1,-1,-1,-1,-1,-1,-1,-1,-1,-1,-1,-1,-1,-1,-1,-1,-1,-1,-1,-1,-1,-1,-1,-1,-1,-1],"split_conditions":[-8.635169E-3,-1.7013742E-2,1.1752576E-3,-1.8388561E-3,2.4565477E-3,-8.773114E-3,-5.4312074E-3,4.604528E-3,1.3523477E-2,-1.29853E-2,-3.28163E-3,-8.257608E-3,4.9823117E-3,4.0781633E-3,2.5084133E-3,-3.933918E-3,-8.176872E-3,-1.2531273E-1,4.4755932E-2,-8.48659E-3,-1.5186636E-2,-4.9753813E-3,-3.431366E-3,1.1945963E-3,7.9412395E-3,-1.692693E-3,9.011325E-5,-8.173349E-3,7.4881557E-3,-1.4693553E-3,2.0115912E-2,-1.1818977E-1,1.2297823E-1,-9.726218E-2,1.3834156E-1,-6.724277E-3,-1.2472853E-1,4.025868E-3,9.131419E-2,1.352907E-1,-1.3851187E-1,6.623674E-2,-1.3312675E-1,-6.011439E-2,7.556032E-2,-2.4625764E-4,-1.2956358E-1,-3.1969582E-3,9.122016E-3,1.3981128E-1,-7.110097E-2,1.4669238E-1,-1.443021E-1,1.13099955E-1,-8.210224E-2,-6.479954E-3,2.3938666E-1,-8.404089E-2,5.607204E-4],"split_indices":[1456,2784,3417,1163,2612,946,1456,1241,8,2744,1909,2765,727,1773,2109,2304,2310,0,0,3101,1606,497,2454,2750,1413,2579,2766,1844,1895,21,596,0,0,0,0,0,0,0,0,0,0,0,0,0,0,0,0,0,0,0,0,0,0,0,0,0,0,0,0],"split_type":[0,0,0,0,0,0,0,0,0,0,0,0,0,0,0,0,0,0,0,0,0,0,0,0,0,0,0,0,0,0,0,0,0,0,0,0,0,0,0,0,0,0,0,0,0,0,0,0,0,0,0,0,0,0,0,0,0,0,0],"sum_hessian":[1.0566791E4,8.1106934E2,9.755722E3,2.6928494E2,5.4178436E2,8.54223E3,1.2134906E3,2.58541E2,1.0743972E1,4.14729E2,1.270554E2,3.333735E2,8.208857E3,3.1718942E2,8.963012E2,5.293696E0,2.5324728E2,9.609786E0,1.1341861E0,1.4218715E2,2.7254184E2,1.6517263E1,1.1053814E2,1.3777878E2,1.9559473E2,8.034198E3,1.746593E2,6.0803154E1,2.5638626E2,1.829477E1,8.780064E2,4.0437436E0,1.2499526E0,1.0764571E0,2.5217082E2,1.0442991E2,3.7757236E1,1.7823206E2,9.430979E1,1.3242878E1,3.2743862E0,1.2036067E1,9.850207E1,2.4320227E1,1.1345855E2,7.0637856E1,1.2495688E2,5.2130312E3,2.821167E3,9.224216E1,8.241715E1,9.3418045E0,5.146135E1,2.1634488E2,4.004138E1,1.746876E0,1.6547894E1,6.1765045E2,2.6035596E2],"tree_param":{"num_deleted":"0","num_feature":"4608","num_nodes":"59","size_leaf_vector":"1"}},{"base_weights":[4.8557817E-4,2.7124482E-1,-2.1277508E-2,-1.0693934E-1,1.0965188E0,-2.1350847E-1,8.380532E-3,-5.3801054E-1,1.6455133E-1,-9.237189E-1,1.1864688E0,6.927677E-1,-3.704904E-1,-1.1965863E-2,1.4782502E-1,-1.2061762E0,-2.2833246E-1,-9.2258376E-1,2.5481108E-1,-1.2137967E-1,3.761037E-2,-1.05982E-1,1.2198774E0,-2.3665892E-1,1.2744024E0,-5.032951E-1,4.58182E-1,-1.0982223E-1,7.676968E-2,6.195648E-1,-6.775774E-1,-1.4602175E-1,6.1206058E-2,2.257463E-3,-1.4649323E-1,-1.5166308E-1,1.2572193E-1,7.4529424E-2,-2.7003107E-3,5.284191E-2,1.3461222E-1,1.2985714E-1,-1.0578188E-1,1.4704023E-1,-1.515348E-1,8.2797065E-2,-6.662276E-2,-5.3002372E-2,1.3746178E-1,-6.717471E-2,1.4473218E-2,-1.7513135E-2,4.7792047E-2,-7.201813E-2,7.8755766E-2,-9.3550645E-2,6.298545E-2],"categories":[],"categories_nodes":[],"categories_segments":[],"categories_sizes":[],"default_left":[0,0,0,0,0,0,0,0,0,0,0,0,0,0,0,0,0,0,0,0,0,0,0,0,0,0,0,0,0,0,0,0,0,0,0,0,0,0,0,0,0,0,0,0,0,0,0,0,0,0,0,0,0,0,0,0,0],"id":9,"left_children":[1,3,5,7,9,11,13,15,17,19,21,23,25,27,29,31,33,35,37,-1,-1,-1,39,41,43,45,47,49,51,53,55,-1,-1,-1,-1,-1,-1,-1,-1,-1,-1,-1,-1,-1,-1,-1,-1,-1,-1,-1,-1,-1,-1,-1,-1,-1,-1],"loss_changes":[6.192149E1,2.4412321E2,5.5455235E1,6.293884E1,4.5757416E1,1.8522284E2,2.3912273E1,4.2713688E1,3.2643196E1,2.8882904E0,1.8106995E1,1.0425677E2,1.2225751E2,6.3877502E1,4.182828E2,1.4755585E1,3.9348305E1,2.5636055E1,3.6122467E1,0E0,0E0,0E0,7.772827E-2,7.8053345E1,2.141803E1,1.2338776E2,1.1493953E2,4.2304614E2,3.2572943E2,8.441498E1,8.4943665E1,0E0,0E0,0E0,0E0,0E0,0E0,0E0,0E0,0E0,0E0,0E0,0E0,0E0,0E0,0E0,0E0,0E0,0E0,0E0,0E0,0E0,0E0,0E0,0E0,0E0,0E0],"parents":[2147483647,0,0,1,1,2,2,3,3,4,4,5,5,6,6,7,7,8,8,9,9,10,10,11,11,12,12,13,13,14,14,15,15,16,16,17,17,18,18,22,22,23,23,24,24,25,25,26,26,27,27,28,28,29,29,30,30],"right_children":[2,4,6,8,10,12,14,16,18,20,22,24,26,28,30,32,34,36,38,-1,-1,-1,40,42,44,46,48,50,52,54,56,-1,-1,-1,-1,-1,-1,-1,-1,-1,-1,-1,-1,-1,-1,-1,-1,-1,-1,-1,-1,-1,-1,-1,-1,-1,-1],"split_conditions":[-8.635169E-3,2.957428E-2,-3.531733E-3,-5.5801123E-3,5.552794E-3,-6.6781733E-3,1.1631529E-2,-2.8138778E-3,-9.469995E-3,1.0968437E-2,-1.3551945E-2,-2.81564E-3,-9.1536314E-4,-1.2477893E-2,6.905767E-3,-8.35676E-3,1.6663698E-2,8.517185E-3,-7.956963E-3,-1.2137967E-1,3.761037E-2,-1.05982E-1,-1.2109571E-2,9.197125E-3,-2.0446874E-2,7.3738843E-3,-5.4833614E-3,-1.7148236E-2,2.332228E-2,-6.737022E-3,-7.2455243E-3,-1.4602175E-1,6.1206058E-2,2.257463E-3,-1.4649323E-1,-1.5166308E-1,1.2572193E-1,7.4529424E-2,-2.7003107E-3,5.284191E-2,1.3461222E-1,1.2985714E-1,-1.0578188E-1,1.4704023E-1,-1.515348E-1,8.2797065E-2,-6.662276E-2,-5.3002372E-2,1.3746178E-1,-6.717471E-2,1.4473218E-2,-1.7513135E-2,4.7792047E-2,-7.201813E-2,7.8755766E-2,-9.3550645E-2,6.298545E-2],"split_indices":[1456,2689,2477,3380,1275,1456,507,3354,2965,9,514,1732,212,2869,2669,2287,1512,2194,1169,0,0,0,2304,1783,2359,859,1482,985,789,2338,3223,0,0,0,0,0,0,0,0,0,0,0,0,0,0,0,0,0,0,0,0,0,0,0,0,0,0],"split_type":[0,0,0,0,0,0,0,0,0,0,0,0,0,0,0,0,0,0,0,0,0,0,0,0,0,0,0,0,0,0,0,0,0,0,0,0,0,0,0,0,0,0,0,0,0,0,0,0,0,0,0,0,0,0,0,0,0],"sum_hessian":[1.0506444E4,7.8080585E2,9.725638E3,5.3603613E2,2.4476971E2,1.2991158E3,8.426522E3,2.0676086E2,3.292753E2,1.0038591E1,2.3473112E2,1.9130063E2,1.1078152E3,7.3543594E3,1.0721631E3,6.4563286E1,1.4219759E2,2.453551E1,3.0473978E2,8.902488E0,1.1361035E0,3.165752E0,2.3156537E2,7.386336E1,1.1743728E2,9.5513586E2,1.5267937E2,3.4973218E3,3.8570374E3,6.824015E2,3.8976154E2,6.0637344E1,3.9259398E0,1.1683029E2,2.5367292E1,2.0369385E1,4.1661253E0,1.20688095E2,1.8405168E2,1.8570011E0,2.2970837E2,2.4785582E1,4.9077774E1,1.1522521E2,2.212067E0,7.150031E1,8.8363556E2,6.996904E1,8.271033E1,1.1369067E3,2.360415E3,2.324259E3,1.5327783E3,4.758466E1,6.3481683E2,3.4269138E2,4.7070168E1],"tree_param":{"num_deleted":"0","num_feature":"4608","num_nodes":"57","size_leaf_vector":"1"}},{"base_weights":[5.0177687E-4,2.5119478E-1,-1.9016685E-2,1.0609446E0,-1.0142596E-1,-1.9413956E-1,7.462096E-3,-2.9484016E-1,1.1873469E0,7.408996E-2,-6.9962823E-1,-3.5879555E-1,5.853641E-1,-1.24954935E-2,1.4589779E-1,-8.698052E-1,9.1610223E-1,1.8029228E-2,1.314836E-1,1.3908271E-1,-1.1808934E0,-9.667222E-1,4.3952045E-1,-5.952116E-1,1.1252533E-1,9.229501E-1,-1.0903219E0,3.8735908E-2,-1.2282461E-1,3.5693815E-1,-1.3139747E0,-1.2477296E-1,1.1581881E-1,2.0338314E-2,1.1120919E-1,2.835745E-2,-4.1306157E-2,-1.5085027E-1,1.0674032E-1,-1.2864041E-1,7.2030745E-2,9.80392E-2,-1.3613372E-1,-1.2348638E-2,-9.614851E-2,1.4951082E-1,-1.7925449E-2,1.2538451E-1,-1.09600246E-1,-1.4299767E-1,1.3161364E-1,-1.2396173E-2,9.840844E-3,-3.0722171E-2,5.3360756E-2,3.2391152E-3,8.294136E-2,-1.4299534E-2,-1.825871E-1],"categories":[],"categories_nodes":[],"categories_segments":[],"categories_sizes":[],"default_left":[0,0,0,0,0,0,0,0,0,0,0,0,0,0,0,0,0,0,0,0,0,0,0,0,0,0,0,0,0,0,0,0,0,0,0,0,0,0,0,0,0,0,0,0,0,0,0,0,0,0,0,0,0,0,0,0,0,0,0],"id":10,"left_children":[1,3,5,7,9,11,13,15,17,19,21,23,25,27,29,31,33,-1,-1,35,37,39,41,43,45,47,49,51,53,55,57,-1,-1,-1,-1,-1,-1,-1,-1,-1,-1,-1,-1,-1,-1,-1,-1,-1,-1,-1,-1,-1,-1,-1,-1,-1,-1,-1,-1],"loss_changes":[5.1074314E1,2.1539326E2,4.490649E1,3.95632E1,5.5295345E1,1.63465E2,2.3245718E1,1.4940928E1,1.510498E0,3.3418644E1,3.6769768E1,1.1714989E2,1.2670283E2,4.157139E1,3.2708453E2,8.460094E0,3.0065775E-1,0E0,0E0,2.3831247E1,9.599562E0,3.267971E1,1.8813005E1,9.416502E1,1.2105572E2,7.835585E1,1.9638744E1,3.859163E1,2.2197418E2,1.2052525E2,5.4708603E1,0E0,0E0,0E0,0E0,0E0,0E0,0E0,0E0,0E0,0E0,0E0,0E0,0E0,0E0,0E0,0E0,0E0,0E0,0E0,0E0,0E0,0E0,0E0,0E0,0E0,0E0,0E0,0E0],"parents":[2147483647,0,0,1,1,2,2,3,3,4,4,5,5,6,6,7,7,8,8,9,9,10,10,11,11,12,12,13,13,14,14,15,15,16,16,19,19,20,20,21,21,22,22,23,23,24,24,25,25,26,26,27,27,28,28,29,29,30,30],"right_children":[2,4,6,8,10,12,14,16,18,20,22,24,26,28,30,32,34,-1,-1,36,38,40,42,44,46,48,50,52,54,56,58,-1,-1,-1,-1,-1,-1,-1,-1,-1,-1,-1,-1,-1,-1,-1,-1,-1,-1,-1,-1,-1,-1,-1,-1,-1,-1,-1,-1],"split_conditions":[-8.635169E-3,-1.7013742E-2,-3.531733E-3,1.0609223E-3,2.4565477E-3,2.1831498E-2,1.1835542E-2,-3.6471796E-3,-7.4825357E-3,9.416253E-3,8.892856E-3,5.3299684E-3,5.8030565E-3,-1.5730431E-2,6.0319947E-3,-3.933918E-3,-1.9813902E-3,1.8029228E-2,1.314836E-1,1.3806217E-2,1.2948724E-2,3.7368604E-3,5.88499E-3,2.5720308E-2,-5.1204483E-3,-1.5722251E-3,4.9085575E-3,-1.371101E-2,1.0810515E-2,7.84558E-3,-3.3092615E-3,-1.2477296E-1,1.1581881E-1,2.0338314E-2,1.1120919E-1,2.835745E-2,-4.1306157E-2,-1.5085027E-1,1.0674032E-1,-1.2864041E-1,7.2030745E-2,9.80392E-2,-1.3613372E-1,-1.2348638E-2,-9.614851E-2,1.4951082E-1,-1.7925449E-2,1.2538451E-1,-1.09600246E-1,-1.4299767E-1,1.3161364E-1,-1.2396173E-2,9.840844E-3,-3.0722171E-2,5.3360756E-2,3.2391152E-3,8.294136E-2,-1.4299534E-2,-1.825871E-1],"split_indices":[1456,2784,2477,1607,2612,1778,456,39,2305,3347,2237,2300,764,3844,3145,2304,30,0,0,1937,1,816,969,401,677,593,324,915,507,2658,864,0,0,0,0,0,0,0,0,0,0,0,0,0,0,0,0,0,0,0,0,0,0,0,0,0,0,0,0],"split_type":[0,0,0,0,0,0,0,0,0,0,0,0,0,0,0,0,0,0,0,0,0,0,0,0,0,0,0,0,0,0,0,0,0,0,0,0,0,0,0,0,0,0,0,0,0,0,0,0,0,0,0,0,0,0,0,0,0,0,0],"sum_hessian":[1.0435962E4,7.529741E2,9.682987E3,2.2781548E2,5.251586E2,1.270952E3,8.412035E3,1.9314697E1,2.0850078E2,4.067052E2,1.1845345E2,1.049751E3,2.2120111E2,7.352912E3,1.0591232E3,1.3287431E1,6.027265E0,1.7754636E0,2.0672531E2,3.875253E2,1.9179886E1,9.6077675E1,2.2375778E1,6.9891174E2,3.5083923E2,1.8448393E2,3.671718E1,5.021721E3,2.331191E3,9.260135E2,1.3310976E2,1.2041066E1,1.2463654E0,1.0310066E0,4.9962587E0,3.1528967E2,7.223562E1,1.7952866E1,1.2270191E0,8.564819E1,1.042948E1,1.799673E1,4.3790483E0,2.5635248E2,4.4255923E2,6.278422E1,2.8805502E2,1.661166E2,1.8367348E1,3.4028904E1,2.6882718E0,1.2597849E3,3.7619363E3,1.8544347E3,4.767562E2,5.0805954E2,4.1795392E2,3.0407238E1,1.02702515E2],"tree_param":{"num_deleted":"0","num_feature":"4608","num_nodes":"59","size_leaf_vector":"1"}},{"base_weights":[4.7015573E-4,2.392209E-1,-1.6635852E-2,8.887682E-1,-1.806365E-1,-1.7014146E-1,6.1752247E-3,1.0475196E0,-6.202039E-1,-9.853777E-1,-8.2660824E-2,6.5927124E-1,-3.114394E-1,2.6564345E-2,-1.2622267E-1,1.1564461E0,-2.373521E-1,-1.2573355E0,1.1665811E-1,-1.2303408E0,1.0211315E0,-9.368108E-1,5.237338E-3,-1.8757993E-1,1.1955717E0,1.3253213E-1,-5.239059E-1,1.12020755E-2,2.7524313E-1,2.3422147E-1,-5.2519625E-1,-9.721617E-2,1.3027456E-1,1.1787813E-1,-1.0771796E-1,-5.9576496E-2,-1.4969754E-1,-1.4492473E-1,1.0037189E-1,1.46164E-1,3.667121E-2,-1.3157275E-1,1.8300895E-1,8.034338E-3,-9.741835E-2,-8.24974E-2,1.5234299E-1,1.3839504E-1,-1.4513563E-1,-7.548753E-2,5.954486E-2,2.0269826E-1,-6.429064E-2,-3.9566755E-2,2.6571492E-3,-7.375149E-2,8.810281E-2,-5.362593E-2,4.6678055E-2,3.4794755E-2,-1.079957E-1],"categories":[],"categories_nodes":[],"categories_segments":[],"categories_sizes":[],"default_left":[0,0,0,0,0,0,0,0,0,0,0,0,0,0,0,0,0,0,0,0,0,0,0,0,0,0,0,0,0,0,0,0,0,0,0,0,0,0,0,0,0,0,0,0,0,0,0,0,0,0,0,0,0,0,0,0,0,0,0,0,0],"id":11,"left_children":[1,3,5,7,9,11,13,15,17,19,21,23,25,27,29,31,33,35,-1,37,39,41,43,45,47,49,51,53,55,57,59,-1,-1,-1,-1,-1,-1,-1,-1,-1,-1,-1,-1,-1,-1,-1,-1,-1,-1,-1,-1,-1,-1,-1,-1,-1,-1,-1,-1,-1,-1],"loss_changes":[4.2386646E1,1.8939488E2,3.3913147E1,6.5949936E1,3.321409E1,1.4704913E2,2.2767155E1,3.4846222E1,2.9792778E1,2.3739197E1,2.8350637E1,8.320431E1,1.0112285E2,2.7916119E1,1.6197813E2,1.4003479E1,2.0602425E1,7.2512627E-1,0E0,8.900124E0,7.2559786E-1,2.5748642E1,2.0801714E1,6.445504E1,1.9283417E1,1.16694016E2,1.04940384E2,3.308345E1,2.1190485E2,8.143906E1,2.0567825E2,0E0,0E0,0E0,0E0,0E0,0E0,0E0,0E0,0E0,0E0,0E0,0E0,0E0,0E0,0E0,0E0,0E0,0E0,0E0,0E0,0E0,0E0,0E0,0E0,0E0,0E0,0E0,0E0,0E0,0E0],"parents":[2147483647,0,0,1,1,2,2,3,3,4,4,5,5,6,6,7,7,8,8,9,9,10,10,11,11,12,12,13,13,14,14,15,15,16,16,17,17,19,19,20,20,21,21,22,22,23,23,24,24,25,25,26,26,27,27,28,28,29,29,30,30],"right_children":[2,4,6,8,10,12,14,16,18,20,22,24,26,28,30,32,34,36,-1,38,40,42,44,46,48,50,52,54,56,58,60,-1,-1,-1,-1,-1,-1,-1,-1,-1,-1,-1,-1,-1,-1,-1,-1,-1,-1,-1,-1,-1,-1,-1,-1,-1,-1,-1,-1,-1,-1],"split_conditions":[-8.71706E-3,-2.6600916E-2,-3.531733E-3,-4.5839245E-3,-7.4366075E-3,-6.6781733E-3,-3.0785047E-3,2.3120385E-2,5.315472E-3,-9.982076E-4,-1.0761489E-2,-2.81564E-3,5.32866E-3,1.4438518E-2,7.919191E-5,7.3971227E-3,-1.3210468E-2,8.065699E-3,1.1665811E-1,4.5997216E-3,-8.768761E-3,1.1753753E-2,-1.2273574E-2,-4.726361E-3,-2.0446874E-2,3.2273444E-4,-6.023728E-3,-4.736259E-3,-6.1560166E-3,-1.8533427E-2,-6.4991587E-3,-9.721617E-2,1.3027456E-1,1.1787813E-1,-1.0771796E-1,-5.9576496E-2,-1.4969754E-1,-1.4492473E-1,1.0037189E-1,1.46164E-1,3.667121E-2,-1.3157275E-1,1.8300895E-1,8.034338E-3,-9.741835E-2,-8.24974E-2,1.5234299E-1,1.3839504E-1,-1.4513563E-1,-7.548753E-2,5.954486E-2,2.0269826E-1,-6.429064E-2,-3.9566755E-2,2.6571492E-3,-7.375149E-2,8.810281E-2,-5.362593E-2,4.6678055E-2,3.4794755E-2,-1.079957E-1],"split_indices":[1456,2910,2477,2231,3014,1456,1487,100,1495,2723,3001,1732,712,958,2399,1173,263,5,0,452,7,1201,3257,646,2359,684,1443,3434,2915,985,503,0,0,0,0,0,0,0,0,0,0,0,0,0,0,0,0,0,0,0,0,0,0,0,0,0,0,0,0,0,0],"split_type":[0,0,0,0,0,0,0,0,0,0,0,0,0,0,0,0,0,0,0,0,0,0,0,0,0,0,0,0,0,0,0,0,0,0,0,0,0,0,0,0,0,0,0,0,0,0,0,0,0,0,0,0,0,0,0,0,0,0,0,0,0],"sum_hessian":[1.0376551E4,6.928847E2,9.683666E3,2.7159396E2,4.2129077E2,1.2519944E3,8.431671E3,2.4601752E2,2.5576462E1,4.474143E1,3.7654935E2,1.8170836E2,1.0702861E3,7.3071743E3,1.124497E3,2.2688316E2,1.9134342E1,1.87287E1,6.8477607E0,4.0218243E1,4.5231867E0,3.4232944E1,3.4231638E2,7.0707344E1,1.1100101E2,3.4653668E2,7.237494E2,6.883017E3,4.2415714E2,5.9099133E2,5.3350555E2,2.6434355E0,2.2423973E2,6.7610655E0,1.2373276E1,3.1546326E0,1.5574068E1,3.901644E1,1.2017994E0,2.4812875E0,2.0418994E0,3.1620077E1,2.6128676E0,3.1895886E2,2.335753E1,5.246631E1,1.8241037E1,1.0879428E2,2.206724E0,1.1517207E2,2.313646E2,1.732228E1,7.064271E2,2.3137636E2,6.651641E3,1.5144121E2,2.727159E2,1.22897415E2,4.6809393E2,1.8775955E2,3.4574603E2],"tree_param":{"num_deleted":"0","num_feature":"4608","num_nodes":"61","size_leaf_vector":"1"}},{"base_weights":[4.9653207E-4,2.2267172E-1,-1.4861469E-2,8.0765426E-1,-2.0020539E-1,1.8262535E-1,-2.9708087E-2,-7.0166475E-1,9.165954E-1,-1.3960713E-1,-1.0060379E-1,-5.0547816E-2,1.4528766E0,4.7748487E-2,-1.20321155E-1,-1.0430558E0,8.219041E-2,9.9256516E-1,-9.359354E-1,-5.6067422E-2,-2.1161483E-1,2.7861682E-1,-4.7090188E-1,-9.951232E-1,1.9020708E0,-3.4918338E-1,1.2789647E-1,4.448665E-1,-2.1313554E-1,-1.4078964E-1,1.1015732E-1,1.1858606E-1,-2.6161276E-2,-1.3313708E-1,8.5716754E-2,-5.2819274E-2,1.1757676E-2,-1.92287E-2,7.310835E-2,-8.729528E-2,7.580237E-3,-1.3604543E-1,1.2402213E-1,-1.5405208E-2,2.1656539E-1,4.7719896E-2,-1.16295695E-1,6.6608384E-2,3.5255067E-3,9.993947E-2,-4.0717565E-2,-1.4267322E-1,-1.8205987E-2],"categories":[],"categories_nodes":[],"categories_segments":[],"categories_sizes":[],"default_left":[0,0,0,0,0,0,0,0,0,0,0,0,0,0,0,0,0,0,0,0,0,0,0,0,0,0,0,0,0,0,0,0,0,0,0,0,0,0,0,0,0,0,0,0,0,0,0,0,0,0,0,0,0],"id":12,"left_children":[1,3,5,7,9,11,13,15,17,-1,19,21,23,25,27,29,-1,31,33,35,-1,37,39,41,43,45,47,49,51,-1,-1,-1,-1,-1,-1,-1,-1,-1,-1,-1,-1,-1,-1,-1,-1,-1,-1,-1,-1,-1,-1,-1,-1],"loss_changes":[3.520843E1,1.6519966E2,2.830336E1,4.670291E1,4.1185753E1,1.9999353E2,6.30143E1,1.0387077E1,3.7759506E1,0E0,2.880194E1,7.917357E1,1.1704448E2,1.5404607E2,2.1714355E2,9.0961075E0,0E0,2.675026E1,6.0373545E0,2.4142195E1,0E0,5.630002E1,4.3820644E1,1.0059208E1,1.2375671E1,4.5146954E2,1.8439352E2,2.210162E2,1.8328413E2,0E0,0E0,0E0,0E0,0E0,0E0,0E0,0E0,0E0,0E0,0E0,0E0,0E0,0E0,0E0,0E0,0E0,0E0,0E0,0E0,0E0,0E0,0E0,0E0],"parents":[2147483647,0,0,1,1,2,2,3,3,4,4,5,5,6,6,7,7,8,8,10,10,11,11,12,12,13,13,14,14,15,15,17,17,18,18,19,19,21,21,22,22,23,23,24,24,25,25,26,26,27,27,28,28],"right_children":[2,4,6,8,10,12,14,16,18,-1,20,22,24,26,28,30,-1,32,34,36,-1,38,40,42,44,46,48,50,52,-1,-1,-1,-1,-1,-1,-1,-1,-1,-1,-1,-1,-1,-1,-1,-1,-1,-1,-1,-1,-1,-1,-1,-1],"split_conditions":[-8.71706E-3,-1.3829951E-2,1.8195368E-2,5.5504654E-4,-7.4366075E-3,8.565678E-3,4.179057E-3,-9.0490293E-4,1.369614E-2,-1.3960713E-1,2.0236565E-2,-2.074443E-3,1.4423801E-2,-1.732256E-2,1.8770732E-3,3.2544404E-3,8.219041E-2,2.0403087E-3,2.5784206E-3,-8.596038E-3,-2.1161483E-1,7.6965294E-3,-2.8042682E-3,-8.719843E-3,-1.4110642E-3,-8.041845E-3,-1.06368E-3,3.7010834E-3,-1.3582995E-2,-1.4078964E-1,1.1015732E-1,1.1858606E-1,-2.6161276E-2,-1.3313708E-1,8.5716754E-2,-5.2819274E-2,1.1757676E-2,-1.92287E-2,7.310835E-2,-8.729528E-2,7.580237E-3,-1.3604543E-1,1.2402213E-1,-1.5405208E-2,2.1656539E-1,4.7719896E-2,-1.16295695E-1,6.6608384E-2,3.5255067E-3,9.993947E-2,-4.0717565E-2,-1.4267322E-1,-1.8205987E-2],"split_indices":[1456,2782,577,1554,3014,2960,3306,439,3008,0,1896,3353,1729,860,768,2309,0,1541,2318,3001,0,2234,707,2304,2354,2332,2643,2387,83,0,0,0,0,0,0,0,0,0,0,0,0,0,0,0,0,0,0,0,0,0,0,0,0],"split_type":[0,0,0,0,0,0,0,0,0,0,0,0,0,0,0,0,0,0,0,0,0,0,0,0,0,0,0,0,0,0,0,0,0,0,0,0,0,0,0,0,0,0,0,0,0,0,0,0,0,0,0,0,0],"sum_hessian":[1.0316527E4,6.66155E2,9.650372E3,2.791231E2,3.870319E2,6.739759E2,8.976396E3,1.8424274E1,2.6069885E2,3.1987827E1,3.5504407E2,5.702571E2,1.0371881E2,4.8397896E3,4.136607E3,1.5137519E1,3.2867563E0,2.5087502E2,9.823826E0,3.47584E2,7.4600363E0,3.200075E2,2.5024954E2,1.5892609E1,8.78262E1,8.1250616E2,4.0272832E3,5.829535E2,3.5536533E3,1.3901076E1,1.2364427E0,2.34692E2,1.6183008E1,8.722673E0,1.1011529E0,9.594106E1,2.5164296E2,1.4740466E2,1.7260284E2,1.5632866E2,9.3920876E1,1.4642876E1,1.2497333E0,2.7433043E0,8.50829E1,3.8601593E2,4.264902E2,6.7219507E2,3.3550881E3,3.7149347E2,2.1145999E2,1.4847186E2,3.4051816E3],"tree_param":{"num_deleted":"0","num_feature":"4608","num_nodes":"53","size_leaf_vector":"1"}}]},"name":"gbtree"},"learner_model_param":{"base_score":"4.9995458E-1","boost_from_average":"1","num_class":"0","num_feature":"4608","num_target":"1"},"objective":{"name":"binary:logistic","reg_loss_param":{"scale_pos_weight":"5"}}},"version":[2,1,4]}