{"learner":{"attributes":{"best_iteration":"13","best_score":"0.38454168709259245"},"feature_names":[],"feature_types":[],"gradient_booster":{"model":{"gbtree_model_param":{"num_parallel_tree":"1","num_trees":"24"},"iteration_indptr":[0,1,2,3,4,5,6,7,8,9,10,11,12,13,14,15,16,17,18,19,20,21,22,23,24],"tree_info":[0,0,0,0,0,0,0,0,0,0,0,0,0,0,0,0,0,0,0,0,0,0,0,0],"trees":[{"base_weights":[-0E0,4.6718378E-2,-1.2328446E0,1.0063123E-2,1.3055774E0,-4.183497E-1,-1.0709117E-1,3.1757212E-1,-1.2500411E-1,1.3370341E0,-3.15E-1,-2.511628E-1,3.696E-1,1.5027945E0,-2.798558E-1,-1.9797554E0,3.1981725E-2,-3.4146342E-1,1.3888888E0,4.0983605E-1,-6.469136E-1,3.4867367E-1,-3.9089108E-1,6.3845664E-2,-1.9928934E-1,1.68E-1,-4.1751373E-1,-6.7266794E-3,2.7041942E-1,3.3157894E-1,-3.5538462E-1,3.0141175E-1,-4.4210527E-2,-2.5666666E-1,1.4264151E-1,-8.484848E-3,-2.527962E-1],"categories":[],"categories_nodes":[],"categories_segments":[],"categories_sizes":[],"default_left":[0,0,0,0,0,0,0,0,0,0,0,0,0,0,0,0,0,0,0,0,0,0,0,0,0,0,0,0,0,0,0,0,0,0,0,0,0],"id":0,"left_children":[1,3,5,7,9,-1,11,13,15,17,-1,19,-1,21,23,25,27,29,31,33,35,-1,-1,-1,-1,-1,-1,-1,-1,-1,-1,-1,-1,-1,-1,-1,-1],"loss_changes":[6.7241034E2,5.190238E2,3.6413715E2,4.5405212E2,3.0092468E1,0E0,4.6910908E1,2.362769E3,2.2117153E3,2.7913025E1,0E0,4.244665E1,0E0,5.9581665E2,8.6725165E2,1.5439941E1,5.630487E2,2.9262367E1,2.3013916E1,2.7651371E1,3.4148727E1,0E0,0E0,0E0,0E0,0E0,0E0,0E0,0E0,0E0,0E0,0E0,0E0,0E0,0E0,0E0,0E0],"parents":[2147483647,0,0,1,1,2,2,3,3,4,4,6,6,7,7,8,8,9,9,11,11,13,13,14,14,15,15,16,16,17,17,18,18,19,19,20,20],"right_children":[2,4,6,8,10,-1,12,14,16,18,-1,20,-1,22,24,26,28,30,32,34,36,-1,-1,-1,-1,-1,-1,-1,-1,-1,-1,-1,-1,-1,-1,-1,-1],"split_conditions":[1.5556E0,1E0,1E0,2E0,1.4349E0,-4.183497E-1,4.722E-1,1E0,1E0,-9.442E-1,-3.15E-1,7E0,3.696E-1,4E0,7E0,-8.701E-1,3.3671E0,-3.407E-1,1.3422E0,3E0,4E0,3.4867367E-1,-3.9089108E-1,6.3845664E-2,-1.9928934E-1,1.68E-1,-4.1751373E-1,-6.7266794E-3,2.7041942E-1,3.3157894E-1,-3.5538462E-1,3.0141175E-1,-4.4210527E-2,-2.5666666E-1,1.4264151E-1,-8.484848E-3,-2.527962E-1],"split_indices":[7,22,36,20,7,0,9,36,36,9,0,30,0,17,35,0,0,26,9,17,18,0,0,0,0,0,0,0,0,0,0,0,0,0,0,0,0],"split_type":[0,0,0,0,0,0,0,0,0,0,0,0,0,0,0,0,0,0,0,0,0,0,0,0,0,0,0,0,0,0,0,0,0,0,0,0,0],"sum_hessian":[1.16725E4,1.124725E4,4.2525E2,1.093E4,3.1725E2,2.535E2,1.7175E2,3.33525E3,7.59475E3,3.1425E2,3E0,1.6025E2,1.15E1,1.11725E3,2.218E3,5.9175E2,7.003E3,9.25E0,3.05E2,6E1,1.0025E2,1.06775E3,4.95E1,1.18475E3,1.03325E3,1.5E0,5.9025E2,6.66425E3,3.3875E2,3.75E0,5.5E0,2.965E2,8.5E0,8E0,5.2E1,4.85E1,5.175E1],"tree_param":{"num_deleted":"0","num_feature":"41","num_nodes":"37","size_leaf_vector":"1"}},{"base_weights":[-1.4581624E-4,3.9157584E-2,-9.693321E-1,9.5273726E-2,-5.131704E-1,-1.5995659E0,-1.1480549E-1,-7.5671893E-1,1.3370508E-1,-6.883735E-2,-1.0323228E0,-9.4949126E-2,-3.468232E-1,3.033621E-1,-5.771831E-1,-1.0073699E-1,-1.2631142E0,1.1472957E-1,1.4226127E0,-8.2026976E-1,7.014192E-1,-6.956218E-1,-1.7852619E0,2.969645E-1,-3.958955E-1,3.9498694E-3,7.988966E-1,-1.0289248E0,3.5799012E-1,-1.8813394E-1,8.652127E-2,-3.1187573E-1,2.5828619E-2,5.050084E-2,-2.9525379E-2,3.7660795E-1,-1.8846145E-1,-1.6970683E-2,-3.7007847E-1,2.007121E-1,-3.3078143E-1,-3.0313647E-1,-3.2424334E-2,-4.10457E-1,1.4827289E-1,-1.19420655E-1,1.6348825E-1,-1.4093207E-1,2.561008E-1,-2.5143835E-1,2.783278E-1,1.17284305E-1,-2.8828335E-1],"categories":[],"categories_nodes":[],"categories_segments":[],"categories_sizes":[],"default_left":[0,0,0,0,0,0,0,0,0,0,0,0,0,0,0,0,0,0,0,0,0,0,0,0,0,0,0,0,0,0,0,0,0,0,0,0,0,0,0,0,0,0,0,0,0,0,0,0,0,0,0,0,0],"id":1,"left_children":[1,3,5,7,9,11,13,15,17,19,21,23,-1,25,27,29,31,33,35,37,39,41,43,-1,-1,45,47,49,51,-1,-1,-1,-1,-1,-1,-1,-1,-1,-1,-1,-1,-1,-1,-1,-1,-1,-1,-1,-1,-1,-1,-1,-1],"loss_changes":[4.41067E2,3.449447E2,2.4284262E2,3.308796E2,2.3670615E2,2.0146606E1,3.74189E1,1.4476176E2,2.362698E2,3.2131448E2,1.1874631E2,2.8952911E1,0E0,1.5101152E1,3.915841E1,7.828318E1,7.5902985E1,3.0594937E2,1.2217795E2,1.9556937E2,1.6027332E2,1.3281961E2,6.2794525E1,0E0,0E0,2.9034525E1,2.452408E1,2.6235489E1,1.140292E1,0E0,0E0,0E0,0E0,0E0,0E0,0E0,0E0,0E0,0E0,0E0,0E0,0E0,0E0,0E0,0E0,0E0,0E0,0E0,0E0,0E0,0E0,0E0,0E0],"parents":[2147483647,0,0,1,1,2,2,3,3,4,4,5,5,6,6,7,7,8,8,9,9,10,10,11,11,13,13,14,14,15,15,16,16,17,17,18,18,19,19,20,20,21,21,22,22,25,25,26,26,27,27,28,28],"right_children":[2,4,6,8,10,12,14,16,18,20,22,24,-1,26,28,30,32,34,36,38,40,42,44,-1,-1,46,48,50,52,-1,-1,-1,-1,-1,-1,-1,-1,-1,-1,-1,-1,-1,-1,-1,-1,-1,-1,-1,-1,-1,-1,-1,-1],"split_conditions":[1.5011E0,1.2946E0,1E0,-3.595E-1,1.2E1,2E0,1.5E1,1.7E1,2.8516E0,1E0,2E0,4E0,-3.468232E-1,1E0,6.93E-2,1E0,1.4E1,6E0,5E0,1E1,1.6E1,1E0,1.7E1,2.969645E-1,-3.958955E-1,1.4E1,8.84E-1,2.61E-2,6E0,-1.8813394E-1,8.652127E-2,-3.1187573E-1,2.5828619E-2,5.050084E-2,-2.9525379E-2,3.7660795E-1,-1.8846145E-1,-1.6970683E-2,-3.7007847E-1,2.007121E-1,-3.3078143E-1,-3.0313647E-1,-3.2424334E-2,-4.10457E-1,1.4827289E-1,-1.19420655E-1,1.6348825E-1,-1.4093207E-1,2.561008E-1,-2.5143835E-1,2.783278E-1,1.17284305E-1,-2.8828335E-1],"split_indices":[7,4,36,1,33,20,36,29,2,21,21,18,0,13,2,13,35,16,17,37,35,36,29,0,0,33,26,9,18,0,0,0,0,0,0,0,0,0,0,0,0,0,0,0,0,0,0,0,0,0,0,0,0],"split_type":[0,0,0,0,0,0,0,0,0,0,0,0,0,0,0,0,0,0,0,0,0,0,0,0,0,0,0,0,0,0,0,0,0,0,0,0,0,0,0,0,0,0,0,0,0,0,0,0,0,0,0,0,0],"sum_hessian":[1.1576899E4,1.1126641E4,4.5025894E2,1.0101193E4,1.0254468E3,2.5863647E2,1.9162244E2,4.3516824E2,9.666025E3,5.5314905E2,4.7229764E2,8.730043E0,2.4990645E2,1.0080225E2,9.082018E1,1.9010547E2,2.4506277E2,9.526858E3,1.3916696E2,2.7996304E2,2.7318604E2,3.2768613E2,1.4461154E2,4.8510604E0,3.8789835E0,6.3463978E1,3.733828E1,6.1170914E1,2.964927E1,7.423615E1,1.15869316E2,2.1116907E2,3.38937E1,6.3831553E3,3.143703E3,1.2018728E2,1.8979683E1,1.5745218E2,1.2251087E2,2.4625322E2,2.6932804E1,1.3687634E2,1.9080977E2,1.3561163E2,8.999898E0,3.6641514E1,2.6822462E1,8.174602E0,2.916368E1,5.754612E1,3.624794E0,2.7178051E1,2.4712188E0],"tree_param":{"num_deleted":"0","num_feature":"41","num_nodes":"53","size_leaf_vector":"1"}},{"base_weights":[-7.9412875E-4,-2.753037E-2,1.1290419E0,1.6527492E-1,-2.0042245E-1,-1.4413605E0,1.6669621E0,8.496689E-1,-4.266159E-2,-1.56234E0,-4.149047E-2,-4.0566579E-1,-3.6240953E-1,1.6845098E0,-1.595718E-2,1.2143303E0,-1.6042019E0,5.440145E-1,-3.3813986E-1,2.093195E-1,-1.5690666E0,-8.621245E-1,1.385131E-1,8.699608E-1,-3.5679394E-1,3.5477477E-1,1.161452E-1,3.0659094E-1,-4.0043987E-2,-3.4324E-1,-1.8504287E-1,-1.4444613E-1,1.8696517E-1,-4.350949E-2,-2.4509148E-1,-3.4129053E-1,-3.0629367E-1,7.294298E-2,-2.929896E-1,2.2190956E-2,2.6912463E-1,3.1590068E-1,-2.9039678E-1],"categories":[],"categories_nodes":[],"categories_segments":[],"categories_sizes":[],"default_left":[0,0,0,0,0,0,0,0,0,0,0,0,0,0,0,0,0,0,0,0,0,0,0,0,0,0,0,0,0,0,0,0,0,0,0,0,0,0,0,0,0,0,0],"id":2,"left_children":[1,3,5,7,9,11,13,15,17,19,21,-1,23,25,-1,27,29,31,33,-1,35,37,39,41,-1,-1,-1,-1,-1,-1,-1,-1,-1,-1,-1,-1,-1,-1,-1,-1,-1,-1,-1],"loss_changes":[3.4758762E2,3.747335E2,3.7018854E2,7.563901E2,1.2828043E3,2.393953E1,6.869629E0,1.1102329E3,7.069796E2,1.2225342E1,7.842701E2,0E0,2.7475391E1,2.7423096E-1,0E0,3.726051E2,2.0768433E0,5.833581E2,2.9417926E2,0E0,1.4638672E0,6.1624445E2,1.6332555E2,1.4759763E1,0E0,0E0,0E0,0E0,0E0,0E0,0E0,0E0,0E0,0E0,0E0,0E0,0E0,0E0,0E0,0E0,0E0,0E0,0E0],"parents":[2147483647,0,0,1,1,2,2,3,3,4,4,5,5,6,6,7,7,8,8,9,9,10,10,12,12,13,13,15,15,16,16,17,17,18,18,20,20,21,21,22,22,23,23],"right_children":[2,4,6,8,10,12,14,16,18,20,22,-1,24,26,-1,28,30,32,34,-1,36,38,40,42,-1,-1,-1,-1,-1,-1,-1,-1,-1,-1,-1,-1,-1,-1,-1,-1,-1,-1,-1],"split_conditions":[3.405E0,3E0,1E0,1E0,1E0,5E0,8.747E-1,2E0,2E0,-8.701E-1,2E0,-4.0566579E-1,3E0,1.0489E0,-1.595718E-2,1E0,6E0,1E0,1.5E1,2.093195E-1,1.5011E0,4E0,2.4851E0,5.5E-3,-3.5679394E-1,3.5477477E-1,1.161452E-1,3.0659094E-1,-4.0043987E-2,-3.4324E-1,-1.8504287E-1,-1.4444613E-1,1.8696517E-1,-4.350949E-2,-2.4509148E-1,-3.4129053E-1,-3.0629367E-1,7.294298E-2,-2.929896E-1,2.2190956E-2,2.6912463E-1,3.1590068E-1,-2.9039678E-1],"split_indices":[0,20,21,36,36,17,5,20,35,0,35,0,19,8,0,13,19,15,37,0,7,16,0,7,0,0,0,0,0,0,0,0,0,0,0,0,0,0,0,0,0,0,0],"split_type":[0,0,0,0,0,0,0,0,0,0,0,0,0,0,0,0,0,0,0,0,0,0,0,0,0,0,0,0,0,0,0,0,0,0,0,0,0,0,0,0,0,0,0],"sum_hessian":[1.150461E4,1.1239613E4,2.649966E2,5.313814E3,5.9257993E3,4.5569138E1,2.1942746E2,1.2375394E3,4.0762747E3,6.183358E2,5.307464E3,3.0786386E1,1.4782752E1,2.1727353E2,2.1539297E0,1.0778665E3,1.5967294E2,1.3650695E3,2.711205E3,1.2351984E0,6.171006E2,9.5407196E2,4.3533916E3,7.8729362E0,6.9098153E0,2.1584674E2,1.4267956E0,9.174395E2,1.6042696E2,1.5204616E2,7.62678E0,2.9932303E2,1.0657465E3,2.3424211E3,3.6878397E2,4.0017932E2,2.1692128E2,2.9196942E2,6.6210254E2,4.2328647E3,1.2052715E2,6.402441E0,1.4704952E0],"tree_param":{"num_deleted":"0","num_feature":"41","num_nodes":"43","size_leaf_vector":"1"}},{"base_weights":[-8.8281586E-4,-2.9979574E-2,9.805116E-1,1.2996026E-2,-5.70857E-1,7.911707E-1,1.5554688E0,4.051119E-2,-1.0652434E0,-1.3345186E0,-9.4856836E-2,9.720301E-1,-1.2985425E0,9.124081E-2,1.5745739E0,-6.596727E-1,7.128004E-2,-1.6460406E0,1.0242969E0,-3.6688745E-1,-1.3587767E0,-8.185681E-1,3.8255073E-2,5.704509E-1,1.4097961E0,8.548388E-1,-4.1018155E-1,1.6116445E0,8.174129E-1,-2.5802043E-1,-7.171214E-2,-7.1913637E-3,4.8367105E-2,-3.5031107E-1,1.582615E-1,4.5491584E-2,3.1902516E-1,2.3303884E-1,-3.774311E-1,-2.8880107E-1,-1.957917E-1,-3.1176546E-1,3.3974703E-3,-3.3955995E-2,1.2909906E-1,-1.4655995E-1,2.4468598E-1,3.5054782E-1,-4.0251145E-1,2.5065082E-1,3.667153E-2,3.4426147E-1,4.9603917E-2,5.039755E-3,2.7508456E-1],"categories":[],"categories_nodes":[],"categories_segments":[],"categories_sizes":[],"default_left":[0,0,0,0,0,0,0,0,0,0,0,0,0,0,0,0,0,0,0,0,0,0,0,0,0,0,0,0,0,0,0,0,0,0,0,0,0,0,0,0,0,0,0,0,0,0,0,0,0,0,0,0,0,0,0],"id":3,"left_children":[1,3,5,7,9,11,13,15,17,19,21,23,25,-1,27,29,31,33,35,37,39,41,43,45,47,49,-1,51,53,-1,-1,-1,-1,-1,-1,-1,-1,-1,-1,-1,-1,-1,-1,-1,-1,-1,-1,-1,-1,-1,-1,-1,-1,-1,-1],"loss_changes":[3.2215994E2,2.5469872E2,3.413449E1,3.0121732E2,2.9305167E2,9.439397E1,1.0173035E0,2.1332816E2,3.08293E2,6.768982E0,4.7998436E1,3.9165253E1,2.9945286E1,0E0,8.6439514E-1,7.504503E1,1.5917456E2,1.1765259E1,2.1880241E1,2.088102E1,8.361206E-1,4.3055428E1,4.8689083E1,9.152811E1,9.650691E1,1.0292649E0,0E0,2.396408E0,2.1792269E0,0E0,0E0,0E0,0E0,0E0,0E0,0E0,0E0,0E0,0E0,0E0,0E0,0E0,0E0,0E0,0E0,0E0,0E0,0E0,0E0,0E0,0E0,0E0,0E0,0E0,0E0],"parents":[2147483647,0,0,1,1,2,2,3,3,4,4,5,5,6,6,7,7,8,8,9,9,10,10,11,11,12,12,14,14,15,15,16,16,17,17,18,18,19,19,20,20,21,21,22,22,23,23,24,24,25,25,27,27,28,28],"right_children":[2,4,6,8,10,12,14,16,18,20,22,24,26,-1,28,30,32,34,36,38,40,42,44,46,48,50,-1,52,54,-1,-1,-1,-1,-1,-1,-1,-1,-1,-1,-1,-1,-1,-1,-1,-1,-1,-1,-1,-1,-1,-1,-1,-1,-1,-1],"split_conditions":[1E0,1.0794E0,5E0,8.876E-1,1E0,3E0,2.8E1,-3.595E-1,8E0,2E0,-3.127E-1,6E0,-2.65E-2,9.124081E-2,1.2434E0,4E0,1.3E1,1.7E1,1.343E-1,4E0,1.0602E0,1.1E1,4.013E-1,4E0,7E0,6.1E-3,-4.1018155E-1,1E1,1.9564E0,-2.5802043E-1,-7.171214E-2,-7.1913637E-3,4.8367105E-2,-3.5031107E-1,1.582615E-1,4.5491584E-2,3.1902516E-1,2.3303884E-1,-3.774311E-1,-2.8880107E-1,-1.957917E-1,-3.1176546E-1,3.3974703E-3,-3.3955995E-2,1.2909906E-1,-1.4655995E-1,2.4468598E-1,3.5054782E-1,-4.0251145E-1,2.5065082E-1,3.667153E-2,3.4426147E-1,4.9603917E-2,5.039755E-3,2.7508456E-1],"split_indices":[22,7,38,8,36,22,27,1,37,20,6,18,7,0,3,31,33,38,5,18,5,28,2,35,35,0,0,18,3,0,0,0,0,0,0,0,0,0,0,0,0,0,0,0,0,0,0,0,0,0,0,0,0,0,0],"split_type":[0,0,0,0,0,0,0,0,0,0,0,0,0,0,0,0,0,0,0,0,0,0,0,0,0,0,0,0,0,0,0,0,0,0,0,0,0,0,0,0,0,0,0,0,0,0,0,0,0,0,0,0,0,0,0],"sum_hessian":[1.1279899E4,1.095604E4,3.2385944E2,1.0150505E4,8.055358E2,2.454166E2,7.844283E1,9.898862E3,2.5164268E2,3.0861374E2,4.969221E2,2.2636052E2,1.9056084E1,1.7123531E0,7.673048E1,4.1582397E2,9.483038E3,1.970766E2,5.4566086E1,7.9419513E0,3.006718E2,7.6399414E1,4.2052267E2,1.19261E2,1.0709951E2,4.3716426E0,1.4684441E1,7.2073235E1,4.6572394E0,1.4810822E2,2.6771576E2,5.7010845E3,3.7819534E3,1.9557962E2,1.4969833E0,2.127737E1,3.3288715E1,4.018194E0,3.923757E0,2.873509E2,1.3320916E1,4.206111E1,3.4338306E1,3.127649E2,1.0775779E2,3.8014435E1,8.124657E1,9.981204E1,7.2874737E0,2.4145298E0,1.9571128E0,7.0462524E1,1.6107125E0,2.1853998E0,2.4718394E0],"tree_param":{"num_deleted":"0","num_feature":"41","num_nodes":"55","size_leaf_vector":"1"}},{"base_weights":[-1.1737371E-3,-2.2625586E-2,9.633349E-1,2.189749E-2,-4.7673535E-1,-1.2041612E0,1.4420757E0,1.6219364E-1,-1.1339132E-1,-6.513949E-1,3.8480675E-1,-3.3826143E-1,-3.1480992E-1,1.4589554E0,-1.4428005E-2,7.47342E-1,-8.744679E-3,-1.401882E0,-5.3259046E-3,-7.915862E-1,1.8851244E-1,-4.1334522E-1,6.584311E-1,7.1651196E-1,-3.033975E-1,3.072638E-1,1.0390619E-1,2.1574572E-1,-2.9490373E-1,-1.3368608E-1,4.361888E-2,1.8439941E-1,-2.9631084E-1,-1.21564776E-1,2.3666384E-2,-2.0642164E-1,1.1638269E-2,-2.682808E-1,1.6151063E-1,-3.741242E-1,-5.7757436E-3,1.8660203E-1,-8.526243E-2,2.7065638E-1,-2.526609E-1],"categories":[],"categories_nodes":[],"categories_segments":[],"categories_sizes":[],"default_left":[0,0,0,0,0,0,0,0,0,0,0,0,0,0,0,0,0,0,0,0,0,0,0,0,0,0,0,0,0,0,0,0,0,0,0,0,0,0,0,0,0,0,0,0,0],"id":4,"left_children":[1,3,5,7,9,11,13,15,17,19,21,-1,23,25,-1,27,29,31,33,35,37,39,41,43,-1,-1,-1,-1,-1,-1,-1,-1,-1,-1,-1,-1,-1,-1,-1,-1,-1,-1,-1,-1,-1],"loss_changes":[2.3153836E2,2.2134161E2,2.5438461E2,1.89264E2,1.473427E2,1.5618591E1,5.1975403E0,4.8963483E2,7.068418E2,9.589145E1,3.6393402E1,0E0,1.8787922E1,7.778931E-2,0E0,6.6823566E2,5.151159E2,9.408569E0,3.171794E2,1.1303464E2,1.0066528E2,2.25664E1,3.0629536E1,1.1035603E1,0E0,0E0,0E0,0E0,0E0,0E0,0E0,0E0,0E0,0E0,0E0,0E0,0E0,0E0,0E0,0E0,0E0,0E0,0E0,0E0,0E0],"parents":[2147483647,0,0,1,1,2,2,3,3,4,4,5,5,6,6,7,7,8,8,9,9,10,10,12,12,13,13,15,15,16,16,17,17,18,18,19,19,20,20,21,21,22,22,23,23],"right_children":[2,4,6,8,10,12,14,16,18,20,22,-1,24,26,-1,28,30,32,34,36,38,40,42,44,-1,-1,-1,-1,-1,-1,-1,-1,-1,-1,-1,-1,-1,-1,-1,-1,-1,-1,-1,-1,-1],"split_conditions":[3.405E0,1.2946E0,1E0,3E0,1.4E1,5E0,8.747E-1,1E0,1E0,2.3525E0,-3.25E-2,-3.3826143E-1,3E0,9.684E-1,-1.4428005E-2,2E0,1E0,-8.701E-1,2E0,1.7E1,1E0,1.2254E0,2E0,5.5E-3,-3.033975E-1,3.072638E-1,1.0390619E-1,2.1574572E-1,-2.9490373E-1,-1.3368608E-1,4.361888E-2,1.8439941E-1,-2.9631084E-1,-1.21564776E-1,2.3666384E-2,-2.0642164E-1,1.1638269E-2,-2.682808E-1,1.6151063E-1,-3.741242E-1,-5.7757436E-3,1.8660203E-1,-8.526243E-2,2.7065638E-1,-2.526609E-1],"split_indices":[0,4,21,20,29,17,5,36,36,1,3,0,19,6,0,20,20,0,35,32,21,26,15,7,0,0,0,0,0,0,0,0,0,0,0,0,0,0,0,0,0,0,0,0,0],"split_type":[0,0,0,0,0,0,0,0,0,0,0,0,0,0,0,0,0,0,0,0,0,0,0,0,0,0,0,0,0,0,0,0,0,0,0,0,0,0,0,0,0,0,0,0,0],"sum_hessian":[1.1188514E4,1.0946037E4,2.4247667E2,9.969529E3,9.765081E2,4.3593243E1,1.9888342E2,4.894094E3,5.0754346E3,8.1211316E2,1.6439497E2,2.9359177E1,1.4234064E1,1.9671982E2,2.163609E0,1.105709E3,3.7883853E3,3.918103E2,4.6836245E3,6.9599945E2,1.161137E2,4.1839657E1,1.2255532E2,7.633072E0,6.600992E0,1.9535016E2,1.3696545E0,9.7884326E2,1.268657E2,9.7072186E2,2.8176633E3,1.1817336E0,3.9062857E2,7.9863043E2,3.884994E3,5.675955E2,1.2840392E2,3.2598545E1,8.351516E1,8.407891E0,3.3431763E1,1.0090354E2,2.1651785E1,6.133144E0,1.4999282E0],"tree_param":{"num_deleted":"0","num_feature":"41","num_nodes":"45","size_leaf_vector":"1"}},{"base_weights":[-1.3612994E-3,-2.4146402E-2,8.116677E-1,-1.2157493E-2,-1.3828727E0,6.3536125E-1,1.3494912E0,3.2081272E-2,-3.6938196E-1,7.027886E-1,-1.5202761E0,7.926239E-1,-1.0804657E0,6.0454744E-1,1.3839225E0,1.1769911E-1,-3.143789E-1,-7.26908E-1,8.403398E-1,3.4178406E-1,-2.4590784E-1,-1.6639512E0,-3.5302982E-1,2.9981577E-1,1.1418176E0,7.3754007E-1,-3.4184313E-1,2.2391891E-1,-3.5167914E-2,9.085825E-1,1.4594364E0,3.8467567E-2,-3.3119196E-1,-2.5398394E-1,1.8392369E-1,-2.3607988E-2,-3.0454805E-1,2.12937E-1,-3.3365477E-2,-3.616813E-1,2.2393186E-1,1.6143975E-1,-2.9722404E-1,2.2468245E-1,-2.8973967E-1,2.942693E-1,-1.2302205E-1,1.0964861E-2,2.3289269E-1,2.6396164E-1,-2.5594613E-1,3.092638E-1,1.0196576E-1],"categories":[],"categories_nodes":[],"categories_segments":[],"categories_sizes":[],"default_left":[0,0,0,0,0,0,0,0,0,0,0,0,0,0,0,0,0,0,0,0,0,0,0,0,0,0,0,0,0,0,0,0,0,0,0,0,0,0,0,0,0,0,0,0,0,0,0,0,0,0,0,0,0],"id":5,"left_children":[1,3,5,7,9,11,13,15,17,19,21,23,25,27,29,31,33,35,37,-1,-1,39,41,43,45,47,-1,-1,-1,49,51,-1,-1,-1,-1,-1,-1,-1,-1,-1,-1,-1,-1,-1,-1,-1,-1,-1,-1,-1,-1,-1,-1],"loss_changes":[2.0309674E2,1.7370389E2,2.74823E1,1.670864E2,2.7796783E1,6.2102684E1,1.0331268E0,2.791124E2,5.0451318E2,1.3079806E1,1.4140213E1,3.5536896E1,2.0585024E1,1.9595041E0,1.147171E0,8.3755536E2,1.9873737E3,3.997862E2,4.6357452E1,0E0,0E0,1.4249069E1,1.407066E1,1.15067566E2,5.536223E1,1.264878E0,0E0,0E0,0E0,1.049572E1,3.075409E-2,0E0,0E0,0E0,0E0,0E0,0E0,0E0,0E0,0E0,0E0,0E0,0E0,0E0,0E0,0E0,0E0,0E0,0E0,0E0,0E0,0E0,0E0],"parents":[2147483647,0,0,1,1,2,2,3,3,4,4,5,5,6,6,7,7,8,8,9,9,10,10,11,11,12,12,13,13,14,14,15,15,16,16,17,17,18,18,21,21,22,22,23,23,24,24,25,25,29,29,30,30],"right_children":[2,4,6,8,10,12,14,16,18,20,22,24,26,28,30,32,34,36,38,-1,-1,40,42,44,46,48,-1,-1,-1,50,52,-1,-1,-1,-1,-1,-1,-1,-1,-1,-1,-1,-1,-1,-1,-1,-1,-1,-1,-1,-1,-1,-1],"split_conditions":[1E0,5E0,5E0,2.032E-1,1E0,3E0,2E0,3E0,4E0,-2.805E-1,1.8417E0,3E0,-2.65E-2,5.5E-3,5E0,2E0,1E0,2E0,5.2E1,3.4178406E-1,-2.4590784E-1,8E0,3E0,9E0,7E0,2.95E-1,-3.4184313E-1,2.2391891E-1,-3.5167914E-2,4E0,1.9133E0,3.8467567E-2,-3.3119196E-1,-2.5398394E-1,1.8392369E-1,-2.3607988E-2,-3.0454805E-1,2.12937E-1,-3.3365477E-2,-3.616813E-1,2.2393186E-1,1.6143975E-1,-2.9722404E-1,2.2468245E-1,-2.8973967E-1,2.942693E-1,-1.2302205E-1,1.0964861E-2,2.3289269E-1,2.6396164E-1,-2.5594613E-1,3.092638E-1,1.0196576E-1],"split_indices":[22,38,38,8,18,22,28,37,37,7,4,18,7,7,31,21,21,21,27,0,0,20,37,33,35,4,0,0,0,21,4,0,0,0,0,0,0,0,0,0,0,0,0,0,0,0,0,0,0,0,0,0,0],"split_type":[0,0,0,0,0,0,0,0,0,0,0,0,0,0,0,0,0,0,0,0,0,0,0,0,0,0,0,0,0,0,0,0,0,0,0,0,0,0,0,0,0,0,0,0,0,0,0,0,0,0,0,0,0],"sum_hessian":[1.0961359E4,1.0663486E4,2.9787344E2,1.0571218E4,9.2267654E1,2.2597641E2,7.1897026E1,9.4071455E3,1.164073E3,5.4485593E0,8.681909E1,2.0749655E2,1.8479862E1,3.99612E0,6.79009E1,7.5436143E3,1.8635309E3,8.988286E2,2.6524435E2,3.7361102E0,1.7124493E0,7.692495E1,9.894144E0,8.682345E1,1.20673096E2,4.1959424E0,1.428392E1,2.2620463E0,1.7340736E0,1.109471E1,5.6806194E1,7.2638623E3,2.7975195E2,1.0636328E3,7.998981E2,4.8659918E2,4.1222943E2,2.259617E2,3.928264E1,7.567707E1,1.2478786E0,4.946784E0,4.9473605E0,5.977724E1,2.704621E1,1.050805E2,1.5592597E1,1.8758197E0,2.3201227E0,9.885083E0,1.2096275E0,5.55385E1,1.2676936E0],"tree_param":{"num_deleted":"0","num_feature":"41","num_nodes":"53","size_leaf_vector":"1"}},{"base_weights":[-1.4599335E-3,-2.0014977E-2,7.138374E-1,-2.0840157E-4,-7.024216E-1,8.5962296E-1,1.5314513E-1,9.749377E-3,-1.2470661E0,-2.3516871E-1,-1.0279253E0,9.0671474E-1,-4.90017E-1,6.828091E-1,-3.4782466E-1,1.310899E-1,-1.0109002E-1,5.820371E-1,-1.3827431E0,-7.2491115E-1,4.604432E-1,-1.1456085E0,7.8331256E-1,9.6447515E-1,6.140789E-2,2.3779424E-1,-2.8829414E-1,-3.3721313E-1,8.3041966E-1,-1.1869974E-1,4.787513E-2,-2.7366868E-1,7.447338E-4,2.8983748E-1,-2.187688E-1,2.578643E-1,-3.029104E-1,-2.1396995E-1,1.6251874E-1,1.7672714E-2,2.74219E-1,-2.6725537E-1,-6.0418356E-2,-2.4096975E-1,2.7465734E-1,9.85791E-2,2.1498743E-1,-2.9788452E-1,2.1311742E-1,4.665214E-2,2.4526292E-1],"categories":[],"categories_nodes":[],"categories_segments":[],"categories_sizes":[],"default_left":[0,0,0,0,0,0,0,0,0,0,0,0,0,0,0,0,0,0,0,0,0,0,0,0,0,0,0,0,0,0,0,0,0,0,0,0,0,0,0,0,0,0,0,0,0,0,0,0,0,0,0],"id":6,"left_children":[1,3,5,7,9,11,13,15,17,19,21,23,25,27,-1,29,31,33,35,37,39,41,43,45,47,-1,-1,-1,49,-1,-1,-1,-1,-1,-1,-1,-1,-1,-1,-1,-1,-1,-1,-1,-1,-1,-1,-1,-1,-1,-1],"loss_changes":[1.4368637E2,1.4262445E2,2.2243164E1,1.2734422E2,4.5026062E1,1.4237854E1,5.6432865E1,1.3686366E2,2.0971512E1,4.240801E1,3.822661E1,1.0197006E1,1.2964346E1,1.6651674E1,0E0,3.278713E2,6.68956E2,9.62257E0,1.3605591E1,3.289598E1,1.6316315E1,1.7600052E1,1.2924255E1,5.2871704E0,2.1903946E1,0E0,0E0,0E0,8.62055E0,0E0,0E0,0E0,0E0,0E0,0E0,0E0,0E0,0E0,0E0,0E0,0E0,0E0,0E0,0E0,0E0,0E0,0E0,0E0,0E0,0E0,0E0],"parents":[2147483647,0,0,1,1,2,2,3,3,4,4,5,5,6,6,7,7,8,8,9,9,10,10,11,11,12,12,13,13,15,15,16,16,17,17,18,18,19,19,20,20,21,21,22,22,23,23,24,24,28,28],"right_children":[2,4,6,8,10,12,14,16,18,20,22,24,26,28,-1,30,32,34,36,38,40,42,44,46,48,-1,-1,-1,50,-1,-1,-1,-1,-1,-1,-1,-1,-1,-1,-1,-1,-1,-1,-1,-1,-1,-1,-1,-1,-1,-1],"split_conditions":[1E0,2.1129E0,7.03E-2,5E0,1E1,1.3422E0,1.1E1,3E0,1E0,1E0,2E1,1.6812E0,-5.959E-1,-2.062E-1,-3.4782466E-1,4E0,1E0,-2.805E-1,-4.2681E0,1.4E1,1E1,5E0,3E0,1.2E1,1.31E-1,2.3779424E-1,-2.8829414E-1,-3.3721313E-1,8.085E-1,-1.1869974E-1,4.787513E-2,-2.7366868E-1,7.447338E-4,2.8983748E-1,-2.187688E-1,2.578643E-1,-3.029104E-1,-2.1396995E-1,1.6251874E-1,1.7672714E-2,2.74219E-1,-2.6725537E-1,-6.0418356E-2,-2.4096975E-1,2.7465734E-1,9.85791E-2,2.1498743E-1,-2.9788452E-1,2.1311742E-1,4.665214E-2,2.4526292E-1],"split_indices":[22,4,1,38,34,9,34,20,18,13,34,3,6,0,0,30,36,7,26,29,32,19,20,29,4,0,0,0,0,0,0,0,0,0,0,0,0,0,0,0,0,0,0,0,0,0,0,0,0,0,0],"split_type":[0,0,0,0,0,0,0,0,0,0,0,0,0,0,0,0,0,0,0,0,0,0,0,0,0,0,0,0,0,0,0,0,0,0,0,0,0,0,0,0,0,0,0,0,0,0,0,0,0,0,0],"sum_hessian":[1.0823898E4,1.0551169E4,2.7272873E2,1.0254536E4,2.9663342E2,2.1602652E2,5.6702217E1,1.0174273E4,8.026261E1,1.22504105E2,1.7412933E2,2.0906015E2,6.966367E0,4.4344357E1,1.2357858E1,4.8569663E3,5.3173066E3,5.315319E0,7.4947296E1,7.186544E1,5.063866E1,1.638508E2,1.0278533E1,1.9555666E2,1.3503499E1,2.3552985E0,4.6110682E0,2.0883083E0,4.225605E1,5.9266266E2,4.2643037E3,4.248658E2,4.892441E3,3.664258E0,1.6510609E0,1.2377232E0,7.370957E1,6.0348248E1,1.1517195E1,3.5802017E1,1.4836644E1,1.4229643E2,2.1554363E1,1.9422811E0,8.336252E0,2.1864828E1,1.7369183E2,5.0998464E0,8.403652E0,1.5670931E1,2.658512E1],"tree_param":{"num_deleted":"0","num_feature":"41","num_nodes":"51","size_leaf_vector":"1"}},{"base_weights":[-2.1438976E-3,-1.8110586E-2,8.5443896E-1,1.3185625E-2,-3.90528E-1,-8.543368E-1,1.2440585E0,7.205893E-2,-3.6402404E-1,-1.1828562E0,2.5185394E-1,-4.332103E-2,-2.7814204E-1,1.2634449E0,4.032416E-2,1.10126235E-1,-4.9506828E-1,-6.071064E-1,6.570912E-1,-1.4687428E0,2.7959168E-1,5.6494236E-1,-1.1529251E0,1.0101427E0,-2.512051E-1,1.269505E0,4.335966E-2,-2.3160547E-2,3.6420222E-2,5.8633205E-2,-8.615007E-4,-2.3990817E-1,-1.8078161E-2,-3.2070637E-2,-2.5491738E-1,-8.5161656E-2,2.1860987E-1,-3.1191763E-1,2.9212254E-1,1.6769987E-1,-1.3627209E-1,3.8040187E-2,2.2806288E-1,-3.0243942E-1,3.429566E-1,2.9874682E-1,1.4622209E-3,2.6760787E-1,7.0687674E-2],"categories":[],"categories_nodes":[],"categories_segments":[],"categories_sizes":[],"default_left":[0,0,0,0,0,0,0,0,0,0,0,0,0,0,0,0,0,0,0,0,0,0,0,0,0,0,0,0,0,0,0,0,0,0,0,0,0,0,0,0,0,0,0,0,0,0,0,0,0],"id":7,"left_children":[1,3,5,7,9,11,13,15,17,19,21,23,-1,25,27,29,31,33,35,37,39,41,43,45,-1,47,-1,-1,-1,-1,-1,-1,-1,-1,-1,-1,-1,-1,-1,-1,-1,-1,-1,-1,-1,-1,-1,-1,-1],"loss_changes":[1.4619449E2,1.2230962E2,1.3128879E2,2.15018E2,4.1434985E2,1.4016769E1,3.675583E0,1.8085939E2,3.2485284E2,1.5277002E2,1.9860733E2,1.8915113E1,0E0,7.4435425E-1,9.05769E-2,1.5159244E2,1.3941924E2,2.9106174E2,1.03152534E2,1.652655E1,2.9637371E1,7.354339E1,6.826592E1,3.3665705E0,0E0,2.7238464E-1,0E0,0E0,0E0,0E0,0E0,0E0,0E0,0E0,0E0,0E0,0E0,0E0,0E0,0E0,0E0,0E0,0E0,0E0,0E0,0E0,0E0,0E0,0E0],"parents":[2147483647,0,0,1,1,2,2,3,3,4,4,5,5,6,6,7,7,8,8,9,9,10,10,11,11,13,13,14,14,15,15,16,16,17,17,18,18,19,19,20,20,21,21,22,22,23,23,25,25],"right_children":[2,4,6,8,10,12,14,16,18,20,22,24,-1,26,28,30,32,34,36,38,40,42,44,46,-1,48,-1,-1,-1,-1,-1,-1,-1,-1,-1,-1,-1,-1,-1,-1,-1,-1,-1,-1,-1,-1,-1,-1,-1],"split_conditions":[3.405E0,1.8E1,1E0,1.96E-2,1E0,-2.559E-1,1.7791E0,1.0794E0,1E0,1.1E1,4E0,3E0,-2.7814204E-1,5E0,1.613E-1,1.4E1,1E0,2E0,4E0,3.8538E0,3E0,7.117E-1,1.8E1,-3.117E-1,-2.512051E-1,1.0489E0,4.335966E-2,-2.3160547E-2,3.6420222E-2,5.8633205E-2,-8.615007E-4,-2.3990817E-1,-1.8078161E-2,-3.2070637E-2,-2.5491738E-1,-8.5161656E-2,2.1860987E-1,-3.1191763E-1,2.9212254E-1,1.6769987E-1,-1.3627209E-1,3.8040187E-2,2.2806288E-1,-3.0243942E-1,3.429566E-1,2.9874682E-1,1.4622209E-3,2.6760787E-1,7.0687674E-2],"split_indices":[0,37,21,8,21,6,3,7,37,28,18,19,0,21,6,34,36,21,18,2,19,0,32,2,0,8,0,0,0,0,0,0,0,0,0,0,0,0,0,0,0,0,0,0,0,0,0,0,0],"split_type":[0,0,0,0,0,0,0,0,0,0,0,0,0,0,0,0,0,0,0,0,0,0,0,0,0,0,0,0,0,0,0,0,0,0,0,0,0,0,0,0,0,0,0,0,0,0,0,0,0],"sum_hessian":[1.0687107E4,1.0492506E4,1.9460126E2,9.680008E3,8.1249786E2,3.5911125E1,1.5869012E2,8.37386E3,1.3061481E3,3.6341382E2,4.4908405E2,1.357909E1,2.2332037E1,1.5612608E2,2.5640447E0,7.8478916E3,5.2596844E2,1.0553269E3,2.508212E2,3.03985E2,5.9428818E1,3.677255E2,8.135853E1,7.160217E0,6.418873E0,1.550361E2,1.0899826E0,1.2833364E0,1.2807084E0,3.1636538E3,4.684238E3,2.0294548E2,3.2302298E2,6.041577E2,4.5116925E2,6.65528E1,1.8426839E2,3.027107E2,1.2742965E0,3.821107E1,2.1217749E1,2.125316E2,1.5519391E2,7.4191864E1,7.166663E0,4.777737E0,2.3824797E0,1.538754E2,1.1607112E0],"tree_param":{"num_deleted":"0","num_feature":"41","num_nodes":"49","size_leaf_vector":"1"}},{"base_weights":[-2.4645494E-3,-1.5508433E-2,7.9479986E-1,-4.7379184E-1,4.588628E-3,-7.799394E-1,1.1646407E0,-1.0250492E0,-1.9881602E-1,7.326317E-2,-1.488862E-1,-3.703394E-2,-2.5913244E-1,1.1847055E0,-2.9366983E-2,6.847872E-1,-1.1479445E0,-4.104186E-1,5.4314125E-1,-2.9606143E-1,1.6075237E-1,-1.2191322E0,2.5730092E-2,8.761173E-1,-2.3212998E-1,1.1898315E0,6.380147E-2,-2.4509403E-1,3.0158857E-1,9.954383E-2,-2.6648474E-1,3.2498408E-2,-1.5464635E-1,3.3426818E-1,1.3992928E-2,-2.3302084E-1,-3.9846994E-2,-8.037977E-2,4.768311E-2,-2.8888994E-1,2.6009166E-1,-2.5506812E-1,2.8662015E-2,2.6372388E-1,1.2458443E-3,2.5266424E-1,1.4824913E-1],"categories":[],"categories_nodes":[],"categories_segments":[],"categories_sizes":[],"default_left":[0,0,0,0,0,0,0,0,0,0,0,0,0,0,0,0,0,0,0,0,0,0,0,0,0,0,0,0,0,0,0,0,0,0,0,0,0,0,0,0,0,0,0,0,0,0,0],"id":8,"left_children":[1,3,5,7,9,11,13,15,17,19,21,23,-1,25,-1,27,29,31,33,35,37,39,41,43,-1,45,-1,-1,-1,-1,-1,-1,-1,-1,-1,-1,-1,-1,-1,-1,-1,-1,-1,-1,-1,-1,-1],"loss_changes":[1.0947361E2,9.5394005E1,9.959999E1,6.575337E1,1.04598816E2,1.1027048E1,3.76799E0,3.1165054E1,4.5996693E1,2.2158432E2,5.733741E2,1.4122283E1,0E0,2.5102234E-1,0E0,1.6036638E1,2.7152206E1,4.2015125E1,3.243673E1,1.1339378E2,1.9988554E2,1.6726636E2,3.6263934E2,2.578916E0,0E0,1.8432617E-2,0E0,0E0,0E0,0E0,0E0,0E0,0E0,0E0,0E0,0E0,0E0,0E0,0E0,0E0,0E0,0E0,0E0,0E0,0E0,0E0,0E0],"parents":[2147483647,0,0,1,1,2,2,3,3,4,4,5,5,6,6,7,7,8,8,9,9,10,10,11,11,13,13,15,15,16,16,17,17,18,18,19,19,20,20,21,21,22,22,23,23,25,25],"right_children":[2,4,6,8,10,12,14,16,18,20,22,24,-1,26,-1,28,30,32,34,36,38,40,42,44,-1,46,-1,-1,-1,-1,-1,-1,-1,-1,-1,-1,-1,-1,-1,-1,-1,-1,-1,-1,-1,-1,-1],"split_conditions":[3.405E0,-3.595E-1,1E0,4E0,4E0,-2.559E-1,8.747E-1,-3.416E-1,5E0,-1.345E-1,2E0,3E0,-2.5913244E-1,1.0489E0,-2.9366983E-2,4.975E-1,-3.868E-1,1E1,2E0,1E0,5E0,6E0,1E0,-3.117E-1,-2.3212998E-1,3E0,6.380147E-2,-2.4509403E-1,3.0158857E-1,9.954383E-2,-2.6648474E-1,3.2498408E-2,-1.5464635E-1,3.3426818E-1,1.3992928E-2,-2.3302084E-1,-3.9846994E-2,-8.037977E-2,4.768311E-2,-2.8888994E-1,2.6009166E-1,-2.5506812E-1,2.8662015E-2,2.6372388E-1,1.2458443E-3,2.5266424E-1,1.4824913E-1],"split_indices":[0,1,21,31,20,6,5,5,18,7,35,19,0,8,0,3,8,31,19,36,30,19,36,2,0,15,0,0,0,0,0,0,0,0,0,0,0,0,0,0,0,0,0,0,0,0,0],"split_type":[0,0,0,0,0,0,0,0,0,0,0,0,0,0,0,0,0,0,0,0,0,0,0,0,0,0,0,0,0,0,0,0,0,0,0,0,0,0,0,0,0,0,0,0,0,0,0],"sum_hessian":[1.0524707E4,1.0356251E4,1.6845601E2,4.3412415E2,9.922127E3,3.182785E1,1.3662816E2,1.4357155E2,2.905526E2,6.8551934E3,3.0669333E3,1.2483341E1,1.934451E1,1.3464888E2,1.9792774E0,9.320721E0,1.3425082E2,2.2642435E2,6.4128265E1,1.3124534E3,5.54274E3,4.2935837E2,2.637575E3,6.8275456E0,5.6557956E0,1.335212E2,1.1276867E0,2.5304317E0,6.790289E0,9.119633E0,1.2513119E2,8.3019264E1,1.4340509E2,1.9304972E1,4.4823296E1,1.5059499E2,1.1618583E3,6.0217944E2,4.9405605E3,4.0406293E2,2.5295444E1,2.1539745E2,2.4221775E3,4.4448376E0,2.3827083E0,1.2849454E2,5.0266504E0],"tree_param":{"num_deleted":"0","num_feature":"41","num_nodes":"47","size_leaf_vector":"1"}},{"base_weights":[-2.8879729E-3,-1.6752051E-2,5.826852E-1,-8.71018E-3,-1.037822E0,4.0156165E-1,1.1311268E0,4.4862796E-2,-1.4596681E-1,-2.564722E-1,-1.3546625E0,5.478827E-1,-1.0131341E0,2.6691535E-1,1.1751424E0,4.378908E-1,-1.5998485E-2,-9.749542E-1,-2.6953546E-2,7.726507E-1,-1.0177572E0,-2.9646122E-1,1.642033E-1,-3.7979513E-2,8.045356E-1,5.942137E-1,-3.0919456E-1,-1.0417601E-1,1.7405814E-1,1.2548853E0,6.4459926E-1,2.0155276E-1,-2.2484149E-1,-1.0693396E-1,1.5047898E-2,-3.8726564E-2,-2.7416858E-1,-4.9942777E-2,2.6264785E-2,2.4241418E-1,-1.9402862E-1,2.3594353E-1,-2.7496684E-1,1.4697887E-1,-2.679279E-1,2.1463618E-1,4.767653E-3,1.91548E-1,6.806209E-4,2.6653993E-1,8.304754E-2,-2.4090946E-1,2.1914424E-1],"categories":[],"categories_nodes":[],"categories_segments":[],"categories_sizes":[],"default_left":[0,0,0,0,0,0,0,0,0,0,0,0,0,0,0,0,0,0,0,0,0,0,0,0,0,0,0,0,0,0,0,0,0,0,0,0,0,0,0,0,0,0,0,0,0,0,0,0,0,0,0,0,0],"id":9,"left_children":[1,3,5,7,9,11,13,15,17,19,21,23,25,27,29,31,33,35,37,39,41,-1,-1,43,45,47,-1,-1,-1,49,51,-1,-1,-1,-1,-1,-1,-1,-1,-1,-1,-1,-1,-1,-1,-1,-1,-1,-1,-1,-1,-1,-1],"loss_changes":[8.4276596E1,8.325858E1,2.3395744E1,7.3997604E1,1.926799E1,3.8237015E1,1.9327469E0,1.7314731E2,2.7870105E2,1.9662539E1,7.9478683E0,2.4934368E1,1.37288475E1,2.1930282E0,1.556076E0,7.651777E2,2.710457E2,9.244861E1,7.9258255E1,8.069033E0,1.0388127E1,0E0,0E0,4.7849377E1,1.9572807E1,8.579488E-1,0E0,0E0,0E0,8.444977E-2,7.8881836E0,0E0,0E0,0E0,0E0,0E0,0E0,0E0,0E0,0E0,0E0,0E0,0E0,0E0,0E0,0E0,0E0,0E0,0E0,0E0,0E0,0E0,0E0],"parents":[2147483647,0,0,1,1,2,2,3,3,4,4,5,5,6,6,7,7,8,8,9,9,10,10,11,11,12,12,13,13,14,14,15,15,16,16,17,17,18,18,19,19,20,20,23,23,24,24,25,25,29,29,30,30],"right_children":[2,4,6,8,10,12,14,16,18,20,22,24,26,28,30,32,34,36,38,40,42,-1,-1,44,46,48,-1,-1,-1,50,52,-1,-1,-1,-1,-1,-1,-1,-1,-1,-1,-1,-1,-1,-1,-1,-1,-1,-1,-1,-1,-1,-1],"split_conditions":[1E0,5E0,5E0,2.519E-1,8.84E-1,3E0,2E0,1E0,1E0,-2.227E-1,1.0489E0,2E0,-2.65E-2,-2.094E-1,7E0,1E0,1E0,3E0,9E0,1.3E1,-4.2681E0,-2.9646122E-1,1.642033E-1,9E0,7E0,6.1E-3,-3.0919456E-1,-1.0417601E-1,1.7405814E-1,1.8965E0,3E0,2.0155276E-1,-2.2484149E-1,-1.0693396E-1,1.5047898E-2,-3.8726564E-2,-2.7416858E-1,-4.9942777E-2,2.6264785E-2,2.4241418E-1,-1.9402862E-1,2.3594353E-1,-2.7496684E-1,1.4697887E-1,-2.679279E-1,2.1463618E-1,4.767653E-3,1.91548E-1,6.806209E-4,2.6653993E-1,8.304754E-2,-2.4090946E-1,2.1914424E-1],"split_indices":[22,38,38,7,26,22,28,36,36,7,8,18,7,3,18,20,20,17,35,30,26,0,0,33,35,0,0,0,0,5,19,0,0,0,0,0,0,0,0,0,0,0,0,0,0,0,0,0,0,0,0,0,0],"split_type":[0,0,0,0,0,0,0,0,0,0,0,0,0,0,0,0,0,0,0,0,0,0,0,0,0,0,0,0,0,0,0,0,0,0,0,0,0,0,0,0,0,0,0,0,0,0,0,0,0,0,0,0,0],"sum_hessian":[1.0378694E4,1.01396E4,2.390946E2,1.0061365E4,7.8234024E1,1.8103857E2,5.8056023E1,7.2372495E3,2.8241157E3,2.3093466E1,5.514056E1,1.6462431E2,1.6414263E1,3.155932E0,5.4900093E1,9.6960046E2,6.2676494E3,3.5364038E2,2.4704753E3,9.81304E0,1.3280427E1,5.4036762E1,1.1037952E0,5.0408573E1,1.1421574E2,3.5821612E0,1.2832101E1,1.3882141E0,1.7677178E0,4.653969E1,8.360403E0,7.206553E2,2.4894519E2,9.450891E2,5.32256E3,1.04742455E2,2.4889792E2,1.0347002E3,1.435775E3,8.271674E0,1.5413655E0,1.2498455E0,1.2030581E1,3.1854853E1,1.855372E1,8.911311E1,2.5102623E1,1.9758102E0,1.6063511E0,4.5306217E1,1.2334728E0,1.1809278E0,7.179476E0],"tree_param":{"num_deleted":"0","num_feature":"41","num_nodes":"53","size_leaf_vector":"1"}},{"base_weights":[-2.3642695E-3,9.533449E-2,-8.998683E-2,5.9888595E-1,-9.940539E-2,-1.006195E0,5.1784955E-2,-2.4754544E-1,9.142057E-1,-3.5521734E-1,1.4256486E-1,-1.2155688E0,6.076564E-1,-1.3194694E-1,3.2368878E-1,-5.201624E-1,7.897888E-1,1.0339215E0,-9.5163196E-1,3.2003316E-1,-5.5184925E-1,2.4000195E-1,-1.0688393E0,-4.14624E-1,-1.6032476E0,-3.1735572E-1,1.4932528E0,1.2997766E-1,-5.51848E-1,4.5522445E-1,-1.0234677E0,-3.4854043E-2,-3.235898E-1,2.8586942E-1,1.0893837E-2,2.3961589E-1,-2.0744406E-1,-2.6179987E-1,1.7684935E-1,1.848538E-1,-1.735152E-1,-1.4357981E-1,1.2319609E-1,-8.290112E-3,8.082172E-2,7.8017615E-2,-2.7939823E-1,-1.5753014E-1,3.8268977E-1,-3.5382968E-1,-1.6662984E-1,1.11156784E-1,-2.5922307E-1,3.392071E-1,-2.3646253E-1,7.337796E-2,-2.0551698E-1,2.8045375E-2,-2.1001229E-1,2.340418E-1,5.4670278E-2,1.9297643E-1,-2.596545E-1],"categories":[],"categories_nodes":[],"categories_segments":[],"categories_sizes":[],"default_left":[0,0,0,0,0,0,0,0,0,0,0,0,0,0,0,0,0,0,0,0,0,0,0,0,0,0,0,0,0,0,0,0,0,0,0,0,0,0,0,0,0,0,0,0,0,0,0,0,0,0,0,0,0,0,0,0,0,0,0,0,0,0,0],"id":10,"left_children":[1,3,5,7,9,11,13,15,17,19,21,23,25,27,29,31,33,35,37,39,41,43,45,47,49,51,53,55,57,59,61,-1,-1,-1,-1,-1,-1,-1,-1,-1,-1,-1,-1,-1,-1,-1,-1,-1,-1,-1,-1,-1,-1,-1,-1,-1,-1,-1,-1,-1,-1,-1,-1],"loss_changes":[8.7381516E1,4.733251E2,6.9902606E2,3.5948993E2,2.1552875E2,2.4441028E2,2.3289594E2,1.039523E2,2.2009717E2,2.2489337E2,2.1150246E2,1.9764484E2,6.8859825E1,3.0606656E2,3.335683E2,1.047859E2,3.223032E1,2.0083954E2,3.2626038E1,2.4624905E2,1.9723676E2,6.7111496E1,5.077057E1,1.5872006E2,2.7096191E1,3.2996643E1,1.5505409E1,4.1737878E2,3.2852805E2,2.1983914E2,7.044107E1,0E0,0E0,0E0,0E0,0E0,0E0,0E0,0E0,0E0,0E0,0E0,0E0,0E0,0E0,0E0,0E0,0E0,0E0,0E0,0E0,0E0,0E0,0E0,0E0,0E0,0E0,0E0,0E0,0E0,0E0,0E0,0E0],"parents":[2147483647,0,0,1,1,2,2,3,3,4,4,5,5,6,6,7,7,8,8,9,9,10,10,11,11,12,12,13,13,14,14,15,15,16,16,17,17,18,18,19,19,20,20,21,21,22,22,23,23,24,24,25,25,26,26,27,27,28,28,29,29,30,30],"right_children":[2,4,6,8,10,12,14,16,18,20,22,24,26,28,30,32,34,36,38,40,42,44,46,48,50,52,54,56,58,60,62,-1,-1,-1,-1,-1,-1,-1,-1,-1,-1,-1,-1,-1,-1,-1,-1,-1,-1,-1,-1,-1,-1,-1,-1,-1,-1,-1,-1,-1,-1,-1,-1],"split_conditions":[5E0,5E0,2E0,1E0,1.3E1,2E0,7E0,3E0,1.2E1,1E0,1.9E1,6E0,4E0,1E0,2E0,5E0,3E0,2E0,5E0,1E0,2.3525E0,3E0,-7.78E-1,2E0,3E0,1E-3,6E0,6E0,1E1,7E0,4E0,-3.4854043E-2,-3.235898E-1,2.8586942E-1,1.0893837E-2,2.3961589E-1,-2.0744406E-1,-2.6179987E-1,1.7684935E-1,1.848538E-1,-1.735152E-1,-1.4357981E-1,1.2319609E-1,-8.290112E-3,8.082172E-2,7.8017615E-2,-2.7939823E-1,-1.5753014E-1,3.8268977E-1,-3.5382968E-1,-1.6662984E-1,1.11156784E-1,-2.5922307E-1,3.392071E-1,-2.3646253E-1,7.337796E-2,-2.0551698E-1,2.8045375E-2,-2.1001229E-1,2.340418E-1,5.4670278E-2,1.9297643E-1,-2.596545E-1],"split_indices":[16,32,32,15,32,35,31,32,33,20,31,16,20,13,21,17,18,21,20,36,1,17,5,14,15,6,17,31,34,32,17,0,0,0,0,0,0,0,0,0,0,0,0,0,0,0,0,0,0,0,0,0,0,0,0,0,0,0,0,0,0,0,0],"split_type":[0,0,0,0,0,0,0,0,0,0,0,0,0,0,0,0,0,0,0,0,0,0,0,0,0,0,0,0,0,0,0,0,0,0,0,0,0,0,0,0,0,0,0,0,0,0,0,0,0,0,0,0,0,0,0,0,0,0,0,0,0,0,0],"sum_hessian":[1.0205384E4,4.825209E3,5.3801743E3,1.3450784E3,3.4801309E3,7.20139E2,4.6600356E3,3.651363E2,9.79942E2,1.6914525E3,1.7886783E3,6.3765875E2,8.24802E1,2.7812163E3,1.8788193E3,2.8954175E2,7.559455E1,9.21277E2,5.866506E1,3.8132452E2,1.3101279E3,1.6562618E3,1.324165E2,2.0865234E2,4.290064E2,4.065617E1,4.1824036E1,1.713232E3,1.0679843E3,1.712294E3,1.6652542E2,2.1581717E2,7.372458E1,4.212505E1,3.34695E1,8.753396E2,4.593739E1,5.0640816E1,8.024244E0,2.5629764E2,1.2502687E2,1.174494E3,1.3563393E2,5.6566895E2,1.0905929E3,2.029051E1,1.12126E2,1.8201648E2,2.6635872E1,3.8872733E2,4.0279076E1,2.1358938E1,1.9297232E1,4.0328625E1,1.49541E0,1.4307212E3,2.8251083E2,4.2254156E2,6.454426E2,3.896142E2,1.3226798E3,1.6127516E1,1.503979E2],"tree_param":{"num_deleted":"0","num_feature":"41","num_nodes":"63","size_leaf_vector":"1"}},{"base_weights":[-2.3092E-3,-1.2529623E-2,7.231435E-1,1.1383872E-2,-3.0612507E-1,-7.2147006E-1,1.0874156E0,5.4073215E-2,-2.6906842E-1,-8.179782E-1,4.5724788E-1,-3.57762E-2,-2.4380323E-1,1.112361E0,-8.180813E-2,7.683747E-2,-5.3029954E-1,-4.5167527E-1,5.044375E-1,-3.222334E-1,-1.2025529E0,6.597397E-1,-1.113417E0,7.5827426E-1,-2.1488382E-1,1.1287842E0,5.659724E-1,2.237171E-2,-4.8550587E-2,2.5472293E-2,-4.067205E-2,1.96982E-2,-2.260639E-1,-2.0806955E-2,-2.0743439E-1,-8.005932E-2,1.7478815E-1,5.1697973E-2,-2.0931178E-1,-2.59478E-1,2.5262856E-1,-1.22963645E-1,1.6095841E-1,-3.488389E-1,-3.5742488E-2,2.373389E-1,-3.1021826E-3,1.687364E-1,2.4459806E-1,-3.1652357E-2,1.7369682E-1],"categories":[],"categories_nodes":[],"categories_segments":[],"categories_sizes":[],"default_left":[0,0,0,0,0,0,0,0,0,0,0,0,0,0,0,0,0,0,0,0,0,0,0,0,0,0,0,0,0,0,0,0,0,0,0,0,0,0,0,0,0,0,0,0,0,0,0,0,0,0,0],"id":11,"left_children":[1,3,5,7,9,11,13,15,17,19,21,23,-1,25,27,29,31,33,35,37,39,41,43,45,-1,47,49,-1,-1,-1,-1,-1,-1,-1,-1,-1,-1,-1,-1,-1,-1,-1,-1,-1,-1,-1,-1,-1,-1,-1,-1],"loss_changes":[7.404449E1,6.914224E1,7.379356E1,1.09044785E2,2.9018805E2,8.559407E0,3.3342896E0,1.05194275E2,1.7018372E2,8.433063E1,9.562469E1,1.0326041E1,0E0,3.3874512E-1,1.1619146E-1,9.15368E1,1.0117396E2,1.8401021E2,6.71906E1,7.519394E1,2.135611E1,3.5657257E1,1.751141E1,2.1227717E0,0E0,2.8977966E-1,1.0950838E0,0E0,0E0,0E0,0E0,0E0,0E0,0E0,0E0,0E0,0E0,0E0,0E0,0E0,0E0,0E0,0E0,0E0,0E0,0E0,0E0,0E0,0E0,0E0,0E0],"parents":[2147483647,0,0,1,1,2,2,3,3,4,4,5,5,6,6,7,7,8,8,9,9,10,10,11,11,13,13,14,14,15,15,16,16,17,17,18,18,19,19,20,20,21,21,22,22,23,23,25,25,26,26],"right_children":[2,4,6,8,10,12,14,16,18,20,22,24,-1,26,28,30,32,34,36,38,40,42,44,46,-1,48,50,-1,-1,-1,-1,-1,-1,-1,-1,-1,-1,-1,-1,-1,-1,-1,-1,-1,-1,-1,-1,-1,-1,-1,-1],"split_conditions":[3.405E0,1.8E1,1E0,1.96E-2,2E0,-2.559E-1,1.7791E0,9.14E-1,1E0,3E0,5E0,3E0,-2.4380323E-1,1.1E1,4.3034E0,1E0,3E0,2E0,4E0,3E0,1.4E1,-3.854E-1,9E0,-3.117E-1,-2.1488382E-1,-7.745E-1,5.275E-1,2.237171E-2,-4.8550587E-2,2.5472293E-2,-4.067205E-2,1.96982E-2,-2.260639E-1,-2.0806955E-2,-2.0743439E-1,-8.005932E-2,1.7478815E-1,5.1697973E-2,-2.0931178E-1,-2.59478E-1,2.5262856E-1,-1.22963645E-1,1.6095841E-1,-3.488389E-1,-3.5742488E-2,2.373389E-1,-3.1021826E-3,1.687364E-1,2.4459806E-1,-3.1652357E-2,1.7369682E-1],"split_indices":[0,37,21,8,21,6,3,1,37,19,18,19,0,32,0,37,17,21,18,18,34,0,33,2,0,2,7,0,0,0,0,0,0,0,0,0,0,0,0,0,0,0,0,0,0,0,0,0,0,0,0],"split_type":[0,0,0,0,0,0,0,0,0,0,0,0,0,0,0,0,0,0,0,0,0,0,0,0,0,0,0,0,0,0,0,0,0,0,0,0,0,0,0,0,0,0,0,0,0,0,0,0,0,0,0],"sum_hessian":[9.984312E3,9.846572E3,1.377391E2,9.105857E3,7.4071533E2,2.7540337E1,1.1019877E2,7.903608E3,1.202249E3,4.4336252E2,2.9735278E2,1.1179598E1,1.6360739E1,1.0794442E2,2.2543554E0,7.6081025E3,2.9550537E2,9.729695E2,2.2927953E2,1.9448941E2,2.488731E2,2.639093E2,3.34435E1,6.3253675E0,4.85423E0,1.03759735E2,4.184684E0,1.1240511E0,1.1303043E0,6.534676E3,1.0734271E3,1.3830353E2,1.5720184E2,5.8765643E2,3.8531305E2,6.1904213E1,1.673753E2,1.05888626E2,8.8600784E1,2.4597925E2,2.8938556E0,2.0479116E1,2.4343018E2,2.067593E1,1.276757E1,3.9588063E0,2.3665614E0,1.2654973E1,9.110476E1,1.2305349E0,2.954149E0],"tree_param":{"num_deleted":"0","num_feature":"41","num_nodes":"51","size_leaf_vector":"1"}},{"base_weights":[-2.3770866E-3,7.921249E-2,-7.536726E-2,4.8237664E-1,-7.5654365E-2,-8.57052E-1,4.3923393E-2,-1.9277412E-1,7.6859856E-1,-2.946603E-1,1.2233722E-1,-1.0339216E0,4.9455616E-1,-2.4454603E-1,1.6490613E-1,-7.2674686E-1,1.549146E-1,8.8844466E-1,-1.0332681E0,-9.0089686E-2,-7.683152E-1,2.0124483E-1,-8.621665E-1,-1.2211186E0,2.9015437E-1,-2.704396E-1,1.2335287E0,-1.002108E0,1.455446E-1,2.3784594E-1,-7.0634013E-1,-2.6458517E-1,3.2747496E-2,7.7563666E-2,-2.2543824E-1,-2.8317812E-1,2.069175E-1,-2.766676E-1,2.3033124E-1,6.879795E-3,-1.6428396E-1,-1.8151961E-1,9.771892E-2,1.2683424E-1,2.1272184E-2,1.4379291E-1,-2.1997249E-1,-1.497243E-1,-3.055041E-1,2.825154E-1,-1.3721588E-1,1.0448154E-1,-2.0402898E-1,2.9631212E-1,-8.527878E-2,-3.134286E-1,-9.240587E-3,-6.4458204E-3,2.8937674E-1,1.954453E-1,3.4996722E-2,-2.3032789E-1,1.488364E-1],"categories":[],"categories_nodes":[],"categories_segments":[],"categories_sizes":[],"default_left":[0,0,0,0,0,0,0,0,0,0,0,0,0,0,0,0,0,0,0,0,0,0,0,0,0,0,0,0,0,0,0,0,0,0,0,0,0,0,0,0,0,0,0,0,0,0,0,0,0,0,0,0,0,0,0,0,0,0,0,0,0,0,0],"id":12,"left_children":[1,3,5,7,9,11,13,15,17,19,21,23,25,27,29,31,33,35,37,39,41,43,45,47,49,51,53,55,57,59,61,-1,-1,-1,-1,-1,-1,-1,-1,-1,-1,-1,-1,-1,-1,-1,-1,-1,-1,-1,-1,-1,-1,-1,-1,-1,-1,-1,-1,-1,-1,-1,-1],"loss_changes":[5.8736282E1,2.908141E2,4.8546713E2,2.4993524E2,1.4597067E2,1.6529578E2,1.5770029E2,7.170852E1,1.9699084E2,1.54796E2,1.3754225E2,1.5151752E2,4.5807373E1,3.947242E2,2.0246149E2,7.185231E1,6.213761E1,1.8593555E2,3.6003426E1,9.5041336E1,5.751703E1,6.586706E1,3.8386055E1,6.2428406E1,7.689403E1,2.2206627E1,1.2531971E1,2.1323767E2,1.9166855E2,1.4477405E2,1.3679218E2,0E0,0E0,0E0,0E0,0E0,0E0,0E0,0E0,0E0,0E0,0E0,0E0,0E0,0E0,0E0,0E0,0E0,0E0,0E0,0E0,0E0,0E0,0E0,0E0,0E0,0E0,0E0,0E0,0E0,0E0,0E0,0E0],"parents":[2147483647,0,0,1,1,2,2,3,3,4,4,5,5,6,6,7,7,8,8,9,9,10,10,11,11,12,12,13,13,14,14,15,15,16,16,17,17,18,18,19,19,20,20,21,21,22,22,23,23,24,24,25,25,26,26,27,27,28,28,29,29,30,30],"right_children":[2,4,6,8,10,12,14,16,18,20,22,24,26,28,30,32,34,36,38,40,42,44,46,48,50,52,54,56,58,60,62,-1,-1,-1,-1,-1,-1,-1,-1,-1,-1,-1,-1,-1,-1,-1,-1,-1,-1,-1,-1,-1,-1,-1,-1,-1,-1,-1,-1,-1,-1,-1,-1],"split_conditions":[5E0,5E0,2E0,3E0,1.3E1,2E0,6E0,4.4E1,1.1E1,7.78E-2,1.9E1,3E0,4E0,4E0,2E0,3.12E-2,4E0,3.2E1,1E0,6E0,2.3525E0,0E0,1E0,6E0,6E0,-3.85E-2,2E0,6E0,8E0,3E0,4E0,-2.6458517E-1,3.2747496E-2,7.7563666E-2,-2.2543824E-1,-2.8317812E-1,2.069175E-1,-2.766676E-1,2.3033124E-1,6.879795E-3,-1.6428396E-1,-1.8151961E-1,9.771892E-2,1.2683424E-1,2.1272184E-2,1.4379291E-1,-2.1997249E-1,-1.497243E-1,-3.055041E-1,2.825154E-1,-1.3721588E-1,1.0448154E-1,-2.0402898E-1,2.9631212E-1,-8.527878E-2,-3.134286E-1,-9.240587E-3,-6.4458204E-3,2.8937674E-1,1.954453E-1,3.4996722E-2,-2.3032789E-1,1.488364E-1],"split_indices":[16,32,32,19,32,35,28,27,33,2,31,15,20,17,21,5,20,27,22,18,1,8,19,16,16,6,21,30,18,35,37,0,0,0,0,0,0,0,0,0,0,0,0,0,0,0,0,0,0,0,0,0,0,0,0,0,0,0,0,0,0,0,0],"split_type":[0,0,0,0,0,0,0,0,0,0,0,0,0,0,0,0,0,0,0,0,0,0,0,0,0,0,0,0,0,0,0,0,0,0,0,0,0,0,0,0,0,0,0,0,0,0,0,0,0,0,0,0,0,0,0,0,0,0,0,0,0,0,0],"sum_hessian":[9.860961E3,4.6561533E3,5.204807E3,1.2916062E3,3.364547E3,6.8830634E2,4.516501E3,3.8463696E2,9.0696924E2,1.5972645E3,1.7672827E3,6.08866E2,7.944029E1,1.3342098E3,3.182291E3,1.5125404E2,2.333829E2,8.5088214E2,5.6087093E1,1.1163188E3,4.8094574E2,1.6368827E3,1.3039995E2,5.335157E2,7.5350334E1,3.9344402E1,4.0095894E1,4.529687E2,8.812411E2,2.9371252E3,2.4516597E2,9.402898E1,5.7225075E1,1.9929335E2,3.4089554E1,3.4784267E1,8.160979E2,4.9821396E1,6.265699E0,9.48871E2,1.6744789E2,4.4647778E2,3.4467964E1,3.2446375E2,1.312419E3,1.3662564E1,1.1673738E2,1.6932874E2,3.6418698E2,3.5370663E1,3.9979675E1,1.8915703E1,2.0428698E1,3.6305424E1,3.7904716E0,2.992426E2,1.5372607E2,7.7184265E2,1.0939845E2,2.7256235E2,2.6645627E3,1.923237E2,5.2842266E1],"tree_param":{"num_deleted":"0","num_feature":"41","num_nodes":"63","size_leaf_vector":"1"}},{"base_weights":[-2.752562E-3,-1.1546686E-2,7.256005E-1,1.03810765E-2,-2.6690328E-1,-6.0262775E-1,1.0389363E0,-9.2310354E-4,5.4590964E-1,-1.0977919E0,1.3192147E-1,3.1528134E-2,-2.2539662E-1,1.063943E0,-2.7395481E-2,2.0919517E-2,-2.8554228E-1,3.6376986E-1,1.0445518E0,-1.3004395E0,9.971364E-1,4.4518015E-1,-6.822886E-1,7.192353E-1,-2.0956023E-1,1.0825195E0,4.98873E-1,8.243587E-3,-9.188774E-2,-1.8636623E-1,4.6591885E-2,1.0884839E-1,-1.8679632E-1,2.3139916E-1,3.9828148E-2,6.6194576E-3,-3.0342293E-1,2.7606302E-1,-9.9994265E-2,-2.0779508E-1,1.1917705E-1,3.3985144E-1,-1.8258111E-1,2.182647E-1,1.66157E-2,2.3131151E-1,1.0166076E-1,-3.3434626E-2,1.7175238E-1],"categories":[],"categories_nodes":[],"categories_segments":[],"categories_sizes":[],"default_left":[0,0,0,0,0,0,0,0,0,0,0,0,0,0,0,0,0,0,0,0,0,0,0,0,0,0,0,0,0,0,0,0,0,0,0,0,0,0,0,0,0,0,0,0,0,0,0,0,0],"id":13,"left_children":[1,3,5,7,9,11,13,15,17,19,21,23,-1,25,-1,27,29,31,33,35,37,39,41,43,-1,45,47,-1,-1,-1,-1,-1,-1,-1,-1,-1,-1,-1,-1,-1,-1,-1,-1,-1,-1,-1,-1,-1,-1],"loss_changes":[6.190507E1,5.3472355E1,4.861191E1,5.324274E1,2.5039871E2,6.79196E0,2.8776398E0,5.355875E1,1.6132679E1,1.05321014E2,1.3067848E2,8.234057E0,0E0,4.2366028E-1,0E0,6.727899E1,1.8773233E2,2.655331E1,2.1496544E0,4.3110138E1,1.0998589E1,6.545251E1,6.272444E1,1.3411131E0,0E0,4.657898E-1,1.1330001E0,0E0,0E0,0E0,0E0,0E0,0E0,0E0,0E0,0E0,0E0,0E0,0E0,0E0,0E0,0E0,0E0,0E0,0E0,0E0,0E0,0E0,0E0],"parents":[2147483647,0,0,1,1,2,2,3,3,4,4,5,5,6,6,7,7,8,8,9,9,10,10,11,11,13,13,15,15,16,16,17,17,18,18,19,19,20,20,21,21,22,22,23,23,25,25,26,26],"right_children":[2,4,6,8,10,12,14,16,18,20,22,24,-1,26,-1,28,30,32,34,36,38,40,42,44,-1,46,48,-1,-1,-1,-1,-1,-1,-1,-1,-1,-1,-1,-1,-1,-1,-1,-1,-1,-1,-1,-1,-1,-1],"split_conditions":[3.405E0,3E0,1E0,1E0,6E0,-2.559E-1,8.747E-1,1.4E1,5E0,1.9E1,1E0,4.7E1,-2.2539662E-1,3E0,-2.7395481E-2,3E0,1E0,3E0,1.2434E0,9E0,3.196E-1,5E0,1E0,-3.117E-1,-2.0956023E-1,1.1E1,-4.612E-1,8.243587E-3,-9.188774E-2,-1.8636623E-1,4.6591885E-2,1.0884839E-1,-1.8679632E-1,2.3139916E-1,3.9828148E-2,6.6194576E-3,-3.0342293E-1,2.7606302E-1,-9.9994265E-2,-2.0779508E-1,1.1917705E-1,3.3985144E-1,-1.8258111E-1,2.182647E-1,1.66157E-2,2.3131151E-1,1.0166076E-1,-3.3434626E-2,1.7175238E-1],"split_indices":[0,13,21,22,31,6,5,37,38,28,21,27,0,15,0,21,21,22,3,34,7,28,15,2,0,32,3,0,0,0,0,0,0,0,0,0,0,0,0,0,0,0,0,0,0,0,0,0,0],"split_type":[0,0,0,0,0,0,0,0,0,0,0,0,0,0,0,0,0,0,0,0,0,0,0,0,0,0,0,0,0,0,0,0,0,0,0,0,0,0,0,0,0,0,0,0,0,0,0,0,0],"sum_hessian":[9.662465E3,9.548165E3,1.1430025E2,8.793976E3,7.5418933E2,2.1640985E1,9.265926E1,8.613163E3,1.8081229E2,2.4403282E2,5.1015656E2,9.617044E0,1.2023941E1,9.080757E1,1.8516937E0,8.000133E3,6.130303E2,1.3370366E2,4.710862E1,2.2285477E2,2.1178053E1,3.687407E2,1.4141583E2,5.9461102E0,3.6709337E0,8.703073E1,3.7768435E0,7.693372E3,3.0676093E2,2.8005936E2,3.3297092E2,1.1954734E2,1.4156328E1,4.3876324E1,3.2322936E0,2.1877777E1,2.0097699E2,1.751241E1,3.6656427E0,2.8413904E1,3.403268E2,1.0062857E1,1.3135298E2,3.5480328E0,2.3980777E0,8.354262E1,3.48811E0,1.3965874E0,2.3802562E0],"tree_param":{"num_deleted":"0","num_feature":"41","num_nodes":"49","size_leaf_vector":"1"}},{"base_weights":[-2.4395324E-3,-1.3210593E-2,5.085398E-1,2.8385865E-4,-4.2904896E-1,-9.7410643E-1,9.786086E-1,-8.772786E-3,7.709294E-1,-6.867307E-1,-4.278709E-3,-2.5072634E-1,-8.0372944E-2,-7.720829E-1,1.0611178E0,4.751895E-2,-1.2037019E-1,1.1874014E0,-9.6184665E-1,-8.54444E-1,8.616367E-2,4.02814E-1,-8.3742887E-1,4.5041907E-1,-2.0632039E-1,-3.2328236E-1,1.9417073E-1,1.1136252E0,-2.532356E-1,5.935344E-2,-2.8920177E-2,-1.641799E-1,3.445633E-2,-1.4644963E-1,2.7031094E-1,8.7044016E-2,-3.200742E-1,-8.4108055E-2,-2.552496E-1,8.2676865E-2,-3.2518885E-1,-6.374083E-2,1.806705E-1,-2.6488528E-1,2.5636345E-1,2.1353997E-1,-1.6438247E-1,2.3980601E-1,-2.959276E-1],"categories":[],"categories_nodes":[],"categories_segments":[],"categories_sizes":[],"default_left":[0,0,0,0,0,0,0,0,0,0,0,0,0,0,0,0,0,0,0,0,0,0,0,0,0,0,0,0,0,0,0,0,0,0,0,0,0,0,0,0,0,0,0,0,0,0,0,0,0],"id":14,"left_children":[1,3,5,7,9,11,13,15,17,19,21,-1,23,25,27,29,31,33,35,37,39,41,43,45,-1,-1,-1,47,-1,-1,-1,-1,-1,-1,-1,-1,-1,-1,-1,-1,-1,-1,-1,-1,-1,-1,-1,-1,-1],"loss_changes":[5.2671497E1,5.2592636E1,1.3864528E2,6.3371025E1,3.22407E1,9.346329E0,2.2559402E1,5.638181E1,7.725104E1,2.3839897E1,3.840407E1,0E0,5.498848E0,1.0996579E1,1.8501938E1,2.598657E2,5.663045E2,1.6974716E1,1.6875957E1,2.4217972E1,1.7501005E1,2.484468E1,3.3967125E1,5.918775E0,0E0,0E0,0E0,1.1708038E1,0E0,0E0,0E0,0E0,0E0,0E0,0E0,0E0,0E0,0E0,0E0,0E0,0E0,0E0,0E0,0E0,0E0,0E0,0E0,0E0,0E0],"parents":[2147483647,0,0,1,1,2,2,3,3,4,4,5,5,6,6,7,7,8,8,9,9,10,10,12,12,13,13,14,14,15,15,16,16,17,17,18,18,19,19,20,20,21,21,22,22,23,23,27,27],"right_children":[2,4,6,8,10,12,14,16,18,20,22,-1,24,26,28,30,32,34,36,38,40,42,44,46,-1,-1,-1,48,-1,-1,-1,-1,-1,-1,-1,-1,-1,-1,-1,-1,-1,-1,-1,-1,-1,-1,-1,-1,-1],"split_conditions":[3.3671E0,1.9133E0,1E0,3.2388E0,1.2E1,5E0,4E0,1E0,5E0,1E1,4E0,-2.5072634E-1,4.7E1,-2.4E-3,1E1,6E0,6E0,1E0,-3.009E-1,9E0,1.6517E0,6E0,1.9E1,1.6266E0,-2.0632039E-1,-3.2328236E-1,1.9417073E-1,9E0,-2.532356E-1,5.935344E-2,-2.8920177E-2,-1.641799E-1,3.445633E-2,-1.4644963E-1,2.7031094E-1,8.7044016E-2,-3.200742E-1,-8.4108055E-2,-2.552496E-1,8.2676865E-2,-3.2518885E-1,-6.374083E-2,1.806705E-1,-2.6488528E-1,2.5636345E-1,2.1353997E-1,-1.6438247E-1,2.3980601E-1,-2.959276E-1],"split_indices":[0,4,21,2,35,17,17,13,17,32,18,0,27,7,28,31,31,13,5,34,3,28,30,4,0,0,0,16,0,0,0,0,0,0,0,0,0,0,0,0,0,0,0,0,0,0,0,0,0],"split_type":[0,0,0,0,0,0,0,0,0,0,0,0,0,0,0,0,0,0,0,0,0,0,0,0,0,0,0,0,0,0,0,0,0,0,0,0,0,0,0,0,0,0,0,0,0,0,0,0,0],"sum_hessian":[9.567821E3,9.371256E3,1.965649E2,9.077674E3,2.9358206E2,4.706011E1,1.4950478E2,8.973209E3,1.0446475E2,1.8234683E2,1.11235214E2,3.750037E1,9.559738E0,6.3527927E0,1.43152E2,5.9649536E3,3.0082556E3,8.447577E1,1.9988977E1,1.4974712E2,3.2599716E1,7.507076E1,3.6164455E1,6.3337235E0,3.2260141E0,4.4382334E0,1.9145594E0,1.4040866E2,2.7433207E0,2.6283188E3,3.3366348E3,9.041196E2,2.104136E3,3.946718E0,8.052905E1,5.8741393E0,1.4114839E1,6.7273E1,8.247412E1,2.8076744E1,4.5229707E0,2.9643082E1,4.5427677E1,3.0308882E1,5.855574E0,4.4603806E0,1.8733431E0,1.393919E2,1.0167533E0],"tree_param":{"num_deleted":"0","num_feature":"41","num_nodes":"49","size_leaf_vector":"1"}},{"base_weights":[-2.1637757E-3,3.2653552E-3,-7.9616654E-1,-5.6181005E-3,5.0081265E-1,3.0097342E-1,-8.604234E-1,2.7557712E-2,-1.4339787E-1,-9.2115813E-1,9.4897395E-1,-4.1658437E-1,-1.162706E0,9.4906345E-2,-9.324878E-1,-9.116126E-1,3.4510067E-1,-2.4027485E-1,-4.308094E-3,1.0034816E0,-1.0400807E0,-1.1670324E0,2.5262544E-1,-1.2455404E0,1.6627967E-1,4.3332767E-2,-2.435725E-2,-1.1361832E-1,-2.9522437E-1,-2.5092086E-1,1.5687229E-1,-2.1033961E-2,2.010961E-1,1.16223745E-1,-1.8513955E-1,-8.3490334E-2,2.2464018E-1,-2.9200193E-1,-6.838244E-3,-2.9343522E-1,1.5437257E-1,-1.2276873E-1,2.5835046E-1,-2.8749374E-1,-3.0081064E-2],"categories":[],"categories_nodes":[],"categories_segments":[],"categories_sizes":[],"default_left":[0,0,0,0,0,0,0,0,0,0,0,0,0,0,0,0,0,0,0,0,0,0,0,0,0,0,0,0,0,0,0,0,0,0,0,0,0,0,0,0,0,0,0,0,0],"id":15,"left_children":[1,3,5,7,9,-1,11,13,15,17,19,21,23,25,27,29,31,-1,33,35,37,39,41,43,-1,-1,-1,-1,-1,-1,-1,-1,-1,-1,-1,-1,-1,-1,-1,-1,-1,-1,-1,-1,-1],"loss_changes":[4.0760044E1,4.1513268E1,1.0432003E1,4.218419E1,1.0586641E2,0E0,7.9733887E0,4.8100943E2,6.7240125E2,8.17141E0,1.4678848E1,1.3903778E1,6.967144E0,1.633927E2,8.959955E1,3.2807776E2,2.9886487E2,0E0,4.807395E0,1.1831673E1,1.3123417E0,6.700323E0,1.3116603E1,4.6804657E0,0E0,0E0,0E0,0E0,0E0,0E0,0E0,0E0,0E0,0E0,0E0,0E0,0E0,0E0,0E0,0E0,0E0,0E0,0E0,0E0,0E0],"parents":[2147483647,0,0,1,1,2,2,3,3,4,4,6,6,7,7,8,8,9,9,10,10,11,11,12,12,13,13,14,14,15,15,16,16,18,18,19,19,20,20,21,21,22,22,23,23],"right_children":[2,4,6,8,10,-1,12,14,16,18,20,22,24,26,28,30,32,-1,34,36,38,40,42,44,-1,-1,-1,-1,-1,-1,-1,-1,-1,-1,-1,-1,-1,-1,-1,-1,-1,-1,-1,-1,-1],"split_conditions":[2.8107E0,3.3671E0,1E0,1E0,1E0,3.0097342E-1,6E0,2E0,4E0,5E0,1.7791E0,1.302E-1,1.9E1,5E0,6E0,2E0,5E0,-2.4027485E-1,-2.559E-1,4E0,1.613E-1,1E1,6.1E-3,9E0,1.6627967E-1,4.3332767E-2,-2.435725E-2,-1.1361832E-1,-2.9522437E-1,-2.5092086E-1,1.5687229E-1,-2.1033961E-2,2.010961E-1,1.16223745E-1,-1.8513955E-1,-8.3490334E-2,2.2464018E-1,-2.9200193E-1,-6.838244E-3,-2.9343522E-1,1.5437257E-1,-1.2276873E-1,2.5835046E-1,-2.8749374E-1,-3.0081064E-2],"split_indices":[4,0,16,37,21,0,30,21,17,17,3,6,29,17,18,21,18,0,6,17,6,17,0,37,0,0,0,0,0,0,0,0,0,0,0,0,0,0,0,0,0,0,0,0,0],"split_type":[0,0,0,0,0,0,0,0,0,0,0,0,0,0,0,0,0,0,0,0,0,0,0,0,0,0,0,0,0,0,0,0,0,0,0,0,0,0,0,0,0,0,0,0,0],"sum_hessian":[9.453848E3,9.390634E3,6.3214188E1,9.226881E3,1.6375258E2,1.1741183E0,6.204007E1,7.4369478E3,1.7899331E3,3.8988995E1,1.2476359E2,2.6098293E1,3.5941776E1,6.9502764E3,4.8667117E2,6.954304E2,1.0945027E3,3.1161558E1,7.827438E0,1.2191806E2,2.8455236E0,1.1951762E1,1.4146531E1,3.4828445E1,1.1133306E0,4.547375E3,2.4029014E3,2.6755212E2,2.1911906E2,5.9423114E2,1.0119926E2,6.342589E2,4.6024387E2,5.010889E0,2.816549E0,5.277567E0,1.16640495E2,1.829226E0,1.0162976E0,1.08978405E1,1.053922E0,7.836921E0,6.3096104E0,3.1102436E1,3.7260096E0],"tree_param":{"num_deleted":"0","num_feature":"41","num_nodes":"45","size_leaf_vector":"1"}},{"base_weights":[-2.4714204E-3,6.555104E-2,-6.424926E-2,3.85754E-1,-5.681938E-2,-7.6008916E-1,4.222616E-2,-2.67973E-1,6.420874E-1,-1.080357E0,-2.2215523E-2,-9.0190595E-1,5.9834814E-1,4.826878E-3,7.7881396E-1,2.6444495E-1,-7.253356E-1,4.869321E-2,8.550506E-1,-7.940334E-2,-1.2496473E0,-1.9131948E-1,1.19897366E-1,-2.6997885E-1,-1.2521892E0,8.302309E-1,-2.8945982E-1,-1.444696E-1,2.0889841E-1,9.92987E-1,-9.1091937E-1,-1.8624504E-1,1.5891291E-1,-6.423696E-3,-2.1052538E-1,-1.5984076E-1,7.2789505E-2,2.0410901E-1,-2.1633215E-1,1.5545072E-1,-3.26862E-1,-3.5235083E-1,-1.4918506E-1,-1.3043497E-2,-1.7953403E-1,3.9406676E-2,-1.4831002E-1,-1.138809E-1,3.2953033E-1,-2.7932745E-1,-1.2173493E-1,-1.5429887E-1,2.1840617E-1,8.3416715E-2,-5.9279613E-2,-4.699195E-2,8.2145E-2,6.373696E-2,2.7107447E-1,1.4763296E-1,-3.2425696E-1],"categories":[],"categories_nodes":[],"categories_segments":[],"categories_sizes":[],"default_left":[0,0,0,0,0,0,0,0,0,0,0,0,0,0,0,0,0,0,0,0,0,0,0,0,0,0,0,0,0,0,0,0,0,0,0,0,0,0,0,0,0,0,0,0,0,0,0,0,0,0,0,0,0,0,0,0,0,0,0,0,0],"id":16,"left_children":[1,3,5,7,9,11,13,15,17,19,21,23,25,27,29,31,33,35,37,39,41,43,45,47,49,51,-1,53,55,57,59,-1,-1,-1,-1,-1,-1,-1,-1,-1,-1,-1,-1,-1,-1,-1,-1,-1,-1,-1,-1,-1,-1,-1,-1,-1,-1,-1,-1,-1,-1],"loss_changes":[3.9065613E1,1.7339038E2,3.609788E2,2.0519704E2,1.1338692E2,1.2510324E2,1.16417885E2,8.428128E1,1.11061066E2,1.7641304E1,7.448191E1,1.2934433E2,2.9435682E1,1.2259827E2,7.4804695E1,9.152708E1,3.578994E1,5.6541534E1,1.4356665E2,2.0781088E1,1.9470078E1,1.21290184E2,9.44E1,1.0612926E2,1.8971375E1,1.9106628E1,0E0,1.7359546E2,1.3416E2,3.692366E1,2.5092178E1,0E0,0E0,0E0,0E0,0E0,0E0,0E0,0E0,0E0,0E0,0E0,0E0,0E0,0E0,0E0,0E0,0E0,0E0,0E0,0E0,0E0,0E0,0E0,0E0,0E0,0E0,0E0,0E0,0E0,0E0],"parents":[2147483647,0,0,1,1,2,2,3,3,4,4,5,5,6,6,7,7,8,8,9,9,10,10,11,11,12,12,13,13,14,14,15,15,16,16,17,17,18,18,19,19,20,20,21,21,22,22,23,23,24,24,25,25,27,27,28,28,29,29,30,30],"right_children":[2,4,6,8,10,12,14,16,18,20,22,24,26,28,30,32,34,36,38,40,42,44,46,48,50,52,-1,54,56,58,60,-1,-1,-1,-1,-1,-1,-1,-1,-1,-1,-1,-1,-1,-1,-1,-1,-1,-1,-1,-1,-1,-1,-1,-1,-1,-1,-1,-1,-1,-1],"split_conditions":[5E0,5E0,2E0,1E0,3E0,1E1,2E1,3E0,3E0,7E0,1.3E1,6E0,6E0,7E0,8E0,2E0,3E0,2E0,1.1E1,4.7E1,4E0,5E0,1.9E1,5.9E1,3E0,-4.154E-1,-2.8945982E-1,1E0,6E0,3E0,4E0,-1.8624504E-1,1.5891291E-1,-6.423696E-3,-2.1052538E-1,-1.5984076E-1,7.2789505E-2,2.0410901E-1,-2.1633215E-1,1.5545072E-1,-3.26862E-1,-3.5235083E-1,-1.4918506E-1,-1.3043497E-2,-1.7953403E-1,3.9406676E-2,-1.4831002E-1,-1.138809E-1,3.2953033E-1,-2.7932745E-1,-1.2173493E-1,-1.5429887E-1,2.1840617E-1,8.3416715E-2,-5.9279613E-2,-4.699195E-2,8.2145E-2,6.373696E-2,2.7107447E-1,1.4763296E-1,-3.2425696E-1],"split_indices":[16,32,32,15,35,36,36,18,19,31,32,16,17,31,18,17,16,17,33,27,16,19,31,27,15,1,0,20,16,20,17,0,0,0,0,0,0,0,0,0,0,0,0,0,0,0,0,0,0,0,0,0,0,0,0,0,0,0,0,0,0],"split_type":[0,0,0,0,0,0,0,0,0,0,0,0,0,0,0,0,0,0,0,0,0,0,0,0,0,0,0,0,0,0,0,0,0,0,0,0,0,0,0,0,0,0,0,0,0,0,0,0,0,0,0,0,0,0,0,0,0,0,0,0,0],"sum_hessian":[9.294285E3,4.423542E3,4.8707427E3,1.222503E3,3.2010388E3,6.455826E2,4.22516E3,3.443252E2,8.7817786E2,1.0369365E2,3.0973452E3,5.8486096E2,6.072165E1,4.0219573E3,2.0320308E2,1.5930237E2,1.8502284E2,2.3225584E2,6.45922E2,1.5213092E1,8.848055E1,1.414202E3,1.6831433E3,2.0920903E2,3.7565192E2,5.4865566E1,5.8560815E0,2.3228662E3,1.6990911E3,1.8071043E2,2.2492638E1,4.7473133E1,1.1182923E2,5.3080727E1,1.3194211E2,6.204508E1,1.7021077E2,6.0866455E2,3.725745E1,1.010474E1,5.108352E0,4.814051E1,4.0340046E1,1.1846395E3,2.295625E2,1.5562815E3,1.2686174E2,1.8284221E2,2.6366823E1,3.3576E2,3.9891907E1,6.189906E0,4.867566E1,4.70731E2,1.8521351E3,5.0354498E2,1.1955461E3,5.512374E1,1.255867E2,6.3066397E0,1.6185999E1],"tree_param":{"num_deleted":"0","num_feature":"41","num_nodes":"61","size_leaf_vector":"1"}},{"base_weights":[-2.2726315E-3,-1.0170167E-2,4.818389E-1,-2.935577E-1,1.840546E-3,-8.6006963E-1,8.856415E-1,-1.617773E-1,-1.0712229E0,1.2421214E-2,-4.0317497E-1,-2.2955567E-1,-6.823812E-2,-5.0748914E-1,9.718992E-1,4.2256573E-1,-3.1937706E-1,-2.7343217E-1,-2.9245776E-1,2.9361948E-2,-2.6086476E-1,3.2342124E-1,-7.006742E-1,4.1967887E-1,-1.8727352E-1,6.323693E-1,-2.8737992E-1,1.0246243E0,-2.2492534E-1,-1.6904578E-1,1.477728E-1,-1.5582947E-1,-2.1973047E-2,5.7592772E-2,-2.740638E-1,1.0628113E-2,-7.0332535E-2,2.9250147E-2,-1.7856717E-1,-1.4767565E-1,1.06702305E-1,-1.6558497E-1,3.707692E-1,1.9075242E-1,-1.437581E-1,-9.9195684E-5,1.8118744E-1,2.2258334E-1,-2.4980718E-1],"categories":[],"categories_nodes":[],"categories_segments":[],"categories_sizes":[],"default_left":[0,0,0,0,0,0,0,0,0,0,0,0,0,0,0,0,0,0,0,0,0,0,0,0,0,0,0,0,0,0,0,0,0,0,0,0,0,0,0,0,0,0,0,0,0,0,0,0,0],"id":17,"left_children":[1,3,5,7,9,11,13,15,17,19,21,-1,23,25,27,29,31,33,-1,35,37,39,41,43,-1,45,-1,47,-1,-1,-1,-1,-1,-1,-1,-1,-1,-1,-1,-1,-1,-1,-1,-1,-1,-1,-1,-1,-1],"loss_changes":[3.4956856E1,3.0620424E1,8.0287155E1,3.7312412E1,3.6993073E1,6.2836895E0,1.4109146E1,2.904802E1,1.31653595E1,3.8954895E1,4.7733486E1,0E0,3.95104E0,7.993784E0,1.2627754E1,2.3728157E1,2.2417404E1,9.632625E0,0E0,6.1338127E1,1.1596581E2,1.2592236E1,3.5234947E1,4.005001E0,0E0,5.5592716E-1,0E0,9.456024E0,0E0,0E0,0E0,0E0,0E0,0E0,0E0,0E0,0E0,0E0,0E0,0E0,0E0,0E0,0E0,0E0,0E0,0E0,0E0,0E0,0E0],"parents":[2147483647,0,0,1,1,2,2,3,3,4,4,5,5,6,6,7,7,8,8,9,9,10,10,12,12,13,13,14,14,15,15,16,16,17,17,19,19,20,20,21,21,22,22,23,23,25,25,27,27],"right_children":[2,4,6,8,10,12,14,16,18,20,22,-1,24,26,28,30,32,34,-1,36,38,40,42,44,-1,46,-1,48,-1,-1,-1,-1,-1,-1,-1,-1,-1,-1,-1,-1,-1,-1,-1,-1,-1,-1,-1,-1,-1],"split_conditions":[3.3671E0,-3.595E-1,1E0,3E0,1.5011E0,5E0,4E0,-2.727E-1,1.1E1,1.8E1,9E0,-2.2955567E-1,4.7E1,7E0,1E1,1E0,4E0,1.8E1,-2.9245776E-1,5.355E-1,3E0,3E0,2E1,1.6266E0,-1.8727352E-1,-2.4E-3,-2.8737992E-1,9E0,-2.2492534E-1,-1.6904578E-1,1.477728E-1,-1.5582947E-1,-2.1973047E-2,5.7592772E-2,-2.740638E-1,1.0628113E-2,-7.0332535E-2,2.9250147E-2,-1.7856717E-1,-1.4767565E-1,1.06702305E-1,-1.6558497E-1,3.707692E-1,1.9075242E-1,-1.437581E-1,-9.9195684E-5,1.8118744E-1,2.2258334E-1,-2.4980718E-1],"split_indices":[0,1,21,13,7,17,17,5,29,37,30,0,27,16,28,20,31,36,0,1,18,17,31,4,0,7,0,16,0,0,0,0,0,0,0,0,0,0,0,0,0,0,0,0,0,0,0,0,0],"split_type":[0,0,0,0,0,0,0,0,0,0,0,0,0,0,0,0,0,0,0,0,0,0,0,0,0,0,0,0,0,0,0,0,0,0,0,0,0,0,0,0,0,0,0,0,0,0,0,0,0],"sum_hessian":[9.140856E3,8.995095E3,1.4576216E2,3.6478198E2,8.6303125E3,3.345506E1,1.123071E2,3.1295737E2,5.1824623E1,8.411538E3,2.1877457E2,2.55536E1,7.9014597E0,6.2634807E0,1.0604362E2,6.6119705E1,2.4683766E2,1.5415163E1,3.640946E1,7.921391E3,4.9014685E2,6.352859E1,1.5524597E2,5.2697353E0,2.6317244E0,2.8095083E0,3.4539726E0,1.0386161E2,2.1820016E0,1.1973096E1,5.4146606E1,8.233216E1,1.645055E2,1.0548979E1,4.8661847E0,7.4856216E3,4.3576968E2,2.9240894E2,1.977379E2,9.257843E0,5.427075E1,1.5056448E2,4.6814933E0,3.7760866E0,1.4936488E0,1.016305E0,1.7932034E0,1.02745056E2,1.1165555E0],"tree_param":{"num_deleted":"0","num_feature":"41","num_nodes":"49","size_leaf_vector":"1"}},{"base_weights":[-2.1733362E-3,2.0512745E-3,-6.921505E-1,-3.9786124E-3,5.405968E-1,2.5860855E-1,-7.589877E-1,-1.5352124E-1,2.1471161E-2,1.1294572E0,-3.5567868E-1,-3.2986653E-1,-1.0621192E0,-3.2161623E-1,1.0068602E-1,8.5512176E-2,-1.1148965E-1,-9.788576E-2,1.1772742E0,8.1038684E-1,-9.326419E-1,-1.043135E0,2.4121389E-1,-1.1443028E0,1.4697267E-1,-2.2269493E-1,-4.8467778E-2,7.272442E-2,-1.3900343E-1,3.569733E-2,-2.8282214E-2,-1.7226706E-1,1.3928766E-2,2.9515816E-2,2.5523615E-1,-1.3791744E-1,2.0788223E-1,2.7692974E-1,-2.9167527E-1,-2.71364E-1,1.4557746E-1,-9.836422E-2,2.3293567E-1,-2.7030692E-1,-1.4616324E-2],"categories":[],"categories_nodes":[],"categories_segments":[],"categories_sizes":[],"default_left":[0,0,0,0,0,0,0,0,0,0,0,0,0,0,0,0,0,0,0,0,0,0,0,0,0,0,0,0,0,0,0,0,0,0,0,0,0,0,0,0,0,0,0,0,0],"id":18,"left_children":[1,3,5,7,9,-1,11,13,15,17,19,21,23,25,27,29,31,-1,33,35,37,39,41,43,-1,-1,-1,-1,-1,-1,-1,-1,-1,-1,-1,-1,-1,-1,-1,-1,-1,-1,-1,-1,-1],"loss_changes":[2.647054E1,2.931423E1,8.03993E0,3.3979645E1,5.31553E1,0E0,6.677479E0,5.551747E1,6.4978424E1,5.1693115E0,2.7930836E1,9.952721E0,5.320408E0,5.221752E1,9.718426E1,9.5819435E1,3.1273648E2,0E0,2.1650925E0,4.3127127E0,3.0067995E1,5.556901E0,9.166586E0,4.5474205E0,0E0,0E0,0E0,0E0,0E0,0E0,0E0,0E0,0E0,0E0,0E0,0E0,0E0,0E0,0E0,0E0,0E0,0E0,0E0,0E0,0E0],"parents":[2147483647,0,0,1,1,2,2,3,3,4,4,6,6,7,7,8,8,9,9,10,10,11,11,12,12,13,13,14,14,15,15,16,16,18,18,19,19,20,20,21,21,22,22,23,23],"right_children":[2,4,6,8,10,-1,12,14,16,18,20,22,24,26,28,30,32,-1,34,36,38,40,42,44,-1,-1,-1,-1,-1,-1,-1,-1,-1,-1,-1,-1,-1,-1,-1,-1,-1,-1,-1,-1,-1],"split_conditions":[2.8107E0,3.2388E0,1E0,-2.451E-1,4E0,2.5860855E-1,6E0,1E0,6E0,6.67E-2,-5.131E-1,1.302E-1,1.9E1,1E0,1.3E1,8E0,5E0,-9.788576E-2,1E0,-8.53E-2,7E0,1E1,6.1E-3,9E0,1.4697267E-1,-2.2269493E-1,-4.8467778E-2,7.272442E-2,-1.3900343E-1,3.569733E-2,-2.8282214E-2,-1.7226706E-1,1.3928766E-2,2.9515816E-2,2.5523615E-1,-1.3791744E-1,2.0788223E-1,2.7692974E-1,-2.9167527E-1,-2.71364E-1,1.4557746E-1,-9.836422E-2,2.3293567E-1,-2.7030692E-1,-1.4616324E-2],"split_indices":[4,2,16,6,17,0,30,13,16,3,6,6,29,20,29,31,32,0,13,8,31,17,0,37,0,0,0,0,0,0,0,0,0,0,0,0,0,0,0,0,0,0,0,0,0],"split_type":[0,0,0,0,0,0,0,0,0,0,0,0,0,0,0,0,0,0,0,0,0,0,0,0,0,0,0,0,0,0,0,0,0,0,0,0,0,0,0,0,0,0,0,0,0],"sum_hessian":[9.079675E3,9.02541E3,5.4264E1,8.926457E3,9.895349E1,1.2370138E0,5.3026985E1,1.2974749E3,7.628982E3,5.956115E1,3.939234E1,2.28161E1,3.0210886E1,7.808628E2,5.166121E2,5.1492065E3,2.4797756E3,1.4784796E0,5.808267E1,1.2905415E1,2.6486927E1,9.777539E0,1.303856E1,2.9199509E1,1.0113771E0,8.430776E1,6.96555E2,3.9116986E2,1.2544224E2,3.7216377E3,1.427569E3,4.9659457E2,1.983181E3,2.2270164E0,5.585565E1,1.117209E0,1.1788206E1,4.1450233E0,2.2341904E1,8.774644E0,1.0028954E0,7.4270935E0,5.611467E0,2.5598663E1,3.6008458E0],"tree_param":{"num_deleted":"0","num_feature":"41","num_nodes":"45","size_leaf_vector":"1"}},{"base_weights":[-1.9900347E-3,-1.5166667E-2,2.2934818E-1,-2.2004602E-2,4.7518578E-1,-7.267382E-1,4.5399672E-1,-1.6830238E-2,-6.650841E-1,-8.2022804E-1,8.4586024E-1,-9.667851E-1,4.1224462E-1,-7.678172E-1,5.510742E-1,-5.7941023E-3,-3.1997657E-1,-1.0013763E0,2.5091544E-1,-7.798207E-2,-2.2380453E-1,-4.4037676E-1,9.3829834E-1,-1.1173221E0,6.588863E-1,-3.176291E-1,8.637891E-1,3.4720308E-1,-3.3563006E-1,6.022353E-1,-1.5459787E0,2.595612E-3,-5.273521E-2,-1.7658705E-2,-1.6246875E-1,-2.3875724E-1,7.642532E-2,2.2512513E-1,-1.3320637E-1,1.1151379E-1,-1.7304024E-1,1.18419856E-1,-2.511217E-1,2.0874204E-1,-2.1204482E-1,-2.6887378E-1,5.1159687E-2,2.549618E-1,-2.3660971E-1,2.5459683E-1,-2.2200793E-1,-2.440717E-1,1.9006419E-1,1.61284E-1,9.98919E-4,5.5495378E-2,-3.7939715E-1],"categories":[],"categories_nodes":[],"categories_segments":[],"categories_sizes":[],"default_left":[0,0,0,0,0,0,0,0,0,0,0,0,0,0,0,0,0,0,0,0,0,0,0,0,0,0,0,0,0,0,0,0,0,0,0,0,0,0,0,0,0,0,0,0,0,0,0,0,0,0,0,0,0,0,0,0,0],"id":19,"left_children":[1,3,5,7,9,11,13,15,17,19,21,23,25,27,29,31,33,35,37,39,-1,41,43,45,47,-1,49,51,-1,53,55,-1,-1,-1,-1,-1,-1,-1,-1,-1,-1,-1,-1,-1,-1,-1,-1,-1,-1,-1,-1,-1,-1,-1,-1,-1,-1],"loss_changes":[2.7462961E1,2.859056E1,1.0460872E2,2.7964912E1,5.70054E1,2.5759388E1,4.712593E1,2.7904799E1,2.0915588E1,4.7639046E0,1.1312981E1,1.9557999E1,1.59488125E1,2.7777317E1,4.0128464E1,3.585263E1,3.128979E1,9.532619E0,1.4355413E1,3.931373E0,0E0,5.853936E0,1.032045E1,1.6012337E1,8.453807E0,0E0,1.0845351E1,1.2311212E1,0E0,3.539441E1,4.7155952E0,0E0,0E0,0E0,0E0,0E0,0E0,0E0,0E0,0E0,0E0,0E0,0E0,0E0,0E0,0E0,0E0,0E0,0E0,0E0,0E0,0E0,0E0,0E0,0E0,0E0,0E0],"parents":[2147483647,0,0,1,1,2,2,3,3,4,4,5,5,6,6,7,7,8,8,9,9,10,10,11,11,12,12,13,13,14,14,15,15,16,16,17,17,18,18,19,19,21,21,22,22,23,23,24,24,26,26,27,27,29,29,30,30],"right_children":[2,4,6,8,10,12,14,16,18,20,22,24,26,28,30,32,34,36,38,40,-1,42,44,46,48,-1,50,52,-1,54,56,-1,-1,-1,-1,-1,-1,-1,-1,-1,-1,-1,-1,-1,-1,-1,-1,-1,-1,-1,-1,-1,-1,-1,-1,-1,-1],"split_conditions":[2E0,3.3671E0,9E0,2.005E0,1E0,1.9E1,-2.65E-1,1.2899E0,1E0,-2.559E-1,4E0,1.4439E0,7.78E-2,1.564E-1,7E0,3E0,5E0,6.1237E0,1E1,3E0,-2.2380453E-1,7E0,1E1,2E0,1.1E1,-3.176291E-1,3.443E-1,5E0,-3.3563006E-1,5.282E-1,2E0,2.595612E-3,-5.273521E-2,-1.7658705E-2,-1.6246875E-1,-2.3875724E-1,7.642532E-2,2.2512513E-1,-1.3320637E-1,1.1151379E-1,-1.7304024E-1,1.18419856E-1,-2.511217E-1,2.0874204E-1,-2.1204482E-1,-2.6887378E-1,5.1159687E-2,2.549618E-1,-2.3660971E-1,2.5459683E-1,-2.2200793E-1,-2.440717E-1,1.9006419E-1,1.61284E-1,9.98919E-4,5.5495378E-2,-3.7939715E-1],"split_indices":[14,0,28,7,21,34,3,5,21,6,17,5,2,2,20,13,17,26,28,19,0,16,28,21,32,0,4,16,0,3,30,0,0,0,0,0,0,0,0,0,0,0,0,0,0,0,0,0,0,0,0,0,0,0,0,0,0],"split_type":[0,0,0,0,0,0,0,0,0,0,0,0,0,0,0,0,0,0,0,0,0,0,0,0,0,0,0,0,0,0,0,0,0,0,0,0,0,0,0,0,0,0,0,0,0,0,0,0,0,0,0,0,0,0,0,0,0],"sum_hessian":[9.007252E3,8.522745E3,4.8450668E2,8.406473E3,1.1627263E2,9.175779E1,3.927489E2,8.34039E3,6.608253E1,2.5598728E1,9.0673904E1,7.591044E1,1.5847355E1,2.8399864E1,3.6434903E2,8.0484043E3,2.919855E2,4.826846E1,1.781407E1,6.690107E0,1.890862E1,5.827179E0,8.4846725E1,6.9763084E1,6.147356E0,2.5648224E0,1.3282533E1,1.2371006E1,1.6028858E1,3.5636765E2,7.9813685E0,7.494742E3,5.536625E2,1.9288347E2,9.910204E1,4.4060863E1,4.2075944E0,9.132282E0,8.6817875E0,3.841974E0,2.8481326E0,2.6104276E0,3.2167516E0,8.29638E1,1.8829232E0,6.2352932E1,7.410148E0,4.93341E0,1.2139456E0,1.1554708E1,1.7278252E0,3.0459645E0,9.325042E0,2.787397E2,7.762797E1,1.0029132E0,6.978455E0],"tree_param":{"num_deleted":"0","num_feature":"41","num_nodes":"57","size_leaf_vector":"1"}},{"base_weights":[-1.8123832E-3,-3.8743924E-2,7.569994E-2,-1.503511E-1,1.18667945E-1,2.127319E-1,-4.0457797E-1,-4.063641E-1,9.630891E-2,2.8125906E-1,-4.207489E-1,-4.00554E-1,3.481861E-1,-9.1339344E-1,-1.1673979E-1,-1.5276086E-1,-7.189963E-1,-6.2902E-2,5.122259E-1,9.4934154E-1,2.3669624E-1,-7.759349E-1,-3.750006E-2,-7.4938E-1,2.0383719E-1,4.15492E-1,-5.3679746E-1,-1.50795E-1,-1.4827275E0,8.790739E-2,-6.5986204E-1,1.1569469E-1,-7.280962E-2,-5.3263656E-3,-2.2541524E-1,6.276614E-2,-7.129908E-2,1.5031144E-1,-4.922793E-2,-1.0035951E-1,2.1930085E-1,9.386091E-2,2.2156147E-2,-8.317567E-2,-2.2959174E-1,1.0004545E-1,-1.135104E-1,-1.0735258E-1,-2.6919457E-1,-1.0538404E-3,2.529345E-1,5.7571415E-2,1.8783821E-1,6.482087E-2,-2.74005E-1,-1.9612579E-1,7.0644274E-2,1.0014748E-1,-3.2415754E-1,-4.5874294E-2,1.0422835E-1,-1.9435818E-1,1.373796E-1],"categories":[],"categories_nodes":[],"categories_segments":[],"categories_sizes":[],"default_left":[0,0,0,0,0,0,0,0,0,0,0,0,0,0,0,0,0,0,0,0,0,0,0,0,0,0,0,0,0,0,0,0,0,0,0,0,0,0,0,0,0,0,0,0,0,0,0,0,0,0,0,0,0,0,0,0,0,0,0,0,0,0,0],"id":20,"left_children":[1,3,5,7,9,11,13,15,17,19,21,23,25,27,29,31,33,35,37,39,41,43,45,47,49,51,53,55,57,59,61,-1,-1,-1,-1,-1,-1,-1,-1,-1,-1,-1,-1,-1,-1,-1,-1,-1,-1,-1,-1,-1,-1,-1,-1,-1,-1,-1,-1,-1,-1,-1,-1],"loss_changes":[2.5654816E1,1.06654434E2,1.9042223E2,2.2434769E2,2.2102228E2,1.8711218E2,9.396685E1,1.3809854E2,1.1988138E2,5.7412354E1,7.943516E1,8.609502E1,1.10065186E2,1.0047568E2,4.578416E1,1.317222E2,1.9183475E2,1.3117874E2,7.632808E1,1.685933E1,5.0052574E1,3.608484E1,7.3115234E1,3.215303E1,3.1345503E1,1.1581293E2,8.5314545E1,3.8564877E1,1.6565033E1,3.760606E1,3.9949574E1,0E0,0E0,0E0,0E0,0E0,0E0,0E0,0E0,0E0,0E0,0E0,0E0,0E0,0E0,0E0,0E0,0E0,0E0,0E0,0E0,0E0,0E0,0E0,0E0,0E0,0E0,0E0,0E0,0E0,0E0,0E0,0E0],"parents":[2147483647,0,0,1,1,2,2,3,3,4,4,5,5,6,6,7,7,8,8,9,9,10,10,11,11,12,12,13,13,14,14,15,15,16,16,17,17,18,18,19,19,20,20,21,21,22,22,23,23,24,24,25,25,26,26,27,27,28,28,29,29,30,30],"right_children":[2,4,6,8,10,12,14,16,18,20,22,24,26,28,30,32,34,36,38,40,42,44,46,48,50,52,54,56,58,60,62,-1,-1,-1,-1,-1,-1,-1,-1,-1,-1,-1,-1,-1,-1,-1,-1,-1,-1,-1,-1,-1,-1,-1,-1,-1,-1,-1,-1,-1,-1,-1,-1],"split_conditions":[4E0,1.2E1,1.4E1,1E0,1E0,9E0,3E0,4E0,7E0,-8.392E-1,1E1,1E0,1.9E1,1.4E1,1E0,7E0,3E0,1E0,1E0,-4.764E-1,2E0,-2.56E-1,1.1E1,1.8E1,1.4E1,1.7E1,4.4E1,2E0,-8.64E-1,4.597E-1,1.6E1,1.1569469E-1,-7.280962E-2,-5.3263656E-3,-2.2541524E-1,6.276614E-2,-7.129908E-2,1.5031144E-1,-4.922793E-2,-1.0035951E-1,2.1930085E-1,9.386091E-2,2.2156147E-2,-8.317567E-2,-2.2959174E-1,1.0004545E-1,-1.135104E-1,-1.0735258E-1,-2.6919457E-1,-1.0538404E-3,2.529345E-1,5.7571415E-2,1.8783821E-1,6.482087E-2,-2.74005E-1,-1.9612579E-1,7.0644274E-2,1.0014748E-1,-3.2415754E-1,-4.5874294E-2,1.0422835E-1,-1.9435818E-1,1.373796E-1],"split_indices":[19,29,29,14,14,34,17,18,31,7,36,21,35,32,13,34,17,13,21,4,19,1,31,30,31,35,27,20,3,5,32,0,0,0,0,0,0,0,0,0,0,0,0,0,0,0,0,0,0,0,0,0,0,0,0,0,0,0,0,0,0,0,0],"split_type":[0,0,0,0,0,0,0,0,0,0,0,0,0,0,0,0,0,0,0,0,0,0,0,0,0,0,0,0,0,0,0,0,0,0,0,0,0,0,0,0,0,0,0,0,0,0,0,0,0,0,0,0,0,0,0,0,0,0,0,0,0,0,0],"sum_hessian":[8.959889E3,6.068832E3,2.891057E3,3.5510986E3,2.5177332E3,2.2497266E3,6.413305E2,1.7421948E3,1.8089039E3,1.934972E3,5.8276105E2,4.0664285E2,1.8430836E3,2.309333E2,4.1039722E2,9.627295E2,7.794654E2,1.3087643E3,5.0013956E2,1.1972719E2,1.8152449E3,3.019221E2,2.8083893E2,2.5768143E2,1.4896143E2,1.7133112E3,1.297724E2,9.925302E1,1.3168027E2,2.9868976E2,1.1170746E2,2.0761784E2,7.5511163E2,2.639491E2,5.1551624E2,5.670449E2,7.417194E2,3.930355E2,1.0710408E2,7.2165203E0,1.1251067E2,6.9651996E2,1.1187249E3,1.3845163E2,1.6347047E2,1.3894313E2,1.418958E2,1.7939932E2,7.828211E1,1.2406137E2,2.4900045E1,1.3241393E3,3.891719E2,6.205497E1,6.771743E1,3.771369E1,6.1539333E1,3.7617714E0,1.279185E2,1.7093541E2,1.2775436E2,9.316796E1,1.8539492E1],"tree_param":{"num_deleted":"0","num_feature":"41","num_nodes":"63","size_leaf_vector":"1"}},{"base_weights":[-1.8636918E-3,4.2138088E-1,-8.0296425E-3,7.859486E-1,-2.609106E-1,-1.368809E-2,4.565741E-1,9.4026774E-1,-7.218541E-2,2.033101E-1,-3.6687332E-1,-5.112299E-2,5.9780687E-2,-7.6535714E-1,8.0250275E-1,1.967337E-1,1.1875821E0,1.0028191E0,-9.9837404E-1,-7.946726E-1,7.8320414E-1,-1.6109036E-1,1.06144674E-1,-6.4224905E-1,1.9888724E-1,-2.1477044E-1,-3.262937E-2,8.861116E-1,-6.8640614E-1,1.6720073E-1,-1.7580064E-1,2.610459E-1,-1.7229813E-1,2.4041349E-1,5.5732068E-2,2.0942053E-1,-3.204345E-1,9.224028E-2,-2.6416373E-1,-2.588444E-1,2.0542058E-1,-8.102698E-2,6.477853E-5,4.4244204E-2,-6.9830835E-2,-2.2466135E-1,-3.1262003E-3,6.1528254E-2,-1.5306841E-1,8.5108384E-2,-1.6763781E-1,1.9646938E-1,-1.9418806E-1,-2.6991946E-1,1.2331634E-1],"categories":[],"categories_nodes":[],"categories_segments":[],"categories_sizes":[],"default_left":[0,0,0,0,0,0,0,0,0,0,0,0,0,0,0,0,0,0,0,0,0,0,0,0,0,0,0,0,0,0,0,0,0,0,0,0,0,0,0,0,0,0,0,0,0,0,0,0,0,0,0,0,0,0,0],"id":21,"left_children":[1,3,5,7,9,11,13,15,17,19,-1,21,23,25,27,29,31,33,35,37,39,41,43,45,47,-1,49,51,53,-1,-1,-1,-1,-1,-1,-1,-1,-1,-1,-1,-1,-1,-1,-1,-1,-1,-1,-1,-1,-1,-1,-1,-1,-1,-1],"loss_changes":[2.3087133E1,3.1802683E1,2.2928776E1,1.1064716E1,3.1392122E1,2.3697884E1,4.4974403E1,1.2722141E1,1.4528101E1,2.097974E1,0E0,9.873029E1,2.8416592E2,4.429535E0,1.0850697E1,1.2308334E1,6.889244E0,4.0687656E-1,9.731875E0,8.225923E0,1.014861E1,1.2186373E2,1.0781206E2,1.2907358E2,2.1222371E2,0E0,2.73244E0,7.8810425E0,4.5216045E0,0E0,0E0,0E0,0E0,0E0,0E0,0E0,0E0,0E0,0E0,0E0,0E0,0E0,0E0,0E0,0E0,0E0,0E0,0E0,0E0,0E0,0E0,0E0,0E0,0E0,0E0],"parents":[2147483647,0,0,1,1,2,2,3,3,4,4,5,5,6,6,7,7,8,8,9,9,11,11,12,12,13,13,14,14,15,15,16,16,17,17,18,18,19,19,20,20,21,21,22,22,23,23,24,24,26,26,27,27,28,28],"right_children":[2,4,6,8,10,12,14,16,18,20,-1,22,24,26,28,30,32,34,36,38,40,42,44,46,48,-1,50,52,54,-1,-1,-1,-1,-1,-1,-1,-1,-1,-1,-1,-1,-1,-1,-1,-1,-1,-1,-1,-1,-1,-1,-1,-1,-1,-1],"split_conditions":[-1.5833E0,2.6743E0,3.3671E0,3.758E-1,2.621E-1,5.1E1,1E0,1E1,1E1,-4.907E-1,-3.6687332E-1,1.2E1,5E0,5E0,8E0,-3.072E-1,1.0533E0,3.23E-2,-1.8952E0,-3.669E-1,4E1,3E0,1E0,5E0,1.8E1,-2.1477044E-1,4.7E1,1E1,3.405E0,1.6720073E-1,-1.7580064E-1,2.610459E-1,-1.7229813E-1,2.4041349E-1,5.5732068E-2,2.0942053E-1,-3.204345E-1,9.224028E-2,-2.6416373E-1,-2.588444E-1,2.0542058E-1,-8.102698E-2,6.477853E-5,4.4244204E-2,-6.9830835E-2,-2.2466135E-1,-3.1262003E-3,6.1528254E-2,-1.5306841E-1,8.5108384E-2,-1.6763781E-1,1.9646938E-1,-1.9418806E-1,-2.6991946E-1,1.2331634E-1],"split_indices":[3,26,0,2,4,27,21,30,30,4,0,29,28,17,16,2,7,1,4,7,27,19,14,17,32,0,27,28,0,0,0,0,0,0,0,0,0,0,0,0,0,0,0,0,0,0,0,0,0,0,0,0,0,0,0],"split_type":[0,0,0,0,0,0,0,0,0,0,0,0,0,0,0,0,0,0,0,0,0,0,0,0,0,0,0,0,0,0,0,0,0,0,0,0,0,0,0,0,0,0,0,0,0,0,0,0,0,0,0,0,0,0,0],"sum_hessian":[8.844348E3,1.26029976E2,8.718317E3,8.204114E1,4.398884E1,8.614373E3,1.0394462E2,6.945522E1,1.25859165E1,3.4176254E1,9.812582E0,5.7068423E3,2.9075305E3,2.2666563E1,8.127806E1,1.778408E1,5.1671143E1,5.786699E0,6.7992177E0,1.2424182E1,2.1752073E1,3.3584592E3,2.348383E3,4.802473E2,2.4272832E3,1.6481815E1,6.1847467E0,7.7339935E1,3.9381225E0,1.1402577E1,6.3815036E0,5.0652294E1,1.0188493E0,4.3890405E0,1.3976585E0,1.2353293E0,5.563888E0,3.405398E0,9.018784E0,1.449175E0,2.0302898E1,1.4031469E3,1.9553123E3,1.8968547E3,4.5152826E2,2.851818E2,1.950655E2,2.2043792E3,2.2290427E2,4.233875E0,1.9508721E0,7.575429E1,1.5856512E0,2.6722867E0,1.2658358E0],"tree_param":{"num_deleted":"0","num_feature":"41","num_nodes":"55","size_leaf_vector":"1"}},{"base_weights":[-1.6961852E-3,-8.33801E-3,3.5164902E-1,-3.2240553E-3,-7.932364E-1,1.3558088E-1,9.55286E-1,4.234387E-1,-8.910322E-3,-6.0891747E-3,-1.1538328E0,2.2310737E-1,-3.155676E-1,4.330016E-2,1.0071064E0,6.06681E-1,-7.803507E-1,-1.8799707E-2,2.4192919E-1,5.6684136E-1,-2.2807954E-1,-2.5755933E-1,1.5307398E-1,-2.925169E-1,4.8108366E-1,1.3421291E-1,-1.2341376E-1,1.1135159E0,3.3538786E-1,2.0566376E-1,4.304418E-2,4.9303107E-2,-3.0393693E-1,-2.2782206E-3,-1.3277562E-1,1.5538684E-1,6.8742544E-3,-2.0117402E-1,2.1025427E-1,-2.2356634E-1,6.708971E-2,1.4682364E-1,-4.473924E-2,2.3819338E-1,4.7468264E-2,-2.3990996E-1,1.7710139E-1],"categories":[],"categories_nodes":[],"categories_segments":[],"categories_sizes":[],"default_left":[0,0,0,0,0,0,0,0,0,0,0,0,0,0,0,0,0,0,0,0,0,0,0,0,0,0,0,0,0,0,0,0,0,0,0,0,0,0,0,0,0,0,0,0,0,0,0],"id":22,"left_children":[1,3,5,7,9,11,13,15,17,19,21,23,-1,25,27,29,31,33,35,37,-1,-1,-1,39,41,-1,-1,43,45,-1,-1,-1,-1,-1,-1,-1,-1,-1,-1,-1,-1,-1,-1,-1,-1,-1,-1],"loss_changes":[2.0584864E1,3.4554085E1,2.0977596E1,2.0757862E1,1.5810181E1,1.759108E1,1.9645462E0,2.529563E1,2.094845E1,1.2070879E1,6.120075E0,1.5452089E1,0E0,1.6273361E0,2.4972458E0,1.4504047E1,1.0701292E1,3.961751E1,3.3345863E1,9.405986E0,0E0,0E0,0E0,1.877132E1,1.1819754E1,0E0,0E0,3.737793E-1,6.160475E0,0E0,0E0,0E0,0E0,0E0,0E0,0E0,0E0,0E0,0E0,0E0,0E0,0E0,0E0,0E0,0E0,0E0,0E0],"parents":[2147483647,0,0,1,1,2,2,3,3,4,4,5,5,6,6,7,7,8,8,9,9,10,10,11,11,13,13,14,14,15,15,16,16,17,17,18,18,19,19,23,23,24,24,27,27,28,28],"right_children":[2,4,6,8,10,12,14,16,18,20,22,24,-1,26,28,30,32,34,36,38,-1,-1,-1,40,42,-1,-1,44,46,-1,-1,-1,-1,-1,-1,-1,-1,-1,-1,-1,-1,-1,-1,-1,-1,-1,-1],"split_conditions":[1E0,5E0,5E0,-1.5833E0,8.84E-1,8E0,2E0,5.459E-1,2.2454E0,1.8E-3,1.0489E0,2E0,-3.155676E-1,5.5E-3,7E0,1.8378E0,1.3284E0,1.6948E0,2E0,-6.762E-1,-2.2807954E-1,-2.5755933E-1,1.5307398E-1,1E1,7E0,1.3421291E-1,-1.2341376E-1,1.8965E0,3E0,2.0566376E-1,4.304418E-2,4.9303107E-2,-3.0393693E-1,-2.2782206E-3,-1.3277562E-1,1.5538684E-1,6.8742544E-3,-2.0117402E-1,2.1025427E-1,-2.2356634E-1,6.708971E-2,1.4682364E-1,-4.473924E-2,2.3819338E-1,4.7468264E-2,-2.3990996E-1,1.7710139E-1],"split_indices":[22,38,38,3,26,20,28,4,1,5,8,18,0,7,18,26,26,0,28,5,0,0,0,37,35,0,0,5,19,0,0,0,0,0,0,0,0,0,0,0,0,0,0,0,0,0,0],"split_type":[0,0,0,0,0,0,0,0,0,0,0,0,0,0,0,0,0,0,0,0,0,0,0,0,0,0,0,0,0,0,0,0,0,0,0,0,0,0,0,0,0,0,0,0,0,0,0],"sum_hessian":[8.769E3,8.608168E3,1.6083124E2,8.553443E3,5.47253E1,1.19339134E2,4.1492096E1,1.11528885E2,8.441914E3,1.7513E1,3.7212303E1,1.1410672E2,5.232416E0,2.3295746E0,3.916252E1,9.7225174E1,1.4303713E1,8.1226045E3,3.193098E2,1.1753201E1,5.759799E0,3.6165543E1,1.0467596E0,3.800707E1,7.609965E1,1.1915627E0,1.138012E0,3.3239254E1,5.9232674E0,4.968957E1,4.7535603E1,5.928505E0,8.375208E0,8.01968E3,1.0292426E2,9.370319E1,2.2560661E2,2.3385415E0,9.4146595E0,1.6478424E1,2.1528643E1,5.7901333E1,1.8198317E1,3.2208546E1,1.0307068E0,1.195638E0,4.7276297E0],"tree_param":{"num_deleted":"0","num_feature":"41","num_nodes":"47","size_leaf_vector":"1"}},{"base_weights":[-1.4021872E-3,-5.8822804E-3,4.6593386E-1,9.961027E-2,-2.7114352E-2,1.0495591E0,-3.368487E-1,-1.6589613E-1,1.9589882E-1,-1.423374E-1,2.2346264E-2,-8.650173E-2,1.10602E0,6.700258E-1,-8.368873E-1,-7.9780054E-1,6.2654495E-2,-1.4084147E0,2.6349995E-1,-1.98238E-2,-1.0197012E0,2.4447864E-1,-8.614381E-2,4.3697968E-2,2.3998187E-1,-1.8710092E-1,9.4300735E-1,1.1118069E0,-2.6628634E-1,1.9240849E-1,-2.2047557E-1,1.7412274E-1,-2.4764517E-2,-5.822134E-1,-2.4613565E-1,1.4971046E-1,1.6606012E-2,-1.3277273E-1,2.6957477E-2,-2.6270783E-1,1.1642413E-1,9.568028E-2,-1.11897916E-1,-1.9301093E-1,-8.700561E-4,1.8510002E-1,-2.0957348E-1,2.3785499E-1,1.7526142E-2,8.4200185E-3,3.4355736E-1],"categories":[],"categories_nodes":[],"categories_segments":[],"categories_sizes":[],"default_left":[0,0,0,0,0,0,0,0,0,0,0,0,0,0,0,0,0,0,0,0,0,0,0,0,0,0,0,0,0,0,0,0,0,0,0,0,0,0,0,0,0,0,0,0,0,0,0,0,0,0,0],"id":23,"left_children":[1,3,5,7,9,11,13,15,17,19,21,-1,23,25,27,29,31,33,35,37,39,41,43,-1,-1,45,47,49,-1,-1,-1,-1,-1,-1,-1,-1,-1,-1,-1,-1,-1,-1,-1,-1,-1,-1,-1,-1,-1,-1,-1],"loss_changes":[1.8308073E1,1.9401796E1,3.925562E1,3.7135784E1,4.1096794E1,4.442852E0,1.8539864E1,5.591205E1,1.1593052E2,2.3277585E2,1.2162299E2,0E0,1.3064346E0,3.078957E0,2.183002E1,4.538492E1,3.9544064E1,1.0690063E1,8.47545E1,1.726487E2,9.729938E1,2.7203806E2,2.3160356E2,0E0,0E0,4.1988792E0,1.4660597E0,2.7073212E0,0E0,0E0,0E0,0E0,0E0,0E0,0E0,0E0,0E0,0E0,0E0,0E0,0E0,0E0,0E0,0E0,0E0,0E0,0E0,0E0,0E0,0E0,0E0],"parents":[2147483647,0,0,1,1,2,2,3,3,4,4,5,5,6,6,7,7,8,8,9,9,10,10,12,12,13,13,14,14,15,15,16,16,17,17,18,18,19,19,20,20,21,21,22,22,25,25,26,26,27,27],"right_children":[2,4,6,8,10,12,14,16,18,20,22,-1,24,26,28,30,32,34,36,38,40,42,44,-1,-1,46,48,50,-1,-1,-1,-1,-1,-1,-1,-1,-1,-1,-1,-1,-1,-1,-1,-1,-1,-1,-1,-1,-1,-1,-1],"split_conditions":[3.2388E0,-9.32E-2,4E0,3E0,4E0,6.67E-2,-5.131E-1,-5.96E-2,1E0,5E0,3E0,-8.650173E-2,1E0,6E0,7E0,-2.527E-1,2E0,1E0,5E0,2E0,3E0,1.7E1,1E0,4.3697968E-2,2.3998187E-1,-9.49E-2,3E0,5E0,-2.6628634E-1,1.9240849E-1,-2.2047557E-1,1.7412274E-1,-2.4764517E-2,-5.822134E-1,-2.4613565E-1,1.4971046E-1,1.6606012E-2,-1.3277273E-1,2.6957477E-2,-2.6270783E-1,1.1642413E-1,9.568028E-2,-1.11897916E-1,-1.9301093E-1,-8.700561E-4,1.8510002E-1,-2.0957348E-1,2.3785499E-1,1.7526142E-2,8.4200185E-3,3.4355736E-1],"split_indices":[2,2,17,17,35,3,6,4,36,20,17,0,13,16,31,0,29,19,32,17,21,36,36,0,0,0,20,16,0,0,0,0,0,0,0,0,0,0,0,0,0,0,0,0,0,0,0,0,0,0,0],"split_type":[0,0,0,0,0,0,0,0,0,0,0,0,0,0,0,0,0,0,0,0,0,0,0,0,0,0,0,0,0,0,0,0,0,0,0,0,0,0,0,0,0,0,0,0,0,0,0,0,0,0,0],"sum_hessian":[8.742016E3,8.659985E3,8.20311E1,1.4503184E3,7.2096665E3,4.732111E1,3.4709988E1,3.857971E2,1.0645212E3,2.1647664E3,5.0449E3,1.5259818E0,4.5795128E1,1.1405002E1,2.3304985E1,1.0181231E2,2.8398477E2,4.2240215E1,1.02228107E3,1.9004178E3,2.6434854E2,1.6550165E3,3.3898838E3,2.062565E0,4.3732563E1,2.8309102E0,8.574091E0,3.936033E0,1.9368954E1,1.2715953E1,8.909636E1,5.346275E1,2.3052203E2,4.65327E0,3.7586945E1,2.9661603E2,7.2566504E2,3.6962488E2,1.530793E3,2.3066185E2,3.3686695E1,1.3018219E3,3.5319455E2,3.028949E2,3.0869888E3,1.1838548E0,1.6470554E0,6.7640715E0,1.8100197E0,1.6463943E0,2.2896388E0],"tree_param":{"num_deleted":"0","num_feature":"41","num_nodes":"51","size_leaf_vector":"1"}}]},"name":"gbtree"},"learner_model_param":{"base_score":"5E-1","boost_from_average":"1","num_class":"0","num_feature":"41","num_target":"1"},"objective":{"name":"binary:logistic","reg_loss_param":{"scale_pos_weight":"5"}}},"version":[2,1,4]}